tree
version=v4
num_class=1
num_tree_per_iteration=1
label_index=0
max_feature_idx=33
objective=binary sigmoid:1
feature_names=ret1 ret2 ret3 ret5 ret10 ret20 ret60 mar5 mar10 mar20 mar60 vol10 vol20 vol60 rsi14 skew20 kurt20 from_hi from_lo volz logturn turnz range range10 mkt_ret breadth mkt_vol mkt_mom5 mkt_mom20 xs_ret5 xs_ret20 xs_vol20 xs_volz xs_mar20
feature_infos=[-0.14992774566473988:0.32203389830508478] [-0.21183206106870234:0.32307692307692304] [-0.2709712622771917:0.41477127523639146] [-0.34237288135593213:0.60955631399317411] [-0.41796875:1.4639639639639639] [-0.53314977973568278:1.9490445859872612] [-0.68246445497630326:10.158536585365853] [-0.1864786482121461:0.24401913875598069] [-0.27324886445135077:0.47479104880021561] [-0.35893170407113917:0.88134135855545992] [-0.48018982452267966:1.4465099964924586] [0.00097282661821703018:0.1265032173885863] [0.0020273456761333111:0.093207855664093078] [0.0041628601788326622:0.17076393968666242] [0:0.99999999998753009] [-4.2158779140363922:4.2169258284492974] [-1.989052572414779:18.437876298808387] [-0.80987654320987645:0] [0:29.044374647074935] [-4.1559122042536956:3.9448885222035299] [0:21.287403037814467] [-4.1444966699779542:4.2485291556437907] [-0.034578788625674296:19.900593990160445] [0:10.983089672585336] [-0.075196032299805732:0.31430959354773808] [0:1] [0:0.86165846596861662] [-0.23698844881132136:2.7649120685141346] [-0.28769675852430243:3.0533520004720081] [0.0048543689320388345:1] [0.0048543689320388345:1] [0.0049019607843137254:1] [0.0048543689320388345:1] [0.0085470085470085479:1]
tree_sizes=3498 3351 2813 3228 3461 3235 3022 2904 2916 3135 3447 3135 2900 3131 2917 3019 3036 3478 3128 3443 2922 2578 3338 3357 3249 2998 3337 3363 2912 3126 3559 3116 3602 3215 3113 3146 3027 3346 2922 3251 3482 3236 2471 3590 3246 3019 3128 3252 2928 2470 3014 3122 2355 2700 3147 3486 3455 3487 3458 3356 3577 2572 3601 3456 3551 3488 3585 2356 3226 3365 3588 3586 3586 3486 3581 3010 3574 3240 3487 3483 3608 2138 2874 3336 3460 3570 2263 2144 2006 3607 2157 3584 2145 3580 3480 2917 3465 2238 3600 2153 2248 3251 2586 3595 3361 2568 1913 3598 2687 3557 2152 3241 2263 2032 3594 3017 3588 3470 2591 3349 3607 2221 2870 2919 1779 2978 2572 2254 3005 3243 2658 3372 3354 3497 2164 2578 2662 2259 2142 2018 2653 3263 3344 2247 1805 3259 3590 3378 3232 1912 2703 2141 3599 2710 2032 3368 3581 3370 3254 3253 3131 2900 3591 2800 3116 2139 1906 2888 2993 3255 3246 2013 3085 1696 3592 3571 2230 3140 2796 1917 2485 1580 3027 3350 2043 1894 3439 2767 2464 2142 2669 2883 1926 3246 2229 3307 3244 3215 3592 2241 3140 2771 3180 2911 3484 3565 2805 2909 3356 3569 3136 3604 1795 2457 2656 2784 3612 3268 2532 3008 1585 2874 3305 2784 3009 3115 3128 3205 3223 3596 2224 3583 2118 2463 3442 2566 2144 3597 3560 2267 3129 2244 2418 2108 3023 1690 1574 2641 3583 2761 3481 3151 3581 3216 3485 3477 2927 2911 3560 3430 3574 3588 3608 3262 2941 3033 3262 2707 3542 1686 3598 2987 2994 1914 2676 2660 3602 2141 3359 3364 3567 2548 2338 3243 2893 2121 2126 2887 2246 3611 3021 2778 3363 2775 3247 3256 2554 2349 3367 3129 3036 2584 2143 2671 3533 3602 3580 3350 1582 3342 2930 3118 3591 3449 3615 3224 2917 3467 3022 3483 3011 3252 3439 2670 2244 2333 2230 3231 2894 2816 2268 3144 1696 3579 2009 3121 1691 3460 3474 1919 3569 3139 2251 2276 2433 2258 2257 2811 3551 1786 3048 3579 3483 2803 1791 3227 2686 2119 2211 2260 3476 2907 3006 3469 3243 2782 3348 3136 3137 2568 3325 2243 3117 3107 1792 3241 2892 3582 3490 3455 3245 3603 2224 2113 2338 2996 3477 2434 2359 3305 3249 3577 2930 3026 2020 2894 2251 3018 2358 2888

Tree=0
num_leaves=31
num_cat=0
split_feature=26 25 8 25 25 12 0 5 26 1 21 25 25 26 26 26 26 26 26 26 8 25 25 26 25 4 3 26 25 25
split_gain=1013.73 373.627 264.272 260.443 311.12 250.314 207.886 171.61 158.901 135.259 176.605 148.906 121.567 121.179 120.626 114.736 174.579 108.942 106.746 93.4157 92.2331 84.4533 75.1667 62.424 60.3562 55.2894 48.1219 40.4699 19.5234 15.2572
threshold=0.018680764513050167 0.18564064801178207 -0.024390243902438987 0.30102307130180611 0.050316455696202543 0.012474619771135729 -0.0034364261168385308 -0.1079492353440951 0.014957062860806631 0.027858707046186652 0.24809734887301402 0.98048734056729503 0.8578167115902966 0.017192242118818424 0.015191254248405625 0.026361814575196721 0.022031167787032322 0.011171621541113641 0.016075978829049233 0.0090996244657707611 -0.010545905707195989 0.96500304321363373 0.23557158712541623 0.017410454779908099 0.13079116179615113 -0.010714285714285619 -0.0092592592592591321 0.017275345030334632 0.99528301886792458 0.019142700128228617
decision_type=2 2 2 2 2 2 2 2 2 2 2 2 2 2 2 2 2 2 2 2 2 2 2 2 2 2 2 2 2 2
left_child=1 2 13 4 15 19 20 24 26 11 25 12 -5 18 -10 16 -2 -8 -1 -3 -7 -12 -9 -15 -6 -11 -4 -21 -13 -17
right_child=3 5 8 9 7 6 17 22 14 10 21 28 -14 23 -16 29 -18 -19 -20 27 -22 -23 -24 -25 -26 -27 -28 -29 -30 -31
leaf_value=-0.17920429668328758 -0.16181758215783618 -0.15246800055652637 -0.18792237348893401 -0.17137305808921574 -0.16392834947501245 -0.17359775436111469 -0.17385331943029061 -0.18280525256946792 -0.16505512970725666 -0.18697984285560812 -0.17440244478832767 -0.15137047986212615 -0.17835467340331401 -0.1576525606937173 -0.18465368954481501 -0.16266182521365713 -0.18128194196657674 -0.18266044790401009 -0.19084874971132029 -0.17210210373643248 -0.17959941029680096 -0.16417876108687024 -0.17746348624226307 -0.17467561864119163 -0.17603363143723808 -0.17859501907172745 -0.19417296787150501 -0.17876866733237637 -0.16509539440660126 -0.14662708190193674
leaf_weight=1723.211660951376 415.23770266771317 84.089355558156967 977.56976476311684 10195.896374225616 320.73019686341286 2326.4721704423428 609.95789179205894 3006.8766019940376 131.71518525481224 514.95428359508514 3429.0597381591797 146.59825703501701 1098.8667997717857 118.32042065262794 1519.3135775625706 58.043979942798615 322.96265763044357 6365.7378515899181 382.99104714393616 1828.8814705908298 1819.2074739336967 354.2171083688736 1634.9054350554943 303.36661311984062 343.05480453372002 820.05725508928299 1162.119854837656 446.74020460247993 87.065969914197922 101.94904169440269
leaf_count=6947 1674 339 3941 41104 1293 9379 2459 12122 531 2076 13824 591 4430 477 6125 234 1302 25663 1544 7373 7334 1428 6591 1223 1383 3306 4685 1801 351 411
internal_value=-0.177093 -0.180406 -0.184418 -0.174224 -0.177718 -0.178522 -0.179779 -0.179567 -0.187756 -0.172921 -0.175633 -0.171719 -0.172054 -0.179392 -0.183047 -0.166871 -0.170331 -0.181886 -0.181359 -0.172615 -0.176236 -0.173424 -0.180931 -0.169681 -0.1701 -0.181869 -0.191359 -0.173421 -0.156043 -0.151711
internal_weight=42650.2 19799.7 6318.61 22850.5 6203.76 13481.1 11121.4 5305.57 3790.72 16646.7 5118.29 11528.4 11294.8 2527.89 1651.03 898.193 738.2 6975.7 2106.2 2359.71 4145.68 3783.28 4641.78 421.687 663.785 1335.01 2139.69 2275.62 233.664 159.993
internal_count=171941 79821 25473 92120 25010 54348 44835 21389 15282 67110 20634 46476 45534 10191 6656 3621 2976 28122 8491 9513 16713 15252 18713 1700 2676 5382 8626 9174 942 645
is_linear=0
shrinkage=1


Tree=1
num_leaves=29
num_cat=0
split_feature=25 7 17 33 24 24 14 14 25 24 7 25 24 10 17 24 24 10 13 25 33 14 25 18 24 25 25 3
split_gain=757.195 639.088 279.178 177.253 143.595 134.344 170.917 132.593 125.896 142.39 124.355 104.267 94.9906 86.7639 98.0175 77.9113 68.6923 67.0942 64.5212 59.219 55.3925 55.8466 48.9727 47.6574 32.1851 27.1756 24.8686 13.6059
threshold=0.20611577964519143 -0.032096288866599702 -0.052167648164390339 0.6237091451080593 -0.015248463620571872 -0.018213733737201008 0.36284914289197362 0.5849758113619038 0.18564064801178207 -0.010972448763367905 0.005850007080640208 0.066352201257861648 -0.049415019033252953 -0.083413997584768182 -0.29223955435040477 -0.01936984231816723 -0.012736192400535255 -0.21446264573280363 0.01302963520497567 0.24488944513975805 0.7181292885518239 0.66666666616402503 0.87439320388349528 1.9603792119816394 -0.0075704142529059663 0.091608391608391626 0.019142700128228617 -0.014492753623188302
decision_type=2 2 2 2 2 2 2 2 2 2 2 2 2 2 2 2 2 2 2 2 2 2 2 2 2 2 2 2
left_child=1 4 3 13 12 6 11 10 9 -7 -5 -3 26 22 -15 -8 -10 -14 -9 24 21 -21 -2 -22 -4 -6 -1 -27
right_child=2 5 19 7 25 8 15 18 16 -11 -12 -13 17 14 -16 -17 -18 -19 -20 20 23 -23 -24 -25 -26 27 -28 -29
leaf_value=0.014937909183929506 0.0055380448103129051 -2.1577907584129328e-05 -0.013642853273488976 -0.0006832134382005517 -0.014424897975599702 -0.0069707977411343726 -0.0082419662429922755 0.010790620120334779 -0.017849799741718023 -0.013600402991721985 -0.0071187948857659809 0.015957257048398933 0.019689551958312498 -0.0014368320142141126 0.0022174496458341568 0.0058847943224538133 -0.00069633262527903181 0.0052056548638433247 0.00038015881569309018 0.0059063857720260526 0.0029521272170331893 0.012859828422005101 -0.0016202490409860182 0.0098142836949203938 0.0030090766076225966 -0.00033327317900155065 0.034292021001861274 -0.010867450634474652
leaf_weight=83.412299185991287 3143.8883070200682 503.75323513150215 84.553327694535255 2480.4042544811964 78.613630846142769 3223.5794008225203 1331.5485038608313 248.1015630364418 98.190351322293282 2214.6280551701784 2339.500274464488 234.97135499119759 139.7246565669775 4071.3708923757076 10451.624219074845 171.5247045904398 1023.2718486189842 1298.6287581175566 4141.602755844593 1031.40216588974 1816.2261398285627 882.84231050312519 428.15295246243477 525.4751843214035 90.266831263899803 366.26973634958267 56.663563564419746 52.553045094013214
leaf_count=336 12673 2031 341 9999 317 13004 5370 1000 396 8935 9432 947 563 16412 42128 692 4126 5235 16695 4157 7321 3558 1726 2118 364 1477 228 212
internal_value=-7.231e-05 -0.00462534 0.0014881 0.000731106 0.00534189 -0.00698012 -0.00273219 -0.0015259 -0.00842564 -0.00968429 -0.00381522 0.00510714 0.0082928 0.00188104 0.00119149 -0.00660245 -0.00228853 0.00668984 0.000984706 0.00614246 0.00661393 0.00914886 0.00467338 0.00451814 -0.00508896 -0.00397126 0.0238169 -0.00181488
internal_weight=42612.7 10877.3 31735.4 27304.6 2075.87 8801.47 2241.8 9209.61 6559.67 5438.21 4819.9 738.725 1578.43 18095 14523 1503.07 1121.46 1438.35 4389.7 4430.77 4255.95 1914.24 3572.04 2341.7 174.82 497.436 140.076 418.823
internal_count=171793 43869 127924 110065 8368 35501 9040 37126 26461 21939 19431 2978 6362 72939 58540 6062 4522 5798 17695 17859 17154 7715 14399 9439 705 2006 564 1689
is_linear=0
shrinkage=0.02


Tree=2
num_leaves=24
num_cat=0
split_feature=26 28 24 28 27 24 26 27 27 27 28 24 27 27 26 1 27 26 28 24 27 26 20
split_gain=1017.82 440.326 380.635 288.074 504.115 288.092 295.12 248.311 241.434 236.435 223.734 218.061 214.464 277.42 205.161 183.194 173.068 168.973 115.389 80.0267 44.2385 18.6681 1.22754
threshold=0.018680764513050167 -0.19898165324388642 -0.0077815490399477097 0.0050774337379616502 -0.021663478824249582 -0.0054802030282956509 0.014957062860806631 -0.035236760400947524 0.056789967053494768 0.061728282711398061 1.0000000180025095e-35 0.031228710584433276 0.05343150216121615 0.043920957500467955 0.0090996244657707611 -0.023961098465147709 -0.022644621998569727 0.027921905381012645 0.094752171354254192 -0.02079565850850015 -0.077317035652567992 0.029701159130688451 17.197459426079945
decision_type=2 2 2 2 2 2 2 2 2 2 2 2 2 2 2 2 2 2 2 2 2 2 2
left_child=3 20 7 4 10 6 -6 15 12 11 16 -4 13 -5 -7 -3 -1 -11 -10 -9 -2 -22 -14
right_child=1 2 9 8 5 14 -8 19 18 17 -12 -13 22 -15 -16 -17 -18 -19 -20 -21 21 -23 -24
leaf_value=-2.0150734153004379e-05 0.035450437669422782 0.010239213907185492 0.0034696079206358787 0.0011356783162168819 -0.018947641083434896 0.019092029966258681 -0.0056966442590002924 -0.00062541060839461427 -0.029745601973301547 0.014541600591925439 -0.024940881696492535 -0.0061488506219353339 0.034358185962095236 -0.01980921709797033 -0.0059741093154502744 -0.0051428541658060803 0.017468080194872549 0.0048655701558321688 -0.0011138582413468289 -0.0080554339115380437 0.0094140967256724894 0.026416967375475303 0.020283948237985915
leaf_weight=4400.7889662235975 149.60484124720097 814.27217711508274 14324.05606892705 6248.177873596549 1583.2983673214912 128.78851360082626 1185.1630285382271 805.42242228984833 151.96384130418301 1264.4494960308075 133.28184413909912 1003.3139853328466 51.33409109711647 258.59061482548714 5301.4362473636866 492.06200516223907 233.49811685085297 1713.215636447072 90.739420726895332 2130.7302728742361 71.776938751339912 53.855075165629387 50.842645153403282
leaf_count=17749 602 3280 57721 25199 6394 519 4782 3248 613 5095 538 4044 207 1043 21375 1984 942 6902 366 8596 289 217 205
internal_value=2.2877e-05 0.00290242 0.00259117 -0.00329216 -0.00504446 -0.00805021 -0.0133027 -0.00280135 2.22699e-05 0.00384249 0.000123299 0.00283689 0.000751189 0.000285648 -0.00535892 0.00443242 0.000874558 0.00899864 -0.0193604 -0.00602862 0.0278278 0.017588 0.0288145
internal_weight=42640.7 22822.8 22547.5 19817.9 12966.3 8198.69 2768.46 4242.49 6851.65 18305 4767.57 15327.4 6608.95 6506.77 5430.22 1306.33 4634.29 2977.67 242.703 2936.15 275.237 125.632 102.177
internal_count=171910 91978 90870 79932 52299 33070 11176 17108 27633 73762 19229 61765 26654 26242 21894 5264 18691 11997 979 11844 1108 506 412
is_linear=0
shrinkage=0.02


Tree=3
num_leaves=28
num_cat=0
split_feature=25 27 27 27 28 25 10 25 28 20 28 28 28 28 27 28 25 25 2 28 28 20 25 27 28 18 11
split_gain=725.805 741.747 324.384 265.337 221.478 286.836 210.483 206.798 163.936 235.926 160.573 155.852 171.215 147.203 136.622 135.495 112.537 122.562 103.787 68.6824 113.555 68.4969 68.4367 42.2237 33.3356 30.9385 27.3608
threshold=0.22611077297626295 -0.080670801652016802 0.08546135546428027 -0.028627781783799728 0.022698245474825098 0.86078811369509056 -0.083413997584768182 0.98530287984111231 0.26717491904375701 17.124409856234305 -0.16764947674016115 0.0039225383941106752 0.092957819378090847 0.0096876363165186666 -0.030496881476224889 0.27611875504477584 0.37406716417910452 0.99528301886792458 -0.048224578352709983 -0.19898165324388642 -0.16764947674016115 17.008091100352534 0.43869027731373206 -0.058666394162936425 0.36743914107445325 0.37778078078078087 0.033990125584077775
decision_type=2 2 2 2 2 2 2 2 2 2 2 2 2 2 2 2 2 2 2 2 2 2 2 2 2 2 2
left_child=1 13 4 10 5 6 -2 -7 9 -6 23 18 -13 19 -12 16 25 -18 -5 -1 -21 -10 -17 -3 -24 -4 -15
right_child=2 3 15 11 8 7 -8 -9 21 -11 14 12 -14 26 -16 22 17 -19 -20 20 -22 -23 24 -25 -26 -27 -28
leaf_value=0.034915975710539934 0.0055131555937674949 0.008512417718242472 -0.01594910145147101 0.00022576026868655698 0.0041926051399161389 -0.0110830519509738 -0.00065386612625106821 0.0049960409802815358 0.0036046658782697963 -0.0019996745908375442 -0.0028704373711627542 -0.001160752192348597 -0.01086331700228055 0.0077960890091749663 0.011043140378654876 0.015735705367353484 0.017275717014600209 -0.010260595863171353 -0.011021612448411879 -0.00021675873423919332 0.02504737593827952 0.020010359458625254 -0.0011456089318955471 0.033949739347024666 -0.01730754556786944 0.0040648901419071395 -0.011180137305700914
leaf_weight=137.02435632050037 2762.8809536993504 58.646852895617485 50.632758408784866 355.13086944818497 9821.3574639856815 1504.9910501688719 11038.313796445727 400.8967641890049 158.60753673315048 3275.24852886796 3291.8284674584866 2302.7672588676214 1063.2826675623655 50.626870095729828 303.40132486820221 71.759226456284523 1038.2915978580713 64.811533123254776 3799.0377010256052 100.87544463574886 223.92475767433643 311.648501932621 187.01272819936275 55.307360917329788 67.309057369828224 63.531795501708984 61.082432210445404
leaf_count=550 11133 236 204 1433 39573 6070 44500 1616 639 13196 13277 9295 4292 204 1224 289 4180 261 15349 406 901 1255 753 223 271 256 246
internal_value=4.96955e-05 -0.00416608 0.00166539 -0.00530314 0.00119253 -0.000423147 0.00058082 -0.00768618 0.00306403 0.00264232 -0.000917675 -0.00746147 -0.00424314 0.0179156 -0.00167701 0.0105887 0.0136456 0.0156008 -0.0100562 0.0228564 0.0172559 0.0146153 -0.00079619 0.0219346 -0.0057514 -0.00494038 -0.00244315
internal_weight=42620.2 11802.9 30817.3 11229.4 29273.9 15707.1 13801.2 1905.89 13566.9 13096.6 3709.18 7520.22 3366.05 573.534 3595.23 1543.35 1217.27 1103.1 4154.17 461.825 324.8 470.256 326.081 113.954 254.322 114.165 111.709
internal_count=171832 47636 124196 45329 117982 63319 55633 7686 54663 52769 14960 30369 13587 2307 14501 6214 4901 4441 16782 1857 1307 1894 1313 459 1024 460 450
is_linear=0
shrinkage=0.02


Tree=4
num_leaves=30
num_cat=0
split_feature=26 25 27 12 25 27 26 24 27 27 27 20 24 26 27 26 10 24 25 24 24 25 17 26 25 24 24 6 26
split_gain=868.035 299.049 407.995 244.559 242.783 360.514 226.61 223.569 177.708 209.995 166.864 193.268 172.212 164.694 158.566 128.563 242.186 120.162 111.525 145.356 101.92 100.016 85.0558 82.4972 81.3513 70.4698 54.2253 41.7588 41.3788
threshold=0.018680764513050167 0.18564064801178207 -0.024969504433407053 0.012474619771135729 0.30102307130180611 -0.035236760400947524 0.014996414102870387 -0.010805247532978424 0.056789967053494768 0.05343150216121615 0.044686782014767716 17.124409856234305 0.026005030584150119 0.015191254248405625 -0.080670801652016802 0.020194090851878774 -0.094424604397950071 -0.007946981016847059 0.3246621621621622 1.0000000180025095e-35 -0.0060120927797768326 0.14007994186046516 -0.052167648164390339 0.0090996244657707611 0.17001204335608192 -0.02079565850850015 0.010283980564436532 -0.086834733893557378 0.017275345030334632
decision_type=2 2 2 2 2 2 2 2 2 2 2 2 2 2 2 2 2 2 2 2 2 2 2 2 2 2 2 2 2
left_child=1 2 7 23 5 15 25 14 9 -5 11 12 -6 -8 -1 27 -17 21 -12 -20 -19 -7 -13 -3 -9 -4 -10 -2 -25
right_child=4 3 6 8 10 17 13 24 26 -11 18 22 -14 -15 -16 16 -18 20 19 -21 -22 -23 -24 28 -26 -27 -28 -29 -30
leaf_value=0.026398464664728342 0.008740879927675466 0.023458903172299084 -0.027776695978382931 -0.0025413957940496755 0.0047664146240539345 -0.0022290034032863512 0.014541828116202438 -0.017718867041979999 -0.024663725602757671 0.022538075396607581 0.026597747829950408 -0.0048143863298477727 -0.0043913803784134727 -0.0075094776487129502 0.00064978963427554193 0.016632401912153399 -0.002134781979405653 0.0056538364785930001 -0.0053450391930874828 0.0076560760772343651 -0.0036870375188921864 -0.0098687647030410164 0.0039280790343760915 0.0050764591670459172 0.0015022454918856096 -0.014353324106269693 -0.0031813432290073219 0.024383743071201787 -0.0016746251480176336
leaf_weight=95.243881225585938 120.74006403982639 83.841167658567429 178.69881165027618 10718.681503817439 8688.5673268586397 1354.8069536089897 144.20012830197811 365.28103470802307 183.02244119346142 130.12585715949535 110.77430194616318 1706.8156301677227 900.91120457649231 1451.3976770490408 2155.6212754696608 424.70111961662769 757.51620781421661 825.98855972290039 369.05976228415966 4230.624824821949 1061.5347246080637 1407.6631385833025 594.91450418531895 1804.1279742866755 112.1492947191 1793.7715479880571 67.84006255865097 203.48400218784809 446.6275962293148
leaf_count=383 486 337 723 43230 34992 5470 582 1476 739 524 446 6878 3633 5865 8698 1707 3053 3330 1486 17029 4278 5686 2396 7272 453 7262 274 819 1801
internal_value=0 -0.00306997 -0.00666567 -0.00138139 0.00266123 -0.00072783 -0.0111131 -0.000832233 -0.00262022 -0.00222849 0.00391905 0.00265245 0.00390213 -0.00546492 0.00180429 0.00775541 0.00463197 -0.00348579 0.00710604 0.00660391 0.00039414 -0.00614 -0.00254249 0.00449299 -0.0131936 -0.0156467 -0.0191082 0.0188404 0.0037272
internal_weight=42488.7 19730.6 6296.36 13434.3 22758.1 6156.43 3568.07 2728.3 11099.7 10848.8 16601.7 11891.2 9589.48 1595.6 2250.87 1506.44 1182.22 4649.99 4710.46 4599.68 1887.52 2762.47 2301.73 2334.6 477.43 1972.47 250.863 324.224 2250.76
internal_count=171308 79619 25442 54177 91689 24829 14432 11010 44767 43754 66860 47899 38625 6447 9081 6065 4760 18764 18961 18515 7608 11156 9274 9410 1929 7985 1013 1305 9073
is_linear=0
shrinkage=0.02


Tree=5
num_leaves=28
num_cat=0
split_feature=25 27 28 27 27 17 27 20 28 28 28 6 18 15 28 28 28 25 27 28 28 28 25 28 27 7 17
split_gain=634.787 728.468 328.852 290.256 288.86 199.218 177.771 192.793 157.432 163.166 156.321 147.286 145.151 127.128 127.082 126.636 115.701 108.836 98.5577 93.634 111.233 79.1678 66.0525 32.1205 98.7578 28.2903 19.5811
threshold=0.18564064801178207 -0.080670801652016802 -0.00041968292277278478 -0.020304439324090411 -0.034905954490398065 -0.052167648164390339 0.08546135546428027 16.756424579070224 0.11594221078546388 -0.15148920223788634 -0.19898165324388642 0.085566991798886174 0.3729729729729731 0.83556477643719818 -0.059219269148071761 -0.13552314180072919 -0.050878122273429069 0.50926243567753005 0.11630312332442783 0.36743914107445325 0.18831819703978445 -0.066579112209230115 0.03262411347517731 -0.19898165324388642 -0.096231152769483588 -0.029188433255679432 -0.18996277383374152
decision_type=2 2 2 2 2 2 2 2 2 2 2 2 2 2 2 2 2 2 2 2 2 2 2 2 2 2 2
left_child=1 11 3 12 8 6 7 -4 9 -3 -6 23 14 18 -2 -12 -14 -8 -5 20 -7 -15 -13 -1 -25 -10 -24
right_child=2 4 5 13 10 19 17 -9 25 -11 15 22 16 21 -16 -17 -18 -19 -20 -21 -22 -23 26 24 -26 -27 -28
leaf_value=0.033850494893700039 0.0019709703675704925 0.013331990619979528 0.0028605329507262389 -0.0018470924644052318 0.025871008760466409 0.0053927786436894706 -0.0032202354986725777 -0.0022482767784700554 0.02813405336266675 -0.0031670798549668666 -0.027417010622742245 0.016324539732220138 0.002966522297016399 0.0005000333095600577 0.010810549450829184 -0.0079098645611242278 -0.0094096211474831715 0.014510238637011865 0.023025006085424841 -0.015586952164271278 0.013129961092313971 -0.0087470957936815735 0.0010603073758933409 0.001134508440224396 0.02700728141684007 0.0080720278939764942 -0.015183286195762065
leaf_weight=108.63077056407928 1374.1129362136126 265.36809930205345 10741.266068696976 6927.6178719848394 48.899013891816139 3019.033256649971 170.05580542981625 4066.6740384995937 78.951595589518547 2100.247742280364 132.80316084623337 72.249987185001373 731.78490228950977 452.82577131688595 1246.7261660546064 6403.129606410861 506.04663376510143 669.37463526427746 59.233539655804634 67.513349175453186 996.98338539898396 1921.5090538710356 51.467521414160728 85.116573944687843 204.23986200988293 55.507889688014984 57.291496157646179
leaf_count=435 5538 1068 43275 27934 197 12156 685 16390 318 8474 537 290 2950 1826 5025 25903 2040 2691 238 272 4010 7750 207 342 820 224 231
internal_value=3.8726e-05 -0.00446679 0.0013612 -0.0010784 -0.00585746 0.00299663 0.00196695 0.00145588 -6.09254e-05 -0.00128361 -0.00805349 0.0171831 0.00353213 -0.00298186 0.00619613 -0.00832994 -0.00209446 0.0108968 -0.00161706 0.00693004 0.00733246 -0.00697776 0.00201686 0.0239206 0.0196131 0.0205817 -0.00761185
internal_weight=42614.7 9663.9 32950.8 13219.9 9084.91 19730.9 15647.4 14807.9 2500.08 2365.62 6584.83 578.996 3858.67 9361.19 2620.84 6535.93 1237.83 839.43 6986.85 4083.53 4016.02 2374.33 181.009 397.987 289.356 134.459 108.759
internal_count=171826 39046 132780 53301 36721 79479 63041 59665 10084 9542 26637 2325 15553 37748 10563 26440 4990 3376 28172 16438 16166 9576 728 1597 1162 542 438
is_linear=0
shrinkage=0.02


Tree=6
num_leaves=26
num_cat=0
split_feature=25 28 2 28 1 24 24 24 25 25 25 17 20 28 17 24 28 18 28 25 24 20 12 17 28
split_gain=625.228 614.665 381.015 273.808 225.607 164.503 137.306 132.167 186.485 116.487 120.848 112.277 168.588 112.717 106.639 148.979 136.975 92.7397 90.5785 88.5061 88.0239 44.477 43.278 33.2152 9.00707
threshold=0.20611577964519143 -0.18680853567882597 -0.048224578352709983 0.022698245474825098 0.012149160634006508 -0.049415019033252953 -0.007699669351927855 0.047257265096319036 0.86078811369509056 0.98530287984111231 0.81517439769866962 -0.057661748715483345 17.008091100352534 0.36743914107445325 -0.29223955435040477 -0.016404202309403367 -0.083890346759926529 2.1136737954449001 -0.092804607091956218 0.23845060412224592 -0.015248463620571872 14.934972180560807 0.029395620965113022 -0.33085633334319392 -0.21779043040695437
decision_type=2 2 2 2 2 2 2 2 2 2 2 2 2 2 2 2 2 2 2 2 2 2 2 2 2
left_child=1 17 5 4 9 -3 19 8 -6 10 -2 12 -8 -13 15 -4 -16 23 -9 21 -7 -5 -21 -1 -25
right_child=3 2 14 6 7 20 11 18 -10 -11 -12 13 -14 -15 16 -17 -18 -19 -20 22 -22 -23 -24 24 -26
leaf_value=0.03231261520148427 0.0016179067045636608 0.029853977203307375 -0.0035239301682244472 -0.0011023927713932052 -0.0025582365424587201 0.0052302372772011149 0.0040756773450739735 -0.01228921370576303 -0.011968471148909681 0.026358864853066825 -0.0056294688625837443 0.0071079010662057898 -0.0017302809761652656 -0.018775655522762252 0.00446454424717347 -0.012399576050382935 -0.0060755929472233149 -0.0019051293022444293 0.01566355367423233 -0.0057348555882650656 -0.0043908099269501458 -0.019657852938730264 0.0074950351332629915 0.022806457500756418 0.0095921827162150485
leaf_weight=170.8413560539484 10330.765655606985 84.273895040154457 1134.7734145522118 74.791138991713524 3812.2606453895569 1112.8065907508135 8062.1717640161514 54.284976273775101 1081.3637534976006 67.840748280286789 1004.4891096800566 3735.0204999148846 2651.4537177532911 63.461068034172058 544.66170881688595 2340.3524782061577 4731.3512740731239 52.761679977178574 210.05565744638443 207.3356099575758 570.11726616322994 186.72098307311535 179.83792915940285 55.618953198194504 62.399748161435127
leaf_count=685 41641 338 4584 302 15370 4484 32460 219 4365 273 4052 15024 10684 256 2200 9474 19142 212 846 836 2304 754 725 223 251
internal_value=-7.34745e-05 -0.00421472 -0.00507764 0.00134409 -0.000432703 0.00337792 0.00328581 -0.00390233 -0.00465183 0.00113598 0.000971708 0.00368951 0.00263679 0.00664609 -0.00678838 -0.00951628 -0.00498051 0.0219861 0.00972735 -0.00567418 0.00195575 -0.0145464 0.000376498 0.0263762 0.0166561
internal_weight=42581.8 10860 10518.3 31721.9 16561.1 1767.2 15160.8 5157.97 4893.62 11403.1 11335.3 14512.1 10713.6 3798.48 8751.14 3475.13 5276.01 341.622 264.341 648.686 1682.92 261.512 387.174 288.86 118.019
internal_count=171704 43897 42526 127807 66766 7126 61041 20800 19735 45966 45693 58424 43144 15280 35400 14058 21342 1371 1065 2617 6788 1056 1561 1159 474
is_linear=0
shrinkage=0.02


Tree=7
num_leaves=25
num_cat=0
split_feature=25 27 27 27 17 7 20 28 28 28 28 28 28 24 27 28 25 24 1 25 17 27 13 2
split_gain=611.356 669.543 289.216 261.97 230.775 276.615 175.209 140.696 139.079 131.613 144.701 124.373 123.222 122.091 118.642 113.578 149.957 92.7105 46.5198 45.5577 36.4141 33.2752 33.1951 5.62014
threshold=0.20611577964519143 -0.080670801652016802 0.08546135546428027 -0.028627781783799728 -0.052167648164390339 0.005850007080640208 17.008091100352534 0.26717491904375701 0.0096876363165186666 -0.19898165324388642 0.0039225383941106752 0.028761629565564908 -0.16764947674016115 0.059809348002759104 -0.030496881476224889 0.27611875504477584 0.37406716417910452 -0.0077815490399477097 -0.019477692526285891 0.43869027731373206 -0.18996277383374152 0.079604882226829585 0.038939519894849429 -0.037977726387536541
decision_type=2 2 2 2 2 2 2 2 2 2 2 2 2 2 2 2 2 2 2 2 2 2 2 2
left_child=1 8 4 12 5 6 -2 17 18 -5 -11 -7 23 15 -14 16 -4 -6 22 -17 -10 -9 -1 -3
right_child=2 3 13 9 7 11 -8 21 20 10 -12 -13 14 -15 -16 19 -18 -19 -20 -21 -22 -23 -24 -25
leaf_value=0.0283659155751677 0.0026821009590528265 0.012383606384869994 -0.0069631278774218795 0.023315031340087056 -0.01289833303772973 -0.0044191691234184236 -0.0032409209050850681 0.021969893216927314 0.0098656823012080435 -0.010407749018854722 -0.004465715303982357 0.00018708922084835662 -0.002628590709267198 -0.012098331639386038 0.010594983240783246 0.013506426335269033 0.016422524619695254 0.0050067587234048369 0.0057218462477326374 -0.004113352842752065 -0.011613710162391417 0.0035166523733275953 0.013729666233720352 0.025655456054988202
leaf_weight=278.32266196608543 14437.318269878626 50.357408612966537 118.34015613794327 49.813664585351944 114.33511950075626 5357.649609208107 2311.1856426149607 237.82944805920124 50.508432075381279 3753.2642321437597 2957.8168962448835 4151.3431285023689 3109.4664885401726 90.950937613844872 291.97177594900131 73.166655093431473 1051.6628582328558 3519.7910786569118 67.946038529276848 230.16097590327263 67.456870406866074 52.322655573487282 107.30167554318905 52.596807956695557
leaf_count=1115 58165 202 477 200 462 21615 9318 955 203 15220 11970 16721 12553 366 1178 294 4223 14161 273 926 272 210 430 211
internal_value=2.84614e-05 -0.00407156 0.00142909 -0.00524866 0.000992932 0.000315596 0.00186285 0.00551375 0.0168976 -0.00754788 -0.00779713 -0.00240707 -0.000802717 0.00980184 -0.00147375 0.0112036 0.0140206 0.00442099 0.0218853 0.000222011 -0.00222717 0.018826 0.0245724 0.0202234
internal_weight=42582.9 10836.8 31746.1 10265.3 30181.8 26257.5 16748.5 3924.28 571.536 6760.89 6711.08 9508.99 3504.39 1564.28 3401.44 1473.33 1170 3634.13 453.57 303.328 117.965 290.152 385.624 102.954
internal_count=171720 43827 127893 41534 121607 105819 67483 15788 2293 27390 27190 38336 14144 6286 13731 5920 4700 14623 1818 1220 475 1165 1545 413
is_linear=0
shrinkage=0.02


Tree=8
num_leaves=25
num_cat=0
split_feature=26 28 25 27 25 26 27 28 12 8 27 27 27 1 26 28 28 26 1 28 28 28 27 6
split_gain=840.223 379.267 285.182 312.848 284.766 231.89 212.188 201.44 235.687 210.719 177.706 163.438 160.447 224.426 148.43 143.205 136.486 122.121 120.021 99.6141 74.3038 71.8118 28.5375 8.21921
threshold=0.018680764513050167 -0.19898165324388642 0.18564064801178207 -0.024969504433407053 0.27005577005577014 0.014996414102870387 -0.035236760400947524 0.022698245474825098 0.016548801310539828 -0.00124427860206866 -0.080670801652016802 0.069813776016133242 0.044686782014767716 0.030536498297691343 0.015191254248405625 -0.16764947674016115 0.097944263565640635 0.00838944207513234 -0.0068493150684931217 0.36743914107445325 -0.072116002467628379 -0.13552314180072919 -0.077317035652567992 0.020000000000000132
decision_type=2 2 2 2 2 2 2 2 2 2 2 2 2 2 2 2 2 2 2 2 2 2 2 2
left_child=2 22 3 10 6 20 18 8 17 -10 -1 16 13 -6 -7 -12 -9 -4 -3 -14 -5 -8 -2 -24
right_child=1 4 7 5 12 14 21 11 9 -11 15 -13 19 -15 -16 -17 -18 -19 -20 -21 -22 -23 23 -25
leaf_value=0.024860998671680935 0.031938615677121238 0.0080810659133181278 0.024320789899201018 -0.022785704071848357 0.0038069074211075911 0.014440649608607138 -0.021965360008508971 0.0052084431882401102 -0.0024410160220559906 -0.01030920958588267 0.025892168852712508 -0.02592438770574235 0.0070920672187441622 -0.0027131632626007885 -0.0065921243070625832 -0.00311709184011396 -0.0045573438034262432 0.00043601004475007156 -0.0074780582363130023 -0.013326802858234956 -0.012891314636891298 -0.003677955449412624 0.021511482060671744 0.0086897812187581563
leaf_weight=94.592825502157211 152.14236631989479 1066.283862426877 82.647732555866241 398.41758511960506 9846.1119884848595 142.58027271926403 83.677792191505432 2908.5652797222137 3708.4678219109774 2158.9973906129599 64.837079808115959 73.159291669726372 4791.75535556674 2680.2885721921921 1455.4287870079279 2564.7161428183317 706.15828216075897 3857.4344125241041 237.90884573757648 92.402268096804619 1568.3270553201437 3755.1181664317846 75.240124747157097 49.744494467973709
leaf_count=379 609 4290 332 1623 39636 576 338 11719 14958 8721 260 296 19263 10801 5900 10366 2847 15556 960 373 6377 15182 302 200
internal_value=6.65166e-05 0.00268096 -0.00294939 -0.00646601 0.00239114 -0.0103622 -0.00173986 -0.00130737 -0.00280641 -0.00534592 -0.00135054 0.00267214 0.00361272 0.00240968 -0.00466384 -0.00234643 0.00329145 0.000972279 0.0052098 0.00668844 -0.0149585 -0.00410984 0.0257356 0.0170928
internal_weight=42615 22830.7 19784.3 6288.9 22553.5 3564.75 5142.99 13495.4 9807.55 5867.47 2724.15 3687.88 17410.6 12526.4 1598.01 2629.55 3614.72 3940.08 1304.19 4884.16 1966.74 3838.8 277.127 124.985
internal_count=171864 91954 79910 25481 90843 14476 20770 54429 39567 23679 11005 14862 70073 50437 6476 10626 14566 15888 5250 19636 8000 15520 1111 502
is_linear=0
shrinkage=0.02


Tree=9
num_leaves=27
num_cat=0
split_feature=26 28 24 28 26 28 24 26 8 2 28 24 17 1 28 8 28 24 28 28 28 24 28 21 13 30
split_gain=784.472 361.566 286.42 227.426 241.942 307.533 284.385 301.623 199.602 189.384 179.459 173.316 140.248 143.312 128.203 188.685 143.549 138.253 106.979 89.3075 82.0015 81.4033 28.0623 25.3835 25.1635 3.23154
threshold=0.018680764513050167 -0.19898165324388642 -0.0077815490399477097 0.0050774337379616502 0.014996414102870387 -0.098073550885943134 0.00051116987468401793 0.011316657684102586 -0.010819165378670724 -0.04531227735822168 -0.019177347252964671 -0.028458329816791018 -0.029776446755128968 0.027858707046186652 0.097944263565640635 -0.040160966912952227 0.087619554499055965 0.0072548038692173628 -0.10320717596482384 0.077580094527102045 0.36743914107445325 -0.049415019033252953 0.12552786230823412 -1.2747158280900723 0.026817849556848548 0.77296157450796643
decision_type=2 2 2 2 2 2 2 2 2 2 2 2 2 2 2 2 2 2 2 2 2 2 2 2 2 2
left_child=3 23 9 4 6 11 8 -8 -1 21 -7 -6 13 -4 16 22 19 -17 -11 -5 -14 -3 -16 -2 -18 -25
right_child=1 2 12 14 5 10 7 -9 -10 18 -12 -13 20 -15 15 17 24 -19 -20 -21 -22 -23 -24 25 -26 -27
leaf_value=-0.0062085216680846621 0.011916702579528647 0.02148174855272604 0.0036988219742316399 0.0010739296729541526 -0.0094762016852048565 -0.00087876720575555151 0.012431020385469451 -0.0051416828961777118 -0.014359155762089279 0.0050556919274197774 -0.0091948987726386839 0.013332243121783841 0.0083295167561563896 -0.0006955928701835464 0.0060612381066538715 -0.013443344798928629 0.010503057548178658 0.0059152735343735718 -0.0062161321861000486 -0.010813649191252779 -0.015368988412175369 0.003014574193945377 0.027664764428014871 0.031030858410822947 0.02558316428432085 0.018613113816489762
leaf_weight=2951.8413290381432 61.808844462037086 102.5912846326828 11967.162351578474 5379.8383800685406 157.55449512600899 3368.1040889471769 515.10345454514027 1563.9316922128201 2055.9843055307865 376.62675139307976 1500.2959286570549 737.96550238132477 2389.8186045587063 3935.8271733373404 51.300138428807259 724.4849368929863 126.60115614533424 180.2946151047945 2819.3191043138504 260.09255461394787 54.845846474170685 923.48016677796841 54.324697315692902 159.98054361343384 85.1036596596241 50.664316102862358
leaf_count=11948 248 411 48160 21707 635 13611 2076 6314 8338 1519 6064 2976 9601 15852 207 2927 510 727 11408 1050 222 3722 219 641 343 203
internal_value=-2.3339e-05 0.00249855 0.0022181 -0.00294647 -0.00451574 -0.00146652 -0.00699015 -0.00075888 -0.00956977 -0.00247379 -0.00345246 0.00926687 0.00329923 0.00261012 -3.57152e-06 -0.00656704 0.00113097 -0.00955248 -0.00487573 0.000513083 0.00775939 0.00497562 0.0181013 0.0251996 0.0171078 0.0286377
internal_weight=42554.9 22842.1 22569.7 19712.8 12850.8 5763.92 7086.86 2079.04 5007.83 4222.02 4868.4 895.52 18347.7 15903 6862.04 1010.4 5851.64 904.78 3195.95 5639.93 2444.66 1026.07 105.625 272.454 211.705 210.645
internal_count=171639 91987 90895 79652 51962 23286 28676 8390 20286 17060 19675 3611 73835 64012 27690 4080 23610 3654 12927 22757 9823 4133 426 1092 853 844
is_linear=0
shrinkage=0.02


Tree=10
num_leaves=30
num_cat=0
split_feature=25 27 24 28 27 27 24 25 27 28 28 17 27 28 28 28 27 17 25 28 27 27 21 28 25 17 29 28 25
split_gain=524.691 625.606 314.509 267.883 235.257 194.03 184.878 242.735 183.935 150.489 149.999 142.348 143.684 136.485 233.309 134.836 110.03 105.228 86.554 79.6543 71.7078 59.6541 48.8058 42.6399 41.0841 34.9058 32.5102 31.0056 0.348373
threshold=0.18564064801178207 -0.080670801652016802 -0.010972448763367905 -0.00041968292277278478 -0.020304439324090411 -0.035236760400947524 0.047257265096319036 0.86078811369509056 -0.012771400310502718 0.013675716776632417 -0.19898165324388642 -0.076156873444618065 0.08546135546428027 -0.012058066667414961 -0.020668455265912506 0.0096876363165186666 -0.060858463005757778 -0.12727272727272723 0.25463121783876502 0.36743914107445325 -0.035236760400947524 0.050994678747985432 0.01228006435605423 -0.21779043040695437 0.42933947772657455 -0.18099441323148793 0.49519186315302827 0.015907404443927856 0.048662088562633203
decision_type=2 2 2 2 2 2 2 2 2 2 2 2 2 2 2 2 2 2 2 2 2 2 2 2 2 2 2 2 2
left_child=1 15 5 4 13 9 7 -6 16 -3 -7 12 -10 14 -2 22 24 26 -18 -13 -15 -8 23 -1 -5 -17 -4 -19 -24
right_child=3 2 17 8 6 10 21 -9 11 -11 -12 19 -14 20 -16 25 18 27 -20 -21 -22 -23 28 -25 -26 -27 -28 -29 -30
leaf_value=0.031098537398965342 0.0026299163333378607 -0.0014148390916833983 -0.011084952225424874 0.001711214622480319 -0.0019743495129638843 0.02687068251492938 0.0018015797332696321 -0.01202610180541098 0.0016493590832816862 0.010659918657263553 -0.0059311567450041815 0.0065681764571249822 0.010565288820645106 0.0043256048479347262 0.020455488364121258 0.0080834617084606913 0.0061633322410438243 -0.0075611826911315396 -0.004201372652181035 -0.013999785995159993 -0.015227530354784065 0.024147979433417587 0.032137215576758048 0.011006303874382234 0.025350469415812198 -0.01268653066264948 -0.016616632430486188 0.0028252115867813997 0.020191202302345567
leaf_weight=52.421092972159386 3209.5266662240028 1543.869495600462 968.06733319163322 51.911113187670708 8093.4989506304264 51.39128614962101 80.031769946217537 1087.6070208400488 11052.124765768647 557.20501244068146 4541.4434706121683 4957.30450566113 770.22269429266453 105.85276994109154 319.23193261027336 55.78567923605442 365.59733432531357 256.4886602461338 2427.4027937054634 71.343746036291122 228.195227175951 125.28569361567497 120.3517042696476 239.85483865439892 72.026351809501648 63.445955246686935 919.79185463488102 197.9637516438961 50.399317339062691
leaf_count=210 12933 6228 3936 209 32655 206 323 4396 44510 2247 18427 19927 3092 427 1286 224 1475 1044 9775 289 920 503 482 961 290 256 3744 803 202
internal_value=-3.57226e-05 -0.0041456 -0.0054446 0.0011614 -0.00103778 -0.0032287 -0.00274822 -0.00317317 0.00263627 0.0017956 -0.00553095 0.00343926 0.00223614 0.00311152 0.00427484 0.0158545 -0.00199363 -0.0117484 -0.00282892 0.00625878 -0.00900015 0.0157825 0.020699 0.0151397 0.0160546 -0.00287353 -0.0138274 -0.00301173 0.0293997
internal_weight=42635.6 9618.48 9036.22 33017.2 13249.2 6693.91 9386.42 9181.11 19767.9 2101.07 4592.83 16851 11822.3 3862.81 3528.76 582.259 2916.94 2342.31 2793 5028.65 334.048 205.317 463.027 292.276 123.937 119.232 1887.86 454.452 170.751
internal_count=171980 38970 36635 133010 53443 27108 37877 37051 79567 8475 18633 67818 47602 15566 14219 2335 11749 9527 11250 20216 1347 826 1855 1171 499 480 7680 1847 684
is_linear=0
shrinkage=0.02


Tree=11
num_leaves=27
num_cat=0
split_feature=25 28 7 28 7 24 24 24 25 17 20 28 24 28 25 25 28 24 25 24 28 28 24 28 24 25
split_gain=562.903 580.771 318.227 249.578 220.89 159.641 149.212 132.837 142.08 118.883 136.059 106.436 101.908 99.8626 98.31 175.87 95.374 161.871 90.9741 86.8474 83.7579 92.2771 75.7139 64.2645 27.5003 17.8581
threshold=0.18564064801178207 -0.15148920223788634 -0.029850746268656633 0.022698245474825098 0.0029940119760479837 -0.0099074439363278487 -0.049415019033252953 0.047257265096319036 0.86078811369509056 -0.085559742098550204 16.756424579070224 -0.092804607091956218 0.00022747605908415017 0.097944263565640635 0.81517439769866962 0.9617145997435429 -0.19898165324388642 -0.036967374678529293 0.69951456310679616 -0.0084669133922225335 0.36743914107445325 0.18831819703978445 0.006732718398784609 -0.030876013454705847 -0.03029324724760216 0.019142700128228617
decision_type=2 2 2 2 2 2 2 2 2 2 2 2 2 2 2 2 2 2 2 2 2 2 2 2 2 2
left_child=1 16 6 4 14 13 -3 8 -6 10 12 -9 -5 -4 22 -16 25 -18 -12 -7 21 -11 -2 -8 -19 -1
right_child=3 2 5 9 7 19 23 11 -10 20 18 -13 -14 -15 15 -17 17 24 -20 -21 -22 -23 -24 -25 -26 -27
leaf_value=0.015922819236225964 0.001339065481083095 0.025825010811003156 -0.0047646380836012013 0.00014668613002153928 -0.0022851164044173805 -0.019003163203128635 -0.0038459949430601791 -0.014550401324132933 -0.0097414726472279094 0.0043364444709856594 -0.004146801391941104 0.016554638774293723 0.0050829473364958043 -0.012701196207068092 -0.0094870313263178737 0.014560250207501551 -0.015163110825754679 0.0032505162053276049 0.0032680619404099726 -0.0092556216959396673 -0.015045133749456098 0.010613393856678104 0.0066080659775912603 0.0037781863387768245 0.018063092617922823 0.030544353271833406
leaf_weight=83.120287477970123 8265.6464969813824 92.857431083917618 4781.6279290020466 2622.207965657115 5490.1129166483879 610.23391546308994 778.42968989908695 50.003406077623367 1256.6586490571499 4039.6235735714436 2035.16801007092 218.40959331393242 4659.2018703818321 734.52767619490623 671.50887168943882 143.13623751699924 85.625540927052498 69.588108256459236 972.53040798008442 988.85548380017281 72.967772513628006 1231.5235929340124 1256.5241805166006 1008.8496902734041 253.84210239350796 126.16393426060677
leaf_count=333 33322 372 19410 10559 22154 2489 3144 202 5083 16239 8201 878 18737 2981 2710 577 344 280 3915 4027 296 4942 5059 4074 1019 506
internal_value=1.79962e-05 -0.00423879 -0.00553143 0.00125972 -0.000390576 -0.00746457 0.0017742 -0.00312944 -0.00368309 0.00309228 0.00183092 0.0105267 0.00330935 -0.00583563 0.00146686 -0.00517439 0.0144275 0.00855869 -0.00174114 -0.0130355 0.00551305 0.00581542 0.00203955 0.000444934 0.015035 0.0253376
internal_weight=42598.9 9613.72 8995.38 32985.2 17352 7115.25 1880.14 7015.18 6746.77 15633.2 10289.1 268.413 7281.41 5516.16 10336.8 814.645 618.34 409.056 3007.7 1599.09 5344.11 5271.15 9522.17 1787.28 323.43 209.284
internal_count=171853 38979 36497 132874 69985 28907 7590 28317 27237 62889 41412 1080 29296 22391 41668 3287 2482 1643 12116 6516 21477 21181 38381 7218 1299 839
is_linear=0
shrinkage=0.02


Tree=12
num_leaves=25
num_cat=0
split_feature=26 28 24 27 27 28 27 2 27 24 26 27 28 28 27 27 28 24 27 28 26 27 20 26
split_gain=716.626 339.703 243.015 238.271 277.059 217.281 423.573 190.982 188.036 186.578 179.253 169.065 147.19 126.764 126.07 207.237 72.8127 67.1026 53.4476 37.054 31.223 27.3208 14.5647 1.16889
threshold=0.018680764513050167 -0.19898165324388642 -0.0077815490399477097 0.043920957500467955 0.040964019796852658 0.0050774337379616502 -0.021663478824249582 -0.053065788423949871 0.061728282711398061 0.031228710584433276 0.027921905381012645 -0.057082147005709606 0.057704951502946404 -0.10320717596482384 0.05343150216121615 0.057389974718466151 -0.0046500924183415877 -0.049415019033252953 0.043068368284623466 -0.034064068392267437 0.016166592060486023 -0.088800116742762558 15.873044713145115 0.014843151461429354
decision_type=2 2 2 2 2 2 2 2 2 2 2 2 2 2 2 2 2 2 2 2 2 2 2 2
left_child=3 21 7 4 5 6 -1 17 9 -4 -10 -7 16 -9 20 -16 19 -3 23 -5 -14 -2 -23 -6
right_child=1 2 8 12 18 11 -8 13 10 -11 -12 -13 14 -15 15 -17 -18 -19 -20 -21 -22 22 -24 -25
leaf_value=0.00061155691425002234 0.030475352315896105 0.021222730359288136 0.0027933589250663561 -0.018974318344137146 0.032113119146060458 0.019098925753493114 -0.0069721373470419869 0.0061483103741853742 0.013381832143994634 -0.0061017170262753564 0.0034553192264447957 -8.0725566500997341e-05 -0.0050131749706678001 -0.0057361223754964418 0.026677284651258605 -0.010123496222052228 -0.027867104665937895 0.0041170958311049248 0.0028299752026156684 -0.0038784054929380291 -0.022796556128040883 0.021746299367472462 0.0066817723591574112 0.020896926581682594
leaf_weight=4740.167619228363 147.43906861543655 101.88312748074532 14341.97728253901 146.30082719027996 61.777825981378555 184.70564310252666 7754.8922639638186 402.11701250076294 1270.5006134808064 1003.6896861791611 1722.6993159651756 5882.9928632378578 70.886993050575256 2993.0176948010921 101.88473324477673 137.96302862465382 240.79914084076881 727.94345934689045 54.790654122829437 126.56673316657543 108.81377276778221 74.827802821993828 53.859923422336578 88.485092088580132
leaf_count=19151 592 408 57703 592 249 744 31433 1621 5100 4050 6916 23740 287 12128 409 559 975 2932 221 514 441 300 216 357
internal_value=-2.68182e-05 0.00238331 0.00210963 -0.00282186 -0.00232816 -0.00258692 -0.00409447 -0.00220994 0.0031062 0.00220847 0.00769071 0.00051507 -0.0126641 -0.00431569 -0.00374725 0.00565294 -0.0198023 0.00635575 0.0205053 -0.01224 -0.0162154 0.0242413 0.0160766 0.0265227
internal_weight=42541 22840 22563.8 19701 18767.8 18562.8 12495.1 4224.96 18338.9 15345.7 2993.2 6067.7 933.215 3395.13 419.549 239.848 513.667 829.827 205.054 272.868 179.701 276.127 128.688 150.263
internal_count=171638 91966 90858 79672 75895 75068 50584 17089 73769 61753 12016 24484 3777 13749 1696 968 2081 3340 827 1106 728 1108 516 606
is_linear=0
shrinkage=0.02


Tree=13
num_leaves=27
num_cat=0
split_feature=24 27 27 17 3 27 28 28 24 28 28 27 28 28 6 27 24 28 28 20 27 27 27 27 24 27
split_gain=447.702 494.63 283.081 234.256 216.351 175.167 166.565 153.04 140.924 235.499 126.615 124.606 123.684 148.828 104.084 100.586 94.5496 81.6232 76.7092 75.3966 71.9127 65.9337 62.1603 58.2617 45.9342 17.8226
threshold=-0.0068381384412623206 -0.049265472151366015 0.08546135546428027 -0.28421200079621939 -0.043254758742806591 -0.01239689237330632 -0.19898165324388642 -0.18680853567882597 0.035845404112946531 0.11723685195226767 -0.015070427398458427 -0.051654435354892732 -0.13552314180072919 -0.10030210522204601 0.051116950682168046 -0.065533259140393527 0.034769262958781785 0.16095161586872633 -0.16764947674016115 14.270751693283179 -0.033235457849710943 0.094947385688530311 0.11630312332442783 -0.019362664681751001 -0.015055428384978118 -0.096231152769483588
decision_type=2 2 2 2 2 2 2 2 2 2 2 2 2 2 2 2 2 2 2 2 2 2 2 2 2 2
left_child=1 6 3 4 18 16 25 23 9 19 -7 15 20 -14 -6 -8 -5 -11 -2 -4 -9 -10 -23 -3 -13 -1
right_child=2 7 8 5 14 10 11 12 21 17 -12 24 13 -15 -16 -17 -18 -19 -20 -21 -22 22 -24 -25 -26 -27
leaf_value=0.028736263672478973 0.021511691402295498 0.031767622967738815 0.0034555743857632095 -0.0006874660366581538 -0.0023362815869865041 -0.00077315043421426557 0.0059290371716188275 -0.00090220247924037379 0.018173673019303227 -0.0087842125832455174 0.0039250483639627267 0.026433487396008429 0.0052612320126220096 -0.0057715830509075527 -0.0091275224263570806 -0.0034487840317558123 -0.013124918758607437 0.0099997161050817095 0.0035908795370216662 0.030811349937356316 -0.026143315554739772 -0.0094826808911541768 0.0052572341901799694 0.0018395578078136481 0.0056553850215481528 0.01255244524419263
leaf_weight=112.87354727089405 97.94519816339016 53.945614323019981 49.822549760341644 4453.7847277522087 6637.2817980796099 2816.2734243571758 1063.2295596152544 63.020130276679993 74.397563859820366 109.02917627990246 12185.472415700555 115.84856607019901 511.39930580556393 9027.1359311342239 1045.0242326557636 793.19304643571377 254.13698153197765 481.90717549622059 1530.9815411567688 304.70124731957912 174.64349280297756 208.30251568555832 240.83553673326969 50.436194509267807 75.174236223101616 58.563468292355537
leaf_count=454 394 216 200 17954 26770 11373 4277 254 298 437 49022 466 2070 36649 4217 3201 1026 1933 6166 1221 711 836 967 203 304 235
internal_value=-0.000106175 -0.00336094 0.00118511 0.000749958 -0.00186259 0.00198535 0.00515934 -0.005278 0.00973661 0.0143289 0.00304176 0.00353171 -0.00554029 -0.00517553 -0.00326803 0.00191293 -0.0013763 0.00645585 0.00474321 0.0271241 -0.0196892 0.00134841 -0.00156398 0.0182347 0.0187114 0.0238336
internal_weight=42589.4 12099.5 30489.9 29020.9 9311.23 19709.7 2218.88 9880.58 1469 945.46 15001.7 2047.45 9776.2 9538.54 7682.31 1856.42 4707.92 590.936 1628.93 354.524 237.664 523.536 449.138 104.382 191.023 171.437
internal_count=171854 49040 122814 116922 37547 79375 8937 40103 5892 3791 60395 8248 39684 38719 30987 7478 18980 2370 6560 1421 965 2101 1803 419 770 689
is_linear=0
shrinkage=0.02


Tree=14
num_leaves=25
num_cat=0
split_feature=26 28 28 13 3 17 20 29 26 26 28 28 8 17 28 17 28 28 28 26 13 21 30 5
split_gain=656.676 364.197 204.759 239.955 196.638 139.676 180.058 176.627 134.744 123.745 121.782 94.3951 185.724 108.818 86.6892 98.7572 75.6266 72.8898 64.0103 61.4886 28.2449 22.4037 6.491 4.20565
threshold=0.018269161930055351 -0.19898165324388642 0.0050774337379616502 0.023921003235089045 -0.051948051948051903 -0.052167648164390339 16.776562210824466 0.68948778038165404 0.00838944207513234 0.017001821402186545 -0.010292062186804304 0.097944263565640635 -0.036445768003793115 -0.48911513604870949 0.087619554499055965 -0.29417367190769422 0.042028068105013298 0.36743914107445325 0.18831819703978445 0.014996414102870387 0.026306319024825751 -1.3333277784778714 0.80503642698764666 0.095837737843551887
decision_type=2 2 2 2 2 2 2 2 2 2 2 2 2 2 2 2 2 2 2 2 2 2 2 2
left_child=2 21 3 8 19 6 7 -3 -1 -6 -10 14 23 -14 15 -4 -8 18 -7 -5 -16 -2 -23 -13
right_child=1 5 11 4 9 17 16 -9 10 -11 -12 12 13 -15 20 -17 -18 -19 -20 -21 -22 22 -24 -25
leaf_value=0.022589943571759839 0.010672365205011592 0.0036650249405951658 -0.0033579703892188742 -0.0045780006927669363 -0.011050671192753072 0.0041151300254557138 0.00094561290789064447 -0.0013846148259073388 -0.0010721500680858712 -0.00098222594259820108 -0.0084544191386304816 0.011440536899400307 0.016124983640167231 -0.011694364115699563 0.0065886391884523911 0.0024723839087148563 -0.0038817662005041832 -0.01476485485010999 0.0099607654717589339 0.0044987645712844665 0.022550078306615852 0.028705322370870454 0.015866530897233291 0.023433585901311043
leaf_weight=83.613235488533974 58.051928460597992 10704.184633851051 1722.4178229570389 644.71944241225719 3515.0981671959162 2892.0984742045403 2170.0641127228737 3728.0511809587479 5789.1967086493969 573.24616940319538 1054.7979246377945 49.906801000237465 56.217210024595261 701.30720689892769 109.88767836987972 3540.1466986984015 3199.2287733405828 65.96388503909111 1026.3497806042433 546.67129743099213 84.289224609732628 194.96349391341209 49.794137224555016 52.427585363388062
leaf_count=337 233 43105 6957 2606 14267 11625 8753 15028 23451 2320 4278 201 227 2836 442 14281 12896 268 4116 2204 339 784 200 211
internal_value=-1.04568e-05 0.00216607 -0.00284174 -0.00435383 -0.00756518 0.00188502 0.00119553 0.00235922 -0.00189978 -0.00964674 -0.00221817 7.84593e-05 -0.00605739 -0.00951142 0.00105365 0.000558958 -0.00192794 0.00530083 0.0056621 -0.000395002 0.0140098 0.0237885 0.0265434 0.0185765
internal_weight=42612.7 24088.8 18523.9 12207.3 5279.74 23785.9 19801.5 14432.2 6927.61 4088.34 6843.99 6316.6 859.859 757.524 5456.74 5262.56 5369.29 3984.41 3918.45 1191.39 194.177 302.81 244.758 102.334
internal_count=171965 97008 74957 49463 21397 95791 79782 58133 28066 16587 27729 25494 3475 3063 22019 21238 21649 16009 15741 4810 781 1217 984 412
is_linear=0
shrinkage=0.02


Tree=15
num_leaves=26
num_cat=0
split_feature=25 28 2 28 25 25 10 17 24 24 24 28 17 20 24 25 24 25 6 24 28 28 25 20 10
split_gain=466.729 454.989 264.834 190.9 225.697 219.306 173.099 170.397 138.582 136.932 131.354 122.08 100.846 145.985 117.712 98.038 198.46 141.56 94.5375 90.568 85.7668 82.8545 57.9226 21.7512 0.995674
threshold=0.22611077297626295 -0.18680853567882597 -0.048224578352709983 0.022698245474825098 0.86078811369509056 0.9617145997435429 -0.065123016941513942 -0.39308426827242948 0.039887769394933423 -0.049415019033252953 0.017255350166719242 -0.092804607091956218 -0.076156873444618065 17.197459426079945 0.00022747605908415017 0.18564064801178207 -0.010972448763367905 0.21857040229885061 0.10687868279655723 -0.015248463620571872 0.36743914107445325 0.18831819703978445 0.69951456310679616 17.276007721640045 -0.13091618004639569
decision_type=2 2 2 2 2 2 2 2 2 2 2 2 2 2 2 2 2 2 2 2 2 2 2 2 2
left_child=1 18 9 4 6 10 11 -8 -7 -3 -6 -2 13 14 -5 16 -4 -17 23 -11 21 -14 -15 24 -1
right_child=3 2 15 12 5 8 7 -9 -10 19 -12 -13 20 22 -16 17 -18 -19 -20 -21 -22 -23 -24 -25 -26
leaf_value=0.028260507988221745 0.01091710363438074 0.026455449551790071 -0.0044398329987168066 -0.00056191687617516918 -0.022428066755415001 -0.005890892234071363 -0.0078427441303724268 0.00022600437717590281 0.010076372677934865 0.0050326607477429435 -0.0076500319515305608 0.0023556619684551401 0.0041161866407718574 -0.0052715577350192933 0.0046411044804802598 0.00066249269207619907 -0.011643264807397906 -0.015227433865336298 -0.0029790351080091204 -0.0042328338716418083 -0.014654096237841689 0.010296499479204984 0.0017337462161224621 0.0094383633466101 0.018765553033526641
leaf_weight=171.9954089820385 846.22642338275909 87.875143334269524 5425.5784067958593 2530.2119584977627 341.42662951350212 484.11779983341694 1185.2241621464491 8660.880079627037 385.89754131436348 1106.706671744585 844.24003936350346 3135.1794385910034 3520.963034465909 1394.6781772524118 5506.914396122098 1688.93252132833 2142.4737200886011 253.23666903376579 63.168968021869659 673.67811611294746 79.412991091609001 1163.753589078784 703.99538588523865 49.689981132745743 69.787563696503639
leaf_count=692 3406 352 22041 10184 1385 1961 4786 34933 1553 4460 3416 12636 14139 5623 22134 6830 8757 1023 254 2729 323 4664 2834 200 280
internal_value=-1.27842e-05 -0.00340658 -0.00410642 0.00128047 -0.000243884 -0.00641967 0.000674789 -0.000746728 0.00118568 0.00276479 -0.0119987 0.00419178 0.0029063 0.00177378 0.00300129 -0.0054591 -0.00648807 -0.00143288 0.0187367 0.00151346 0.00530717 0.00566507 -0.0029136 0.0234814 0.0260367
internal_weight=42516.2 11733.1 11378.5 30783.1 15883.2 2055.68 13827.5 9846.1 870.015 1868.26 1185.67 3981.41 14899.9 10135.8 8037.13 9510.22 7568.05 1942.17 354.642 1780.38 4764.13 4684.72 2098.67 291.473 241.783
internal_count=171595 47618 46192 123977 64076 8315 55761 39719 3514 7541 4801 16042 59901 40775 32318 38651 30798 7853 1426 7189 19126 18803 8457 1172 972
is_linear=0
shrinkage=0.02


Tree=16
num_leaves=26
num_cat=0
split_feature=26 28 12 3 25 28 26 27 27 27 13 26 25 25 26 28 28 28 26 27 26 26 14 27 26
split_gain=633.19 303.924 232.321 234.294 206.122 195.23 174.412 166.416 142.656 137.173 138.939 135.878 115.518 104.989 84.4415 88.5748 84.8569 74.232 68.6682 55.5901 51.8707 44.2057 37.5848 29.2713 15.3539
threshold=0.018680764513050167 -0.19898165324388642 0.012474619771135729 -0.032394966559802056 0.30102307130180611 0.0050774337379616502 0.015127920112494956 0.056789967053494768 -0.035236760400947524 0.044686782014767716 0.041547631949698134 0.020194090851878774 0.3246621621621622 0.20275297619047622 0.015339883001894832 0.11594221078546388 -0.083890346759926529 -0.13552314180072919 0.0090996244657707611 -0.021925158866639732 0.017275345030334632 0.015065045434675911 0.41025641003467206 -0.088800116742762558 0.029701159130688451
decision_type=2 2 2 2 2 2 2 2 2 2 2 2 2 2 2 2 2 2 2 2 2 2 2 2 2
left_child=2 23 13 14 8 6 -5 -7 11 10 -6 -3 -11 19 15 -4 -16 -10 -15 22 -20 -21 -1 -2 -25
right_child=1 4 3 5 9 7 -8 -9 17 12 -12 -13 -14 18 16 -17 -18 -19 20 21 -22 -23 -24 24 -26
leaf_value=0.0061971285713156282 0.028918709481020009 0.016183702578550892 -0.0028115817352233684 -0.0098034812180851864 0.0026352113826765451 -0.00093962105292521442 -0.0035240175887367637 -0.018307535858714998 -0.021023823326380135 0.025586423341792223 -0.0054704016629925703 0.00105271670077641 0.0055300806899316124 0.021971586104832755 0.0098491143547759317 0.016853868296180314 0.00072129877330916322 -0.0024730345641364748 0.0055115101630589585 -0.012487451477969315 -0.0021853083865654142 -0.00068188276545362483 -0.007601442966183705 0.0072228547528143082 0.022244034840266342
leaf_weight=280.80937622487545 152.94128267467022 305.07981769740582 2596.5312491357327 4132.5282029956579 10950.038619235158 4358.2805986851454 3127.7628543525934 227.76368916034698 83.412461489439011 113.91253982484341 910.59306798875332 1030.9088107645512 4607.1491094827652 84.06327161192894 562.90355877578259 89.785005703568459 1464.5217604637146 4548.6464526504278 1720.2241788208485 301.79884397983551 432.32322128117085 223.74259151518345 103.42888355255127 73.061660587787628 55.682809382677078
leaf_count=1139 619 1226 10507 16811 44044 17598 12680 926 338 457 3665 4151 18492 337 2266 362 5916 18411 6935 1237 1744 911 421 293 223
internal_value=8.01163e-06 0.00227523 -0.00261762 -0.00356454 0.00201363 -0.00506468 -0.0071053 -0.00182555 -0.00117048 0.00316086 0.00200918 0.00457033 0.0060448 0.00235757 0.000202679 -0.00211678 0.00328342 -0.00283371 0.00468849 -0.00334521 0.00395491 -0.00755287 0.00238153 0.0227466 0.0144579
internal_weight=42537.9 22831.4 19706.5 16560.1 22549.7 11846.3 7260.29 4586.04 5968.05 16581.7 11860.6 1335.99 4721.06 3146.39 4713.74 2686.32 2027.43 4632.06 2236.61 909.78 2152.55 525.541 384.238 281.686 128.744
internal_count=171709 91919 79790 67066 90784 48015 29491 18524 24126 66658 47709 5377 18949 12724 19051 10869 8182 18749 9016 3708 8679 2148 1560 1135 516
is_linear=0
shrinkage=0.02


Tree=17
num_leaves=30
num_cat=0
split_feature=26 25 24 10 24 12 7 8 25 26 25 26 14 0 4 24 26 26 26 25 24 26 10 24 25 25 25 21 26
split_gain=601.424 222.736 234.419 218.311 220.06 195.29 183.027 170.115 157.801 150.622 145.832 126.941 101.709 90.2299 145.369 77.1041 70.734 68.1546 67.8821 56.185 53.4803 39.4668 35.7751 29.0029 61.655 27.1997 19.3396 19.063 10.0702
threshold=0.018680764513050167 0.18564064801178207 -0.010972448763367905 -0.13774482956867087 -0.0077815490399477097 0.012348698857638844 0.0015600389891641255 -0.014506677699890723 0.050316455696202543 0.021153676789645168 0.70991117344553545 0.017192242118818424 0.60869565180588414 0.024097888410242189 0.029126213592233111 -0.044590299294755636 0.015065045434675911 0.036403377720163325 0.0090996244657707611 0.57561463693539172 -0.013511498453985261 0.017275345030334632 0.020779211473787921 -0.01936984231816723 0.33176100628930821 0.075710532600907585 0.80439980870396954 -0.41442682086589971 0.024195917671306542
decision_type=2 2 2 2 2 2 2 2 2 2 2 2 2 2 2 2 2 2 2 2 2 2 2 2 2 2 2 2 2
left_child=1 2 7 9 8 18 10 11 15 26 -7 -1 -8 19 -15 -5 25 -10 -3 -6 -9 -20 -18 28 -25 -4 27 -2 -11
right_child=3 5 16 4 13 6 12 20 17 23 -12 -13 -14 14 -16 -17 22 -19 21 -21 -22 -23 -24 24 -26 -27 -28 -29 -30
leaf_value=-0.0019343325262984761 -0.0044148527896299182 0.02203296559571875 -0.001036148201208717 0.017152961692298158 0.0024831464417062851 0.00089590827866426934 -0.0071079050902457001 -0.010478393693887015 -0.0049845454092135536 0.013980332074495443 -0.0086424258852581624 0.0096605271457579894 -0.00013687793961367301 -0.0048424872749349129 0.002827078884310399 0.0020329711821664913 -0.0087822682186159164 0.0091252370068154662 0.0048560115671506775 0.0051677957953813426 -0.0028877585727950551 -0.0018789722979557217 0.0019992914803565621 -0.00075812387657613891 0.01533162791957789 -0.014932075029628136 -0.01136185926431218 0.0056399014109409359 0.024361596214985272
leaf_weight=2175.9501513689756 124.01167502999306 78.141537263989449 63.145657390356064 180.76836827397346 8276.8513710349798 6010.5144184827805 3321.6189061850309 1154.4774047732353 3124.7822927981615 101.36068658530712 712.58794941008091 451.76031106710434 1126.8811335116625 1499.6657568514347 2875.7393961250782 513.52608098089695 439.13358201086521 137.76474510133266 1761.3518629521132 5068.5691963881254 565.51023469865322 425.73698745667934 164.26900680363178 114.80366514623165 484.68880213797092 1213.6606026142836 51.296359285712242 173.94454272091389 158.80600334703922
leaf_count=8827 499 313 258 726 33275 24260 13451 4710 12675 409 2881 1823 4549 6044 11553 2071 1794 556 7099 20366 2310 1718 669 463 1949 4986 207 700 641
internal_value=-3.43707e-06 -0.00256869 -0.00569444 0.0021999 0.00173617 -0.00111686 -0.00220394 -0.0031298 -0.00252336 0.0104575 -0.000117767 6.60394e-05 -0.00534865 0.00268884 0.00019125 0.00609275 -0.0115901 -0.00436957 0.00422862 0.00350582 -0.00800989 0.00353457 -0.00582194 0.0149359 0.0122365 -0.0142672 -0.000564482 0.00138522 0.0207324
internal_weight=42551.3 19664.7 6227.91 22886.6 21677.7 13436.8 11171.6 4347.7 3956.84 1208.91 6723.1 2627.71 4448.5 17720.8 4375.41 694.294 1880.21 3262.55 2265.23 13345.4 1719.99 2187.09 603.403 859.659 599.492 1276.81 349.253 297.956 260.167
internal_count=171782 79648 25377 92134 87266 54271 45141 17670 16028 4868 27141 10650 18000 71238 17597 2797 7707 13231 9130 53641 7020 8817 2463 3462 2412 5244 1406 1199 1050
is_linear=0
shrinkage=0.02


Tree=18
num_leaves=27
num_cat=0
split_feature=26 28 24 27 28 27 26 27 2 27 24 26 27 27 28 27 27 28 28 24 24 2 26 27 26 20
split_gain=617.396 264.243 229.063 201.825 240.102 350.972 234.547 186.515 174.611 166.081 188.748 164.151 161.218 252.033 120.778 118.635 193.368 104.984 72.5443 54.2988 39.8007 37.6465 32.8711 29.9818 17.8233 2.33065
threshold=0.018680764513050167 -0.19898165324388642 -0.007946981016847059 0.043920957500467955 0.0050774337379616502 -0.021663478824249582 0.014996414102870387 -0.022644621998569727 -0.053065788423949871 0.061728282711398061 0.029124446267461794 0.027921905381012645 -0.057082147005709606 -0.020041292739310424 0.057704951502946404 0.05343150216121615 0.057389974718466151 -0.10320717596482384 -0.0046500924183415877 -0.049415019033252953 -0.03029324724760216 0.011784073600835667 0.015262557004985909 -0.088800116742762558 0.029701159130688451 14.010625923636994
decision_type=2 2 2 2 2 2 2 2 2 2 2 2 2 2 2 2 2 2 2 2 2 2 2 2 2 2
left_child=3 23 8 4 5 7 -7 -1 19 10 -4 -11 20 -14 18 22 -17 -10 21 -3 -6 -5 -16 -2 -25 -20
right_child=1 2 9 14 12 6 -8 -9 17 11 -12 -13 13 -15 15 16 -18 -19 25 -21 -22 -23 -24 24 -26 -27
leaf_value=-0.00039541614440768763 0.027769534205190398 0.019512709152517398 0.0027070416456783115 -0.019251096074863153 0.0052579003784950715 -0.0095499231003320813 -0.0025735517022207411 0.017617674338341431 0.0051315057719340997 0.012572714059797149 -0.0056736247385074864 0.0031760548950932289 -0.0073916387778035619 0.002595001720999347 -0.0036769733862168307 0.026106228646036303 -0.0095223819856378143 -0.0056152231709039532 -0.017673398905495706 0.003948799023688913 0.026116110616270394 -0.0040227315704804336 -0.022049273770195856 0.0058388102428716671 0.021518451673193582 -0.028833411463153651
leaf_weight=4517.1351742893457 148.0165251493454 99.489123150706291 14223.65372414887 118.34019926190376 60.13866999745369 4239.514660641551 3558.1923397630453 237.18132473528385 408.90693674981594 1296.6258511841297 1156.7648255825043 1763.5180521160364 1277.4624166488647 4763.4986360818148 65.297590121626854 99.53005450963974 140.7719139456749 2941.0198410302401 53.318085566163063 722.67923326790333 118.11476163566113 153.31273379921913 115.27523422241211 74.309053853154182 56.1570755392313 173.68548032641411
leaf_count=18275 602 399 57180 482 242 17276 14432 961 1648 5198 4668 7073 5163 19226 265 399 573 11943 217 2910 475 624 469 298 225 707
internal_value=-2.50661e-05 0.0022078 0.0019658 -0.00262176 -0.0021705 -0.00376254 -0.00637277 0.000516576 -0.00226144 0.00292363 0.00207379 0.00717809 0.0010399 0.000475485 -0.0117505 -0.00373273 0.00538434 -0.00429178 -0.0183738 0.0059629 0.0195236 -0.010957 -0.0157914 0.0214062 0.0132806 -0.0267358
internal_weight=42581.9 22891.1 22612.7 19690.8 18771.2 12552 7797.71 4754.32 4172.1 18440.6 15380.4 3060.14 6219.21 6040.96 919.531 420.875 240.302 3349.93 498.656 822.168 178.253 271.653 180.573 278.483 130.466 227.004
internal_count=171930 92144 91019 79786 76050 50944 31708 19236 16900 74119 61848 12271 25106 24389 3736 1706 972 13591 2030 3309 717 1106 734 1125 523 924
is_linear=0
shrinkage=0.02


Tree=19
num_leaves=30
num_cat=0
split_feature=25 27 27 17 7 27 25 17 25 27 25 14 27 25 27 25 25 17 25 27 27 5 25 27 13 25 19 25 27
split_gain=419.873 462.94 205.33 185.084 220.061 173.599 117.384 110.695 103.687 101.757 174.596 99.6315 96.121 90.678 90.4876 82.8821 127.305 95.6609 72.3657 63.2273 50.2385 64.2359 48.8122 47.4359 35.4978 23.8335 16.1927 15.8576 7.29639
threshold=0.22611077297626295 -0.080670801652016802 0.08546135546428027 -0.052167648164390339 0.0056051742260287982 -0.028627781783799728 0.98530287984111231 -0.25850318498900826 0.03262411347517731 -0.030496881476224889 0.078278186274509817 0.54054054035588994 0.091114856200203528 0.76442841287458385 -0.032037729923161389 0.18893421723610407 0.21857040229885061 -0.2637893948997343 0.57561463693539172 -0.0077015263101073385 0.10345686815367729 0.50000000000000022 0.88323693451766172 0.081486640215834572 0.04251251654563188 0.98984536082474239 0.27812517504200335 0.057037518976360883 -0.096231152769483588
decision_type=2 2 2 2 2 2 2 2 2 2 2 2 2 2 2 2 2 2 2 2 2 2 2 2 2 2 2 2 2
left_child=1 7 3 4 6 9 -2 24 -9 14 -11 -6 13 18 -3 17 -17 -7 -4 26 22 -22 -14 -21 28 -15 -5 -10 -1
right_child=2 5 12 19 11 15 -8 8 27 10 -12 -13 20 25 -16 16 -18 -19 -20 23 21 -23 -24 -25 -26 -27 -28 -29 -30
leaf_value=0.017350731929552405 0.0015242181827133656 -0.00070932174981684496 0.019380476286398458 0.0013130030854192514 -0.0042290476996608333 -0.0097816214953135912 0.021874983501316458 0.017475665513006881 -0.015732058634007107 -0.017017517492537916 0.018647281971519773 -0.00012913925223333292 0.0040843230694997245 0.032464649017638784 -0.014172895391906797 0.0008590532844820251 -0.015054379017519513 -0.0046536342020585524 -0.0080098755929717599 0.006301394962479924 0.01019703782417976 -0.0080444726467594971 -0.011536764589295903 -0.0073251027097475108 0.0078749257466978733 0.013306762307623662 -0.006058197720216393 -0.00072982231727502524 0.027414122726855006
leaf_weight=99.20215468108654 15804.952659785748 3198.5294201374054 72.305086329579353 264.51028518378735 4729.3138033300638 2631.4150138050318 109.38908523321152 99.070339173078537 66.471946910023689 66.549947947263718 232.89601196348667 4770.6432298719883 283.14472259581089 124.41498769819736 208.4162937104702 1268.9155687838793 233.48235264420509 3341.954882144928 71.686805337667465 3293.2985112816095 772.48505902290344 80.793936923146248 105.70502956211567 100.09765788912773 77.070465847849846 50.723278880119324 205.337601557374 52.1981340944767 181.72836615145206
leaf_count=403 63665 12934 290 1065 19107 10772 440 398 268 269 941 19223 1134 498 847 5137 946 13650 287 13216 3097 326 424 401 311 203 827 210 730
internal_value=6.7441e-06 -0.00320775 0.0012333 0.000854958 0.000233748 -0.00411171 0.00167218 0.0141988 0.00275008 -0.000565434 0.010506 -0.00217343 0.0082901 0.0180386 -0.00155837 -0.00586568 -0.00164246 -0.00692227 0.00579869 0.00493082 0.00570717 0.00840971 -0.000203889 0.00588337 0.0209732 0.0275506 -0.00189618 -0.00959121 0.024296
internal_weight=42596.7 11757.9 30838.8 29277.5 25414.3 11182.2 15914.3 575.741 217.74 3706.39 299.446 9499.96 1561.26 319.13 3406.95 7475.77 1502.4 5973.37 143.992 3863.24 1242.13 853.279 388.85 3393.4 358.001 175.138 469.848 118.67 280.931
internal_count=172019 47816 124203 117944 102435 45496 64105 2320 876 14991 1210 38330 6259 1278 13781 30505 6083 24422 577 15509 4981 3423 1558 13617 1444 701 1892 478 1133
is_linear=0
shrinkage=0.02


Tree=20
num_leaves=25
num_cat=0
split_feature=26 28 25 28 25 12 28 26 2 3 26 26 1 4 25 26 28 25 26 31 25 21 26 25
split_gain=534.092 273.266 207.079 208.764 198.995 187.069 191.864 195.677 129.522 127.287 134.163 116.231 109.341 153.795 101.814 96.3346 77.6853 70.3376 64.8206 55.5263 54.8771 22.8391 17.2029 15.0574
threshold=0.018680764513050167 -0.19898165324388642 0.18564064801178207 -0.15148920223788634 0.27005577005577014 0.016852904159876003 0.022698245474825098 0.015191254248405625 -0.053065788423949871 -0.019143220144513137 0.014957062860806631 0.00838944207513234 0.028518258791750965 -0.0051012301450388256 0.98048734056729503 0.030620643671476166 0.050042431049159765 0.041451890034364267 0.017192242118818424 0.29146440129449841 0.14998146088246203 -1.2941844286544004 0.017959749769869745 0.019142700128228617
decision_type=2 2 2 2 2 2 2 2 2 2 2 2 2 2 2 2 2 2 2 2 2 2 2 2
left_child=2 21 3 17 8 11 7 -7 20 18 -11 -4 14 -14 -6 -10 -8 22 -5 -13 -3 -2 -1 -23
right_child=1 4 5 9 12 6 16 -9 15 10 -12 19 13 -15 -16 -17 -18 -19 -20 -21 -22 23 -24 -25
leaf_value=0.029656558799769476 0.0090263456912632219 0.0084041415748650292 0.024396085290265383 -0.0043903463981068615 0.0036996334837832209 -0.0083333096130311854 0.0062623019447243531 -0.00088221029281961363 -0.0020700744285101248 -0.012935449746123507 -0.0043362140517863683 8.810495236992642e-06 -0.0070391704725166681 0.0020613653681844681 0.017400217632804284 -0.012814133456083645 -0.00086893296286407785 -9.3998242122847315e-05 0.0037800987590324415 0.004366734673439559 -0.0026892903281699495 0.013432357218267119 0.012243588392356791 0.028187038783536421
leaf_weight=72.080228507518768 59.136492997407913 645.84534223377705 86.807895392179489 2627.2191754877567 12010.596298500896 3032.181697383523 933.59490537643433 2645.8333110362291 3901.5968241691589 1601.9425996690989 1353.2617044448853 3101.8033210635185 894.05980907380581 4261.3641178160906 217.25946852564812 361.71073085069656 1737.5700499117374 85.103921338915825 449.05405865609646 1881.3548715114594 239.62103080749512 58.389602944254875 55.768973648548126 160.60544078052044
leaf_count=289 238 2598 348 10697 48245 12292 3759 10702 15817 6605 5523 12514 3608 17121 873 1467 7007 342 1817 7603 967 237 224 652
internal_value=6.29873e-05 0.00214554 -0.00235173 -0.00535964 0.00189876 -0.000949069 -0.0027896 -0.00486861 -0.00155111 -0.00605257 -0.00901838 0.00207772 0.00292189 0.000473973 0.00395171 -0.00300026 0.00162306 0.013863 -0.00318699 0.00166085 0.00538138 0.0216801 0.0229581 0.02473
internal_weight=42473.8 22810.2 19663.6 6244.43 22532.1 13419.1 8349.18 5678.02 5148.77 6031.48 2955.2 5069.97 17383.3 5155.42 12227.9 4263.31 2671.16 212.953 3076.27 4983.16 885.466 278.132 127.849 218.995
internal_count=171545 91823 79722 25497 90696 54225 33760 22994 20849 24642 12128 20465 69847 20729 49118 17284 10766 855 12514 20117 3565 1127 513 889
is_linear=0
shrinkage=0.02


Tree=21
num_leaves=22
num_cat=0
split_feature=28 28 7 12 10 6 4 6 28 20 28 13 20 3 13 20 13 28 20 4 21
split_gain=327.816 315.572 154.75 132.607 126.783 124.458 140.702 113.408 97.4343 95.2601 91.2536 68.3739 61.2809 58.3979 52.8249 60.6827 48.5753 41.4342 26.9441 25.1301 1.86232
threshold=-0.18680853567882597 0.0043594382011840375 -0.021151176711645122 0.012474619771135729 -0.077793264208017118 -0.015447715166806817 0.021967362017002449 0.030989478935599672 -0.21779043040695437 18.262466690752877 0.14511435929849173 0.013322041133128666 17.124409856234305 -0.0021978021978022451 0.023302554764430331 15.072535431619647 0.02733709424524209 -0.010292062186804304 17.276007721640045 -0.02135231316725977 -1.2004416942922707
decision_type=2 2 2 2 2 2 2 2 2 2 2 2 2 2 2 2 2 2 2 2 2
left_child=7 2 14 17 -5 6 12 13 -9 11 -11 -7 -3 18 19 -16 -8 -4 20 -2 -1
right_child=1 5 3 4 -6 9 16 8 -10 10 -12 -13 -14 -15 15 -17 -18 -19 -20 -21 -22
leaf_value=0.018966803724316025 0.0037426466542623076 0.002021211075608527 0.001899870106243868 -0.00042994784082654177 -0.0049515919211476234 0.009038809813544154 -0.0070074991501655236 0.019588547497410246 -0.012271878403162429 -0.0054445057769732432 0.0037790913750129348 0.002646173040499235 -0.0045902990286541883 0.0001885957697712812 0.0033248346412965146 -0.0028175351791396319 -0.0010437022044208172 -0.0045406127902530421 0.0085051298320323876 0.011513797848991097 0.028152088640366248
leaf_weight=78.906678453087807 852.87415589392185 4241.3593944460154 2491.0645579248667 3329.1324484199286 9852.5244985073805 706.77073745429516 1478.1554382443428 58.817675560712814 91.290655076503754 1111.2624631524086 690.12754712998867 12444.813542932272 639.89634571969509 49.904296010732651 1204.0614551752806 1369.7765263915062 881.6118992716074 469.65281122922897 50.437308177351952 210.64248287677765 214.80887484550476
leaf_count=317 3447 17094 10085 13483 39986 2844 5963 237 368 4480 2774 50097 2583 201 4868 5539 3555 1900 204 855 871
internal_value=-7.4214e-05 -0.000275511 -0.00211259 -0.00295261 -0.00381173 0.00136093 -0.000788853 0.0152774 0.000312223 0.00240322 -0.00189912 0.00299454 0.00114659 0.0208526 0.00160886 4.9033e-05 -0.00479479 0.000865552 0.0237461 0.00534721 0.0261102
internal_weight=42517.9 41973.7 19779.7 16142.4 13181.7 22194 7241.02 544.165 150.108 14953 1801.39 13151.6 4881.26 394.057 3637.35 2573.84 2359.77 2960.72 344.153 1063.52 293.716
internal_count=171751 169553 80163 65454 53469 89390 29195 2198 605 60195 7254 52941 19677 1593 14709 10407 9518 11985 1392 4302 1188
is_linear=0
shrinkage=0.02


Tree=22
num_leaves=29
num_cat=0
split_feature=26 27 27 25 27 12 10 25 27 26 27 1 26 25 27 27 27 27 26 23 25 25 27 20 21 20 12 26
split_gain=521.166 211.329 252.182 205.496 252.515 190.054 190.015 190.5 142.971 141.725 135.871 164.174 134.674 102.104 79.5922 381.545 69.0163 60.7647 51.0596 46.2226 26.129 20.4964 19.9542 17.6903 15.7955 14.8023 13.7311 4.42939
threshold=0.018680764513050167 0.043920957500467955 0.040964019796852658 0.17759856630824375 -0.024969504433407053 0.013566536854240823 -0.13774482956867087 0.27005577005577014 -0.035236760400947524 0.021153676789645168 0.044686782014767716 0.030536498297691343 0.020194090851878774 0.99528301886792458 0.05343150216121615 0.056789967053494768 -0.030496881476224889 0.043068368284623466 0.019200727031922504 0.051183902048552145 0.77805539691604808 0.80439980870396954 0.00036314366920698829 13.665203000058018 1.3304636490734076 12.73744472757055 0.02768693192220768 0.014843151461429354
decision_type=2 2 2 2 2 2 2 2 2 2 2 2 2 2 2 2 2 2 2 2 2 2 2 2 2 2 2 2
left_child=1 2 3 4 -1 -5 9 8 12 21 11 -9 -8 -12 23 20 25 27 -10 -17 -16 26 -18 -3 -25 -11 -2 -4
right_child=6 14 17 5 -6 -7 7 10 18 16 13 -13 -14 -15 15 19 22 -19 -20 -21 -22 -23 -24 24 -26 -27 -28 -29
leaf_value=-0.00082978428006394856 -0.0034784313118644164 -0.0060555827468560851 0.032228024919783091 0.0036949910461740692 -0.0091676904817694395 -0.002128194340193585 0.016475302963245675 0.0026582776743493473 0.0033815444987931593 0.0086468070140401903 0.0058622917698557446 -0.003036687891157673 0.00037749400190486003 -0.013689787621271394 0.030661520548505083 -0.022447336686468523 0.0035910060839754376 0.00083633213772712242 -0.004618951157626448 -0.0069848014974396777 0.011808159565241876 -0.012071595588287637 0.012263822768950244 -0.022220670211076536 -0.0099510397582412546 0.022111199342724 0.0049588608578487407 0.019904637151438139
leaf_weight=2703.433544665575 134.97655136883259 51.352112755179405 62.641812458634377 2899.9421986192465 3152.9859577566385 9801.0283442437649 268.24492239952087 9421.1893322914839 346.31901158392429 51.744481295347214 4694.9187135994434 2571.3687291145325 881.45873883366585 104.12923572957516 61.42624519765377 235.69072130322456 194.77067196369171 53.774306386709213 3329.7106393128633 129.44144496321678 81.414796188473701 50.756657898426056 270.17482860386372 284.71242310106754 71.147774711251259 330.11906939744949 164.2531728297472 91.070116847753525
leaf_count=10966 543 209 252 11695 12962 39645 1079 37852 1404 208 18829 10359 3555 418 246 967 784 217 13517 529 328 205 1087 1160 289 1336 661 367
internal_value=-5.52629e-05 -0.00244014 -0.00197939 -0.00222785 -0.00532616 -0.000796114 0.0020012 0.00156938 -0.00192899 0.00974538 0.00257624 0.00143478 0.00420578 0.00542008 -0.0118035 -0.00636443 0.0141494 0.0196783 -0.00385622 -0.0171882 0.0208138 -0.000903324 0.00875011 -0.0183803 -0.0199949 0.0204737 0.00109261 0.0259099
internal_weight=42494.2 19680.1 18764.9 18557.4 5856.42 12701 22814.1 21617.3 4825.73 1196.8 16791.6 11992.6 1149.7 4799.05 915.186 507.973 846.809 207.486 3676.03 365.132 142.841 349.986 464.946 407.212 355.86 381.864 299.23 153.712
internal_count=171669 79832 76104 75268 23928 51340 91837 87013 19555 4824 67458 48211 4634 19247 3728 2070 3415 836 14921 1496 574 1409 1871 1658 1449 1544 1204 619
is_linear=0
shrinkage=0.02


Tree=23
num_leaves=29
num_cat=0
split_feature=25 27 24 17 33 27 20 27 25 6 27 20 24 17 27 27 18 3 25 33 7 27 21 7 25 24 27 31
split_gain=364.548 451.387 229.941 187.512 179.313 141.009 132.19 125.679 124.071 113.471 101.396 131.628 122.609 93.7285 78.2674 65.2024 62.0883 61.2048 47.1068 34.5614 31.8617 27.5016 37.1364 25.4165 25.0385 18.2137 15.691 8.29879
threshold=0.18564064801178207 -0.080670801652016802 -0.010972448763367905 -0.052167648164390339 0.72193585337915245 -0.035236760400947524 13.042113814995105 -0.041273538493397967 0.075710532600907585 0.090476190476190502 0.08546135546428027 16.756424579070224 0.0023700923150894028 -0.15133536844470805 0.08546135546428027 -0.012996382171195467 2.0317563472551381 0.18952930634619439 0.03262411347517731 0.74519052904180549 -0.0096241708758978955 -0.088800116742762558 0.01228006435605423 -0.0026510999946341425 0.057037518976360883 -0.0092576667963329157 -0.015563782698113602 0.42438536306460845
decision_type=2 2 2 2 2 2 2 2 2 2 2 2 2 2 2 2 2 2 2 2 2 2 2 2 2 2 2 2
left_child=1 9 5 4 10 7 23 -3 -7 21 11 -2 -12 20 -8 26 19 -18 -11 -17 -4 22 -1 -6 -20 -15 27 -5
right_child=3 2 13 15 6 8 14 -9 -10 18 12 -13 -14 25 -16 16 17 -19 24 -21 -22 -23 -24 -25 -26 -27 -28 -29
leaf_value=0.0088950146852843723 0.0018095792630362392 -0.00058524702084566981 -0.0095791433295659995 -0.0053902208133560061 -0.0029364455147646695 -0.0087667332086671188 -0.0016158003869737683 0.012272274788183305 -0.0019757104060843826 0.012670111865145439 -0.0090250634925784241 -0.0022267682519440915 0.011785911910484819 0.0019788933619326525 0.010284238670364718 0.006193221933908314 0.013428480457965028 -0.00084924338578408216 -0.016282175234207708 0.0021411999802982218 -0.015261372140225255 0.028248578885906581 0.024203340710063938 -0.010084219251655693 0.0021756899420158162 -0.0054016088202868753 -0.01187423106868069 0.0013279392005874989
leaf_weight=167.57092280685902 16776.854804426432 1744.8089765906334 917.82706202566624 112.68440194427967 271.88482324779034 1757.1118338853121 5473.5702426433563 362.59672044217587 2801.0475412756205 69.484186932444572 131.33776450157166 3994.0614112913609 664.30974595248699 189.34942774474621 225.07487088441849 1835.7862152904272 611.28932952880859 145.23315314948559 57.80133481323719 1602.586092159152 811.61236144602299 114.4012616276741 115.76211142539978 910.64728629589081 50.160141661763191 410.00802603363991 64.741422608494759 184.72273133695126
leaf_count=678 67610 7040 3774 454 1096 7182 22099 1467 11448 280 529 16104 2660 778 902 7362 2451 583 233 6436 3354 459 474 3680 202 1682 261 745
internal_value=1.2593e-05 -0.00342287 -0.00452525 0.00100966 0.000405174 -0.00262717 -0.00240377 0.00164134 -0.00460468 0.0136716 0.00130269 0.00103211 0.00829075 -0.00993215 -0.00113368 0.00477424 0.0054789 0.0106737 0.000225777 0.00431628 -0.0122936 0.0195434 0.0155302 -0.00847695 -0.00781267 -0.00303978 -0.00329711 -0.0011984
internal_weight=42574.3 9569.54 8994.36 33004.8 28447.7 6665.57 6881.18 2107.41 4558.16 575.18 21566.6 20770.9 795.648 2328.8 5698.65 4557.04 4194.89 756.522 177.446 3438.37 1729.44 397.734 283.333 1182.53 107.961 599.357 362.149 297.407
internal_count=172023 39051 36725 132972 114680 27137 27777 8507 18630 2326 86903 83714 3189 9588 23001 18292 16832 3034 715 13798 7128 1611 1152 4776 435 2460 1460 1199
is_linear=0
shrinkage=0.02


Tree=24
num_leaves=28
num_cat=0
split_feature=25 28 25 28 10 12 24 28 7 17 20 28 8 15 28 24 28 28 24 28 17 25 24 28 21 23 25
split_gain=381.806 435.946 241.165 196.837 177.007 170.545 169.913 131.701 101.719 96.956 115.68 81.5137 77.1993 75.7316 71.579 67.1009 66.5233 64.1367 170.637 50.9677 50.7873 47.9829 46.7193 46.6777 35.3632 24.5429 13.27
threshold=0.18564064801178207 -0.15148920223788634 0.12659885960856837 -0.00041968292277278478 -0.077793264208017118 0.013452481310812737 -0.049415019033252953 -0.066579112209230115 -0.029850746268656633 -0.052167648164390339 17.124409856234305 -0.06045210755363823 -0.01730049094182123 0.71557537994414455 0.36743914107445325 0.014066844183743521 0.18831819703978445 -0.19898165324388642 -0.036967374678529293 -0.10810822076920329 -0.38685317644378253 0.0097563297163525617 -0.018213733737201008 0.012493780260362589 -0.055578033158917094 0.027913304805023114 0.019142700128228617
decision_type=2 2 2 2 2 2 2 2 2 2 2 2 2 2 2 2 2 2 2 2 2 2 2 2 2 2 2
left_child=1 17 6 4 7 15 21 19 -8 10 12 -9 -5 -7 16 -6 -11 26 -19 -2 25 -3 -22 -12 -20 -4 -1
right_child=3 2 20 9 5 13 8 11 -10 14 23 -13 -14 -15 -16 -17 -18 18 24 -21 22 -23 -24 -25 -26 -27 -28
leaf_value=0.01360843231143025 0.003056842825716828 0.0045004001164916157 -0.0072384630436371899 0.0054263418988781563 0.0034767818107273225 -0.002256595849769236 0.0016920224945670076 -0.012283988147806946 -0.0043662046498342006 0.0038913606576093164 0.0056349497342596004 0.00069899774346898573 0.001609663679590991 -0.0065174970014639459 -0.014794099456347831 -0.008366971456768714 0.0098988333715156404 -0.016508041735292585 0.019047978145605687 0.0099374309486414784 -0.019792882272243233 0.03076220002020013 -0.0072359571899999944 -0.0025454511870441495 0.0046219110799853129 -0.01700428669565027 0.026272640387624301
leaf_weight=84.414567708969116 814.31914737820625 50.256766214966774 158.20110535621643 2721.6908863782883 2120.3638841658831 4637.1576230973005 1472.18364135921 212.43106935918331 4405.9580217897892 3028.5472283214331 301.94382670521736 1734.9871010780334 9699.6083703637123 2629.9999867975712 66.391037404537201 204.6920582652092 986.52502019703388 85.855200812220573 217.63986302912235 951.03766950964928 124.80835443735123 70.690773352980614 2184.0434347838163 2963.9950629025698 109.50983418524265 448.80019474029541 123.01167994737625
leaf_count=344 3280 203 651 10944 8548 18759 5950 858 18020 12150 1219 7000 39017 10651 270 828 3949 345 873 3833 509 285 8962 11941 440 1851 507
internal_value=2.57225e-06 -0.00352181 -0.00465357 0.00101966 -0.000859785 -0.00229589 -0.00235217 0.00284321 -0.00284537 0.00228549 0.00156825 -0.000734819 0.00244941 -0.0038048 0.00503208 0.00240979 0.00538288 0.0126157 0.00782348 0.00679247 -0.00936952 0.0206204 -0.00796469 -0.00177558 0.0144215 -0.0145717 0.0216546
internal_weight=42609.1 9535.37 8914.94 33073.7 13305 9592.21 5999.09 3712.77 5878.14 19768.7 15687.2 1947.42 12421.3 7267.16 4081.46 2325.06 4015.07 620.431 413.005 1765.36 2915.85 120.948 2308.85 3265.94 327.15 607.001 207.426
internal_count=172187 38940 36431 133247 53757 38786 24458 14971 23970 79490 63121 7858 49961 29410 16369 9376 16099 2509 1658 7113 11973 488 9471 13160 1313 2502 851
is_linear=0
shrinkage=0.02


Tree=25
num_leaves=26
num_cat=0
split_feature=26 27 27 27 27 10 24 26 25 27 24 27 24 27 24 18 12 18 24 7 4 27 24 33 26
split_gain=445.762 198.105 198.025 233.85 261.708 166.973 191.649 138.423 133.504 126.909 151.298 99.6696 85.9218 73.4184 60.1517 46.8896 38.5227 33.42 28.6421 16.3131 20.3994 12.573 11.5303 9.85745 2.182
threshold=0.018680764513050167 0.056789967053494768 0.05343150216121615 0.043920957500467955 0.040964019796852658 -0.13774482956867087 -0.0077815490399477097 0.021153676789645168 0.14007994186046516 0.044686782014767716 0.026005030584150119 0.094947385688530311 -0.0070536281275989472 -0.030496881476224889 -0.049415019033252953 0.15801358826358827 0.038022866741964666 0.54545454545454564 0.0055492430647659293 -0.036860549866948415 -0.12829568023833168 0.049524841225170486 -0.0047006910108973055 0.066352201257861648 0.014038413545914763
decision_type=2 2 2 2 2 2 2 2 2 2 2 2 2 2 2 2 2 2 2 2 2 2 2 2 2
left_child=1 2 3 4 -1 7 8 19 14 10 -8 -10 -11 22 -7 -15 17 24 -4 20 -2 -5 -9 -21 -3
right_child=5 16 18 21 -6 6 9 13 11 12 -12 -13 -14 15 -16 -17 -18 -19 -20 23 -22 -23 -24 -25 -26
leaf_value=-0.001999447480339942 -0.0031619666445616237 -0.02749362807091894 0.030802666313502432 -0.014600934825067391 0.019891794827491014 0.014431292276380153 0.0020423619790856645 0.016412928557822198 -0.0074253325367959399 0.027158596821233262 -0.0057703091714691483 0.014577569615426153 0.0048422112937382775 0.014869619354083019 0.00012060492038819308 0.0020080143361055135 -0.00063472803755064422 -0.00507580966579125 0.011562353946693502 0.0024203186917663337 0.013745312846703999 -0.024656803400995166 0.025368685871591228 -0.006501022483436837 -0.019035916429562077
leaf_weight=18452.250631913543 53.536900475621223 90.767031073570251 64.216911897063255 317.38326014578342 215.94160297513008 120.1080851405859 11722.27053886652 247.57160682976246 1744.9229639619589 65.716011717915535 1077.1798269599676 81.299795597791672 4817.4791152477264 208.99098420143127 1982.6101775914431 253.9761843085289 53.395006820559502 59.643259823322296 83.202221885323524 60.332220956683159 49.72585217654705 85.404191493988037 139.41869655251503 183.82902866601944 155.64160485565662
leaf_count=74905 215 376 257 1295 869 484 47111 1010 7095 264 4350 329 19317 840 8050 1022 218 245 335 243 200 349 559 741 639
internal_value=4.73518e-05 -0.00216566 -0.00188695 -0.00206886 -0.00173989 0.0019478 0.00154272 0.00920575 -0.00244806 0.00243101 0.0013813 -0.00639776 0.0051741 0.0135342 0.000979821 0.00795353 -0.0167819 -0.0194793 0.0208103 -0.00136859 0.00505374 -0.0170583 0.0199728 -0.00421196 -0.0227158
internal_weight=42386.8 19577.8 19218.4 19071 18668.2 22809 21611.6 1197.38 3928.94 17682.6 12799.5 1826.22 4883.2 849.957 2102.72 462.967 359.447 306.052 147.419 347.424 103.263 402.787 386.99 244.161 246.409
internal_count=171318 79488 78010 77418 75774 91830 87000 4830 15958 71042 51461 7424 19581 3431 8534 1862 1478 1260 592 1399 415 1644 1569 984 1015
is_linear=0
shrinkage=0.02


Tree=26
num_leaves=29
num_cat=0
split_feature=25 27 24 27 29 27 25 25 14 25 24 25 25 6 10 27 25 14 20 6 27 25 14 25 20 18 6 4
split_gain=306.705 389.635 236.855 156.06 156.125 148.545 136.164 152.992 132.156 123.782 151.638 129.527 107.499 104.686 103.913 102.107 89.0161 58.9729 52.6632 48.0787 49.3886 44.6827 29.9395 27.4271 24.0587 28.8271 23.5084 10.1566
threshold=0.18564064801178207 -0.080670801652016802 -0.010972448763367905 0.08546135546428027 0.84021276595744687 -0.024344899505933253 0.86078811369509056 0.98048734056729503 0.61538461518688881 0.37406716417910452 0.035845404112946531 0.84152378652499404 0.091608391608391626 0.10125862242767227 -0.077793264208017118 -0.02349036553188966 0.955272363818091 0.64583333303980905 14.535052048739319 0.11272434489825801 -0.0081565697709624664 0.03262411347517731 0.33069449127506539 0.3246621621621622 13.78759244887774 1.1209413873076113 0.011431084307073737 -0.071997405592389638
decision_type=2 2 2 2 2 2 2 2 2 2 2 2 2 2 2 2 2 2 2 2 2 2 2 2 2 2 2 2
left_child=1 13 5 4 6 12 14 -8 18 17 11 -11 -3 24 -2 -7 -12 -5 -6 20 -4 -15 -21 -19 -1 -26 -10 -23
right_child=3 2 19 9 8 15 7 -9 26 10 16 -13 -14 21 -16 -17 -18 23 -20 22 -22 27 -24 -25 25 -27 -28 -29
leaf_value=0.0046638942902936667 0.0047824020408534012 -0.0012181189921555715 -0.013588797472886459 -0.022713409441796669 -0.0089819829468266894 -0.029029797040233257 -0.0054978472595160078 0.0061770266095776795 -0.0030838304046089497 0.010060677047130085 -0.0062638832464265827 0.029202871421056757 0.0073064708379518553 0.011762825650986306 0.0011528221622017093 -0.004515525900331596 0.010347605312694075 0.010825244723598944 -0.0032218462889400802 0.0089252750446993118 -0.0066342934629728106 -0.0016380484956733299 -0.0057584056784726915 -0.0078167447918990381 0.023300012218023181 0.0080635892065503683 0.00167725483362242 -0.014837903593598557
leaf_weight=52.427266374230385 3758.3682134449482 2281.5516141355038 1183.6412824392319 65.290712743997574 1117.7992393225431 64.864363238215446 2110.855341181159 564.02339237928391 514.70494467020035 705.99495148658752 311.39426654577255 178.11668659746647 792.44999799132347 65.624062076210976 19764.176352381706 3513.8261569142342 212.71478220820427 51.403877377510071 1519.5049910694361 58.885604038834572 669.59658519923687 49.727082535624504 399.61432588100433 66.507749855518341 273.57166740298271 74.454852730035782 2023.2271751463413 49.716232940554619
leaf_count=212 15135 9231 4892 264 4523 265 8537 2276 2077 2827 1249 713 3211 265 79601 14411 852 207 6147 242 2773 200 1644 267 1114 302 8137 201
internal_value=1.7047e-05 -0.00314162 -0.00416121 0.000931166 0.000619963 -0.00223745 0.00124761 -0.0030217 -0.00255153 0.0070324 0.00905138 0.0140822 0.000981244 0.0128803 0.00173449 -0.00500531 0.000474325 -0.00820879 -0.00568318 -0.00967197 -0.0111114 -0.000416195 -0.00375348 0.000257323 0.018348 0.0202574 0.000699654 -0.00882316
internal_weight=42494 9529.95 8964.43 32964.1 31372.7 6652.69 26197.4 2674.88 5175.24 1591.42 1408.22 884.112 3074 565.521 23522.5 3578.69 524.109 183.202 2637.3 2311.74 1853.24 165.067 458.5 117.912 400.454 348.027 2537.93 99.4433
internal_count=171775 38963 36669 132812 126433 27118 105549 10813 20884 6379 5641 3540 12442 2294 94736 14676 2101 738 10670 9551 7665 666 1886 474 1628 1416 10214 401
is_linear=0
shrinkage=0.02


Tree=27
num_leaves=29
num_cat=0
split_feature=26 28 24 28 12 8 27 24 27 27 6 2 28 24 26 26 27 20 24 24 25 25 27 27 24 25 28 25
split_gain=472.011 280.429 323.986 247.384 292.727 234.188 167.856 231.726 166.729 151.532 151.463 134.438 128.351 142.562 228.655 169.171 128.15 120.337 118.218 117.271 80.3219 74.091 71.9771 54.6937 52.6457 35.9108 25.4319 12.1436
threshold=0.016290875397449851 -0.095494699460798291 -0.0077815490399477097 0.022698245474825098 0.016548801310539828 -0.011358014897184297 0.035453595890413254 0.026005030584150119 -0.057082147005709606 -0.021663478824249582 -0.015447715166806817 -0.049382716049382651 -0.19898165324388642 -0.03029324724760216 0.025905350301932938 0.0252603931937826 -0.030496881476224889 17.902735205624261 -0.0053782975255392699 -0.0040225060285698847 0.041451890034364267 0.038285400256457235 -0.020895098520219126 0.094947385688530311 0.0089370474121538823 0.62767897856817156 0.078953781119515939 0.019142700128228617
decision_type=2 2 2 2 2 2 2 2 2 2 2 2 2 2 2 2 2 2 2 2 2 2 2 2 2 2 2 2
left_child=3 12 11 4 9 22 7 -4 21 16 -8 20 25 15 -15 -14 -1 19 -11 -10 -3 -5 -6 -13 -7 27 -19 -2
right_child=1 2 6 8 5 24 10 -9 17 18 -12 23 13 14 -16 -17 -18 26 -20 -21 -22 -23 -24 -25 -26 -27 -28 -29
leaf_value=-0.0012059052881641292 0.013886066430162481 0.012787861872820175 0.0013453547661004901 0.006029916934190185 -0.0012976098428926222 -0.010335520602407189 -0.00059239982178992871 -0.0097065725174731807 -0.002953105316466303 -0.0089579746708057639 0.0062675380208299936 -0.0055057212939039982 -0.018331299865200087 0.01206369153428684 -0.0046233458409179326 0.012067559682301207 0.012013272888969374 -0.0073112612787864404 -5.5308323043214709e-05 0.0057488559006899469 -0.00044059105977716992 0.03550425474635624 -0.0070268012927993265 0.0096579526522568068 -0.018719380666825408 0.0059384066939294133 -0.022281190001021755 0.026167796431824
leaf_weight=548.08722570538521 73.796512857079506 254.33042755723 13950.795276165009 65.576826304197311 2082.0042245835066 2491.7372990697622 1713.5164443850517 797.24417307972908 1041.9770195037127 850.93273243308067 5101.0184074789286 4104.6999440938234 183.89903657138348 1407.8293204158545 422.99818702042103 114.448631554842 617.96037405729294 130.21156030893326 1984.7516835033894 1507.0330074876547 618.50775662064552 77.398301646113396 1527.9862868189812 92.066465780138969 355.93120309710503 69.945175662636757 78.600865036249161 182.11334806680679
leaf_count=2225 303 1023 56137 264 8448 10209 6892 3225 4237 3516 20460 16738 741 5670 1706 461 2503 527 8023 6071 2502 311 6246 373 1454 281 319 748
internal_value=4.29258e-05 0.0014727 0.000874895 -0.00306781 -0.00450119 -0.00713353 0.00194517 0.000743471 0.0020925 -0.000244751 0.0045405 -0.00367079 0.00793462 0.00610252 0.0081953 -0.00659742 0.00580405 0.0009734 -0.00274493 0.00218504 0.00344206 0.0227813 -0.00373448 -0.00515721 -0.0114214 0.0195722 -0.013429 0.0230368
internal_weight=42447.4 29087.2 26632.2 13360.2 10459.4 6457.66 21562.6 14748 2900.8 4001.73 6814.53 5069.6 2455.03 2129.18 1830.83 298.348 1166.05 2757.82 2835.68 2549.01 872.838 142.975 3609.99 4196.77 2847.67 325.855 208.812 255.91
internal_count=171613 117260 107350 54353 42624 26357 86714 59362 11729 16267 27352 20636 9910 8578 7376 1202 4728 11154 11539 10308 3525 575 14694 17111 11663 1332 846 1051
is_linear=0
shrinkage=0.02


Tree=28
num_leaves=25
num_cat=0
split_feature=26 28 27 27 28 27 24 27 27 27 24 26 26 28 24 27 28 28 27 27 28 27 24 24
split_gain=481.106 235.339 172.903 228.871 178.31 369.927 170.631 168.677 153.486 116.657 168.181 133.746 115.225 113.617 97.329 173.234 86.4461 75.2162 54.8516 43.5091 40.3776 19.3124 21.7506 14.6201
threshold=0.018269161930055351 -0.19898165324388642 0.043920957500467955 0.039354130665569441 0.0050774337379616502 -0.021663478824249582 -0.0077815490399477097 -0.01683542947020782 -0.035236760400947524 0.061728282711398061 0.031228710584433276 0.027921905381012645 0.020194090851878774 0.057704951502946404 0.0022013357909238052 0.05343150216121615 -0.092804607091956218 -0.0046500924183415877 0.043068368284623466 0.040964019796852658 -0.034064068392267437 -0.014464708721321625 -0.044590299294755636 -0.0016176750337086783
decision_type=2 2 2 2 2 2 2 2 2 2 2 2 2 2 2 2 2 2 2 2 2 2 2 2
left_child=2 21 3 4 5 -1 8 -6 12 10 -8 -11 -3 17 23 -16 -10 20 19 -5 -4 22 -2 -15
right_child=1 6 13 18 7 -7 9 -9 16 11 -12 -13 -14 14 15 -17 -18 -19 -20 -21 -22 -23 -24 -25
leaf_value=0.00070595012861025971 0.008956712903602046 0.012095840051824925 -0.017591498340249742 0.0073480512594018737 -0.0048471094035385087 -0.0065577162254598477 0.0022914140342228471 0.0028531029467806952 0.0056838841292808509 0.010877333826220177 -0.0061516914567055171 0.0023612304508901201 -0.0001508829539273326 -0.020245096630776289 -0.014310403507604737 0.021067729616903123 -0.0053731352966770495 -0.025948383450714457 -0.0022531081263224098 0.02569915314811436 -0.0011185869929477988 0.0086719014384095388 0.026081541197094445 -0.006315520966311744
leaf_weight=4585.5308346301317 48.840062975883484 435.38992424309254 118.57352602481842 90.230307966470718 1595.5345000326633 7193.647852614522 15149.47700497508 3927.2453079521656 307.86483144760132 1302.1386692225933 1000.4849907904863 1719.3392314314842 1006.1167167276144 87.559166952967644 93.008256122469902 121.96104830503464 2872.2905039489269 229.98360972106457 55.599929064512253 152.15980851650238 121.57712657749653 64.799807295203209 171.29998870193958 61.64881631731987
leaf_count=18591 204 1753 486 368 6460 29406 60878 15858 1248 5218 4045 6889 4057 362 379 490 11722 947 224 611 501 261 706 251
internal_value=-3.03514e-05 0.00183065 -0.00246204 -0.00203708 -0.00233922 -0.00372924 0.00161114 0.000622517 -0.00183447 0.00244308 0.00176539 0.00604985 0.00356329 -0.0113372 -0.00282398 0.00569281 -0.0042892 -0.0177905 0.0151889 0.0192353 -0.00952651 0.0197479 0.0226544 -0.0150108
internal_weight=42512.3 24078 18434.3 17599.9 17302 11779.2 23793.1 5522.78 4621.66 19171.4 16150 3021.48 1441.51 834.312 364.177 214.969 3180.16 470.134 297.99 242.39 240.151 284.94 220.14 149.208
internal_count=171915 96981 74934 71518 70315 47997 95810 22318 18780 77030 64923 12107 5810 3416 1482 869 12970 1934 1203 979 987 1171 910 613
is_linear=0
shrinkage=0.02


Tree=29
num_leaves=27
num_cat=0
split_feature=26 28 27 28 27 25 28 25 27 27 27 28 27 27 17 27 28 26 25 24 28 26 28 21 25 17
split_gain=415.827 214.032 183.71 210.365 325.735 236.257 184.526 178.542 155.038 202.083 125.747 118.898 99.2172 161.767 95.5486 126.82 86.5574 79.8057 79.785 70.3833 69.9768 38.2178 34.8243 25.8843 19.3843 6.76633
threshold=0.018680764513050167 -0.19898165324388642 0.043920957500467955 0.0050774337379616502 -0.021663478824249582 0.17759856630824375 1.0000000180025095e-35 0.27005577005577014 -0.057082147005709606 -0.01683542947020782 -0.035236760400947524 0.057704951502946404 0.05343150216121615 0.057389974718466151 -0.052167648164390339 0.08546135546428027 0.36743914107445325 0.020194090851878774 0.057037518976360883 -0.0054802030282956509 -0.0046500924183415877 0.015262557004985909 -0.034064068392267437 -1.3333277784778714 0.019142700128228617 -0.19424460431654669
decision_type=2 2 2 2 2 2 2 2 2 2 2 2 2 2 2 2 2 2 2 2 2 2 2 2 2 2
left_child=2 23 3 4 6 -6 -1 10 18 -10 17 20 21 -14 15 -9 -16 -3 -5 -12 22 -13 -4 -2 -25 -22
right_child=1 7 11 8 5 -7 -8 14 9 -11 19 12 13 -15 16 -17 -18 -19 -20 -21 25 -23 -24 24 -26 -27
leaf_value=0.0016774523894800431 0.0055246090882541754 0.012981765868594735 -0.01666271538936559 0.0069255988627593655 -0.0115389200587256 -0.0035802381926457604 -0.022240734905996574 0.0013860285224509749 -0.00538165200736443 0.0029447716012682705 -0.00243706540635207 -0.0012203681962185211 0.024276390726833515 -0.0086043122540086867 0.0060990562981935292 0.008787142268217028 -0.016679863819799617 0.0010747161595627693 0.033628323988968097 -0.010913545069156776 -0.028201249314234535 -0.020538908102989552 -0.0018943683222354716 0.010964655049334375 0.026634126120244943 -0.015952958169658915
leaf_weight=4586.8276488780975 50.104426965117455 286.02490390837193 140.46574269235134 106.60788981616497 2019.1622753739357 5758.9099732190371 127.68592901527882 13016.213777974248 1567.8148777037859 4495.7776936143637 3357.1413572132587 66.659811466932297 100.44882270693779 133.07986801862717 3354.4725376665592 994.0099461376667 62.945409044623375 1020.5638715177774 80.0904640853405 442.02700693905354 169.95486244559288 115.04155254364014 122.43114541471004 58.784308210015297 153.57070772349834 57.574269399046898
leaf_count=18582 203 1150 577 429 8404 23400 525 52313 6355 18149 13676 272 402 545 13435 3981 256 4115 321 1781 704 474 504 243 638 237
internal_value=6.08127e-05 0.00189894 -0.00207067 -0.00164272 -0.00314151 -0.00565494 0.00100255 0.00168647 0.00134987 0.000785919 -0.00159902 -0.0108478 -0.00285829 0.00566739 0.00265034 0.0019155 0.00564989 0.00373609 0.0190633 -0.0034416 -0.0174748 -0.0137812 -0.0100235 0.0196934 0.0227405 -0.0255976
internal_weight=42444.4 22795.9 19648.5 18742.9 12492.6 7778.07 4714.51 22533.4 6250.29 6063.59 5105.76 905.656 415.23 233.529 17427.6 14010.2 3417.42 1306.59 186.698 3799.17 490.426 181.701 262.897 262.459 212.355 227.529
internal_count=171671 91791 79880 76165 50911 31804 19107 90707 25254 24504 20722 3715 1693 947 69985 56294 13691 5265 750 15457 2022 746 1081 1084 881 941
is_linear=0
shrinkage=0.02


Tree=30
num_leaves=31
num_cat=0
split_feature=25 27 25 29 14 6 7 14 27 25 25 25 25 20 25 25 10 7 6 25 12 25 27 21 33 12 27 27 4 1
split_gain=320.504 374.666 203.547 136.953 153.457 103.577 98.597 121.405 93.1561 124.648 149.367 94.1041 86.6543 70.8991 68.517 66.1765 58.0156 44.0455 49.3255 37.5592 35.0402 34.078 33.561 49.389 26.664 23.4951 23.2158 23.08 11.3048 2.9906
threshold=0.18564064801178207 -0.080670801652016802 0.12659885960856837 0.82875939849624081 0.61538461518688881 0.12429839358694929 -0.029850746268656633 0.36284914289197362 0.08546135546428027 0.86078811369509056 0.98048734056729503 0.85365505425471166 0.37406716417910452 14.535052048739319 0.99528301886792458 0.020835594139989151 0.093629589540694128 -0.0052540438447673523 -0.10003513303878335 0.17759856630824375 0.017055550747040737 0.03262411347517731 -0.096231152769483588 -0.58651437802899775 0.42438536306460845 0.012348698857638844 0.065104769611295368 -0.0046340989673044194 -0.069455732967750414 -0.028571428571428522
decision_type=2 2 2 2 2 2 2 2 2 2 2 2 2 2 2 2 2 2 2 2 2 2 2 2 2 2 2 2 2 2
left_child=1 5 6 8 13 22 15 -8 9 11 -11 -2 16 24 -14 -3 -10 19 -19 -4 27 -7 23 -1 -5 -15 -22 -6 -23 -24
right_child=3 2 17 4 20 21 7 -9 12 10 -12 -13 14 25 -16 -17 -18 18 -20 -21 26 28 29 -25 -26 -27 -28 -29 -30 -31
leaf_value=-0.0013210454946660135 0.0016235857455336414 -0.0048557221855748262 -0.0074818916709130847 -0.00085504863983110722 -0.0005196772047846007 0.0099240415180571247 0.0011538292926664066 -0.0058707435419108169 -0.02153810923083933 -0.0053268155159298261 0.0062745820650970821 0.016434236163586781 0.0098484545586788597 0.0037702333002383082 -0.0111685759394355 0.004729942552926524 0.0027783153073388856 -0.019345343817781559 -0.0092728369307742402 0.0023776707273119395 -0.00037062320888644779 -0.00095744203522420135 0.024757076605543053 0.019051411403282252 -0.0099452966939784365 -0.0033193141131459781 0.0045640144657156856 0.010035122878073994 -0.014660134115099102 0.014906361032717917
