tree
version=v4
num_class=1
num_tree_per_iteration=1
label_index=0
max_feature_idx=33
objective=binary sigmoid:1
feature_names=ret1 ret2 ret3 ret5 ret10 ret20 ret60 mar5 mar10 mar20 mar60 vol10 vol20 vol60 rsi14 skew20 kurt20 from_hi from_lo volz logturn turnz range range10 mkt_ret breadth mkt_vol mkt_mom5 mkt_mom20 xs_ret5 xs_ret20 xs_vol20 xs_volz xs_mar20
feature_infos=[-0.14924039320822158:1.5240174672489082] [-0.20539419087136934:1.5130434782608697] [-0.2709712622771917:1.4771428571428569] [-0.40253164556962018:1.4618357487922706] [-0.42941176470588238:2.1470054446460978] [-0.59414225941422605:3.492] [-0.77806122448979587:16.825396825396822] [-0.19618612688225123:0.92695214105793422] [-0.31522748375116061:1.2584986758129642] [-0.43158511573395841:1.6743438809346327] [-0.57905395631419077:3.0746104840489705] [0:0.48367290912355193] [0.00054622849903336211:0.34082152685759332] [0.00416286017883269:0.19912388508212789] [0:0.99999999999854172] [-4.3069822099951374:4.4622243165216036] [-2.0606283712710454:19.938032250328153] [-0.86987951807228914:0] [0:3928.4452729093828] [-4.1613645628234028:3.9666615548430935] [0:21.317161862199438] [-4.1717689200272527:3.9791315462211485] [-0.034578788625674296:29.300754372531905] [0:11.164249271928336] [-0.073483386254038108:0.5075944227230359] [0:1] [0:1.9789503287721157] [-0.23812213692833747:2.7649120685141351] [-0.2747408060001641:3.1005877562553086] [0.0036231884057971015:1] [0.0036231884057971015:1] [0.0036231884057971015:1] [0.0036231884057971015:1] [0.0036231884057971015:1]
tree_sizes=3501 3603 3476 3577 3575 3596 3458 3464 3548 3584 3591 3578 3579 3497 3592 3587 3582 3620 3467 3372 3482 3595 3583 3606 3564 3591 3372 3600 3588 3472 3376 3479 3489 3587 3490 3605 3605 3601 3378 3579 3500 3374 3610 3620 3268 3528 3580 3618 3580 3140 3377 3258 3452 3488 3470 3484 3620 3589 3474 3121 3604 3594 3485 3352 3607 3605 3268 3510 3604 3572 3146 3611 3612 3129 3493 3502 3472 3375 3593 3371 3595 3479 3364 3344 3501 3479 3597 3488 3598 3598 3585 3572 3360 3578 3608 3361 3600 3580 2935 3599 3590 3580 3147 3503 2702 3359 3594 3245 3378 3235 3606 3572 3262 3583 3375 2795 3599 3264 3600 3593 2499 2463 3494 3590 3144 3485 3588 2456 3359 2358 3136 2478 2015 3134 3605 3384 3610 3613 2558 2476 3488 3165 3505 3479 3031 3611 3605 3586 3504 3028 3274 3572 2125 3627 2329 3581 3363 3148 3514 3617 2358 3128 3489 2137 2352 3336 2459 3037 3033 3612 3606 3613 3382 3150 2917 3601 3168 3125 3234 2011 3483 2017 3264 3584 2024 3498 2895 3046 2463 3605 2916 3283 3628 3246 3345 2791 2010 3151 3589 3619 3373 3617 3475 3478 2816 3001 3501 3624 3613 2932 3156 3494 2925 3368 2464 2466 3143 1806 3142 3163 3612 3586 2359 3383 3467 2927 3130 3122 3004 3630 3376 3494 3608 3044 3137 3023 2018 3551 3599 3400 3015 3235 3095 3589 3611 2669 3489 2923 3566 2024 2919 3485 3254 3275 3444 3597 3476 3165 3473 3133 3397 3576 3115 2029 3121 3239 3026 1904 1996 3356 2770 2479 2707 3605 3598 1900 3470 3324 3475 3166 2561 3239 2797 3129 3478 3142 3496 2499 3256 3597 3611 2474 3629 3263 3502 2357 3230 3482 2915 3020 3166 3027 2921 3162 3135 3617 3381 1919 2816 2931 3574 3155 3383 3344 3018 3351 2943 3474 3271 2361 3552 3453 3017 2801 2575 2485 3619 2230 3385 2930 3165 2376 3182 3448 2115 3267 2926 3008 3373 3380 3275 3600 3015 3383 3141 3171 2453 3263 3335 3617 3620 3450 2711 3276 3257 1791 3581 3331 3621 3636 3570 3313 2901 3599 3246 3263 3628 2479 2351 3309 2961 2494 1796 3623 3620 3363 3149 3137 3601 3381 1802 2007 3371 3628 2352 3387 2922 3367 3611 3348 3467 3243 2822 3609 3014 2005 2370 3161 2826 3256

Tree=0
num_leaves=31
num_cat=0
split_feature=25 7 26 26 12 25 25 26 7 26 26 26 14 20 25 26 25 5 26 25 25 5 26 26 25 25 25 14 20 14
split_gain=1678.3 807.483 613.423 440.905 407.008 326.384 278.503 322.919 235.69 205.947 198.018 179.221 168.363 240.269 152.561 176.164 178.604 145.384 133.973 106.947 357.459 120.564 100.699 93.7626 142.175 87.0794 83.3065 66.5997 62.1392 58.7631
threshold=0.40823259932245154 -0.032157546677050612 0.01549596540610468 0.023870466146836865 0.012505467729098213 0.27596784429870963 0.86424335863377622 0.013077027716563239 -0.0065470023816185932 0.0095475123346580853 0.020014035621830153 0.024840425722053281 0.57142857065035713 16.571377865090138 0.10794626962291635 0.028504518278671249 0.040422608437314329 0.019899597526117589 0.04043313313069969 0.80725524475524491 0.7062745098039217 -0.065150230813829743 0.022200406711988443 0.013757604328716403 0.86424335863377622 0.056527693244065737 0.15971014492753624 0.65838509307469362 16.879496650972612 0.67346938758657438
decision_type=2 2 2 2 2 2 2 2 2 2 2 2 2 2 2 2 2 2 2 2 2 2 2 2 2 2 2 2 2 2
left_child=1 14 9 4 23 8 7 -6 -4 -3 -7 19 13 -13 15 16 -1 -8 -14 20 -5 -21 26 24 -2 -17 -16 -11 -24 -25
right_child=3 2 5 11 6 10 17 -9 -10 27 -12 12 18 -15 22 25 -18 -19 -20 21 -22 -23 28 29 -26 -27 -28 -29 -30 -31
leaf_value=-0.15774157404018771 -0.13464797768175329 -0.14748934564794278 -0.15881313063048008 -0.14612786796249116 -0.14023124421562361 -0.15969067544184568 -0.16817071942768416 -0.15620487180088791 -0.16337472670413475 -0.16763718078287973 -0.15494485507373273 -0.15250461674076748 -0.1496629877007824 -0.16114901334668072 -0.16453559054153902 -0.12593538689761671 -0.14514307835914514 -0.15643085151764863 -0.1609030875153119 -0.12935667482830651 -0.17189969070993311 -0.14615709122489751 -0.14860863107109085 -0.15125712057784654 -0.16798127378137895 -0.1475352872730919 -0.1550159308868366 -0.1578201177260864 -0.15985010481267986 -0.14244227408430843
leaf_weight=747.91863158345222 327.24546106159687 218.6605966091156 9989.5590516775846 1818.6101211160421 516.08870358765125 5925.4536901563406 1164.1191989928484 17875.752250745893 8328.2354733496904 5023.9756850451231 8630.6331393420696 6274.0682549774647 8282.5155304223299 1611.1310322880745 518.32500514388084 195.55214719474316 1111.9388293474913 665.6724299043417 441.54531837999821 261.15032617747784 239.0357885658741 528.51260112226009 1109.9510057419538 2630.8845419287682 56.404494807124138 132.68722566962242 1225.4932528138161 299.16745263338089 233.07231774926186 343.89348375797272
leaf_count=3010 1317 880 40203 7319 2077 23847 4685 71941 33517 20219 34734 25250 33333 6484 2086 787 4475 2679 1777 1051 962 2127 4467 10588 227 534 4932 1204 938 1384
internal_value=-0.156383 -0.159145 -0.160153 -0.153581 -0.155421 -0.159113 -0.156491 -0.155751 -0.16089 -0.166307 -0.156876 -0.151352 -0.152151 -0.154275 -0.151812 -0.147776 -0.15021 -0.163922 -0.150236 -0.146712 -0.149162 -0.140441 -0.154689 -0.148979 -0.139686 -0.134343 -0.157849 -0.167091 -0.15058 -0.15021
internal_weight=86727.3 43690.6 38415.7 43036.6 23580.1 32873.9 20221.6 18391.8 18317.8 5541.8 14556.1 19456.6 16609.3 7885.2 5274.94 2188.1 1859.86 1829.79 8724.06 2847.31 2057.65 789.663 3086.84 3358.43 383.65 328.239 1743.82 5323.14 1343.02 2974.78
internal_count=349034 175833 154604 173201 94898 132301 81382 74018 73720 22303 58581 78303 66844 31734 21229 8806 7485 7364 35110 11459 8281 3178 12423 13516 1544 1321 7018 21423 5405 11972
is_linear=0
shrinkage=1


Tree=1
num_leaves=31
num_cat=0
split_feature=24 7 24 14 0 24 25 24 25 14 10 33 33 24 25 25 24 24 24 24 14 17 25 33 24 33 25 24 25 24
split_gain=1648.81 732.577 494.087 324.358 501.326 218.651 286.826 201.562 392.923 199.893 199.843 190.588 179.066 160.381 174.439 229.41 161.885 118.779 102.192 105.074 99.3088 94.7344 88.3626 87.6198 57.9237 55.5937 38.6977 38.5202 94.5068 43.5431
threshold=0.00030434690624007223 -0.026186218625729781 -0.0052125953552908475 0.56521739113241221 0.015011416871057339 0.00022000495532856196 0.40823259932245154 -0.010931416809913523 0.21473779385171793 0.36654023422156717 -0.078674390601185293 0.60994379211912553 0.67161425345596759 -0.01924343517290204 0.040422608437314329 0.035401002506265669 -0.029272648618340596 0.060121135280985442 0.008373320639667281 0.027608957021282875 0.66129032233576523 -0.2864433446958331 0.3869790440310808 0.70655428273887022 0.027608957021282875 0.89335784313725497 0.37523234200743499 -0.018262538158640904 0.094507776080228797 -0.015494875649956294
decision_type=2 2 2 2 2 2 2 2 2 2 2 2 2 2 2 2 2 2 2 2 2 2 2 2 2 2 2 2 2 2
left_child=1 13 7 4 11 6 -4 9 -9 -3 17 21 18 14 15 -1 -16 -6 22 -20 25 -2 -5 -12 -22 -14 -13 28 -15 -29
right_child=3 2 5 12 10 -7 -8 8 -10 -11 23 26 20 27 16 -17 -18 -19 19 -21 24 -23 -24 -25 -26 -27 -28 29 -30 -31
leaf_value=0.0053995841781889972 0.0019219756105353612 0.00043478502955996676 -0.0021299563915792717 0.016951515787646806 0.0017098317012386255 -0.017155584174437959 0.0053289363730126774 -0.012407567605218913 -0.0045540262784371571 -0.0057918554588106963 -0.0034324355330302508 -0.013492059663583841 0.0018284702426101009 0.0078959015529485276 0.021683606238769536 -0.017946110845591803 0.0071106750503231262 0.028977537258009813 0.010418215910544841 0.003146450886845847 0.0051374399250587724 0.0052482866047626432 0.0031118735245803824 -0.0091071416972984855 -0.0010165601729880047 -0.0039440856632400375 -0.0010294627833474118 0.0057694306386300255 -0.018612272359575809 0.000396880015355114
leaf_weight=762.14563450217247 5431.3425233364105 2907.4661048650742 13146.197342604399 194.8236195743084 1681.3125983178616 335.95775999128819 2439.8400155007839 4507.8221460133791 5903.0178530961275 7035.7299916744232 4022.3175892680883 98.637836441397667 2450.5333972275257 88.249669760465622 417.61536939442158 210.67879521846771 1156.2021609991789 61.632642641663551 3833.2015347033739 1020.1196516603231 5829.9253728091717 9413.0714600533247 2647.608381524682 1505.3513619750738 675.8530178964138 910.82847082614899 2932.235526278615 700.8072165697813 121.98841607570648 4244.052879601717
leaf_count=3067 21856 11705 52919 784 6766 1352 9817 18151 23764 28327 16187 397 9860 355 1679 848 4651 248 15421 4104 23455 37877 10652 6058 2719 3665 11799 2820 491 17080
internal_value=-4.14354e-05 -0.00275971 -0.00394927 0.00275713 0.00129899 -0.00130799 -0.000959723 -0.0060136 -0.0079608 -0.00396982 -0.0031261 0.00310035 0.00484274 0.00283955 0.00694158 0.000257379 0.0110467 0.00276562 0.00713107 0.00889869 0.00305326 0.00403364 0.00409558 -0.00498828 0.00449477 0.000254804 -0.00146319 0.000804484 -0.00746733 0.0011674
internal_weight=86686.6 43977.8 36276 42708.8 25145.9 15922 15586 20354 10410.8 9943.2 7270.61 17875.3 17562.9 7701.74 2546.64 972.824 1573.82 1742.95 7695.75 4853.32 9867.14 14844.4 2842.43 5527.67 6505.78 3361.36 3030.87 5155.1 210.238 4944.86
internal_count=348874 177026 146035 171848 101188 64088 62736 81947 41915 40032 29259 71929 70660 30991 10245 3915 6330 7014 30961 19525 39699 59733 11436 22245 26174 13525 12196 20746 846 19900
is_linear=0
shrinkage=0.02


Tree=2
num_leaves=30
num_cat=0
split_feature=24 28 27 24 28 28 28 7 24 27 26 26 28 28 28 26 26 28 28 27 26 28 28 27 27 10 24 27 26
split_gain=1571.55 1186.27 857.628 483.412 513.732 440.736 540.553 437.202 541.686 399.297 329.504 388.96 282.236 457.808 253.574 251.702 235.24 202.685 193.238 199.037 177.83 175.303 120.305 162.435 151.275 110.836 56.0109 30.8237 25.0717
threshold=0.00030434690624007223 -0.14632384954877339 0.023028139558261291 0.019630730378538557 -0.12016025360186881 0.030453257873514477 0.1428703513521401 -0.026186218625729781 -0.0052125953552908475 0.065227640758349456 0.022872100135099372 0.012812101889967198 -0.0025174757458688436 -0.016826551429615207 0.01271554162437216 0.01549596540610468 0.02604982300627302 0.0039879104876214015 -0.19398040284995186 -0.001820291752555844 0.036535125544095361 -0.1525642331117962 0.020982185492829881 -0.087495656021636725 0.020678119312058967 -0.080059154514604866 0.031424241314884908 -0.079855690962742393 0.031610580681726348
decision_type=2 2 2 2 2 2 2 2 2 2 2 2 2 2 2 2 2 2 2 2 2 2 2 2 2 2 2 2 2
left_child=1 18 3 10 26 12 9 22 15 -7 11 -2 13 -4 -10 -9 -14 -6 27 25 -8 -12 23 -3 -24 -20 -5 -1 -29
right_child=2 7 5 4 17 6 20 8 14 -11 21 -13 16 -15 -16 -17 -18 -19 19 -21 -22 -23 24 -25 -26 -27 -28 28 -30
leaf_value=0.037165866806345739 0.016125667353112414 0.016447314309615189 0.00082031363730121368 0.0057374427569992859 -0.017138100764149608 0.0085838799081069134 0.0043137188896759018 -0.011734435341465984 -0.003717248256696783 0.019370395926311301 0.027341680427134835 -0.0011730291068205541 -0.007928152205783013 0.021612497176667779 0.0013585628968722447 -0.0053710808504511447 0.0064876883090650575 -0.0044815608191110983 0.018824871304333021 -0.023153968524031069 -0.0050176888137888499 0.0042801955833350206 0.0070179189520584787 -0.0014453328823678391 -0.0059466151352517331 0.0033724653756589664 0.022768002707854541 0.011410656939937112 0.030109909285405689
leaf_weight=157.82110916078091 534.84788815677166 207.69639930129051 1893.6993220299482 152.05275546014309 1216.0210648030043 7496.9084709584713 3640.2600940614939 2923.6701682209969 8426.7411044836044 1687.878506988287 129.98205941915512 14032.680552214384 1749.8785732388496 541.63825212419033 7373.9876753538847 16961.959220349789 604.53482511639595 881.01941800117493 631.27489596605301 55.887957319617271 1046.620120242238 6953.5116100460291 2101.87172549963 4390.5028017014265 428.53713680803776 270.5458907186985 171.58494375646114 68.694048598408699 72.077731519937515
leaf_count=634 2150 835 7620 612 4894 30154 14639 11784 33925 6788 523 56464 7041 2179 29682 68318 2432 3545 2540 225 4210 27970 8456 17666 1724 1089 690 276 290
internal_value=2.01202e-06 -0.0026475 0.00273495 0.000239155 -0.00822663 0.00595232 0.007758 -0.0032107 -0.00411403 0.0105777 0.00118827 -0.000531219 0.000716048 0.00548766 -0.00134749 -0.00631037 -0.00421226 -0.0118536 0.0164674 0.0119426 0.00222255 0.00472518 0.00130833 -0.000615807 0.00480703 0.0142554 0.0150365 0.0304786 0.0218266
internal_weight=86804.4 44071.3 42733.1 24071.7 2420.68 18661.4 13871.7 42815 35686.4 9184.79 21651 14567.5 4789.75 2435.34 15800.7 19885.6 2354.41 2097.04 1256.3 957.709 4686.88 7083.49 7128.61 4598.2 2530.41 901.821 323.638 298.593 140.772
internal_count=349355 177444 171911 96848 9741 75063 55791 172390 143709 36942 87107 58614 19272 9799 63607 80102 9473 8439 5054 3854 18849 28493 28681 18501 10180 3629 1302 1200 566
is_linear=0
shrinkage=0.02


Tree=3
num_leaves=31
num_cat=0
split_feature=25 28 27 28 25 28 28 27 28 27 28 27 25 27 25 28 27 25 27 27 28 25 28 27 28 27 10 14 19 20
split_gain=1514.97 984 894.903 625.12 504.132 378.978 546.992 389.557 355.712 338.228 319.105 318.212 273.918 260.573 260.436 237.046 215.777 191.689 176.337 158.395 157.32 153.212 143.406 132.619 122.189 164.291 71.2577 66.8226 38.6651 18.4167
threshold=0.40823259932245154 -0.14632384954877339 0.020324917056864015 0.023538151526031875 0.84632253711201089 0.03107654546235351 0.1428703513521401 0.055656361961980094 0.0094187540306665644 -0.056934085367275074 -0.10693213842391412 0.015757174502239096 0.82513603185136042 0.035089048625225591 0.040422608437314329 -0.1525642331117962 -0.070494969230480278 0.32903064623584283 0.046643178734859451 -0.016349725091296802 -0.020295646108620738 0.50459334176148352 -0.1019001639314734 0.088846458518016355 -0.17336065022328709 -0.087495656021636725 -0.080059154514604866 0.36842105257259866 -0.011307624777036148 12.773021479927392
decision_type=2 2 2 2 2 2 2 2 2 2 2 2 2 2 2 2 2 2 2 2 2 2 2 2 2 2 2 2 2 2
left_child=1 16 4 9 12 8 7 -7 21 22 27 17 15 -13 -11 -2 24 -5 -10 -14 -12 -4 -3 -8 29 -26 28 -6 -18 -1
right_child=2 3 5 11 10 6 23 -9 18 14 20 13 19 -15 -16 -17 26 -19 -20 -21 -22 -23 -24 -25 25 -27 -28 -29 -30 -31
leaf_value=0.021447436967688516 0.018169695699206252 0.010066620657238276 0.016413025519904915 0.00087046194794577494 0.016280700041999347 0.0079336002408670284 0.0035397735339664912 0.017265657898930656 -0.0007416347531615195 -0.019717990837850898 -0.017352428285984583 -0.0070816779118901439 -0.0090955419111958206 0.00066726722176095143 -0.0052770144697682018 0.00043633240256751805 0.016464278126739038 0.007760981827688287 -0.013413376738813262 0.020906727671871822 -0.0061590821134999297 0.0034754916196988806 -0.001859349660497877 -0.0050102624407148159 -0.0093449257037972085 0.02426430800420849 -0.0024605909198984429 -0.0018318219815944739 0.0036457382781929833 0.037400516527101982
leaf_weight=71.48708538711071 301.09145370125771 772.08652327954769 414.99115689098835 6998.5052484720945 205.23382991552353 7225.367504760623 3665.6972898840904 2391.6921053230762 1098.8529927581549 506.91939321160316 990.16864328086376 3477.4392030537128 80.987669944763184 3450.818644464016 24283.870208084583 20604.314524739981 266.18242155015469 2098.5077429413795 731.56058278679848 404.54704010486603 1046.8108715265989 2976.0779010653496 831.05983224511147 898.24471931159496 78.618102312088013 190.58934849500656 200.45019218325615 128.51582984626293 156.46731695532799 207.93604464828968
leaf_count=287 1210 3107 1669 28185 825 29046 14739 9608 4422 2042 3990 14000 326 13893 97827 82891 1070 8445 2944 1627 4215 11973 3345 3613 316 766 807 517 629 834
internal_value=2.07088e-05 -0.00260886 0.00267674 -0.00310937 7.34507e-05 0.00586304 0.00755895 0.0102643 0.00125048 -0.00500091 -0.00866623 5.36559e-06 0.00104479 -0.00322151 -0.00557703 0.000696978 0.0154298 0.00246556 -0.00583978 0.0158198 -0.0116391 0.00508648 0.00388529 0.00184899 0.0245449 0.0143849 0.00724082 0.00932304 0.0118637 0.0338382
internal_weight=86755.1 43590.9 43164.2 42419.2 23761.7 19402.5 14181 9617.06 5221.48 26393.9 2370.73 16025.3 21390.9 6928.26 24790.8 20905.4 1171.73 9097.01 1830.41 485.535 2036.98 3391.07 1603.15 4563.94 548.631 269.207 623.1 333.75 422.65 279.423
internal_count=349168 175553 173615 170844 95601 78014 57006 38654 21008 106321 9547 64523 86054 27893 99869 84101 4709 36630 7366 1953 8205 13642 6452 18352 2203 1082 2506 1342 1699 1121
is_linear=0
shrinkage=0.02


Tree=4
num_leaves=31
num_cat=0
split_feature=24 27 27 25 26 26 26 27 26 27 26 24 26 26 24 25 25 25 25 10 26 25 24 24 24 26 25 26 8 27
split_gain=1529.87 1033.36 769.099 515.897 550.543 573.637 513.708 328.918 293.248 248.221 370.071 355.783 234.711 218.237 181.875 370.518 298.029 148.4 136.614 114.207 316.296 143.7 103.115 99.1009 89.2899 58.4167 42.7792 41.59 30.6987 27.7844
threshold=0.00030434690624007223 -0.065343652265736907 0.023028139558261291 0.86424335863377622 0.013077027716563239 0.016752438318368066 0.015663745269078728 -0.014280436070269307 0.027697536098926358 -0.032041857393098387 0.016147645928820193 -0.005597200988576234 0.04043313313069969 0.010789644952107389 0.0076434677772977237 0.61126984126984141 0.75255411255411264 0.31074521123064819 0.19291536050156741 -0.069506172154352661 0.020214076191630171 0.040422608437314329 0.022850147705446786 -0.01266717756039989 0.019630730378538557 0.029181414504174698 0.29975845410628027 0.011360587837443379 -0.027994999751851043 0.053561895278379519
decision_type=2 2 2 2 2 2 2 2 2 2 2 2 2 2 2 2 2 2 2 2 2 2 2 2 2 2 2 2 2 2
left_child=1 19 3 4 27 -6 13 8 -5 10 -8 -11 14 17 15 -4 -16 -3 -15 23 28 -22 -14 25 -9 -1 -25 -2 -21 -24
right_child=2 6 12 7 5 -7 9 24 -10 11 -12 -13 22 18 16 -17 -18 -19 -20 20 21 -23 29 26 -26 -27 -28 -29 -30 -31
leaf_value=0.015994454993964118 0.013919868023053932 -0.0011886093077657092 0.0045728320428146821 0.0082819969576268092 -0.0071967217667796958 0.0020928866064100905 0.023351767920114317 -0.0049354103503521695 -0.017306965047191054 -0.0050952018082224002 0.00033394021577474184 -0.00070996176720315924 0.0088144505149196847 -0.013152784095830013 0.010751346036468212 -0.016311783756166261 0.0044953933970123339 0.026073785153617957 -0.0069657721311270591 0.030249601221009233 -0.015266723708416268 0.0059196480479580338 -0.018525374291520191 -0.008681740721905409 -0.018784557189178739 0.028665785767314801 0.012674288281335622 0.025886408657981683 0.014507909279454632 -0.0073934798024857355
leaf_weight=665.20937524735928 236.39142648875713 323.73474553227425 5405.8157162666321 574.83599451184273 3104.7112369835377 18321.330260619521 289.32575434446335 242.09515905380249 254.18073581159115 15569.099710136652 5554.5479054450989 14127.152663692832 137.2202222943306 2320.3795098513365 6028.0975220352411 357.36139178276062 6208.9837338030338 100.33406014740467 3836.8278815001249 152.6707746386528 208.24663108587265 314.58537669479847 127.71122542023659 77.292973428964615 947.51715642213821 208.07115416228771 63.703325226902962 312.55875983834267 105.78730982542038 361.56683018803596
leaf_count=2672 949 1305 21728 2315 12494 73700 1165 976 1024 62740 22367 56878 552 9362 24220 1437 24961 404 15467 614 838 1265 514 311 3821 834 256 1255 426 1455
internal_value=3.3099e-05 -0.0025862 0.00273253 0.000364197 0.00125459 0.00074449 -0.00322049 -0.00929793 0.00035559 -0.00226858 0.00149594 -0.00301019 0.00578126 -0.00835234 0.00620098 0.00326134 0.0075819 0.0054437 -0.00930941 0.0122499 0.00640098 -0.00254578 -0.00619976 0.0166822 -0.0160153 0.0191824 0.000933719 0.0209416 0.02428 -0.0104976
internal_weight=86537.3 43917 42620.4 23993.6 21975 21426 42121.4 2018.63 829.017 35540.1 5843.87 29696.3 18626.8 6581.28 18000.3 5763.18 12237.1 424.069 6157.21 1795.57 781.29 522.832 626.498 1014.28 1189.61 873.281 140.996 548.95 258.458 489.278
internal_count=348305 176904 171401 96534 88398 86194 169688 8136 3339 143150 23532 119618 74867 26538 72346 23165 49181 1709 24829 7216 3143 2103 2521 4073 4797 3506 567 2204 1040 1969
is_linear=0
shrinkage=0.02


Tree=5
num_leaves=31
num_cat=0
split_feature=25 28 27 28 25 27 27 27 28 28 27 28 25 17 28 12 28 28 25 27 28 25 28 27 28 27 27 27 25 20
split_gain=1337.6 951.394 795.271 560.238 473.175 327.853 322.523 306.559 293.232 495.392 352.827 333.022 268.118 268.007 239.074 225.29 231.678 221.219 209.407 189.182 172.395 161.706 131.596 118.878 99.5011 147.579 72.6623 78.0691 42.2838 29.3736
threshold=0.40823259932245154 -0.14632384954877339 0.020324917056864015 0.023538151526031875 0.86424335863377622 -0.014280436070269307 0.015757174502239096 -0.056934085367275074 0.03107654546235351 0.1428703513521401 0.055656361961980094 0.0094187540306665644 0.040422608437314329 -0.11314984709480129 -0.069773330080028298 0.012381012809436287 -0.13143522077866948 0.014471909356627269 0.32903064623584283 -0.070494969230480278 -0.035479111067387346 0.50459334176148352 -0.1019001639314734 0.027867628667966732 -0.17336065022328709 -0.087495656021636725 -0.001820291752555844 -0.011611473763889735 0.50981902194840212 12.409784620167921
decision_type=2 2 2 2 2 2 2 2 2 2 2 2 2 2 2 2 2 2 2 2 2 2 2 2 2 2 2 2 2 2
left_child=1 19 4 7 15 14 18 22 11 10 -10 21 -9 -8 -6 28 -17 -13 -5 24 -7 -4 -3 -11 29 -26 27 -21 -2 -1
right_child=2 3 8 6 5 20 13 12 9 23 -12 17 -14 -15 -16 16 -18 -19 -20 26 -22 -23 -24 -25 25 -27 -28 -29 -30 -31
leaf_value=0.016976849863440484 0.0095039164116682145 0.0093954984863180765 0.016647977815423824 0.00081445653280613566 0.012020073260722158 -0.025574033936989583 -0.0067239802603418957 -0.019864664819934121 0.007359531355795066 0.013332312046871759 0.016224633032748955 -0.020256366876669017 -0.0049891178815372949 0.0011975471496316009 -0.0093176932440946787 0.014310089558691787 -0.00022235691598759136 -0.0021228434429223144 0.0080083274478958237 0.0071071003464994557 -0.0095661022608823955 0.0035083935781034001 -0.0018959309964063223 0.0006726371076663561 -0.0077492712316946421 0.023822202858176381 -0.0094138380887454753 0.029807448282512434 0.0043312802044769925 0.035952232488758014
leaf_weight=60.142802625894547 992.14883349835873 801.77635361254215 426.01062673330307 6966.6724741607904 372.45132873952389 469.93041817843914 3877.142346277833 491.20851843059063 7246.9796393215656 314.53271585702896 2400.7679665833712 323.23186887800694 24225.491614490747 3042.1475296467543 468.48535265028477 444.44749256968498 18479.132455900311 1522.8355568945408 2107.2087727636099 466.98941557109356 658.61935292184353 2979.6097810864449 837.97720184922218 4239.94220097363 79.593270108103752 197.99198922514915 82.403394222259521 66.898692697286606 1848.8773227483034 217.09883810579777
leaf_count=241 3990 3222 1711 28063 1498 1900 15617 1983 29107 1264 9631 1301 97667 12252 1889 1785 74339 6129 8475 1877 2658 11981 3373 17040 320 794 332 269 7434 869
internal_value=2.50689e-05 -0.0024491 0.00251876 -0.00294194 6.06217e-05 -0.00931328 9.94101e-06 -0.00473358 0.00551592 0.00700906 0.00957488 0.00147136 -0.00528951 -0.00323995 0.000124361 0.000911732 0.000121592 -0.00535482 0.00249077 0.0152925 -0.0163329 0.00517989 0.00362476 0.00156496 0.0237414 0.0147219 0.00752431 0.0102388 0.00615823 0.0322804
internal_weight=86708.7 43520.7 43188 42349.6 23734.1 1969.49 15993.2 26356.5 19453.9 14202.2 9647.75 5251.69 24716.7 6919.29 840.937 21764.6 18923.6 1846.07 9073.88 1171.12 1128.55 3405.62 1639.75 4554.47 554.827 277.585 616.292 533.888 2841.03 277.242
internal_count=349011 175354 173657 170652 95493 7945 64407 106245 78164 57042 38738 21122 99650 27869 3387 87548 76124 7430 36538 4702 4558 13692 6595 18304 2224 1114 2478 2146 11424 1110
is_linear=0
shrinkage=0.02


Tree=6
num_leaves=30
num_cat=0
split_feature=24 28 28 7 24 1 25 28 24 28 25 24 25 25 17 24 25 28 28 25 24 18 20 8 3 28 24 25 8
split_gain=1351.44 943.933 741.053 436.538 459.957 379.412 370.857 314.579 294.552 627.78 332.625 246.594 197.825 282.215 192.596 169.179 159.947 110.411 109.876 98.2629 88.5426 87.6012 81.5805 69.7904 58.5598 56.2953 37.3509 29.7932 29.3109
threshold=0.00030434690624007223 -0.14632384954877339 0.030453257873514477 -0.025646335286785445 -0.0052125953552908475 0.01333333333333331 0.39457957643111768 -0.14632384954877339 0.0082229994856781782 0.054146367921841278 0.61950382498033896 8.1774757115163444e-05 0.440737489025461 0.48795161290322586 -0.13912811717808474 -0.021533775812100128 0.84632253711201089 0.020982185492829881 -0.19398040284995186 0.020576567045755095 0.0020627819076856637 2.3877978864501777 16.879496650972612 -0.00064873796629522074 -0.0077905762579129059 0.049369878962407895 0.0010754365549878713 0.83981132075471709 0.015709059608349455
decision_type=2 2 2 2 2 2 2 2 2 2 2 2 2 2 2 2 2 2 2 2 2 2 2 2 2 2 2 2 2
left_child=1 15 5 17 14 12 25 27 10 -10 -8 -6 20 -14 -5 21 -9 19 -17 -3 -2 24 -19 -20 -1 28 -27 -7 -4
right_child=2 3 6 4 11 7 8 16 9 -11 -12 -13 13 -15 -16 18 -18 22 23 -21 -22 -23 -24 -25 -26 26 -28 -29 -30
leaf_value=0.026019872774050934 -0.0017692168018523847 0.013886092571034963 0.030673709102274942 -0.0072184640577254849 -0.00086846372906902161 0.023897842418279015 0.0029528621772485731 -0.0026554369092813752 0.016612235459140413 0.0044546224083595702 -0.0097528584588973018 -0.013708763286486222 0.011396906008093472 0.0015844862419160963 -0.0028050644800737229 0.029951899801287679 -0.0091593145956074817 0.0069127049794374474 0.0064272847354248912 -0.00097783433081550619 -0.012393919128978113 -0.0023153485284732813 -0.00093012877548280005 -0.013510458435473644 0.0069778493519928068 0 0.015529785141376895 0.0088353107067116292 0.013411401760299932
leaf_weight=533.01476515829563 1051.6724910736084 180.05817936360836 162.48099111020565 14060.626489013433 15105.801540315151 146.48908005654812 7616.7955785095692 5187.5165656208992 2016.6737696677446 10759.285708069801 918.69798190891743 618.35073544085026 1324.2349319458008 10044.325282990932 5538.8897567540407 65.660884350538254 2142.6222706139088 1886.4053739011288 429.94038389623165 4550.8796241134405 447.03949669003487 54.552972406148911 729.90287454426289 78.474453449249268 81.87153372168541 66.943605870008469 667.18601085245609 102.0321736484766 73.884495243430138
leaf_count=2136 4233 724 653 56735 60845 588 30608 20868 8099 43215 3696 2491 5325 40407 22342 263 8640 7588 1727 18328 1799 219 2936 316 329 269 2682 410 297
internal_value=-4.09652e-05 -0.00250491 0.00249093 -0.00300651 -0.00392915 -0.00025784 0.0050136 -0.00380729 0.00445913 0.006381 0.00157806 -0.00137888 0.00183186 0.00273372 -0.00597328 0.0146346 -0.00456421 0.00142623 0.00653478 -0.000393831 -0.00498235 0.021451 0.00471947 0.00320931 0.0235934 0.0170836 0.0141109 0.0180889 0.0257502
internal_weight=86642.3 43914.4 42727.9 42670.9 35323.7 20445.9 22281.9 7578.66 21311.5 12776 8535.49 15724.2 12867.3 11368.6 19599.5 1243.51 7330.14 7347.25 574.076 4730.94 1498.71 669.439 2616.31 508.415 614.886 970.495 734.13 248.521 236.365
internal_count=348768 176979 171789 171989 142413 82270 89519 30506 85618 51314 34304 63336 51764 45732 79077 4990 29508 29576 2306 19052 6032 2684 10524 2043 2465 3901 2951 998 950
is_linear=0
shrinkage=0.02


Tree=7
num_leaves=30
num_cat=0
split_feature=24 28 28 27 28 20 7 24 28 1 24 20 25 24 17 28 24 25 27 25 25 28 27 24 28 27 25 20 27
split_gain=1286.13 942.407 698.137 588.125 509.285 425.132 399.629 466.29 339.316 364.685 325.338 279.34 277.678 248.063 184.946 180.455 168.496 154.958 152.348 142.573 99.1618 95.736 242.275 92.8185 86.625 75.727 52.454 23.945 17.2415
threshold=0.00030434690624007223 -0.14632384954877339 0.030453257873514477 0.013592273505280503 0.054146367921841278 16.983986803617398 -0.026186218625729781 -0.0052125953552908475 -0.14632384954877339 0.011140011129161855 0.031424241314884908 15.987004090566812 0.39279220779220786 8.1774757115163444e-05 -0.25528378585672645 -0.19398040284995186 0.0097451657541108485 0.84632253711201089 -0.001820291752555844 0.440737489025461 0.52395295467584635 0.11036700123371979 0.0056298104665380095 -0.021116113276405356 0.086173366771414836 0.0080990283688687856 0.95176799007444179 11.15497827327893 -0.058802207296480717
decision_type=2 2 2 2 2 2 2 2 2 2 2 2 2 2 2 2 2 2 2 2 2 2 2 2 2 2 2 2 2
left_child=1 15 8 5 10 12 21 14 16 19 -5 -6 -4 -9 -8 27 20 -11 23 -10 -2 24 -23 -17 -3 -18 -7 -1 -29
right_child=2 6 3 4 11 26 7 13 9 17 -12 -13 -14 -15 -16 18 25 -19 -20 -21 -22 22 -24 -25 -26 -27 -28 28 -30
leaf_value=0.012994904057646271 0.016157599305228535 0.00097882007628578957 0.020956903456529272 0.01676485786613759 0.0082022864269742351 -0.013263800325931802 -0.0080598694446902316 -0.00070998088082788765 -0.0043320241809831246 -0.0022335017887689539 -0.014523760900489156 0.0024540562660771738 0.00084758679116117 -0.013464750298517836 -0.0041484301846673455 0.019023124742156762 0.028802869401325426 -0.0084716870414985723 -0.02069332382710036 0.0023564954684190567 -0.013341363846559977 0.017318983415676975 -0.0040599536239451159 0.0059479634153626814 -0.012310661034881484 0.0091400633059487823 0.0051452755636223471 0.035188840384134001 0.020223020996764259
leaf_weight=50.437841683626175 73.312670230865479 6066.6845719218254 286.3045095205307 2430.3616635799408 6827.8960834592581 959.15334060788155 8498.7438200563192 15215.198392823339 1444.6960222423077 5666.0868177860975 136.21228705346584 6732.5080029368401 4880.3922756463289 630.76453348994255 11346.613024607301 427.66119156777859 253.74727033078671 2221.7639353126287 54.724572360515594 10484.687108010054 103.83827568590641 465.18651442229748 381.08720941841602 461.4435568600893 197.62250718474388 126.34332291781902 61.993446305394173 167.68930995464325 80.354350462555885
leaf_count=202 294 24421 1149 9753 27412 3858 34317 61290 5817 22797 546 27028 19628 2544 45796 1714 1017 8966 221 42170 417 1869 1534 1853 795 508 250 671 322
internal_value=-2.35962e-05 -0.00242139 0.00244982 0.00489337 0.00690412 -0.000345238 -0.00292085 -0.0037835 -0.000225992 -0.000661482 0.0150715 0.00535182 0.00198496 -0.00122305 -0.00582611 0.0147135 0.0150939 -0.00399739 0.0102959 0.00154334 -0.00091521 0.00140597 0.007701 0.0123307 0.000546898 0.0225224 -0.0121071 0.0282168 0.0309151
internal_weight=86733.5 44044.2 42689.3 22314.8 16127 6187.84 42801.9 35691.3 20374.5 19817.2 2566.57 13560.4 5166.7 15846 19845.4 1242.31 557.242 7887.85 943.829 11929.4 177.151 7110.58 846.274 889.105 6264.31 380.091 1021.15 298.482 248.044
internal_count=349159 177549 171610 89624 64739 24885 172566 143947 81986 79750 10299 54440 20777 63834 80113 4983 2236 31763 3788 47987 711 28619 3403 3567 25216 1525 4108 1195 993
is_linear=0
shrinkage=0.02


Tree=8
num_leaves=31
num_cat=0
split_feature=26 28 28 28 27 7 25 28 25 26 27 20 26 25 27 10 27 7 25 27 25 26 26 27 6 28 25 28 14 27
split_gain=1248.83 691.276 677.296 587.242 589.933 446.245 421.576 406.439 335.456 342.599 318.951 357.202 280.377 272.401 218.979 230.306 206.932 206.293 217.542 175.635 174.21 165.846 164.043 149.247 115.706 95.9389 57.647 57.0628 32.8125 16.0529
threshold=0.022872100135099372 0.029943525222067613 -0.1525642331117962 0.097116484918233437 0.024812257923669191 0.0026583504882133906 0.34035165484633573 0.038595576765569885 0.41692229038854811 0.01549596540610468 -0.037137639487134194 16.438201180381501 0.020708574309288189 0.7062745098039217 -0.034815304721005101 -0.050528530853155222 0.079439859612396191 -0.032157546677050612 0.040422608437314329 -0.032041857393098387 0.227682524349996 0.023870466146836865 0.023040816527437388 -0.0046586185920760919 -0.098214285714285629 0.12486009735680954 0.90399385560675893 -0.17336065022328709 0.37288135585051929 -0.022722296892003481
decision_type=2 2 2 2 2 2 2 2 2 2 2 2 2 2 2 2 2 2 2 2 2 2 2 2 2 2 2 2 2 2
left_child=1 5 19 4 13 8 17 -6 9 -1 25 -12 -10 -3 15 -8 20 18 -4 24 -7 -16 -19 29 28 -5 -25 -26 -2 -21
right_child=2 3 6 10 7 16 14 -9 12 -11 11 -13 -14 -15 21 -17 -18 22 -20 23 -22 -23 -24 26 27 -27 -28 -29 -30 -31
leaf_value=-0.0085187115292855945 0.030652396102914984 0.00061534444716769619 -0.011404476707776981 -0.00043214162423089715 -0.0071105165805001574 -0.012469561213475118 0.0048259699220476 0.016523490909897704 0.0034329565496795471 -0.0019828076812967929 -0.0019565061128276251 -0.015435023660690224 -0.0056659531778457204 0.014284733086999091 -0.00074451768048654232 -0.01598612805140363 0.021706143528334238 0.0095856847643995668 0.0084771789766627612 -0.0034614501232200908 -0.0058489302813853148 0.0046895695034886026 -0.0033932063644551429 0.02243429504288684 0.01985793849558248 0.028113656819262686 0.0020662398727276229 0 0.014369704313797868 -0.018795870389010174
leaf_weight=4152.2270794659853 465.0795866549015 7639.5824618786573 257.96979564428329 67.877380713820457 336.82872244715691 1937.9128085821867 396.04749274253845 1981.8303293436766 6215.2407504767179 14134.619603902102 2367.9479108601809 1177.1219680309296 1725.8460771739483 626.79487523436546 2502.3385006338358 447.2448885589838 96.199374958872795 406.80335120856762 1339.7281050235033 59.799330398440361 9117.9641900956631 21345.183786436915 7055.1963427662849 156.06290276348591 126.1248544305563 138.35825148224831 90.036849856376648 103.20666654407978 75.886692211031914 58.0756666213274
leaf_count=16780 1862 30762 1038 273 1353 7833 1593 7960 24999 57014 9528 4737 6944 2519 10063 1800 387 1641 5385 240 36736 85753 28455 626 505 556 362 414 304 233
internal_value=-1.26493e-06 -0.00197396 0.00292252 0.00175841 0.00416881 -0.00340601 0.00240948 0.0130737 -0.00197932 -0.00346987 -0.00503418 -0.00645305 0.00145064 0.00166225 0.00376348 -0.00621743 -0.00675716 -0.00127846 0.00522898 0.0180929 -0.00701634 0.00411849 -0.00267702 0.00644987 0.0234915 0.018836 0.0152517 0.011102 0.0285574 -0.0116367
internal_weight=86601.1 51716.4 34884.8 14336.3 10585 37380 33750.5 2318.66 26227.9 18286.8 3751.31 3545.07 7941.09 8266.38 24690.8 843.292 11152.1 9059.7 1597.7 1134.27 11055.9 23847.5 7462 363.975 770.298 206.236 246.1 229.332 540.966 117.875
internal_count=348655 208381 140274 57688 42594 150693 135728 9313 105737 73794 15094 14265 31943 33281 99209 3393 44956 36519 6423 4546 44569 95816 30096 1461 3085 829 988 919 2166 473
is_linear=0
shrinkage=0.02


Tree=9
num_leaves=31
num_cat=0
split_feature=24 28 28 26 28 1 7 17 28 28 26 26 26 26 28 26 26 26 26 24 20 28 28 24 24 26 8 16 20 20
split_gain=1202.2 906.155 665.864 390.007 430.859 349.46 322.793 319.486 302.517 300.082 318.881 290.38 276.26 250.382 239.097 236.462 209.182 199.634 266.035 254.279 190.285 167.738 151.653 135.319 116.537 94.2286 62.1509 30.2283 24.4802 10.7317
threshold=0.00030434690624007223 -0.14632384954877339 0.029943525222067613 0.015663745269078728 -0.086423699748152671 0.010452961672473894 -0.0074584050487664358 -0.077840567692373838 -0.0025174757458688436 0.1445341927549996 0.016307315909508808 0.014649852722047553 0.024995294083942757 0.036535125544095361 -0.14632384954877339 0.016599633651880875 0.015202627059735708 0.013077027716563239 0.016752438318368066 0.011923013045735611 17.189680841341701 -0.19398040284995186 0.19418097612548854 -0.021533775812100128 0.019630730378538557 0.027093199936723784 -0.00064873796629522074 1.0639230480352515 11.240473481591234 16.663240008162045
decision_type=2 2 2 2 2 2 2 2 2 2 2 2 2 2 2 2 2 2 2 2 2 2 2 2 2 2 2 2 2 2
left_child=1 21 5 4 11 17 15 -8 -6 10 16 -3 22 -14 27 -5 -4 19 -19 -2 -12 28 -11 25 -16 -23 -25 -7 -1 -30
right_child=2 3 9 6 8 14 7 -9 -10 12 20 -13 13 -15 24 -17 -18 18 -20 -21 -22 23 -24 26 -26 -27 -28 -29 29 -31
leaf_value=0.012358787137813942 0.019647064112621772 -0.0045537763005800624 0.0033827711554604233 0.0069436085157091954 -0.011213208886695252 0.0077198271328828352 -0.005310597470512728 0.0011401779633415194 -0.0017656603120712374 -0.0028456237731012998 0.0077232708714703282 0.034079894821651094 0.0053879107022629033 -0.0055541466403286367 -0.0024630136570025492 -0.00081950561504617046 -0.018649002533694829 -0.0048788056613111377 0.0028987885135180096 -0.02125823210602678 0.0019990932751264351 0.023037288738380703 -0.019197359805200272 0.0062154323219916086 -0.0078456772935798624 0.00088014218477238781 -0.012145308289373498 0.022029197669796396 0.03288486522426854 0.017784183405861343
leaf_weight=50.702966630458832 443.66837738454342 144.33707083761692 354.24054902791977 1728.9547358155251 4428.3170589208603 128.66447781026363 13761.609073802829 3944.6866571456194 1963.7387035638094 639.179951608181 13255.702050030231 159.30419360101223 3611.4540943354368 1082.1665519922972 5786.6147208362818 16532.399930357933 326.17909209430218 2160.2777788490057 9352.5110578984022 65.660006657242775 2833.4733346700668 349.08259417116642 351.73761257529259 427.791867390275 2238.51557739079 100.97678789496422 83.563362181186676 131.77824391424656 194.9683833271265 50.91949337720871
leaf_count=203 1779 584 1423 6971 17907 516 55527 15902 7933 2569 53204 642 14498 4349 23295 66633 1313 8694 37611 265 11374 1398 1414 1717 9035 405 337 528 781 204
internal_value=4.29633e-05 -0.0022807 0.00243009 -0.00277504 -0.00720648 -0.000193345 -0.00194865 -0.00387242 -0.00831755 0.00480316 0.00614915 0.0158742 0.000827015 0.00285762 -0.00335342 -8.17125e-05 -0.00720862 0.00198338 0.00143617 0.0141795 0.00671736 0.0144129 -0.00873718 0.0102283 -0.00397089 0.0181743 0.00308772 0.015314 0.0275169 0.0302542
internal_weight=86683.2 43921.4 42761.8 42663.3 6695.7 20307.7 35967.7 17706.3 6392.06 22454.1 16769.6 303.641 5684.54 4693.62 8285.57 18261.4 680.42 12022.1 11512.8 509.328 16089.2 1258.01 990.918 961.415 8025.13 450.059 511.355 260.443 296.591 245.888
internal_count=349011 177144 171867 172099 27066 81723 145033 71429 25840 90144 67314 1226 22830 18847 33374 73604 2736 48349 46305 2044 64578 5045 3983 3857 32330 1803 2054 1044 1188 985
is_linear=0
shrinkage=0.02


Tree=10
num_leaves=31
num_cat=0
split_feature=24 28 27 25 7 24 28 28 27 27 28 28 24 28 29 17 27 27 28 28 27 28 27 28 28 27 14 10 25 12
split_gain=1157.75 833.206 623.348 450.915 404.476 465.71 348.534 427.798 357.861 290.811 272.345 405.359 263.037 233.148 222.637 175.548 165.813 160.414 136.2 134.446 126.563 97.8906 232.229 98.6324 92.567 154.666 90.535 75.4971 47.9162 19.026
threshold=0.00030434690624007223 -0.14632384954877339 0.023028139558261291 0.86424335863377622 -0.026186218625729781 -0.0052125953552908475 0.030453257873514477 0.14976652015218317 0.065227640758349456 -0.0098876298250982261 -0.0025174757458688436 -0.016826551429615207 1.0000000180025095e-35 -0.069773330080028298 0.77791950113378694 -0.25528378585672645 0.088846458518016355 -0.070494969230480278 0.21969539372695371 -0.040869020661108348 0.024812257923669191 0.11036700123371979 0.00306080614130652 0.086173366771414836 -0.17336065022328709 -0.087495656021636725 0.6021988594672506 -0.07067547096943054 0.23939992813510605 0.024196181768542414
decision_type=2 2 2 2 2 2 2 2 2 2 2 2 2 2 2 2 2 2 2 2 2 2 2 2 2 2 2 2 2 2
left_child=1 17 3 14 21 15 10 8 -8 13 11 -4 -7 -5 18 -6 -9 24 -2 -11 -12 23 -23 -3 -1 -26 -16 28 -19 -29
right_child=2 4 6 9 5 12 7 16 -10 19 20 -13 -14 -15 26 -17 -18 27 -20 -21 -22 22 -24 -25 25 -27 -28 29 -30 -31
leaf_value=0.030167987665981159 0.0022946699602812621 0.0012015967686417673 0.00068179638548856894 0.011969886686841505 -0.0078386547107129126 -0.00039791674422624173 0.0071115886166987202 0.0033669893341678426 0.016883368054089371 -0.024700085527102136 0.017329302401149972 0.02014281841955369 -0.011276288471931292 -0.0089093169698814447 -0.0050424271136338466 -0.0040246452418437597 -0.0064619505720712265 0.0073807213004273052 -0.015970702941903201 -0.010242224519420742 -0.0053718876219925613 0.017534356434230854 -0.0033055399526672035 -0.012805261432890409 -0.010291843096820068 0.022563945756174646 0.0004635189458373975 0.0065333222942695482 0.02144339241258484 -0.0066906768797541415
leaf_weight=275.39554573595524 17028.880567803979 6040.8553483784199 1880.8258125185966 369.97381177544594 8487.3039005994797 14817.674371644855 7825.7644883841276 3360.250121280551 1861.2731348574162 396.39556704461575 97.50436395406723 550.34562776982784 941.28505496680737 493.07045502960682 2821.5404130220413 11323.546887740493 856.75583164393902 354.87835551798344 159.6878013163805 780.81899490952492 2268.454924210906 459.09101544320583 391.71019023656845 202.86669887602329 76.479683518409729 191.6878198236227 2056.8855647593737 55.491606593132019 138.4399199038744 144.88761109113693
leaf_count=1104 68460 24320 7565 1487 34325 59721 31377 13488 7455 1610 392 2209 3799 1990 11354 45750 3443 1423 643 3158 9137 1842 1577 817 307 767 8270 223 555 583
internal_value=1.44488e-06 -0.00228026 0.00234188 0.000215158 -0.00275048 -0.00362027 0.00508152 0.00668488 0.00899895 -0.00876765 0.000428052 0.00512771 -0.00105232 3.56278e-05 0.00104839 -0.00566121 0.00136005 0.0138641 0.00211922 -0.0152113 -0.00439333 0.00160702 0.00795301 0.000733413 0.0219819 0.0131036 -0.00271877 0.00736279 0.0115428 -0.00286124
internal_weight=86710 43901.6 42808.4 24107.3 42664.3 35569.8 18701.2 13904 9687.04 2040.26 4797.13 2431.17 15759 863.044 22067 19810.9 4217.01 1237.26 17188.6 1177.21 2365.96 7094.52 850.801 6243.72 543.563 268.168 4878.43 693.697 493.318 200.379
internal_count=349151 177113 172038 96972 172151 143595 75066 55763 38832 8245 19303 9774 63520 3477 88727 80075 16931 4962 69103 4768 9529 28556 3419 25137 2178 1074 19624 2784 1978 806
is_linear=0
shrinkage=0.02


Tree=11
num_leaves=31
num_cat=0
split_feature=24 28 28 7 24 25 1 20 28 28 28 17 25 24 25 25 24 4 28 24 25 25 17 25 25 28 16 33 24 25
split_gain=1127.68 811.988 607.194 392.575 425.708 336.753 334.373 263.048 316.797 235.577 222.891 175.441 155.149 152.795 145.121 250.921 130.816 105.186 95.3937 80.9351 77.8442 76.7289 71.7388 67.2065 67.0212 65.4809 35.1104 34.3403 31.0105 18.2066
threshold=0.00030434690624007223 -0.14632384954877339 0.029943525222067613 -0.025646335286785445 -0.0052125953552908475 0.39457957643111768 0.010452961672473894 15.987004090566812 0.054146367921841278 -0.14632384954877339 0.01271554162437216 -0.13912811717808474 0.84632253711201089 -0.021533775812100128 0.440737489025461 0.48795161290322586 0.027608957021282875 -0.022471910112359546 0.020982185492829881 0.00083470334804581256 0.020576567045755095 0.36758421317244855 -0.33916262557729088 0.20726183518410288 0.040422608437314329 0.049369878962407895 2.4634038039848103 0.8019095798012944 0.0010754365549878713 0.29975845410628027
decision_type=2 2 2 2 2 2 2 2 2 2 2 2 2 2 2 2 2 2 2 2 2 2 2 2 2 2 2 2 2 2
left_child=1 13 6 18 11 25 14 16 -9 26 -6 -5 -11 22 19 -16 -7 23 20 -2 -3 -20 -1 -15 -24 27 -8 -4 -27 -19
right_child=2 3 5 4 10 7 9 8 -10 12 -12 -13 -14 17 15 -17 -18 29 21 -21 -22 -23 24 -25 -26 28 -28 -29 -30 -31
leaf_value=0.026465215892048484 0.0034933681093306857 0.012584314277121823 0.02884148203200624 -0.0067718641937920343 -0.0033977245747918508 0.0067846746776030155 0.0098415866188710892 0.0094200141890845752 -3.6592140545853206e-05 -0.0021893252451446431 0.001359396283002551 -0.0025640055562051911 -0.00841593879925954 0.0027799741671363852 0.011091209556122928 0.0015928343473877219 -0.00019852465622112949 -0.012533789526620565 0.0057680631732242287 -0.0070221165384198939 -0.00074455153244939066 -0.0047375914857104521 0.0015944870443958207 0.018815443766051258 0.019821913832378222 -0.00031545406777683542 0.02646490216669542 0.0085996202314854685 0.014043552555566391 0.0014530340026508079
leaf_weight=339.46800436079502 402.43734766542912 177.21906433999538 195.94316853582859 14017.515490621328 8383.2669067978859 10450.999459937215 186.85002236068249 1712.1061768978834 8083.8007790148258 5793.7942242771387 7417.5525885671377 5561.6634614467621 2217.5050269067287 212.31855621933937 1260.6364906281233 9301.275814846158 1189.2492454946041 105.68349081277847 2320.2417145520449 1026.2973025888205 4554.4160200506449 309.93667048215866 132.90226963162422 211.8311498016119 214.9214696586132 62.803064361214638 76.167721658945084 50.381504192948341 672.86629764735699 51.041936904191971
leaf_count=1361 1622 712 785 56717 33824 41933 749 6869 32448 23323 29871 22469 8969 852 5063 37398 4775 426 9328 4132 18346 1246 533 849 861 252 305 202 2699 205
internal_value=-1.79826e-05 -0.00226446 0.00229786 -0.00273339 -0.00360781 0.00456549 -0.000210236 0.00403722 0.00161813 -0.00330265 -0.00116355 -0.00557856 -0.0039195 0.0134732 0.00192255 0.00273313 0.00606973 0.00579998 0.00146583 -0.00404438 -0.000228352 0.00451586 0.0198407 0.010961 0.0130353 0.0159981 0.0151341 0.0250344 0.0127969 -0.00795084
internal_weight=86693.1 44010 42683.1 42741.8 35380 22418.1 20265 21436.2 9795.91 8274.32 15800.8 19579.2 8011.3 1268.17 11990.6 10561.9 11640.2 580.875 7361.81 1428.73 4731.64 2630.18 687.292 424.15 347.824 981.994 263.018 246.325 735.669 156.725
internal_count=349124 177600 171524 172513 142881 89963 81561 86025 39317 33346 63695 79186 32292 5087 48215 42461 46708 2332 29632 5754 19058 10574 2755 1701 1394 3938 1054 987 2951 631
is_linear=0
shrinkage=0.02


Tree=12
num_leaves=31
num_cat=0
split_feature=26 28 28 24 28 0 27 24 28 24 27 26 24 24 27 20 6 27 24 24 27 27 24 6 23 24 28 24 14 20
split_gain=1116.83 635.003 607.872 714.9 669.304 408.433 391.65 371.517 334.102 295.324 526.415 301.459 246.706 321.612 283.172 245.206 235.272 178.819 177.772 185.686 147.711 141.996 151.71 98.7535 89.8367 77.0434 57.2075 51.5529 32.4265 19.0195
threshold=0.022872100135099372 -0.1525642331117962 0.029943525222067613 -0.001799748866872514 0.097116484918233437 0.01568627450980398 0.015757174502239096 0.00030434690624007223 0.033963929440248175 0.00044814547375769464 -0.012038349717724101 0.013077027716563239 0.027608957021282875 0.036306961287815583 0.047840103857450647 16.375358927366317 0.042414148351648369 -0.032041857393098387 -0.00087832747676818703 -0.0062276576460298582 -0.0046586185920760919 0.079439859612396191 0.019630730378538557 -0.098214285714285629 0.050831937184515265 -0.0051294993799070529 -0.17336065022328709 0.027608957021282875 0.36842105257259866 13.775974319208244
decision_type=2 2 2 2 2 2 2 2 2 2 2 2 2 2 2 2 2 2 2 2 2 2 2 2 2 2 2 2 2 2
left_child=2 17 5 8 6 9 -5 18 25 10 -1 -11 14 -14 -9 -6 -10 23 19 -3 29 22 -7 28 -20 -4 -25 -22 -2 -19
right_child=1 7 3 4 15 21 -8 12 16 11 -12 -13 13 -15 -16 -17 -18 20 24 -21 27 -23 -24 26 -26 -27 -28 -29 -30 -31
leaf_value=-0.00096797729344244631 0.029625155444892439 -0.0018086850716804196 0.020886276822332305 0.00462530345943907 0.00083238749446276671 -0.0074961989059889036 0.014913492331549242 0.0031916650391042977 -0.008832328700431746 0.014399953291793763 -0.0071495377418357396 -0.00033554198950346226 -0.0070994609145433154 0.0048766237100504482 0.0087135628210320195 -0.013185935065808918 -0.00061602299522246957 -0.0027425524196198238 -0.013454134960431683 0.0036883990862132177 0.019406129733324794 0.02303849170733958 -0.018233718957000947 0.019844154493679555 -0.0021615257356761321 0.0035373013118469693 0 -0.0019306198349472576 0.014192269760356533 -0.019006701959778226
leaf_weight=12887.425337716937 463.00140596926212 6692.7099474519491 236.68964156508446 3664.1839718669653 1421.636776715517 4477.546551078558 2495.4180770218372 13391.134575933218 2918.1349759548903 586.43554021418095 9635.8103160858154 9068.3039533793926 1757.1014805585146 1820.8093531578779 5154.0873018801212 761.72813130915165 2677.1584152430296 58.083468094468117 593.09216822683811 3877.2767570018768 190.68456041812897 51.728874802589417 599.57983866333961 132.9852394759655 546.28885971009731 187.30280274152756 102.72006620466709 55.686288625001907 83.878184601664543 64.338747531175613
leaf_count=52058 1857 27011 955 14728 5712 18061 10004 53753 11773 2353 38960 36487 7066 7333 20668 3064 10795 233 2390 15619 764 208 2432 533 2200 754 412 224 336 258
internal_value=1.68539e-05 0.00277625 -0.00185116 0.00164377 0.00543348 -0.00319721 0.00880528 0.00227708 -0.00360576 -0.00236009 -0.00361444 0.000564422 0.00380167 -0.00100091 0.00472932 -0.00406811 -0.00490874 0.0173533 -0.00060209 0.000206652 0.00569675 -0.00843788 -0.00878487 0.02275 -0.00809035 0.0133994 0.0114313 0.0145614 0.0274444 -0.0118575
internal_weight=86653 34983.9 51669.1 14362.3 8342.97 37306.8 6159.6 33832.5 6019.29 32178 22523.2 9654.74 22123.1 3577.91 18545.2 2183.36 5595.29 1151.38 11709.4 10570 368.793 5128.86 5077.13 782.585 1139.38 423.992 235.705 246.371 546.88 122.422
internal_count=349001 140657 208344 57785 33508 150559 24732 136040 24277 129858 91018 38840 88820 14399 74421 8776 22568 4617 47220 42630 1479 20701 20493 3138 4590 1709 945 988 2193 491
is_linear=0
shrinkage=0.02


Tree=13
num_leaves=30
num_cat=0
split_feature=24 28 27 24 28 28 27 28 27 24 27 28 28 27 28 28 24 28 0 24 28 27 28 27 4 10 24 27 5
split_gain=1045.27 792.275 622.347 431.792 358.45 317.584 370.864 388.996 324.164 312.734 308.086 280.95 421.625 300.487 252.017 380.996 200.772 276.759 260.765 176.149 160.184 145.377 136.882 157.704 127.291 89.9681 48.4128 18.3535 19.3556
threshold=0.00030434690624007223 -0.14632384954877339 0.023028139558261291 0.019630730378538557 -0.12016025360186881 0.023538151526031875 -0.012038349717724101 -0.022145320597091001 0.015757174502239096 -0.0079871179423908738 -0.0014727728141297545 0.030453257873514477 0.1428703513521401 0.048770985827644601 -0.0025174757458688436 -0.016826551429615207 0.014972885273711855 -0.084380994872675766 0.011111111111111184 -0.0019247159515159975 0.10789922188912721 0.088846458518016355 -0.19398040284995186 -0.001820291752555844 0.019457680159662209 -0.11296762747177518 0.031424241314884908 -0.079855690962742393 -0.1736387378358458
decision_type=2 2 2 2 2 2 2 2 2 2 2 2 2 2 2 2 2 2 2 2 2 2 2 2 2 2 2 2 2
left_child=1 22 3 16 26 6 7 -3 19 -10 -8 14 13 -13 15 -4 18 -18 -2 -7 -6 -14 27 25 -16 -24 -5 -1 -29
right_child=2 5 11 4 20 8 10 -9 9 -11 -12 12 21 -15 24 -17 17 -19 -20 -21 -22 -23 23 -25 -26 -27 -28 28 -30
leaf_value=0.03079803049488854 0.0019731013487401168 0.00029606316711913277 0.00094945887668883267 0.0032499812561600518 -0.012839887745704088 0.00071123264665202913 -0.01102323342789685 -0.0064461333951189147 -0.010098749287537543 -0.00069269363455687892 -0.0041917757522072843 0.0059783521261462412 0.0032272007940097837 0.013401373547517706 0.0014757027791644924 0.019729416749974988 -0.027735499960805342 0.0094461558322041592 -0.0029668103005275892 0.0077757352461829687 0.0045545675525967937 -0.0057655995571540986 0.017266236803859636 -0.021379411247925719 -0.0079341229066437341 0.0043740534302423245 0.019269952376124399 0.024048294823830477 0.0071613897811299392
leaf_weight=153.34747037291527 13784.969146162271 10442.198315516114 1884.9219184666872 146.57235392928123 1866.1594107449055 7510.9951667040586 4134.331663608551 5083.1736582368612 2112.6282286942005 4272.7842400670052 7368.3338857591152 5574.7716816961765 3853.5862699598074 3613.4398714900017 998.65899135172367 556.85135672986507 79.241432279348373 1610.2174810022116 6187.9445168077946 1736.4549949765205 234.4480614811182 877.81997257471085 510.9987820237875 56.379329308867455 1336.5547518134117 389.2065819054842 164.54621413350105 90.360404044389725 51.454131126403809
leaf_count=619 55400 42175 7582 589 7552 30287 16727 20542 8541 17219 29810 22335 15459 14469 4023 2233 319 6474 24895 6984 944 3529 2048 228 5388 1562 659 362 206
internal_value=9.71451e-06 -0.00215741 0.00223516 0.000108048 -0.00790952 -0.00261858 -0.00393083 -0.00191148 -0.000347994 -0.0038133 -0.00665262 0.00497224 0.00640824 0.00890547 0.000781358 0.00527201 0.00100321 0.00761371 0.000441273 0.00204343 -0.0108828 0.00155021 0.0134918 0.00969377 -0.00390689 0.0117693 0.0119568 0.0253674 0.0185101
internal_weight=86683.4 43912.6 42770.7 24074.1 2411.73 42660.9 27028 15525.4 15632.9 6385.41 11502.7 18696.6 13919.6 9188.21 4776.99 2441.77 21662.4 1689.46 19972.9 9247.45 2100.61 4731.41 1251.75 956.585 2335.21 900.205 311.119 295.162 141.815
internal_count=349160 177310 171850 96832 9744 172285 109254 62717 63031 25760 46537 75018 55792 36804 19226 9815 87088 6793 80295 37271 8496 18988 5025 3838 9411 3610 1248 1187 568
is_linear=0
shrinkage=0.02


Tree=14
num_leaves=31
num_cat=0
split_feature=26 28 28 26 13 20 29 14 7 17 29 26 26 3 23 17 18 26 7 28 28 4 7 17 28 28 13 28 18 29
split_gain=1096.9 673.647 553.581 346.576 302.599 281.691 240.28 212.042 187.93 163.501 161.034 132.645 177.311 119.975 97.84 85.0906 82.0813 81.0475 79.6474 79.2955 63.8298 51.4344 47.5117 38.5478 36.8611 36.6119 29.8621 25.0986 23.6388 21.0945
threshold=0.019604746684918371 -0.14632384954877339 0.030453257873514477 0.019804447119885202 0.018182429190448275 16.024084168366688 0.62945295503988408 0.58114137407766264 -0.0065470023816185932 -0.048268278750952014 0.60247174422156613 0.010789644952107389 0.015592810572548788 -0.033872458120915154 0.0354177331206618 -0.30857206575761437 2.3877978864501777 0.018253865454008564 0.0010822510822511291 0.097116484918233437 -0.032016430431801357 -0.0069546299717684881 -0.024205748865355477 -0.077840567692373838 -0.19398040284995186 -0.032016430431801357 0.033598224043232379 -0.056187955406330585 0.56419033247575701 0.65987383325423199
decision_type=2 2 2 2 2 2 2 2 2 2 2 2 2 2 2 2 2 2 2 2 2 2 2 2 2 2 2 2 2 2
left_child=4 13 3 20 14 10 11 -7 -5 18 -4 25 -13 16 15 17 24 -1 -8 -17 -3 22 -15 27 -2 -6 -23 -16 -11 -25
right_child=1 2 5 8 6 7 9 -9 -10 28 -12 12 -14 21 23 19 -18 -19 -20 -21 -22 26 -24 29 -26 -27 -28 -29 -30 -31
leaf_value=-0.0048579278612374396 0.028627723213367227 0.020284481539599403 0.0063600890668429211 0.00084247713461136676 0.018507869655070709 -0.0023576939449440589 -0.0054913695750959451 0.0028483519484702553 -0.0029007723190971218 -0.0039155463699575869 0.0021865679009372817 -0.0066279418006052254 -0.0015607457036673183 -0.0060972304262031062 -0.00070526304043498102 0.002637137941438601 -0.00044347716621619029 0.0045837819013189738 -0.0096841692168958566 -0.015628365381983703 0.0074984799707309667 -0.0078458342627961367 0.013569159221449035 0.0086615422056114735 0.018323513142264776 0.0041123011809778062 0.010124455546947074 -0.0068347360917325574 0.0044055386878364402 -0.0027018882167015039
leaf_weight=1461.6879710108042 229.34973788261414 290.14298601448536 10742.006587132812 8963.8943433761597 125.95287626981735 4786.3660571724176 3385.2093410044909 9006.13469851017 13325.430257499218 177.11399534344673 5675.6089550554752 3751.4588863402605 10519.72314208746 51.350570827722549 360.74670171737671 5592.8165303617716 73.027856051921844 477.19148533046246 4053.5077792704105 91.508127987384796 367.8948195874691 105.92236919701099 409.80410474538803 126.08277998864651 591.74980416893959 171.91911095380783 50.098735928535461 1132.23141951859 526.21453154087067 122.99795557558537
leaf_count=5906 925 1171 43139 36132 507 19244 13675 36183 53763 714 22805 15167 42412 206 1457 22575 293 1925 16374 369 1485 426 1643 508 2372 693 201 4570 2121 496
internal_value=2.33712e-05 0.00174627 0.00137077 -0.000970248 -0.00291221 0.00314953 -0.00415942 0.00104007 -0.00139464 -0.00691207 0.00491962 -0.00261786 -0.00289601 0.0148924 0.000110783 0.00109058 0.0195844 -0.00251806 -0.00778377 0.0023261 0.0132767 0.00796001 0.0112944 -0.00415617 0.0213817 0.0104704 -0.00181612 -0.00537433 0.00226902 0.00302873
internal_weight=86745.1 54668.8 53157.5 22947.4 32076.4 30210.1 22711.1 13792.5 22289.3 8142.05 16417.6 14569.1 14271.2 1511.3 9365.26 7623.2 894.127 1938.88 7438.72 5684.32 658.038 617.176 461.155 1742.06 821.1 297.872 156.021 1492.98 703.329 249.081
internal_count=349457 219988 213922 92551 129469 121371 91663 55427 89895 32884 65944 58779 57579 6066 37806 30775 3590 7831 30049 22944 2656 2476 1849 7031 3297 1200 627 6027 2835 1004
is_linear=0
shrinkage=0.02


Tree=15
num_leaves=31
num_cat=0
split_feature=25 28 28 28 1 24 28 24 25 2 28 24 28 25 28 3 24 25 28 17 24 20 17 4 28 24 17 25 10 20
split_gain=977.863 653.88 435.731 351.73 360.493 324.1 290.745 302.573 263.538 260.269 259.664 290.847 326.101 325.674 217.024 194.625 163.635 155.654 140.615 134.909 120.561 96.2905 105.422 87.5998 71.6686 55.0884 51.2887 81.811 46.7463 15.226
threshold=0.40823259932245154 -0.14632384954877339 0.023538151526031875 0.029943525222067613 0.010810810810810813 0.00030434690624007223 -0.031240733417713676 -0.024713520843093417 0.39279220779220786 -1.0000000180025095e-35 0.1445341927549996 0.0082229994856781782 0.049369878962407895 0.67047223663726008 -0.13143522077866948 -0.042451486319410751 -0.021533775812100128 0.84632253711201089 -0.14632384954877339 -0.29948404140476426 0.0097451657541108485 14.703750760600775 -0.064102564102564027 -0.022471910112359546 -0.1525642331117962 0.0031749898170492061 -0.35918089017073584 0.040422608437314329 -0.0089761279822377898 13.142223845910715
decision_type=2 2 2 2 2 2 2 2 2 2 2 2 2 2 2 2 2 2 2 2 2 2 2 2 2 2 2 2 2 2
left_child=1 16 6 4 18 15 9 -8 -7 -3 11 13 -13 -5 28 -4 26 -16 20 -20 -2 25 -23 24 -18 -12 29 -28 -6 -1
right_child=3 2 5 10 14 8 7 -9 -10 -11 21 12 -14 -15 17 -17 23 -19 19 -21 -22 22 -24 -25 -26 -27 27 -29 -30 -31
leaf_value=0.014089456213401399 0.0023890657162350584 -0.00011097981929948089 0.0042246331808250088 0.0030407466328644583 0.015428204257104727 0.015410236309009848 0.011819910440245131 -0.0067134747303258307 -0.0016752837302722423 -0.0062343247557083113 -0.0088371852079053952 0.0162701272578912 0.0058881130142243452 -0.020390333254008568 -0.0019383571335380059 -0.0019158249608256712 0.013224960005972898 -0.0082337334915951622 -0.00056988643190059507 0.0036918315585497967 0.024647414327439627 -0.0047337706612878118 0.0017200517762087023 -0.0096865891713991889 -0.0091244427198812327 0.0057596957998738872 0.0015708809871211426 0.020788323600084899 -0.004753760954464825 0.02783770616708367
leaf_weight=64.663286775350571 189.63013643026352 9024.9999397099018 2487.9426808208227 7662.12887814641 295.49895839393139 933.25831289589405 357.07696610689163 12896.50018055737 582.40070943534374 4009.8835701197386 106.98436345160007 1449.8521126955748 7389.6449026912451 239.72898657619953 5802.6887244433165 11986.725906267762 287.57359862327576 2158.6398847550154 4918.646331012249 7466.8092911988497 202.55015888810158 2009.2079421728849 2025.8313566148281 135.8642154186964 66.518074885010719 1286.9344584047794 145.74068708717823 234.60910557210445 50.108922258019447 235.63775916397572
leaf_count=260 761 36472 10012 30746 1185 3739 1441 52185 2337 16244 430 5807 29616 965 23375 48362 1153 8751 19787 30024 811 8069 8130 548 267 5164 585 942 201 950
internal_value=-1.03519e-05 -0.00212967 -0.00253889 0.00211804 0.000267491 6.3296e-05 -0.00412218 -0.00620837 0.00884795 -0.00199789 0.00387659 0.00510886 0.00760146 0.00231491 -0.0029738 -0.000857912 0.0125811 -0.0036519 0.00237661 0.00199821 0.0141008 7.1745e-05 -0.0014905 0.00366137 0.00890222 0.0045975 0.0188991 0.0135925 0.012419 0.0252221
internal_weight=86704.3 43449.4 42278.8 43254.9 21084.6 15990.3 26288.5 13253.6 1515.66 13034.9 22170.3 16741.4 8839.5 7901.86 8306.94 14474.7 1170.61 7961.33 12777.6 12385.5 392.18 5428.96 4035.04 489.956 354.092 1393.92 680.651 380.35 345.608 300.301
internal_count=349319 175497 170792 173822 84895 64450 106342 53626 6076 52716 88927 67134 35423 31711 33512 58374 4705 32126 51383 49811 1572 21793 16199 1968 1420 5594 2737 1527 1386 1210
is_linear=0
shrinkage=0.02


Tree=16
num_leaves=31
num_cat=0
split_feature=26 28 28 25 12 27 25 28 26 28 27 25 28 28 27 10 28 25 25 26 28 25 26 26 26 26 26 26 27 28
split_gain=958.354 619.9 494.843 484.136 473.706 415.944 377.682 324.786 314.997 244.778 228.475 214.611 210.554 203.398 202.084 200.774 190.116 130.457 87.3984 82.489 75.6441 67.4752 72.7693 64.099 62.8097 103.853 101.127 60.1566 51.4052 14.4458
threshold=0.019604746684918371 -0.14632384954877339 0.030453257873514477 0.29693374060150385 0.012505467729098213 -0.058802207296480717 0.23290498974709503 0.054146367921841278 0.019804447119885202 0.12083856064298705 -0.02177158285061986 0.40823259932245154 -0.012673021169791378 0.0074520980821016552 -0.032041857393098387 -0.074476039264880708 -0.096257906793265208 0.13585714285714287 0.16708967851099835 0.015663745269078728 0.019308310482280315 0.50607694192599861 0.015772060023994512 0.018782597482098221 0.025098542623269871 0.029181414504174698 0.022715011977441909 0.018519156882929034 -0.023595282556665962 0.041191727037900992
decision_type=2 2 2 2 2 2 2 2 2 2 2 2 2 2 2 2 2 2 2 2 2 2 2 2 2 2 2 2 2 2
left_child=4 14 8 10 11 12 13 -5 20 -8 -4 18 16 -7 24 -10 -6 -16 19 -1 -3 27 -23 -20 26 -26 -2 -13 -19 -14
right_child=1 2 3 7 5 6 9 -9 15 -11 -12 21 29 -15 17 -17 -18 28 23 -21 -22 22 -24 -25 25 -27 -28 -29 -30 -31
leaf_value=-0.013290533684397022 0.0071848354932575048 0.014474100657696694 0.0058852616010648005 0.0091270649197279351 0.012519168826571968 -0.0098077280079191167 -0.0030434998127341962 0.0030696700625851793 0.0017243682330850708 0.011202781047385004 -0.0039135893560865668 0.010032588153155731 0.034440272342979847 -0.0030628653507878746 -0.022423274879839965 -0.0025692573885990563 -0.010622486445446921 -0.008571751437383434 0.002884768612473373 -0.00082875047847097156 -0.0096693310572401985 0.011116302605913717 0.0016707131606607168 -0.0065193603661525702 0.0055829600850415906 0.022112069160780345 0.031751584876591979 0.026095212192979191 0.010460402925086335 0.020481213570887623
leaf_weight=352.19724437594414 94.647357329726219 612.53517632186413 1164.9937249869108 4331.1462972164154 382.33707572519779 5953.8853720873594 17003.184164136648 19502.654140532017 5921.9772080481052 491.1388948559761 5080.4689567089081 509.50849072635174 89.974142953753471 2577.8712302297354 62.082161381840706 16397.646855339408 218.81897582113743 62.123019993305206 1990.4982822686434 535.42693836987019 52.240254551172256 526.6055101454258 866.31284283101559 333.43634943664074 273.97816181182861 361.43515527248383 285.27993448078632 117.08758735656738 360.87051166594028 118.7762103676796
leaf_count=1432 379 2471 4689 17365 1536 24143 68576 78248 23883 1976 20514 2048 363 10425 250 66169 883 249 8054 2167 210 2117 3483 1348 1100 1456 1147 470 1447 477
internal_value=-6.70644e-05 0.00154528 0.00118571 0.00287398 -0.00281101 -0.00388446 -0.00432484 0.00417296 -0.00102297 -0.00263932 -0.00207932 0.00269055 0.0101823 -0.0077751 0.0142024 -0.00142902 0.00404454 0.00348434 -0.000517652 -0.00584257 0.0124889 0.00779098 0.005283 0.00151578 0.0192612 0.0151155 0.0258563 0.0132486 0.00755103 0.0272562
internal_weight=86631.1 54564.1 53063.7 30079.3 32067.1 26836 26026.1 23833.8 22984.4 17494.3 6245.46 5231.07 809.906 8531.76 1500.42 22319.6 601.156 485.076 3211.56 887.624 664.775 2019.51 1392.92 2323.93 1015.34 635.413 379.927 626.596 422.994 208.75
internal_count=349075 219577 213549 120816 129498 108379 105120 95613 92733 70552 25203 21119 3259 34568 6028 90052 2419 1946 13001 3599 2681 8118 5600 9402 4082 2556 1526 2518 1696 840
is_linear=0
shrinkage=0.02


Tree=17
num_leaves=31
num_cat=0
split_feature=26 25 3 10 12 24 24 24 26 26 26 26 20 11 24 24 26 26 26 23 25 24 25 24 29 25 14 2 23 18
split_gain=948.63 534.322 398.554 328.764 317.785 303.512 248.361 299.285 246.678 213.776 320.201 277.183 190.389 169.84 168.977 187.044 140.356 127.083 106.382 100.12 96.9462 95.6226 103.627 91.3915 81.7494 53.5247 32.7361 31.7562 23.828 15.9456
threshold=0.022872100135099372 0.41692229038854811 -0.017797081502988307 -0.12949415571543946 0.012900706859662813 0.00030434690624007223 0.027608957021282875 0.036306961287815583 0.01549596540610468 0.017770009476629017 0.020838956885530755 0.013952864700977516 16.639733402409306 0.013579858053998604 -0.00087832747676818703 -0.0052125953552908475 0.010789644952107389 0.019604746684918371 0.020838956885530755 0.049943818702370836 0.21473779385171793 -0.012268145655950928 0.46072923551443051 0.0025003445461918455 0.52087294043092536 0.78671568627450983 0.34819505720003907 0.0091743119266055623 0.030479839665446515 2.0103531153618683
decision_type=2 2 2 2 2 2 2 2 2 2 2 2 2 2 2 2 2 2 2 2 2 2 2 2 2 2 2 2 2 2
left_child=1 2 8 21 18 14 24 -8 16 11 -11 -6 -10 20 15 -5 -1 -15 23 -16 -4 26 27 -3 -7 -20 29 -23 -24 -2
right_child=3 4 13 5 9 6 7 -9 12 10 -12 -13 -14 17 19 -17 -18 -19 25 -21 -22 22 28 -25 -26 -27 -28 -29 -30 -31
leaf_value=0.010661591373595878 0.018951678349941877 0.013700600553095219 -0.0061282528726764787 -0.0016737462123930181 0.0070180837666734839 0.0056585014306542855 -0.0074330909773641044 0.0043441680797545153 0.0016007012817297753 0.0041278108438059262 -0.0025340860143251592 -0.0053816770787304367 -0.0054140735972499042 -0.008403808504953033 -0.014111993901315406 0.0042044707613612927 -0.0075328248139586327 -0.0041633445625815276 0.0023440131479510189 -0.0020099242543411937 -0.00036656952428113816 0.0029588445253238851 0.0030892943170749854 0.0056423314848124987 0.0029554407946535744 -0.010879877490727498 0.0065206345804854739 -0.0079044710379853091 0.012489693467313634 0.0061065299592705114
leaf_weight=176.64461903274059 541.78298273682594 819.61882717907429 1803.622916534543 6985.8800915330648 841.33429048955441 9169.1605273336172 1716.0589063763618 1724.9018756598234 9256.1009909361601 6532.2920310646296 5158.975748360157 4845.1665039509535 1852.7099779993296 7337.8221214264631 547.99841012060642 3131.4840435683727 2515.7321271598339 4665.4160132706165 508.47323359549046 553.46124748885632 3323.7069492936134 463.24952538311481 136.21553632616997 1873.1922016143799 8873.4733285158873 155.48322120308876 138.26922252774239 134.52273824810982 788.05183562636375 53.176476672291756
leaf_count=713 2188 3291 7320 28215 3384 36765 6905 6945 37373 26270 20762 19515 7475 29737 2211 12605 10210 18856 2043 2229 13433 1865 547 7528 35595 628 558 543 3167 214
internal_value=-3.30432e-05 -0.00175479 -0.00341992 0.00251095 0.000728515 0.00199997 0.00339222 -0.00152579 -0.00088838 -0.000359186 0.0011866 -0.00353903 0.000427079 -0.00545743 -0.000664665 0.000144857 -0.00631414 -0.00675971 0.00635758 -0.00808559 -0.00240123 0.00989076 0.00697025 0.00812331 0.00433142 -0.000780992 0.0158378 0.000435694 0.0111499 0.0178974
internal_weight=86624 51666.3 30931.8 34957.7 20734.5 32702.4 21483.6 3440.96 13801.2 17377.8 11691.3 5686.5 11108.8 17130.6 11218.8 10117.4 2692.38 12003.2 3356.77 1101.46 5127.33 2255.27 1522.04 2692.81 18042.6 663.956 733.229 597.772 924.267 594.959
internal_count=349090 208538 125117 140552 83421 131470 86210 13850 55771 69931 47032 22899 44848 69346 45260 40820 10923 48593 13490 4440 20753 9082 6122 10819 72360 2671 2960 2408 3714 2402
is_linear=0
shrinkage=0.02


Tree=18
num_leaves=30
num_cat=0
split_feature=26 28 28 24 27 24 26 28 26 26 27 11 27 28 28 27 26 27 26 24 24 28 27 26 26 26 13 20 4
split_gain=908.607 597.768 496.373 496.778 391.017 540.379 318.401 308.391 292.474 293.073 291.733 283.28 203.674 180.43 232.216 284.494 166.533 158.698 116.561 111.318 94.6394 81.9287 58.0088 53.5603 115.217 93.1904 14.0799 13.7167 11.1401
threshold=0.019604746684918371 -0.14632384954877339 0.030453257873514477 -0.0051294993799070529 -0.058802207296480717 -0.0049315734149161837 0.019889674547199542 0.14107257988462504 0.018782597482098221 0.01549596540610468 -0.02177158285061986 0.01378231600434531 -0.0525302531549127 -0.012673021169791378 -0.096257906793265208 -0.079855690962742393 0.023673186881406686 -0.032041857393098387 0.013077027716563239 -0.01266717756039989 -0.0079871179423908738 -0.093942949280953758 0.036045730936518035 0.025098542623269871 0.022715011977441909 0.029181414504174698 0.02132397472254554 14.990769332085343 -0.03731343283582083
decision_type=2 2 2 2 2 2 2 2 2 2 2 2 2 2 2 2 2 2 2 2 2 2 2 2 2 2 2 2 2
left_child=4 17 6 10 13 8 21 -5 9 -6 -4 18 -13 14 15 -1 -8 23 -7 27 -10 -3 -21 24 -2 -25 -16 -19 -15
right_child=1 2 3 7 5 11 16 -9 20 -11 -12 12 -14 28 26 -17 -18 19 -20 22 -22 -23 -24 25 -26 -27 -28 -29 -30
leaf_value=-0.013697758712242811 0.0049486891114282503 0.029382186966052593 0.0065188460820993169 0.0055957365438333443 -0.0098006450500855297 0.010258150287790075 -0.00295053755205356 0.00062850512986112751 -0.0097769009932199367 -0.0026237662943597103 -0.0046774307779577882 0.027689667455198307 -0.0028631938564370801 0.03242074243963957 -0.0023865104718973052 0.023604063399603352 0.00056258991651305041 -0.0049832873095495842 0.0015559140283814643 0.0041966753090150796 -0.019323251630623435 0.0085471840912993875 0.021073035863130387 0.0056447919865350573 0.031317299958961292 0.021388202649188354 -0.013669952686070401 -0.020679708118291722 0.019852272763516334
leaf_weight=105.72408230602741 92.15424570441246 80.675918519496918 1165.0528885126114 17426.65081743896 3440.2285682559013 687.5945006608963 12655.360992714763 7025.3905248194933 1009.8192330747843 6756.9189847409725 4536.4239915162325 82.801079466938972 12717.84261508286 97.155396088957787 69.262589618563652 312.39790937304497 9391.2581704854965 51.611846476793289 5682.6529246866703 270.42903795838356 747.28846426308155 833.87382367253304 116.61691169440746 269.31984825432301 274.4968309700489 362.94691252708435 165.68171438574791 49.931552335619926 118.66874977946281
leaf_count=425 369 324 4688 69880 14009 2769 51115 28196 4096 27364 18336 332 51292 390 280 1254 37847 208 22899 1084 3028 3361 467 1082 1107 1465 669 201 477
internal_value=2.58874e-05 0.00159426 0.00124296 0.00293008 -0.00264996 -0.00302049 -0.00097192 0.00416982 -0.00635705 -0.00505062 -0.00238235 -0.000937768 -0.00265327 0.0105412 0.0051739 0.0140744 -0.00145335 0.0140788 0.00250567 0.00462053 -0.0138916 0.0105566 0.00953644 0.018639 0.0248994 0.0148104 -0.0105459 -0.0134976 0.0262066
internal_weight=86596.2 54602.2 53114.7 30153.5 31994 31125.1 22961.2 24452 11954.3 10197.1 5701.48 19170.9 12800.6 868.89 653.066 418.122 22046.6 1487.51 6370.25 488.589 1757.11 914.55 387.046 998.918 366.651 632.267 234.944 101.543 215.824
internal_count=349014 219730 213747 121100 129284 125789 92647 98076 48497 41373 23024 77292 51624 3495 2628 1679 88962 5983 25668 1960 7124 3685 1551 4023 1476 2547 949 409 867
is_linear=0
shrinkage=0.02


Tree=19
num_leaves=29
num_cat=0
split_feature=25 27 27 25 17 8 27 12 25 17 7 14 10 2 25 25 27 27 25 5 27 27 27 31 25 27 6 11
split_gain=900.617 614.97 591.579 392.661 383.195 291.957 283.029 210.415 188.617 159.778 245.986 156.848 154.797 136.828 113.405 97.4358 94.5151 107.033 90.3299 90.2179 73.2586 68.2479 76.552 64.5038 61.7192 61.0268 32.765 15.5962
threshold=0.40823259932245154 -0.056934085367275074 0.020324917056864015 0.86424335863377622 -0.25706621777615979 -0.015873015873015869 -0.014280436070269307 0.012900706859662813 0.040422608437314329 -0.087979686103734231 -0.0021138457374554327 0.31483486182671 -0.058447064152423893 0.032258064516129122 0.2802214022140222 0.38590810689758143 0.048770985827644601 0.050736347138312425 0.227682524349996 -0.09740873954040534 -0.0054730116072144045 0.020678119312058967 0.023028139558261291 0.22678496148392294 0.22337725456312779 0.045955971247538412 0.20754716981132085 0.019132219350334479
decision_type=2 2 2 2 2 2 2 2 2 2 2 2 2 2 2 2 2 2 2 2 2 2 2 2 2 2 2 2
left_child=1 15 3 7 5 8 11 23 -3 10 -6 -5 -9 21 -11 19 25 -18 -7 26 -8 27 -23 -2 -21 -15 -1 -4
right_child=2 4 13 6 9 18 20 12 -10 14 -12 -13 -14 16 -16 -17 17 -19 -20 24 -22 22 -24 -25 -26 -27 -28 -29
leaf_value=0.012912161523233266 0.004104129741919124 -0.017189708070735842 0.025903427627323925 0.014480086704764052 -0.00026716611792580665 -0.0098391611009980128 -0.023065601715933061 0.0028353218265360332 -0.0015868210155907004 -0.0010014964750458242 -0.0053252761218075245 -0.005003157525636283 -0.0012491378106697204 0.0011331296613539797 0.0040540391073655277 -0.015860598642169925 0.016134697837655337 0.0037851389500506228 -0.005710635620450333 0.002854989743907924 -0.011656423788103469 2.2283095997648805e-05 0.0063288264978622749 0.011708822183385856 0.017345646182703279 -0.0077100992084443544 0.0013095429448295459 0.0095428192590615631
leaf_weight=1115.4120954573154 2714.9039578139782 318.17327126860619 79.506049513816833 219.71143531799316 10786.470924168825 3733.5945453196764 336.94715169072151 5112.5329626649618 7828.3347145020962 3565.225886285305 5980.2340199351311 619.70335219800472 13500.277488902211 3487.7031182348728 3516.7527352422476 65.505105376243591 299.71397687494755 3901.8977557122707 5075.2980494201183 1204.4094540625811 784.30778856575489 838.15886311233044 10427.217572167516 537.61515818536282 126.776741579175 337.58005464076996 112.18158465623856 50.806551203131676
leaf_count=4497 10901 1289 319 884 43595 15181 1372 20565 31660 14422 24203 2501 54290 13999 14163 264 1201 15657 20533 4851 3191 3363 41810 2159 510 1357 451 204
internal_value=-6.15578e-06 -0.00204072 0.0020364 -7.48289e-05 -0.0026449 -0.00494338 -0.00863796 0.000693914 -0.00220884 -0.00100925 -0.0020735 0.000128316 -0.000125691 0.00462667 0.00150724 0.00733308 0.00261968 0.00468896 -0.00746734 0.00796441 -0.0151899 0.00603683 0.0058616 0.00538331 0.00430973 0.00033845 0.0118777 0.0202608
internal_weight=86677 43428.4 43248.6 23826 40804.1 16955.4 1960.67 21865.3 8146.51 23848.7 16766.7 839.415 18612.8 19422.6 7081.98 2624.28 8026.89 4201.61 8808.89 2558.78 1121.25 11395.7 11265.4 3252.52 1331.19 3825.28 1227.59 130.313
internal_count=349392 175619 173773 95863 165046 68663 7948 87915 32949 96383 67798 3385 74855 77910 28585 10573 32214 16858 35714 10309 4563 45696 45173 13060 5361 15356 4948 523
is_linear=0
shrinkage=0.02


Tree=20
num_leaves=30
num_cat=0
split_feature=26 28 28 12 25 26 28 26 3 25 25 1 28 28 28 28 26 28 28 28 26 3 28 18 28 26 26 23 18
split_gain=846.899 581.782 490.475 461.983 439.491 309.54 282.913 229.801 226.616 228.412 222.447 174.129 173.817 150.329 168.627 146.159 110.79 106.802 184.417 112.244 96.8968 93.741 80.0762 76.172 62.491 45.7748 45.6781 42.5319 39.4749
threshold=0.019604746684918371 -0.14632384954877339 0.030453257873514477 0.014262968709472367 0.29693374060150385 0.019804447119885202 0.054146367921841278 0.03272477924965405 -0.027961621346975992 0.23000775143724569 0.18200220831799782 -0.0051546391752576573 -0.0045173167722536026 -0.086423699748152671 0.12083856064298705 0.13411385288570088 0.019254855809634833 0.021951384223594415 -0.010653082199451108 0.041191727037900992 0.015663745269078728 -0.033333333333333263 -0.022145320597091001 2.3877978864501777 0.019308310482280315 0.038006914870538644 0.022001124095498256 0.10711293288795819 0.59069566328042744
decision_type=2 2 2 2 2 2 2 2 2 2 2 2 2 2 2 2 2 2 2 2 2 2 2 2 2 2 2 2 2
left_child=3 21 5 10 7 24 -6 -4 13 12 20 -7 -10 16 -15 -11 -5 18 -12 -19 28 23 -22 26 -3 27 -2 -23 -1
right_child=1 2 4 8 6 11 -8 -9 9 15 17 -13 -14 14 -16 -17 -18 19 -20 -21 22 25 -24 -25 -26 -27 -28 -29 -30
leaf_value=-0.013371452720265645 0.0027903907853663772 0.014131955882781917 -0.00074715699021032033 0.0061132576258536636 0.0087187659993210875 0.00055346734516185621 0.0030687310294138783 -0.015114624140954944 -0.012209243284110691 -0.0041281090772397576 0.0046217495662718286 -0.0030014508270590746 -0.0041494751268168831 -0.0030084401993446036 0.014836067416358597 0.011829188811103224 -0.017822576912757911 0.015805407809849754 -0.003809738666934554 0.0031111327346146854 0.0028891610706758535 0.0082218933686933025 -0.0092469542532471558 -0.0019898892283165639 -0.0077760848319900046 0.023738121659368571 0.020962932984468843 -0.0059196352764759623 0.0046734244800452776
leaf_weight=508.88053108751774 64.191362082958221 616.17284370958805 5746.6957252025604 1316.8611561954021 4338.4452830404043 9907.9994547516108 19510.143081277609 478.19071248173714 2796.9246633052826 11072.645485877991 3533.0832088440657 12389.251997038722 1758.4468597918749 6845.206176429987 213.35651850700378 229.13052999973297 77.005998134613037 515.70821639895439 1461.497139364481 616.38723549246788 633.54636360704899 442.76800742745399 324.14012503623962 68.181345030665398 52.504324167966843 58.840363070368767 762.19878821074963 99.507472023367882 49.350761741399765
leaf_count=2078 257 2481 23206 5308 17385 39962 78247 1933 11397 44714 14261 50031 7142 27664 857 921 311 2075 5898 2480 2567 1777 1315 274 211 236 3080 400 201
internal_value=1.59199e-05 0.001531 0.00118302 -0.00256919 0.00286369 -0.00101707 0.00409901 -0.00186531 -0.00391767 -0.00532758 0.00171719 -0.00142112 -0.00911039 -0.00126866 -0.00245611 -0.00379774 0.00471762 0.00341642 0.00214921 0.00895547 -0.00512586 0.0138127 -0.00122437 0.017931 0.0123371 0.00755351 0.0196007 0.00556001 -0.0117133
internal_weight=86487.3 54535.1 53039.4 31952.2 30073.5 22965.9 23848.6 6224.89 24309.6 15857.1 7642.59 22297.3 4555.37 8452.43 7058.56 11301.8 1393.87 6126.68 4994.58 1132.1 1515.92 1495.69 957.686 894.571 668.677 601.116 826.39 542.275 558.231
internal_count=348669 219480 213456 129189 120771 92685 95632 25139 98314 64174 30875 89993 18539 34140 28521 45635 5619 24714 20159 4555 6161 6024 3882 3611 2692 2413 3337 2177 2279
is_linear=0
shrinkage=0.02


Tree=21
num_leaves=31
num_cat=0
split_feature=28 28 20 7 8 14 33 28 12 28 12 10 28 28 20 28 23 33 20 28 23 14 10 21 5 4 19 7 10 20
split_gain=762.391 871.537 316.235 271.526 192.945 163.896 229.146 154.625 271.227 151.617 169.027 149.472 113.458 110.844 107.69 98.7456 94.2026 91.3208 87.8914 85.0223 73.8402 72.0935 63.9387 63.7421 62.716 41.3015 32.8865 31.0796 41.3266 12.4965
threshold=0.029176525786601935 -0.14632384954877339 16.104752879889329 0.0028653295128940885 0.0066160491543287856 0.6021988594672506 0.78304382549665574 -0.016109735123280233 0.012381012809436287 0.054146367921841278 0.018349124504921124 -0.080059154514604866 0.05221688297018854 0.14107257988462504 13.343908291578684 0.16494262245126387 0.074531632034430764 0.56327822268147776 13.603767522749665 -0.19398040284995186 0.057205251691069069 0.74299065021872424 0.04966900866235225 0.68304746862989352 0.14679875073199303 -0.076521360344947317 -0.81824553448220994 -0.050200189104584396 -0.010597879425575494 11.15497827327893
decision_type=2 2 2 2 2 2 2 2 2 2 2 2 2 2 2 2 2 2 2 2 2 2 2 2 2 2 2 2 2 2
left_child=1 11 13 7 12 6 -5 8 -3 10 -6 19 20 17 -9 -14 24 23 -19 29 -4 -11 -7 -2 -15 -21 -18 -13 -29 -1
right_child=2 3 4 5 9 22 -8 14 -10 21 -12 27 15 16 -16 -17 26 18 -20 25 -22 -23 -24 -25 -26 -27 -28 28 -30 -31
leaf_value=0.013224957578562813 0.0048199592341525302 0.0054618936688961136 0.0044874770392855133 -0.0037247250516115066 0.016229361837675097 -0.0030885836645245628 -0.0098260808210054607 0.00030148154726202778 -0.0010494581027524158 -0.0010062488963381991 0.0026631484345654767 -0.01104632463325048 -0.0058218738334770807 0.00070174672885827197 -0.0041344157131624187 0.0018615912168222094 -0.001774867341530385 -0.00086433763909489871 0.0041138225775679107 0.015825762032380807 -0.0063164860985984693 0.0028236050265163341 0.0022519288622064402 0.0088882538923431842 -0.0056310751679313001 0.0070265393491823133 0.006177443885248061 0.0086660942473751074 -0.0034148874923376009 0.027181315644489477
leaf_weight=52.194248020648956 8743.635447114706 3001.8187954574823 1102.4776467382908 8739.780382245779 547.04609155654907 1908.2862340956926 3441.234257876873 2938.3615552186966 17168.44454343617 4836.209131538868 1119.8350213319063 50.734956115484238 3709.6331291496754 2034.3865077793598 8480.2671456485987 809.04701252281666 241.64203873276711 2066.1651097387075 4469.696818292141 610.01699861884117 322.10608871281147 3301.4702997207642 1680.0358533710241 1898.2949195951223 895.10372483730316 362.6068239659071 1275.6409026533365 333.33539406955242 164.05493132770061 246.09143759310246
leaf_count=210 35126 12125 4435 35348 2195 7713 13944 11873 69393 19433 4500 204 14929 8172 34273 3253 971 8306 17964 2455 1295 13259 6790 7620 3598 1456 5124 1339 660 1005
internal_value=-4.4316e-05 -0.00168083 0.00210853 -0.00220348 -4.61771e-05 -0.00434691 -0.00545337 -0.00113231 -7.83081e-05 0.00167588 0.00716257 0.0118839 -0.00288943 0.00367825 -0.00299154 -0.00444123 0.000857167 0.00440691 0.00253757 0.0156418 0.0020171 0.000545853 -0.00058296 0.00555137 -0.00123272 0.0126185 0.00489615 0.00307178 0.00464727 0.0250635
internal_weight=86549.7 49177.3 37372.4 47358.2 15747.8 15769.3 12181 31588.9 20170.3 9804.56 1666.88 1819.03 5943.26 21624.6 11418.6 4518.68 4446.77 17177.8 6535.86 1270.91 1424.58 8137.68 3588.32 10641.9 2929.49 972.624 1517.28 548.125 497.39 298.286
internal_count=348968 198788 150180 191459 63299 63795 49292 127664 81518 39387 6695 7329 23912 86881 46146 18182 17865 69016 26270 5126 5730 32692 14503 42746 11770 3911 6095 2203 1999 1215
is_linear=0
shrinkage=0.02


Tree=22
num_leaves=31
num_cat=0
split_feature=26 25 3 12 27 27 10 25 26 25 26 0 25 27 26 26 14 1 26 25 6 25 25 26 27 26 26 25 26 27
split_gain=816.144 431.107 485.918 332.353 294.945 279.989 306.242 271.57 267.056 259.369 246.873 201.29 200.845 196.917 180.253 179.686 169.326 147.378 154.943 141.751 130.459 128.994 116.732 102.846 101.553 168.97 82.9499 130.899 52.2955 49.6855
threshold=0.023922366862121774 0.41692229038854811 -0.017797081502988307 0.012505467729098213 -0.061682307568156736 0.028300361340480144 -0.12618430292354541 0.90399385560675893 0.01549596540610468 0.83981132075471709 0.024266855812068746 0.014287145720011553 0.34035165484633573 -0.04800051308979747 0.016307315909508808 0.032510307752002456 0.54619844204681323 0.0073183483664742708 0.015592810572548788 0.8578167115902966 0.29092157842157845 0.88694461351186871 0.020576567045755095 0.024438320822159704 0.09076220498531519 0.029977558304136575 0.013757604328716403 0.86424335863377622 0.025098542623269871 0.020324917056864015
decision_type=2 2 2 2 2 2 2 2 2 2 2 2 2 2 2 2 2 2 2 2 2 2 2 2 2 2 2 2 2 2
left_child=1 2 4 26 22 6 13 15 -6 12 -11 14 -8 -2 -5 21 -13 18 -4 -17 -19 -7 -1 -15 28 -26 27 -3 -9 -28
right_child=5 3 17 11 8 7 9 24 -10 10 -12 16 -14 23 -16 19 -18 20 -20 -21 -22 -23 -24 -25 25 -27 29 -29 -30 -31
leaf_value=0.023890778432449009 0.018030029836799875 0.020850566587399175 -0.0082707898953281039 -0.0035975072439622009 -0.0067533003599663721 0.0056633434700470156 -0.0026264400736664938 0.0077849244495713414 0.00039435489452295264 0.01366267543479195 -0.013364258935359455 -0.006138551674783904 0.0025710364886597161 0.019999005562215073 0.0022549998786292476 -0.0006426205228550494 0.00032090918817279958 -0.0088168238528613524 -0.0027178449202035436 0.017561785362109002 0.00018292792797977065 -0.012331509351473584 0.0067539583351382305 0.00085510735960987912 0.02071725188332027 -0.0070455113582207542 0.0038578595389866526 -0.010827262141312313 0.020881619448438499 0.0098353357481046344
leaf_weight=195.6286643743515 608.88790498673916 302.7042987793684 2505.1846626549959 2607.5536761432886 2562.6205761432648 9328.16461622715 4693.5152055323124 169.215934664011 11238.205158114433 153.06416775286198 933.72916926443577 3522.0394604802132 8090.9126321822405 125.30528375506401 10801.330755770206 3633.0605812072754 2996.0913561582565 5040.3826399445534 10267.266501784325 174.50996646285057 733.38485434651375 156.88436678051949 839.06698821485043 834.03742949664593 149.048987865448 198.0331297814846 2192.849791482091 58.673890605568886 608.12494431436062 757.98838813602924
leaf_count=787 2467 1212 10206 10502 10426 37437 18948 682 45403 618 3777 14225 32481 505 43415 14582 12057 20452 41579 700 2967 629 3379 3357 599 794 8809 238 2441 3040
internal_value=8.63234e-06 -0.001402 -0.00285805 0.000688833 -0.000158494 0.00268426 0.000810682 0.00468835 -0.000933381 -0.0001363 -0.00949432 -0.000285884 0.000661055 0.00917339 0.00111449 0.00388455 -0.00316839 -0.00501578 -0.00381137 0.000208422 -0.00767104 0.00535726 0.0101125 0.00346707 0.0141137 0.00494487 0.00655056 0.0155751 0.0181242 0.00541411
internal_weight=86477.5 56621 33381.7 23239.2 14835.5 29856.5 15439.5 14417 13800.8 13871.2 1086.79 19927 12784.4 1568.23 13408.9 13292.6 6518.13 18546.2 12772.5 3807.57 5773.77 9485.05 1034.7 959.343 1124.42 347.082 3312.22 361.378 777.341 2950.84
internal_count=348714 228697 135199 93498 59995 120017 62153 57864 55829 55824 4395 80199 51429 6329 53917 53348 26282 75204 51785 15282 23419 38066 4166 3862 4516 1393 13299 1450 3123 11849
is_linear=0
shrinkage=0.02


Tree=23
num_leaves=31
num_cat=0
split_feature=25 27 27 24 17 27 3 24 0 25 24 1 7 27 24 24 25 24 20 24 1 25 10 24 25 25 25 27 24 7
split_gain=790.405 572.836 525.767 381.097 355.735 325.318 257.139 209.499 223.044 207.537 200.405 168.98 154.232 151.49 150.727 275.518 143.774 143.699 141.092 147.392 124.513 106.108 92.0335 128.299 102.072 89.0693 88.0912 73.1547 75.3039 59.6363
threshold=0.40823259932245154 0.020324917056864015 -0.056934085367275074 0.019630730378538557 -0.25528378585672645 -0.019264836159188978 -0.026455026455026561 0.014972885273711855 0.012987012987012993 0.74354208369078267 0.00030434690624007223 0.024000000000000136 0.0030778955360301068 -0.022722296892003481 0.036306961287815583 0.027608957021282875 0.39279220779220786 0.04266826945942228 15.094975519225622 0.0076434677772977237 0.010101073005865826 0.227682524349996 -0.069506172154352661 -0.034219142592203468 0.040422608437314329 0.040422608437314329 0.11896436896436897 -0.070494969230480278 -0.026204115914095428 0.018089874458106951
decision_type=2 2 2 2 2 2 2 2 2 2 2 2 2 2 2 2 2 2 2 2 2 2 2 2 2 2 2 2 2 2
left_child=2 3 22 7 6 13 25 8 -2 -9 12 18 -6 -5 15 -13 -12 -16 29 -20 -7 -8 27 24 -24 -4 -25 -1 -29 -3
right_child=1 11 4 5 10 20 21 9 -10 -11 16 14 -14 -15 17 -17 -18 -19 19 -21 -22 -23 23 26 -26 -27 -28 28 -30 -31
leaf_value=0.013948244153032717 0.0014419955148940844 0.0094900432056258394 -0.013272557639430927 -0.00095889788494832524 -0.00024889531428394783 -0.0045808043578597635 -0.0087182468313380165 -0.0078570515997270392 -0.0033226486796658385 0.011391266289583209 0.010515393035325615 0.0028475159756234207 -0.0039196453793514663 0.023452124264446601 0.018687241038694031 -0.0084942585343036545 -0.0012051899965239482 0.0032954395795818246 0.00019025331310540419 0.0064180088004054496 -0.017007523810795403 -0.0046834345403365656 -0.015213761688641926 0.012351034450187355 0.010942096938909868 -0.00098197446397334503 -0.000115859541594804 -0.0076692649608165213 0.008853799228014719 0.0026021470771825871
leaf_weight=857.39513179659843 14635.470429867506 4267.1554514616728 240.66044953465462 596.03851780295372 15444.028035879135 478.73742471635342 4831.5357305258512 268.78620745241642 5366.4672067165375 1228.4253646582365 1019.6367253065109 5998.4856682568789 6511.3096309900284 117.21029655635357 402.1851159632206 993.91310912370682 701.50407232344151 616.99351723492146 2394.7309084832668 4190.7556161433458 1048.3607633560896 5789.6121368408203 224.6453765630722 476.21373417973518 75.686023190617561 6202.2342382073402 422.54682205617428 143.92002911865711 416.52430541813374 584.48905304074287
leaf_count=3473 58825 17103 976 2405 62468 1934 19683 1079 21615 4941 4091 24057 26369 472 1616 4000 2820 2478 9600 16798 4270 23450 905 1914 304 25084 1704 579 1676 2345
internal_value=5.53441e-05 0.00197051 -0.00185189 -0.00011363 -0.00241068 -0.00795477 -0.0046119 0.000704195 0.000162143 0.00790776 -0.000822745 0.00451486 -0.00133909 0.00316013 0.00228139 0.0012276 0.00573707 0.00945041 0.00607595 0.00415826 -0.0131525 -0.00652398 0.00682777 0.00270997 -0.00848552 -0.0014541 0.00649946 0.0102744 0.00454507 0.00866789
internal_weight=86545.7 43188.2 43357.5 23739.5 40740.5 2240.35 17064 21499.1 20001.9 1497.21 23676.5 19448.7 21955.3 713.249 8011.58 6992.4 1721.14 1019.18 11437.1 6585.49 1527.1 10621.1 2616.93 1199.09 300.331 6442.89 898.761 1417.84 560.444 4851.64
internal_count=349034 173538 175496 95541 164941 9081 69193 86460 80440 6020 95748 77997 88837 2877 32151 28057 6911 4094 45846 26398 6204 43133 10555 4827 1209 26060 3618 5728 2255 19448
is_linear=0
shrinkage=0.02


Tree=24
num_leaves=31
num_cat=0
split_feature=24 28 28 25 7 24 1 24 28 20 24 28 17 25 25 10 17 25 25 25 28 28 25 25 25 24 25 21 24 25
split_gain=770.502 562.528 421.405 348.499 341.382 367.984 276.688 244.268 460.955 275.849 231.105 196.112 148.982 134.176 126.963 105.846 96.7225 86.6593 164.593 161.851 60.9387 54.7614 56.8465 42.5093 33.8647 31.0557 29.7819 26.7509 23.9976 16.0814
threshold=0.00030434690624007223 -0.14632384954877339 0.029943525222067613 0.39457957643111768 -0.026186218625729781 -0.0052125953552908475 0.01333333333333331 0.0082229994856781782 0.054146367921841278 16.043925755331824 1.0000000180025095e-35 -0.14632384954877339 -0.31077736006683371 0.34790571747093491 0.84632253711201089 -0.071932414289299793 -0.2864433446958331 0.040422608437314329 0.035401002506265669 0.10794626962291635 0.049369878962407895 -0.19398040284995186 0.10292979096206349 0.32620137299771174 0.83981132075471709 -0.021533775812100128 0.056527693244065737 0.15396740481354734 0.0018872821873901196 0.18410526315789474
decision_type=2 2 2 2 2 2 2 2 2 2 2 2 2 2 2 2 2 2 2 2 2 2 2 2 2 2 2 2 2 2
left_child=1 15 6 20 17 12 13 9 -9 -5 -7 24 -6 23 -13 21 -15 18 -3 -19 28 -1 -23 -2 -8 26 -17 -22 -4 -27
right_child=2 4 3 7 5 10 11 8 -10 -11 -12 14 -14 16 -16 25 -18 19 -20 -21 27 22 -24 -25 -26 29 -28 -29 -30 -31
leaf_value=0.023227999889938004 -0.003876475761050613 0.00025741590907916301 0.028770066203798576 0.0034408788044455576 -0.0074578495502270028 -0.00019278462938130821 0.019828937589442524 0.013552139244822965 0.0032975325712483643 -0.0038968368302951212 -0.010409448783678412 -0.002184205628267097 -0.003713336902420079 -0.0001965785410574458 -0.0080428048682778149 -0.0014395757286276166 0.0033472010158136327 0.0080378810168395369 -0.021858075774069986 0.00064446495594592135 0.0082714480369971803 0.017530310304852401 0.0057289293458735223 -0.021318777106933459 0.0045245292000598535 -0.012949555995694027 0.016927254619888577 0.016258844610013243 0.013591304277216673 0
leaf_weight=237.38277411460876 111.01642824709415 617.66413719952106 163.2136645168066 5330.6771708577871 6259.5741899907589 14830.428249821067 149.57844340801239 2092.5718041062355 10795.853769391775 3321.1160978674889 937.23447135090828 5143.955059170723 13432.943677470088 5318.1330033540726 2084.497349396348 61.570031628012657 7282.7357044070959 1578.8092027902603 166.47525671124458 4728.9854698479176 377.78275825083256 337.78403328359127 338.30408519506454 121.246253952384 104.62479463219643 51.668576508760452 70.435007259249687 361.03880096971989 83.728905871510506 126.15714529156685
leaf_count=977 448 2485 653 21368 25496 59894 600 8377 43263 13323 3795 20739 54535 21397 8474 248 29279 6351 675 19064 1512 1367 1359 489 420 209 283 1445 335 508
internal_value=-3.04495e-05 -0.00189666 0.00187597 0.00375944 -0.00228198 -0.00308325 -0.000211838 0.00322396 0.00496864 0.000621256 -0.000804441 -0.00326813 -0.0049062 0.00156923 -0.00388083 0.0114449 0.0018505 0.00172096 -0.00452117 0.00250307 0.0153649 0.0148572 0.0117399 -0.0133234 0.0138159 0.00124467 0.00847469 0.0122846 0.0240748 -0.00409797
internal_weight=86617.2 43775.4 42841.8 22526 42552.1 35460.2 20315.8 21540.2 12888.4 8651.79 15767.7 7482.66 19692.5 12833.1 7228.45 1223.3 12600.9 7091.93 784.139 6307.79 985.764 913.471 676.088 232.263 254.203 309.831 132.005 738.822 246.943 177.826
internal_count=349368 177246 172122 90276 172295 143720 81846 86331 51640 34691 63689 30233 80031 51613 29213 4951 50676 28575 3160 25415 3945 3703 2726 937 1020 1248 531 2957 988 717
is_linear=0
shrinkage=0.02


Tree=25
num_leaves=31
num_cat=0
split_feature=26 12 27 25 7 27 25 24 26 25 27 10 26 24 26 10 27 26 17 26 26 31 12 25 25 25 27 25 9 25
split_gain=768.967 422.48 318.026 316.716 381.957 249.746 260.127 229.974 234.526 205.56 198.057 192.61 167.958 153.704 346.915 127.928 120.773 120.582 115.382 108.882 107.207 95.4631 122.102 95.1461 374.721 237.601 78.2787 69.288 57.9093 44.661
threshold=0.019604746684918371 0.014373690181519693 -0.058802207296480717 0.34035165484633573 -0.029215413606946402 0.013096936256853264 0.39105447276361827 -0.0048565954013227155 0.018782597482098221 0.18200220831799782 -0.0525302531549127 -0.078674390601185293 0.022200406711988443 0.0076434677772977237 0.02029750289533926 -0.10834294208935223 0.013376614125866741 0.019740974520460763 -0.086344681277768329 0.016918229412197328 0.014316901729853714 0.15898508743697029 0.011095999280783047 0.040422608437314329 0.07991596638655464 0.035401002506265669 -0.02177158285061986 0.56959800343495071 -0.0093350144142932395 0.42894540014958865
decision_type=2 2 2 2 2 2 2 2 2 2 2 2 2 2 2 2 2 2 2 2 2 2 2 2 2 2 2 2 2 2
left_child=1 9 15 4 23 6 12 8 -4 20 -9 -8 -5 16 -15 19 -7 28 -19 -3 -1 22 -11 25 -25 -2 -22 -17 -6 -23
right_child=3 2 7 5 17 13 11 10 -10 21 -12 -13 -14 14 -16 27 -18 18 -20 -21 26 29 -24 24 -26 -27 -28 -29 -30 -31
leaf_value=-0.014618746429146876 0.0041695045061207921 0.012777934429472726 -0.0052683102633159064 -0.00029096465499441342 0.017826625448409319 0.022924219635269132 0.004582172173530367 0.027784086613776262 -0.014086849847089005 0.0034152751340553083 -0.0027504499716875285 -0.0018239587099204474 0.012755971471470631 0.025395605579665768 0.0046139593866951689 0.0186118665707861 0.0014110264410808835 -0.0034026218120318925 0.00084894807885846889 -0.010691200930556602 0.003253183364652819 0.0035486002196899462 -0.0049363528761201059 0.021890457562904905 0.0032922534858944477 -0.027823018883710394 -0.0069736278373365356 -0.0045502350558255392 0.0012060865566906505 0.0084714710088629099
leaf_weight=350.30131828784943 460.04897959530354 130.61099004745483 7964.9466987997293 631.53286956250668 166.07908470928669 100.88328911364079 2311.4936026483774 80.417775318026543 1425.0871665924788 2206.8372012376785 13886.532293915749 9883.0011320561171 1033.436446800828 324.84217311441898 13688.618289113045 393.21879789233208 8337.6920492947102 10991.328726634383 3314.1144153773785 184.3313199877739 569.74795585870743 1724.0233473479748 1018.7468201071024 526.19422164559364 2389.6382084041834 110.9249210357666 617.32464529573917 55.82734003663063 171.42394427955151 1329.7495648413897
leaf_count=1437 1864 525 32422 2549 669 405 9303 322 5804 8897 56067 39760 4158 1303 54907 1579 33461 44529 13391 741 2308 6982 4112 2124 9623 449 2517 225 693 5345
internal_value=-4.61273e-06 -0.00246835 -0.00377787 0.00144045 -0.000717438 0.00251835 0.000405376 -0.00419435 -0.00661558 0.00156988 -0.00256333 -0.000606643 0.00780916 0.0038214 0.00510601 0.0088733 0.00168401 -0.00213518 -0.00241632 -0.000848124 -0.00496907 0.00317668 0.000767805 0.00522523 0.00668708 -0.00219864 -0.00205533 0.0156698 0.00958399 0.00570912
internal_weight=86379 31937.7 24121 54441.3 18129.8 36311.5 13859.5 23357 9390.03 7816.73 13967 12194.5 1664.97 22452 14013.5 763.988 8438.58 14642.9 14305.4 314.942 1537.37 6279.36 3225.58 3486.81 2915.83 570.974 1187.07 449.046 337.503 3053.77
internal_count=348471 129283 97685 219188 73342 145846 55770 94615 38226 31598 56389 49063 6707 90076 56210 3070 33866 59282 57920 1266 6262 25336 13009 14060 11747 2313 4825 1804 1362 12327
is_linear=0
shrinkage=0.02


Tree=26
num_leaves=29
num_cat=0
split_feature=25 27 27 24 27 24 2 25 24 0 24 25 25 1 20 24 25 24 24 24 24 24 1 25 25 24 27 3
split_gain=716.874 513.99 475.657 376.311 300.696 233.856 289.408 227.962 227.223 208.467 201.101 193.587 190.896 162.227 150.749 150.378 148.76 138.431 117.53 235.856 111.849 103.616 103.382 102.493 94.9236 160.363 68.2402 58.6147
threshold=0.40823259932245154 0.020324917056864015 -0.056934085367275074 0.019630730378538557 -0.012038349717724101 -0.0052125953552908475 -0.049607144629604742 0.29025057603686644 0.014972885273711855 0.011111111111111184 0.00030434690624007223 0.27315608919382511 0.74354208369078267 0.027027027027027088 15.094975519225622 -0.010931416809913523 0.03069073783359498 0.02170614496280741 0.036306961287815583 0.027608957021282875 0.0076434677772977237 0.04266826945942228 0.010810810810810813 0.38590810689758143 0.22337725456312779 -0.012514728001953234 -0.065343652265736907 0.030592881110630302
decision_type=2 2 2 2 2 2 2 2 2 2 2 2 2 2 2 2 2 2 2 2 2 2 2 2 2 2 2 2
left_child=2 3 23 8 17 6 16 11 9 -2 -9 -7 -10 14 27 -8 -4 -5 19 -15 -16 -20 -6 24 25 -1 -26 -3
right_child=1 13 5 4 22 7 15 10 12 -11 -12 -13 -14 18 20 -17 -18 -19 21 -21 -22 -23 -24 -25 26 -27 -28 -29
leaf_value=0.0075984094316137157 0.0014362240512065126 0.0097302280393772086 -0.019767772804833921 -0.017520608976838225 -0.0055111799512752814 0.00051331383992037397 -0.0027482318211632627 -0.002817418845333501 -0.0070476425460208689 -0.0030023202989601571 0.0035066227245866373 0.010749818737697311 0.011505665780857353 0.002478146895972345 0.00032995796285915821 -0.0061502855766087453 0.0032232733090758942 0.002890463392184091 0.016307278108130582 -0.0083437537718477599 0.0056315655298394456 0.0030774238491200184 -0.018514873402678617 -0.017881573122163198 0.0059444208704873703 -0.0095499938263793743 0.028408151976799006 0.005026857015757758
leaf_weight=2079.210649728775 13934.733589589596 3497.9859370440245 112.19908744096756 150.72875343263149 357.36235858500004 2041.9999113827944 10346.806116163731 11277.164457187057 265.69197832047939 6072.9748442173004 2440.7344112247229 1157.5249588638544 1224.4232127517462 5472.9018042236567 2493.251830548048 10529.43785302341 2768.9196128994226 901.70648667216301 386.03528773784637 939.08278645575047 4441.381573304534 620.3386555314064 848.81410764157772 62.518394276499748 98.960240423679352 238.35834965109825 132.28499644994736 1577.975174665451
leaf_count=8398 56001 14015 453 611 1445 8257 42035 45570 1067 24465 9808 4677 4922 21945 9995 42853 11169 3640 1550 3781 17798 2491 3471 252 400 962 531 6327
internal_value=-1.53932e-05 0.00180741 -0.00183442 -0.000165092 -0.00792228 -0.00236622 -0.00364588 -0.00056745 0.000650619 8.7572e-05 -0.0016899 0.00423392 0.00817167 0.00421971 0.00565654 -0.00446616 0.00228831 -8.28993e-05 0.0018885 0.000884816 0.00372994 0.00822757 -0.0147173 0.0064301 0.0070681 0.00580935 0.0192088 0.0082784
internal_weight=86471.5 43185.4 43286.1 23756.4 2258.61 40674.8 23757.4 16917.4 21497.8 20007.7 13717.9 3199.52 1490.12 19429 12010.6 20876.2 2881.12 1052.44 7418.36 6411.98 6934.63 1006.37 1206.18 2611.33 2548.81 2317.57 231.245 5075.96
internal_count=348889 173524 175365 95622 9167 164822 96510 68312 86455 80466 55378 12934 5989 77902 48135 84888 11622 4251 29767 25726 27793 4041 4916 10543 10291 9360 931 20342
is_linear=0
shrinkage=0.02


Tree=27
num_leaves=31
num_cat=0
split_feature=25 27 27 26 26 24 24 26 28 28 25 28 7 24 28 28 27 28 28 27 20 26 24 26 28 25 25 27 26 24
split_gain=732.175 517.945 463.352 412.038 383.891 433.698 298.113 315.08 309.022 279.543 262.225 253.124 217.871 234.657 200.304 354.624 305.466 288.937 183.876 170.171 159.279 138.471 160.308 135.431 109.854 95.3264 51.2847 49.7746 37.0784 30.0175
