tree
version=v4
num_class=1
num_tree_per_iteration=1
label_index=0
max_feature_idx=33
objective=binary sigmoid:1
feature_names=ret1 ret2 ret3 ret5 ret10 ret20 ret60 mar5 mar10 mar20 mar60 vol10 vol20 vol60 rsi14 skew20 kurt20 from_hi from_lo volz logturn turnz range range10 mkt_ret breadth mkt_vol mkt_mom5 mkt_mom20 xs_ret5 xs_ret20 xs_vol20 xs_volz xs_mar20
feature_infos=[-0.14992774566473988:0.32203389830508478] [-0.21183206106870234:0.32307692307692304] [-0.2709712622771917:0.33333333333333326] [-0.35186289120715364:0.60955631399317411] [-0.41796875:1.4639639639639639] [-0.52279635258358659:1.9490445859872612] [-0.69135802469135799:10.158536585365853] [-0.19091382646227129:0.24401913875598069] [-0.28553826945507732:0.47479104880021561] [-0.35995643759612062:0.88134135855545992] [-0.45228215767634861:1.5750611188485149] [0.00097282661821703018:0.10550203055993976] [0.002050889591412718:0.085851812111152684] [0.0041628601788326622:0.17076393968666242] [0:0.99999999998897637] [-4.2158779140363922:4.2169258284492974] [-1.989052572414779:18.437876298808387] [-0.80987654320987645:0] [0:28.600642344595059] [-4.1559122042536956:3.9448885222035299] [0:21.287403037814467] [-4.1444966699779542:4.2485291557622338] [-0.034578788625674296:29.300754372531905] [0:11.164249271928336] [-0.075196032299805732:0.31430959354773808] [0:1] [0:0.86165846596861662] [-0.23698844881132136:2.7649120685141346] [-0.28769675852430243:3.0533520004720081] [0.0048543689320388345:1] [0.0048543689320388345:1] [0.0049019607843137254:1] [0.0048543689320388345:1] [0.0085470085470085479:1]
tree_sizes=3490 3440 3586 2677 3356 2683 2569 2567 3570 3472 2479 2684 3575 2681 3561 2675 3577 3576 3577 3564 3356 2330 3569 3577 2690 3255 3308 3253 3422 3224 3571 3564 3587 2789 3345 3585 2795 2805 3582 2783 3350 3360 2776 3572 2769 3466 3245 3579 3534 2787 3565 3253 2900 3457 3580 3224 3463 3366 3223 3251 3562 3576 2778 2784 3234 3263 3037 2791 3460 3369 3567 3560 3239 3354 3578 3334 2905 3043 3585 3448 3346 3453 3262 3115 3224 3451 3579 2560 3455 3563 3141 3566 3338 2679 3347 3461 3448 3346 3585 3559 3252 3572 2457 3380 3585 3456 3570 2956 3578 3571 3588 2991 3353 3556 3288 2786 3571 3115 3218 3549 3462 3218 3126 3320 2652 2909 3360 2881 2456 3023 2691 3351 3599 2578 2569 3131 2770 3324 2904 3600 2677 2118 3257 3589 2895 2435 2781 3198 3482 3246 2687 3015 3458 3552 3345 2780 3231 2573 2555 3443 2684 3460 2654 2791 2451 2802 2027 2350 2218 3311 3234 2895 3363 3099 2544 2682 3247 2556 3249 3103 2548 2003 3005 3220 3337 2700 3349 3456 3335 2917 1894 2572 2457 2021 2024 2010 3128 2480 2787 2897 3455 2558 3457 2556 2742 3235 2130 3346 3434 2735 2797 2446 3334 2891 2686 3597 2766 3134 3557 2702 2893 2004 3579 2689 3002 2789 2028 2915 2676 3474 1797 2141 3483 2588 2812 3600 2591 2888 3597 3250 2783 2677 2783 3219 2581 2767 2900 1690 2567 3357 2686 2798 3564 3340 1793 1785 3573 2994 2688 3468 3596 2852 3116 3390 3219 1686 3461 2239 2911 2901 2797 3313 2806 2569 2561 3571 3453 2793 2792 2307 2769 1666 3468 2791 3255 3610 2636 3123 2227 3467 3228 3590 2900 2558 2459 2442 2576 3130 1789 2694 2029 2669 3560 3224 1679 3335 2020 3554 3008 2143 2758 3008 2869 2704 1680 3578 3362 2339 2356 2903 3326 3103 2789 3231 3208 3146 3456 2683 2934 2788 2342 2241 3139 3546 3031 2569 2257 2207 2652 2916 2350 1771 2225 3009 2045 3219 2672 2681 3141 3130 2352 2458 2558 3552 2663 3483 2796 2900 3013 3568 2593 3586 3359 2904 2205 3601 2344 2570 2572 2467 3590 3362 3139 2540 1810 3600 1786 3462 2690 3344 2563 1896 3575 2796 3167 1664 2234 2921 2768 3046 1885 3345 3244 2473 2119 3585 2798 2454 3134 1789

Tree=0
num_leaves=31
num_cat=0
split_feature=26 5 13 20 26 25 25 30 25 25 25 12 13 14 26 18 26 26 20 26 5 13 18 25 5 26 9 4 30 5
split_gain=2516.67 746.129 621.269 551.176 230.405 321.913 218.554 178.722 158.724 156.066 148.891 144.852 123.68 119.282 93.9098 93.4735 81.0265 99.4392 77.1399 74.5853 68.2738 64.9956 117.548 54.2495 54.088 46.5214 35.0208 33.5973 33.2494 25.2132
threshold=0.017182095190399874 -0.13670786213901651 0.025138295285552375 17.278558883710627 0.021368338455092863 0.88982479784366586 0.087806967447173062 0.1373774509803922 0.13293172690763055 0.20275297619047622 0.86715686274509818 0.012170357379929461 0.014969516853317861 0.7999999998699322 0.01362683277343015 1.0001561929490044 0.012845558427307306 0.013034803533642938 12.860981729820766 0.013446915921758897 -0.22770753998476764 0.029823274972010264 0.096943071965628361 0.038285400256457235 -0.070920933560620278 0.03278833597261098 -0.053871728808975387 -0.14791948096424964 0.019704911667637357 -0.2128801843317972
decision_type=2 2 2 2 2 2 2 2 2 2 2 2 2 2 2 2 2 2 2 2 2 2 2 2 2 2 2 2 2 2
left_child=2 7 6 4 5 -3 19 20 16 -6 14 24 25 -14 -10 -13 18 -18 -4 26 27 22 -9 -21 -8 -5 -1 -2 -22 -23
right_child=1 3 8 12 9 -7 11 21 10 -11 -12 15 13 -15 -16 -17 17 -19 -20 23 28 29 -24 -25 -26 -27 -28 -29 -30 -31
leaf_value=-0.1194586424442165 -0.091170419116848464 -0.11273516633030355 -0.11776603766901172 -0.10635951461715204 -0.11599979996181772 -0.12992061333795013 -0.12218853821786217 -0.089476950039812042 -0.12746657743540524 -0.10849984910013041 -0.13852416222291258 -0.11947426931410061 -0.12072385073814437 -0.11211599474421211 -0.12108010656919545 -0.10612382628481874 -0.10404324100176128 -0.13049311797007518 -0.14213270899985347 -0.11461503357549371 -0.11940591269593083 -0.080507664753672548 -0.11314528731630144 -0.12591961128964044 -0.11163140563675332 -0.12554874582218897 -0.13471861310494232 -0.10646125390437575 -0.10745081344963152 -0.092086348634128151
leaf_weight=77.491496279835701 151.99296697974205 7901.1425949633121 62.292199581861496 413.86937402188778 1238.618096485734 456.2280697375536 212.79015377163887 175.41483402252197 1609.1320995986462 10223.146626576781 294.01918202638626 6280.7978994399309 4071.4181646704674 758.22065331041813 2232.0540954172611 211.54430978000164 55.315473228693008 1194.0168815851212 426.82615153491497 239.45121519267559 106.89341448247433 140.53120225667953 162.70722530782223 548.17135632038116 1728.7331227958202 52.325447648763657 424.58363234996796 113.12263444066048 532.97205962240696 430.56368350982666
leaf_count=311 610 31710 250 1661 4971 1831 854 704 6458 41029 1180 25207 16340 3043 8958 849 222 4792 1713 961 429 564 653 2200 6938 210 1704 454 2139 1728
internal_value=-0.11549 -0.111788 -0.121882 -0.112685 -0.111154 -0.113684 -0.118774 -0.0994165 -0.127017 -0.109312 -0.124853 -0.117595 -0.118413 -0.119366 -0.123773 -0.119029 -0.132111 -0.129265 -0.139125 -0.12643 -0.10583 -0.0931424 -0.100609 -0.122474 -0.112813 -0.10864 -0.132466 -0.0973337 -0.109494 -0.0889239
internal_weight=42526.4 26929.2 15597.2 25115 19819.1 8357.37 9723.56 1814.2 5873.66 11461.8 4135.21 8433.87 5295.83 4829.64 3841.19 6492.34 1738.45 1249.33 489.118 1289.7 904.981 909.217 338.122 787.623 1941.52 466.195 502.075 265.116 639.865 571.095
internal_count=170673 108076 62597 100795 79541 33541 39024 7281 23573 46000 16596 33848 21254 19383 15416 26056 6977 5014 1963 5176 3632 3649 1357 3161 7792 1871 2015 1064 2568 2292
is_linear=0
shrinkage=1


Tree=1
num_leaves=30
num_cat=0
split_feature=25 9 17 6 11 10 25 17 6 19 23 18 17 33 31 9 25 14 25 18 25 10 11 33 17 11 10 25 25
split_gain=897.661 745.576 520.727 630.803 293.939 272.197 215.27 198.723 343.463 197.353 174.303 156.373 136.725 121.187 113.664 100.261 92.3447 88.3551 80.5053 75.0634 70.7602 70.8848 52.801 45.14 41.3156 35.5776 31.3499 21.3696 18.5792
threshold=0.18808962264150947 -0.095176401510707706 -0.27499999999999991 -0.0045662100456620993 0.040948082363219583 -0.10653673491733277 0.92270351008215101 -0.26607513337285121 -0.014084507042253445 0.40130776346355951 0.11943557186737698 0.3605067661346289 -0.083333333333333301 0.16749174917491752 0.71584928229665079 -0.12688686684599002 0.86715686274509818 0.79355449649168441 0.99528301886792458 5.2847723704866576 0.18537609774723179 -0.094675581138366979 0.037307976701935613 0.026491228070175444 -0.32256978386010637 0.023928343975143467 -0.048058734686569397 0.97073101085094249 0.087806967447173062
decision_type=2 2 2 2 2 2 2 2 2 2 2 2 2 2 2 2 2 2 2 2 2 2 2 2 2 2 2 2 2
left_child=1 13 3 4 16 22 10 8 11 -7 12 -3 -4 15 -6 23 -2 18 -8 -12 21 -9 -5 -1 -10 -15 -27 -19 -17
right_child=2 7 6 5 14 9 17 20 24 -11 19 -13 -14 25 -16 28 -18 27 -20 -21 -22 -23 -24 -25 -26 26 -28 -29 -30
leaf_value=0.00036693165717209542 0.00028419239401941676 -0.0046480964991780322 0.002275022739294801 0.0022037041630810499 0.027109189267378639 -0.016368736054774249 -0.0036478314929256628 0.0085323791139476374 -0.022560671360199895 -0.0046847861627512246 0.012218284746091703 -0.016867061648721246 0.0059711475176028005 0.0095756842621500578 0.0082714837372585819 -0.0086441490773802553 -0.0066769382970729985 0.0025207322889765132 -0.01764490671924273 -0.011790265583572424 0.014924279718383431 -0.0050422413944756017 0.028450124993381287 0.020600010725382232 -0.0137035618580864 0.027731524164893735 0.0086112081665213457 0.019865150338762124 0.0026559431562301894
leaf_weight=63.789641663432121 6795.9110664576292 2488.4702696502209 13364.195991143584 56.074851050972939 165.0339959859848 1560.0576223134995 1071.7490641474724 153.70959007740021 750.02685733139515 934.43883623182774 1171.6295092850924 503.34492030739784 5738.1782888025045 98.70719538629055 580.44095352292061 129.51116885244846 853.01538181304932 59.067333072423935 191.8482821136713 49.838646724820137 70.263352036476135 4622.3633677512407 70.572796761989594 156.08630138635635 358.88526959717274 233.18286149203777 50.601373702287674 59.565601885318756 95.660736754536629
leaf_count=256 27274 9990 53631 225 662 6262 4302 617 3012 3750 4701 2021 23027 396 2329 520 3424 237 770 200 282 18556 283 626 1441 935 203 239 384
internal_value=-4.63866e-05 -0.00536363 0.00154195 -0.00199796 0.000675739 -0.0105533 0.00333937 -0.00704636 -0.0102892 -0.0120181 0.00385946 -0.00673521 0.00338762 0.0127385 0.0126213 0.00548438 -0.000493361 -0.0042798 -0.0058499 0.0111783 -0.00429054 -0.00459272 0.0175062 0.0149577 -0.0197865 0.0209477 0.0245996 0.0118423 -0.00380318
internal_weight=42496.2 9774.6 32721.6 11015.5 8394.4 2621.14 21706.1 8947.06 4100.73 2494.5 20323.8 2991.82 19102.4 827.539 745.475 445.048 7648.93 1382.23 1263.6 1221.47 4846.34 4776.07 126.648 219.876 1108.91 382.491 283.784 118.633 225.172
internal_count=170555 39239 131316 44209 33689 10520 87107 35919 16464 10012 81559 12011 76658 3320 2991 1786 30698 5548 5072 4901 19455 19173 508 882 4453 1534 1138 476 904
is_linear=0
shrinkage=0.02


Tree=2
num_leaves=31
num_cat=0
split_feature=26 28 20 12 28 28 27 28 28 27 24 20 26 24 27 4 28 6 6 26 27 24 27 26 30 27 20 24 6 28
split_gain=2408.58 1043.72 519.867 452.122 420.509 342.699 299.315 293.46 180.725 398.354 180.217 178.189 173.489 158.553 157.427 144.15 134.887 178.829 111.521 105.624 124.296 101.943 101.884 93.2253 75.2493 74.5641 40.0227 30.3709 20.186 15.95
threshold=0.017182095190399874 -0.10692083204336224 16.882586038753072 0.016945602443482855 -0.024455813661459751 0.065498885874572033 0.041889768245027818 -0.16764947674016115 0.0061909917779636222 -0.018287275092437588 -0.0094973163753028934 15.480793632293897 0.021317154163535877 -0.0073873620694241597 0.02071460498198963 0.061230144593165566 0.061402313247309721 -0.014084507042253445 -0.052816217694516603 0.01733972569113312 -0.044685340821662131 -0.014319387037260651 -0.0039371177556184371 0.013446915921758897 0.83414239482200658 -0.041733039073498297 17.177108287965691 -0.044914281626293698 -0.078973399558498844 0.022331651366234804
decision_type=2 2 2 2 2 2 2 2 2 2 2 2 2 2 2 2 2 2 2 2 2 2 2 2 2 2 2 2 2 2
left_child=3 7 4 8 12 13 -7 24 18 29 -6 16 -3 -4 -11 21 17 -5 25 -9 -21 -13 -18 -20 27 -1 -17 -2 -26 -10
right_child=1 2 5 11 10 6 -8 19 9 14 -12 15 -14 -15 -16 26 22 -19 23 20 -22 -23 -24 -25 28 -27 -28 -29 -30 -31
leaf_value=-0.011799325318959403 0.017460264147584045 -0.0046788367206447804 -0.0046672884510408422 -0.0046436943414818431 -3.3221511671378389e-05 -0.011776898609940661 -0.0007600684710489798 0.034304424332358169 -0.026019355983225259 0.013085040495423059 0.0068302012232872092 -0.019081078368337716 0.0038661778206867132 0.0056499624017580822 -0.0035855982575137336 0.0013288730430159761 -0.0082294656572788182 -0.012714727147778914 -0.011514730378423009 0.0023383653597678264 0.015572865850017199 -0.011338217047295502 0.0094649012500246481 -0.0030433520195516251 0.02089442499704269 0.00087539593857784181 -0.0082875972953467322 0.034284143183874238 0.0031388893254044258 -0.01362669531325375
leaf_weight=201.72238962352276 71.641616851091385 2457.8366305828094 802.36783872544765 3275.0998364388943 1742.9564090073109 1867.3111137747765 2095.2751723229885 78.293085113167763 98.622338250279427 916.65390247106552 12201.496496379375 916.44863896071911 1540.9645113348961 2258.6471956670284 295.73651939630508 363.85168735682964 199.43655703961849 1665.4522184729576 979.50828966498375 456.75350177288055 771.35925251245499 2968.4279333502054 351.47784526646137 1128.7035005390644 54.06996913254261 1807.5250907838345 318.29891590774059 448.40753646194935 54.316155046224594 130.00500644743443
leaf_count=810 287 9864 3221 13151 6996 7495 8408 314 396 3679 48950 3683 6182 9064 1187 1461 801 6691 3933 1832 3094 11921 1411 4531 217 7256 1278 1797 218 522
internal_value=-5.59268e-07 0.00362564 0.00252618 -0.00624747 0.00433182 -0.00208364 -0.00596493 0.0177594 -0.00166324 0.00441606 0.00597118 -0.00877671 -0.00138025 0.00293583 0.00900414 -0.0117026 -0.00633125 -0.00737857 -0.00379849 0.0122519 0.0106964 -0.0131921 0.00300698 -0.00700668 0.02899 -0.00041331 -0.00315682 0.0321929 0.0127037 -0.0195005
internal_weight=42518.7 26901.7 24966.9 15617 17943.3 7023.6 3962.59 1934.84 5558.48 1441.02 13944.5 10058.5 3998.8 3061.02 1212.39 4567.03 5491.47 4940.55 4117.46 1306.41 1228.11 3884.88 550.914 2108.21 628.435 2009.25 682.151 520.049 108.386 228.627
internal_count=170650 107939 100180 62711 71992 28188 15903 7759 22314 5784 55946 40397 16046 12285 4866 18343 22054 19842 16530 5240 4926 15604 2212 8464 2519 8066 2739 2084 435 918
is_linear=0
shrinkage=0.02


Tree=3
num_leaves=23
num_cat=0
split_feature=28 25 28 27 20 28 12 25 31 25 28 28 27 28 12 25 18 10 8 31 5 12
split_gain=1188.73 1066.2 429.684 818.877 685.383 373.057 354.574 179.514 150.59 130.172 177.559 159.746 122.562 96.3906 91.5985 79.396 77.7603 69.0277 68.2493 25.9766 26.5212 15.2652
threshold=-0.16764947674016115 0.18808962264150947 0.0050774337379616502 -0.017965044421632551 16.758944025889456 -0.11219975988929912 0.037481806362731178 0.86715686274509818 0.93717105263157907 0.087806967447173062 -0.040164153543108906 0.11594221078546388 -0.02918736727211909 -0.14036468367213542 0.029461146568457677 0.094044811320754734 0.066666666666666555 -0.06405510305976185 -0.0023942537909016899 0.38284738639348576 -0.12222222222222216 0.018964669822156482
decision_type=2 2 2 2 2 2 2 2 2 2 2 2 2 2 2 2 2 2 2 2 2 2
left_child=14 5 6 12 -5 13 7 -3 -8 10 -7 -11 -4 15 16 -2 21 -16 -15 20 -18 -1
right_child=1 2 3 4 -6 9 8 -9 -10 11 -12 -13 -14 18 17 -17 19 -19 -20 -21 -22 -23
leaf_value=0.015671815011401895 -0.0069201056059390092 -0.0016772782613446089 -0.014181373564449267 0.0074982985329414553 -0.0010560421854758884 -0.01635712167987086 0.014015442107669094 -0.0095757245840898779 0.00012938648975568734 -0.004397545616456798 -0.0071202412084979986 -0.0171690514564726 -0.0038996070717117548 0.017026277476053543 0.035192125363419598 0.01238379285356183 0.020215732390222434 0.013433237083619964 -0.00387348211978561 -0.0043184275986215895 0.001582802733885353 0.033244016404203464
leaf_weight=52.635733649134636 256.10008470714092 11133.156025052071 979.05528973042965 11105.138324573636 5645.1247043460608 1324.0267035961151 776.91410683095455 1281.2589143812656 525.26784552633762 4561.8564621657133 2306.3413942605257 426.23200385272503 899.58956657350063 340.45796237885952 341.92924201488495 121.39204341173172 65.387706711888313 84.333529859781265 72.494971856474876 51.876721858978271 60.06126344203949 83.663661703467369
leaf_count=211 1028 44685 3930 44544 22656 5324 3116 5146 2108 18325 9269 1712 3610 1366 1369 487 262 338 291 208 241 335
internal_value=-4.50924e-05 -0.000492265 0.00123109 0.00320907 0.00461469 -0.00641637 -0.001454 -0.00249759 0.00845137 -0.00762376 -0.0105124 -0.00550898 -0.00929198 0.00668816 0.0249975 -0.00057943 0.0162294 0.0311393 0.013307 0.00702205 0.0118508 0.0273943
internal_weight=42494.3 41754.4 32345.5 18628.9 16750.3 9408.9 13716.6 12414.4 1302.18 8618.46 3630.37 4988.09 1878.64 790.445 739.888 377.492 313.625 426.263 412.953 177.326 125.449 136.299
internal_count=170561 167597 129795 74740 67200 37802 55055 49831 5224 34630 14593 20037 7540 3172 2964 1515 1257 1707 1657 711 503 546
is_linear=0
shrinkage=0.02


Tree=4
num_leaves=29
num_cat=0
split_feature=26 5 13 20 17 6 24 18 17 6 18 25 24 12 12 31 17 13 10 10 26 25 6 26 25 18 17 5
split_gain=2263.44 657.158 600.374 471.787 443.773 204.034 187.986 185.288 156.618 360.018 197.917 129.271 183.36 130.084 123.934 130.349 121.233 108.012 102.769 84.7224 75.8807 61.4788 61.2314 54.916 52.4321 51.5998 45.7367 15.0021
threshold=0.017182095190399874 -0.1103180890417456 0.024786392992739149 17.587239166762959 -0.27128048142333849 0.0065131429437163 -0.014319387037260651 0.51853952790135827 -0.2523149635679563 -0.045417808666144636 0.25140133920715751 1.0000000180025095e-35 -0.03029324724760216 0.037200075992719621 0.012170357379929461 0.25121359223300976 -0.035714285714285636 0.015557439098854523 -0.10885535066759087 0.37539335703100457 0.013034803533642938 0.075235849056603785 0.015129229497599763 0.013446915921758897 0.11330480451274073 0.61758335177493895 -0.068627450980392066 -0.15151515151515141
decision_type=2 2 2 2 2 2 2 2 2 2 2 2 2 2 2 2 2 2 2 2 2 2 2 2 2 2 2 2
left_child=2 11 6 4 5 -3 21 -6 9 10 -4 -2 27 -14 25 -16 17 -5 -11 -18 26 23 -22 -1 -23 -8 -10 -13
right_child=1 3 8 16 7 -7 14 -9 20 18 -12 12 13 -15 15 -17 19 -19 -20 -21 22 24 -24 -25 -26 -27 -28 -29
leaf_value=-0.015312297362561787 -0.017080894892805381 0.0011479046960894265 -0.0040032691310674254 0.0048362020397865945 0.0035045711063403807 -0.007542700116041281 0.0017448512472826945 0.0081251597573829999 -0.015097118618496457 -0.00037207603938816221 -0.016237141429583858 0.029176334500621431 0.0081348575306699877 0.018786954721949668 -0.0088930706284356259 -0.0018062505720140226 0.004702694967344663 -0.0075382558840792696 -0.021941566677596759 -0.0075071084865048054 -0.010943673468615491 -0.023074299913163267 -0.002125073441053566 -0.0039521604011972834 -0.0016496546437282092 0.017695659781421604 0.00098014088551108655 0.017719105752507132
leaf_weight=256.05765068531036 52.124008238315582 4660.1948495209217 1517.5739014744759 312.74094797670841 7671.11104349792 1400.6572384685278 1901.4048741012812 6392.4142990261316 502.39634838700294 96.027979910373688 816.20401534438133 273.04752086102962 1631.7723273336887 650.49935063719749 1308.1658525019884 5037.2603313624859 866.04856951534748 2484.4283292293549 1508.0234937220812 301.99359929561615 425.61100725829601 226.75042007863522 1218.184996470809 525.2226325571537 60.477598249912262 80.273235574364662 78.886289522051811 106.51428829133511
leaf_count=1031 209 18697 6098 1255 30770 5623 7632 25637 2020 386 3282 1093 6544 2606 5254 20231 3476 9977 6070 1212 1710 912 4895 2112 243 322 317 427
internal_value=-5.17989e-05 0.00346975 -0.00611902 0.00241617 0.00365904 -0.000861751 -0.00293159 0.00560837 -0.0109688 -0.0133724 -0.008316 0.0127925 0.0134159 0.0112141 -0.00191192 -0.00327626 -0.00388333 -0.00614142 -0.0206679 0.0015103 -0.00668579 -0.0108135 -0.00444677 -0.00777448 -0.0187371 0.00244396 -0.0128914 0.0262853
internal_weight=42362.1 26803.5 15558.5 24089.6 20124.4 6060.85 9395.61 14063.5 6162.91 3937.83 2333.78 2713.96 2661.83 2282.27 8327.1 6345.43 3965.21 2797.17 1604.05 1168.04 2225.08 1068.51 1643.8 781.28 287.228 1981.68 581.283 379.562
internal_count=170041 107526 62515 96647 80727 24320 37737 56407 24778 15836 9380 10879 10670 9150 33439 25485 15920 11232 6456 4688 8942 4298 6605 3143 1155 7954 2337 1520
is_linear=0
shrinkage=0.02


Tree=5
num_leaves=23
num_cat=0
split_feature=28 25 17 6 20 28 28 17 18 27 12 28 28 25 25 12 18 25 10 27 25 12
split_gain=1117.65 1009.13 591.339 555.154 488.564 426.877 331.138 276.712 316.046 247.632 208.498 128.28 105.189 98.9584 87.9148 84.0919 76.939 65.7354 57.2621 17.5384 16.1012 12.5612
threshold=-0.16764947674016115 0.18808962264150947 -0.27499999999999991 0.0028922647080966706 17.986647739869245 0.0050774337379616502 -0.11219975988929912 -0.25746280011127315 0.17576371494523849 0.063359301277126925 0.039047448950795628 0.070505386109301585 -0.14036468367213542 0.18537609774723179 0.094044811320754734 0.028169992241879379 0.055562941298118125 0.15105309346204479 -0.063022144157952806 -0.055998813135151905 0.050316455696202543 0.018964669822156482
decision_type=2 2 2 2 2 2 2 2 2 2 2 2 2 2 2 2 2 2 2 2 2 2
left_child=15 6 3 10 5 -4 12 8 -8 -5 -3 -6 14 -9 -2 16 21 -14 -17 20 -18 -1
right_child=1 2 4 9 11 -7 7 13 -10 -11 -12 -13 17 -15 -16 18 19 -19 -20 -21 -22 -23
leaf_value=0.016146915001927997 -0.0083047440957087753 -0.0011424268620247842 0.00024972689666611682 -0.01370584340084118 -0.00010545259318830465 0.0064821760817727649 -0.0065079901401049068 -0.0043615659031481322 -0.017983709966590652 0.0046582748106855929 0.0098498874829279753 -0.009262863049091092 0.016186781597645784 0.017555796700431409 0.01216354636428997 0.033505140077301737 0.0081824613427644698 -0.0062261983965841176 0.013887516744054204 0.014899740393169611 -0.00640390886206993 0.033447629363982573
leaf_weight=51.680437684059143 249.49784100055695 7642.8447173386812 6862.0759293437004 2042.8806980848312 1111.3984838575125 12262.270045876503 2386.0237090140581 4496.1711419075727 1621.6859302818775 338.58343079686165 753.62779247760773 1369.0492699146271 358.96977992355824 78.765550628304482 119.98163969814777 361.08294521272182 56.878706037998199 57.013817936182022 87.874263450503349 51.888048499822617 53.620725229382515 68.97697152197361
leaf_count=207 1002 30677 27539 8214 4462 49171 9594 18073 6533 1359 3022 5497 1439 316 481 1445 228 229 352 208 215 276
internal_value=1.30731e-05 -0.000417381 0.00125467 -0.00257 0.00316376 0.00424758 -0.00619689 -0.00733568 -0.0111731 -0.0110823 -0.000148153 -0.00517627 0.00618887 -0.0039611 -0.00153098 0.0244281 0.0153035 0.0130299 0.0299047 0.00584593 0.000960337 0.0271338
internal_weight=42482.8 41750.8 32382.7 10777.9 21604.8 19124.3 9368.11 8582.65 4007.71 2381.46 8396.47 2480.45 785.463 4574.94 369.479 732.002 283.045 415.984 448.957 162.387 110.499 120.657
internal_count=170539 167608 129941 43272 86669 76710 37667 34516 16127 9573 33699 9959 3151 18389 1483 2931 1134 1668 1797 651 443 483
is_linear=0
shrinkage=0.02


Tree=6
num_leaves=22
num_cat=0
split_feature=28 25 17 6 20 28 28 17 18 12 19 28 28 24 25 13 25 18 3 15 5
split_gain=1085.64 998.633 566.827 546.417 437.574 412.642 324.644 258.878 295.128 196.069 190.104 112.107 100.958 95.5437 82.9577 78.7722 75.326 65.7119 56.3334 24.2435 7.95642
threshold=-0.16764947674016115 0.18808962264150947 -0.27499999999999991 -0.0045662100456620993 17.946553548480129 0.0050774337379616502 -0.11219975988929912 -0.2808363979745212 0.20351317993476151 0.039047448950795628 0.24237220389843697 0.068324088465130786 -0.14036468367213542 -0.015171562926924134 0.010105134224762684 0.022977140768154485 0.094044811320754734 0.073689872880156285 0.01579136282918359 -0.158706906640699 -0.13057029493831798
decision_type=2 2 2 2 2 2 2 2 2 2 2 2 2 2 2 2 2 2 2 2 2
left_child=14 6 3 9 5 -4 12 8 -8 -3 -5 -6 16 -9 -1 17 -2 -16 -14 -17 -21
right_child=1 2 4 10 11 -7 7 13 -10 -11 -12 -13 18 -15 15 19 -18 -19 -20 20 -22
leaf_value=0.0030567034172219892 -0.0076936419035385853 -0.00086636582514300667 0.00032546040358128728 -0.015029055290624085 0.00018099801594249931 0.0064678548666160752 -0.0070433855060907337 -0.0073467173657681562 -0.019136925613833591 0.0099773180947850017 -0.0039368936851833713 -0.0081579944990615751 0.01607467621869348 -0.0017900739234003613 0.025814198168434319 0.015637220348117445 0.010966735499970544 -0.0001926134516585519 -0.0045228419106525591 0.033260390379372055 0.020159193112702489
leaf_weight=71.132546246051788 246.87472142279148 7495.242302313447 6858.9662489295006 1505.4689929187298 1145.0374491214752 12111.24107336998 2289.5452886223793 2253.7858283519745 1258.1552697569132 727.04728475213051 1063.6979965865612 1457.1652952730656 348.38313245773315 2775.3380644023418 70.70702999830246 62.210900083184242 126.52713637053967 76.60644693672657 58.567339986562729 392.67191807925701 58.930840194225311
leaf_count=285 992 30086 27526 6061 4597 48550 9212 9066 5078 2914 4274 5854 1396 11157 283 249 507 307 235 1572 236
internal_value=8.21271e-05 -0.000342492 0.00132095 -0.00241953 0.00319315 0.0042487 -0.00609563 -0.0072206 -0.0113588 9.55254e-05 -0.010461 -0.00448764 0.00621072 -0.00428906 0.0241405 0.026339 -0.00125636 0.0125964 0.0130429 0.0300811 0.0318341
internal_weight=42453.3 41721 32363.9 10791.5 21572.4 18970.2 9357.18 8576.82 3547.7 8222.29 2569.17 2602.2 780.352 5029.12 732.26 661.127 373.402 147.313 406.95 513.814 451.603
internal_count=170437 167505 129862 43335 86527 76076 37643 34513 14290 33000 10335 10451 3130 20223 2932 2647 1499 590 1631 2057 1808
is_linear=0
shrinkage=0.02


Tree=7
num_leaves=22
num_cat=0
split_feature=28 25 17 20 28 28 18 17 18 12 12 28 25 28 5 25 25 3 15 13 27
split_gain=1021.15 990.987 552.669 411.99 376.116 321.945 270.31 264.093 287.759 206.982 185.158 112.086 96.9794 94.2983 86.701 70.2984 67.2586 64.3328 29.4071 29.3993 13.8406
threshold=-0.16764947674016115 0.18808962264150947 -0.27499999999999991 17.946553548480129 0.0050774337379616502 -0.11219975988929912 0.25875480000815626 -0.2643259955369916 0.17576371494523849 0.0387182063638827 0.044346918384153354 0.23647696963307685 0.18537609774723179 -0.14036468367213542 -0.1196859853774747 0.094044811320754734 0.010105134224762684 0.014722180350383642 -0.158706906640699 0.022803508322047399 -0.11311470389248039
decision_type=2 2 2 2 2 2 2 2 2 2 2 2 2 2 2 2 2 2 2 2 2
left_child=14 5 6 4 -4 13 9 8 -7 -3 -8 -5 -9 15 16 -2 -1 -15 -18 -16 -20
right_child=1 2 3 11 -6 7 10 12 -10 -11 -12 -13 -14 17 19 -17 18 -19 20 -21 -22
leaf_value=0.0040709216980720922 -0.0069982825648421242 -0.0012754452547619902 0.0003738012568424542 -0.0023631517628009266 0.0062370365376194295 -0.0066122378850805861 -0.0095273093427582205 -0.0044500097481367839 -0.017762334120423797 0.013131078718677759 0.0053853719179263564 -0.013049322316044051 0.017331438831069988 0.015926430300708522 0.00076512304520971492 0.011381558085482524 0.015570552398503539 -0.0056929579959130909 0.018216686621358488 0.018073605023037193 0.032800378686705087
leaf_weight=50.924022480845451 257.72386302053928 7445.1547806710005 6862.0490738451481 2109.2327591478825 12115.876343682408 2307.358788356185 2568.8151780813932 4613.0064521580935 1562.9934731572866 416.37554362416267 377.44362537562847 480.7244987487793 78.063826262950897 349.55944776535034 81.344301670789719 116.58805099129677 78.198357760906219 61.043154641985893 58.144673749804497 76.682103514671326 388.4949077218771
leaf_count=204 1036 29900 27538 8473 48555 9287 10327 18555 6317 1669 1514 1932 313 1400 326 467 313 245 233 307 1556
internal_value=3.45171e-06 -0.000408751 0.00124703 0.00309697 0.00411872 -0.0061441 -0.00244258 -0.00726927 -0.0111373 -0.000502019 -0.00760419 -0.00437565 -0.00406522 0.00607171 0.0233119 -0.00114617 0.0269304 0.0126344 0.0290514 0.00958344 0.0311688
internal_weight=42455.8 41722 32375.7 21567.9 18977.9 9346.34 10807.8 8561.42 3870.35 7861.53 2946.26 2589.96 4691.07 784.915 733.788 374.312 575.762 410.603 524.838 158.026 446.64
internal_count=170467 167528 129908 86498 76093 37620 43410 34472 15604 31569 11841 10405 18868 3148 2939 1503 2306 1645 2102 633 1789
is_linear=0
shrinkage=0.02


Tree=8
num_leaves=31
num_cat=0
split_feature=26 28 20 12 28 28 17 28 17 20 17 26 28 27 27 25 6 17 31 28 6 17 5 6 26 27 18 28 12 28
split_gain=2059.03 882.169 460.684 427.924 369.872 326.479 350.583 216.713 215.893 185.042 182.725 172.161 166.943 361.263 153.704 114.468 109.87 321.819 106.701 106.583 90.5173 82.8596 81.7938 79.8928 91.8125 68.4214 67.3223 54.4949 53.5774 20.2871
threshold=0.017182095190399874 -0.10692083204336224 16.778930826163588 0.016945602443482855 -0.024455813661459751 0.065498885874572033 -0.079468432671081654 -0.16764947674016115 -0.26607513337285121 15.480793632293897 -0.2808363979745212 0.021317154163535877 0.0061909917779636222 -0.018287275092437588 0.02071460498198963 0.76442841287458385 -0.045417808666144636 -0.22810825269599325 0.46702898550724642 0.056771330988718748 -0.0078328981723237417 -0.31840004326233651 -0.06293538478320003 -0.068264805580172158 0.013446915921758897 -0.041733039073498297 0.26618540579648925 -0.14712336561411227 0.029461146568457677 0.037226563813226428
decision_type=2 2 2 2 2 2 2 2 2 2 2 2 2 2 2 2 2 2 2 2 2 2 2 2 2 2 2 2 2 2
left_child=3 7 4 12 11 19 -7 21 -6 16 20 -3 23 29 -15 22 26 -18 -12 -4 -11 -2 -9 25 -25 -1 -5 -17 -23 -14
right_child=1 2 5 9 8 6 -8 15 -10 10 18 -13 13 14 -16 27 17 -19 -20 -21 -22 28 -24 24 -26 -27 -28 -29 -30 -31
leaf_value=-0.011490127057523787 0.032347252040692547 -0.0045486847074531272 0.0017489909942442967 -0.0016141222460899893 0.0018406677269273005 -0.01102612756260552 0.00056774881210063519 0.017098160217054834 0.0073886993143980288 -0.01278650320892474 -0.014027523572339606 0.0040542232801577165 -0.022781064812164544 0.012942149583925349 -0.0034947018549832294 0.016029745566524704 -0.015729610870188121 -0.0010609969513871479 -0.0052541043828568234 0.013971739017399001 -0.022417225204875317 0.0053168827771011605 0.0025049333671940755 -0.0098552233162946725 -0.0019875623919538435 0.0013923202444750297 -0.0088093003892450918 -0.005677924984617104 0.024203147095210823 -0.0089524316748877206
leaf_weight=179.87904380261898 365.67988881468773 2405.3955990970135 3023.3758564591408 2427.5401648581028 3998.6667318940163 2171.3734488636255 1996.9084498435259 871.90126563608646 9515.2466248720884 1240.6495347470045 787.39216424524784 1509.0026736706495 147.00754117965698 920.61279989778996 297.01734483242035 55.397750124335289 1281.1878552734852 1125.7955797761679 1933.9139200299978 311.35513918101788 608.496845677495 107.13501977920532 192.58817717432976 1114.3545512259007 1285.9704421162605 1522.040333211422 662.17968203127384 191.80834871530533 154.2492138594389 80.481870099902153
leaf_count=724 1466 9662 12135 9759 16051 8725 8019 3493 38125 5000 3167 6054 592 3691 1192 222 5172 4523 7777 1249 2463 429 772 4483 5168 6115 2666 769 618 324
internal_value=5.47061e-05 0.00341141 0.00239818 -0.00571961 0.00418197 -0.00174264 -0.005473 0.0163909 0.00574985 -0.00817678 -0.0111558 -0.00122621 -0.00125347 0.00457603 0.00891844 0.0116648 -0.0056882 -0.00889351 -0.00782104 0.00291539 -0.0160184 0.0260749 0.0145007 -0.003315 -0.00566134 0 -0.00317438 -0.000512686 0.0167823 -0.0182725
internal_weight=42484.6 26870.1 24931.3 15614.5 17428.3 7503.01 4168.28 1938.76 13513.9 10067.2 4570.45 3914.4 5547.36 1445.12 1217.63 1311.7 5496.7 2406.98 2721.31 3334.73 1849.15 627.064 1064.49 4102.24 2400.32 1701.92 3089.72 247.206 261.384 227.489
internal_count=170605 107789 100020 62816 69892 30128 16744 7769 54176 40527 18407 15716 22289 5799 4883 5256 22120 9695 10944 13384 7463 2513 4265 16490 9651 6839 12425 991 1047 916
is_linear=0
shrinkage=0.02


Tree=9
num_leaves=30
num_cat=0
split_feature=26 28 13 20 17 28 17 28 24 28 17 28 13 18 17 18 12 31 28 24 28 28 7 26 17 24 13 21 14
split_gain=1989.98 914.986 540.734 434.703 371.817 340.307 336.62 222.221 209.352 204.423 192.22 165.096 149.89 168.619 145.072 158.998 129.128 162.978 160.541 128.706 128.063 120.717 70.7043 66.1253 63.3701 46.4275 43.3533 41.4337 29.2976
threshold=0.017182095190399874 -0.10692083204336224 0.02823423888037439 16.778930826163588 -0.27128048142333849 0.065498885874572033 -0.079468432671081654 -0.16764947674016115 -0.014319387037260651 -0.017888760798835789 -0.51794684604477848 0.031584705807666771 0.029955177102999813 0.15326124751090001 -0.22964277130496488 0.20639082450557858 0.014726008177310011 0.40609529702970304 0.0061909917779636222 -0.0082885771541248796 0.070505386109301585 -0.15668259972884729 -0.033898305084745721 0.013034803533642938 -0.31840004326233651 0.023474082566309475 0.024411667678212613 -1.2131946442323966 0.55569799342270287
decision_type=2 2 2 2 2 2 2 2 2 2 2 2 2 2 2 2 2 2 2 2 2 2 2 2 2 2 2 2 2
left_child=2 7 8 4 10 19 -7 24 11 -6 -3 22 13 -9 15 20 18 -18 -10 -5 -4 -17 -1 28 -2 -14 -26 -25 -16
right_child=1 3 14 5 9 6 -8 12 16 -11 -12 -13 25 -15 23 21 17 -19 -20 -21 -22 -23 -24 27 26 -27 -28 -29 -30
leaf_value=0.0055800268708315771 0.031860271149307375 0.010796812245175995 -0.0099460804208952279 -0.0040079116738708535 0.00071538012870516745 -0.010946205852158093 0.0004115703229341422 0.015175492774521205 -0.0018893677628119734 0.0074263697253822052 -0.0012995122820529334 -0.02484960537963609 0.020983528235804891 -0.0047129482116129743 -0.018481776103518321 0.011102488218578127 -0.0091065095448203907 -0.0021117954291045953 0.0077839891246320606 0.0052393762687963016 0.01743444456378036 -0.018897566496936215 -0.0091788744823431134 0.0043953155003755217 0.0045068337697649454 0.0058796338936809413 0.023160073905592011 -0.0056776815596940944 -0.0041431342640119977
leaf_weight=144.01093773543835 368.60397459566593 579.12854085862637 938.46334236860275 781.89968827366829 2264.4993914812803 2176.2043405622244 1994.7138489633799 329.44341257214546 2584.1137064695358 9317.3916531801224 5225.8544128835201 262.99364405870438 542.72189559042454 342.10342828929424 203.29529386758804 51.400877043604851 1848.854822024703 4796.4244455099106 928.27632378041744 2541.8993114084005 68.661339655518532 1755.0696350485086 996.75259391963482 204.92733524739742 75.666365221142769 105.83032390475273 182.60182014107704 715.65828841924667 88.749063864350319
leaf_count=581 1480 2324 3781 3143 9086 8751 8010 1320 10384 37321 20984 1062 2173 1371 819 206 7437 19288 3722 10195 276 7103 4023 824 303 424 732 2877 357
internal_value=4.48859e-05 0.00334721 -0.00563685 0.00231135 0.00404696 -0.0017124 -0.00551565 0.016535 -0.00343338 0.00611683 -8.10387e-05 -0.010664 0.0117759 0.00505429 -0.0119471 -0.0144449 -0.00242741 -0.00406626 0.000668912 0.00305526 -0.00798273 -0.0180046 -0.00728202 -0.0060996 0.0263527 0.0186133 0.0179605 -0.00340214 -0.0143348
internal_weight=42416.2 26828.6 15587.7 24881.6 17386.9 7494.72 4170.92 1946.97 11561.4 11581.9 5804.98 1403.76 1320.1 671.547 4026.23 2813.6 10157.7 6645.28 3512.39 3323.8 1007.12 1806.47 1140.76 1212.63 626.872 648.552 258.268 920.586 292.044
internal_count=170357 107617 62740 99814 69715 30099 16761 7803 46497 46407 23308 5666 5288 2691 16243 11366 40831 26725 14106 13338 4057 7309 4604 4877 2515 2597 1035 3701 1176
is_linear=0
shrinkage=0.02


Tree=10
num_leaves=21
num_cat=0
split_feature=28 25 17 6 28 27 27 28 17 6 12 28 12 28 24 10 3 25 17 24
split_gain=919.061 852.497 498.168 509.531 281.835 267.617 256.756 318.159 215.939 229.446 179.349 130.698 97.4717 97.061 92.9791 73.5509 59.1275 57.2114 39.8917 8.58023
threshold=-0.16764947674016115 0.18808962264150947 -0.27499999999999991 1.0000000180025095e-35 -0.11219975988929912 0.063359301277126925 -0.017021203828046862 0.0050774337379616502 -0.25746280011127315 -0.014084507042253445 0.039047448950795628 0.0028609095878484184 0.025034335501207632 -0.14036468367213542 -0.015171562926924134 -0.06405510305976185 0.014722180350383642 0.094044811320754734 -0.30976523702468828 -0.028458329816791018
decision_type=2 2 2 2 2 2 2 2 2 2 2 2 2 2 2 2 2 2 2 2
left_child=12 4 3 10 13 -5 11 -8 9 -6 -3 -4 18 17 -10 -14 -15 -2 19 -1
right_child=1 2 6 5 8 -7 7 -9 14 -11 -12 -13 15 16 -16 -17 -18 -19 -20 -21
leaf_value=0.024112158592561383 -0.0071037714205796692 -0.0010332678775531482 0.0010377614999648071 -0.013215422194384215 -0.0071347623634237549 0.0059010169931171114 -0.00049710392628155172 0.0054564026599092357 -0.0069912306389549482 -0.017697391210532994 0.0092612801063046667 -0.0066010187725778846 0.030499840620695679 0.015372795320752209 -0.0012519433303672151 0.01008606558700679 -0.005755821249634841 0.009244216261821106 -0.00014781579605064704 0.011411385743003153
leaf_weight=50.063663750886917 253.41901731491089 7632.5563027113676 2278.8113266825676 2079.599118411541 2834.313781619072 336.31259976327419 4965.1177886873484 12901.137827068567 2076.8587280362844 1169.8109038174152 737.7089012414217 1466.5818875283003 416.48181051015854 351.82724003493786 2495.6048720180988 96.357123136520386 58.022836238145828 122.61617492139339 85.119366526603699 83.747644320130348
leaf_count=201 1019 30654 9148 8392 11437 1351 19926 51704 8366 4746 2956 5883 1675 1409 10039 386 233 491 341 336
internal_value=-9.42311e-05 -0.000485309 0.00105048 -0.0024583 -0.0057996 -0.0105393 0.00280277 0.0038011 -0.00685121 -0.0102439 -0.000118588 -0.00195283 0.0220483 0.00562237 -0.00386794 0.0268373 0.0123001 -0.00166924 0.0103921 0.0170046
internal_weight=42492.1 41760.3 32397.8 10786.2 9362.47 2415.91 21611.6 17866.3 8576.59 4004.12 8370.27 3745.39 731.77 785.885 4572.46 512.839 409.85 376.035 218.931 133.811
internal_count=170693 167754 130014 43353 37740 9743 86661 71630 34588 16183 33610 15031 2939 3152 18405 2061 1642 1510 878 537
is_linear=0
shrinkage=0.02


Tree=11
num_leaves=23
num_cat=0
split_feature=28 25 17 6 20 28 28 17 18 28 19 28 24 5 25 28 25 14 25 24 13 15
split_gain=878.96 782.417 461.064 473.577 380.052 399.695 271.23 240.295 266.53 187.135 150.977 103.82 99.0723 75.5695 69.5014 67.9719 63.2864 48.2488 25.2829 96.9788 24.6082 4.3055
threshold=-0.16764947674016115 0.18808962264150947 -0.2643259955369916 0.0047822560200319062 17.946553548480129 0.0050774337379616502 -0.11219975988929912 -0.27128048142333849 0.21551724137931041 0.11954732841071146 0.59452978400052581 0.29605695620893041 -0.01457758045344011 -0.09685451622212142 0.010105134224762684 -0.14036468367213542 0.094044811320754734 0.44811626651406217 0.43437243642329787 0.0087092398668298272 0.022803508322047399 -0.13573945361991299
decision_type=2 2 2 2 2 2 2 2 2 2 2 2 2 2 2 2 2 2 2 2 2 2
left_child=13 6 3 9 5 -4 15 8 -8 -3 -5 -6 -9 14 -1 16 -2 -17 21 -20 -15 -16
right_child=1 2 4 10 11 -7 7 12 -10 -11 -12 -13 -14 20 18 17 -18 -19 19 -21 -22 -23
leaf_value=0.0035239214215985327 -0.0061403513764593234 0.00065346472230636227 -0.00012839929511738776 -0.012917267222985678 -0.0033886756076053834 0.0060530473950018192 -0.0064295596594620202 -0.0065046644503872278 -0.01770919348987237 -0.013825878213187355 -0.0024475403139991897 -0.02158818642301065 -0.00078149752084478541 -0.0030046886854576357 0.019331277215001327 0.014211404934877294 0.010939013274099503 -0.0041283912110557791 -0.0021365472601740767 0.027669315753233201 0.015223252554477179 0.031864863911604098
leaf_weight=61.866564527153969 254.05381610989571 8558.5924239456654 6471.0823329389095 1777.6225033402443 2440.2401373237371 11801.152708888054 2453.3379631340504 2359.9131456166506 1283.4425208866596 367.56476810574532 808.7453868240118 128.05105237662792 2498.7077687084675 57.387526124715805 51.523098722100258 346.54674091935158 125.37957602739334 64.344335302710533 56.668156564235687 161.15533924102783 50.690242096781731 290.98730334639549
leaf_count=248 1022 34366 25971 7182 9806 47267 9900 9512 5221 1476 3254 515 10054 230 207 1388 502 258 227 649 203 1173
internal_value=-1.67609e-05 -0.000399048 0.00107546 -0.0021353 0.00285017 0.00386337 -0.00548176 -0.00651399 -0.0103275 4.75829e-05 -0.00966219 -0.00434403 -0.00356928 0.0216597 0.0243392 0.0056898 -0.000375767 0.0112763 0.0265505 0.0199514 0.00566275 0.0303423
internal_weight=42469.1 41738.8 32353.1 11512.5 20840.5 18272.2 9385.73 8595.4 3736.78 8926.16 2586.37 2568.29 4858.62 730.278 622.2 790.324 379.433 410.891 560.334 217.823 108.078 342.51
internal_count=170631 167694 129837 46278 83559 73238 37857 34687 15121 35842 10436 10321 19566 2937 2504 3170 1524 1646 2256 876 433 1380
is_linear=0
shrinkage=0.02


Tree=12
num_leaves=31
num_cat=0
split_feature=26 28 13 20 28 28 27 24 13 18 18 28 24 24 26 27 28 26 28 20 27 6 28 28 31 28 0 27 26 5
split_gain=1879.94 754.944 521.583 446.877 330.275 283.112 288.242 206.499 194.977 247.519 174.191 173.036 163.294 156.209 135.03 134.508 174.21 133.246 128.706 113.862 101.256 94.2511 81.2263 78.2668 76.4578 67.4081 50.0701 48.5636 41.3785 39.1744
threshold=0.017182095190399874 -0.10692083204336224 0.02823423888037439 16.861120461149962 -0.024455813661459751 0.065498885874572033 0.041889768245027818 -0.01457758045344011 0.029700910510876536 0.15326124751090001 0.55731894257703096 0.0033671278804563629 0.023185250282525011 -0.0081613146666628892 0.013446915921758897 -0.038925820528257583 0.0043594382011840375 0.01362683277343015 -0.013627998964047632 11.89820147108736 -0.001182777585296632 0.34279775573687737 -0.11939581005239246 -0.15668259972884729 0.10501253132832082 -0.16764947674016115 0.055241642280748467 0.023568951180225683 0.014284934470175639 -0.088562472039165771
decision_type=2 2 2 2 2 2 2 2 2 2 2 2 2 2 2 2 2 2 2 2 2 2 2 2 2 2 2 2 2 2
left_child=2 8 7 4 12 13 -7 11 9 29 -6 14 -3 -5 -1 16 -9 18 22 -17 -20 23 -4 -19 -11 -10 -27 -23 -13 -2
right_child=1 3 17 5 10 6 -8 15 25 24 -12 28 -14 -15 -16 19 -18 21 20 -21 -22 27 -24 -25 -26 26 -28 -29 -30 -31
leaf_value=-0.01839726964557549 0.022003824459006553 0.00029525420685580462 0.00041058612326068015 -0.005421109784035788 0.0037948513659552003 -0.011163933480827948 -0.00039896961986089552 -0.0048148843140890804 0.028345396406460402 0.015620291994439905 0.0085284102254216555 -0.013395040976000954 -0.012761008586125592 0.0050622876152588425 -0.0013107397070167566 -0.0081407823702933455 -0.027011183979013441 0.010548753423410218 -0.014799370049679239 -0.00098619678779676722 0.0014855262718581768 -0.002634168323708011 -0.021944152484713913 -0.011095492127445953 -0.0062996561507431747 0.018765777923851101 -0.0007316825838382064 0.016127556125359706 -0.027055274407769392 0.008277934128568077
leaf_weight=248.02841174602509 339.08835135400295 3542.0238473713398 67.614295616745949 741.06892387568951 9057.92432038486 1881.1942306905985 2114.8846392780542 561.47326023876667 366.70406271517277 71.865705981850624 4766.7250662446022 182.92697589099407 424.29330399632454 2373.1877551525831 702.69085627794266 990.94688236713409 187.01645165681839 64.571977227926254 417.39081802964211 8487.2078819721937 234.60148237645626 303.18872417509556 964.61935569345951 1870.863139629364 360.4548731893301 597.12583160400391 55.179927289485931 62.115268722176552 234.39179122447968 128.03001464903355
leaf_count=1006 1361 14226 272 2982 36315 7571 8496 2262 1482 288 19090 742 1705 9516 2839 3985 754 259 1692 34127 947 1221 3917 7559 1445 2391 221 250 949 513
internal_value=1.53066e-06 0.0032116 -0.00552246 0.00227766 0.0039715 -0.00195754 -0.0054793 -0.00337195 0.0152863 0.00839294 0.00543092 -0.0106601 -0.0011107 0.00255655 -0.00586221 -0.00239032 -0.0105298 -0.0117625 -0.0160564 -0.00174022 -0.00894255 -0.00858256 -0.0204656 -0.0103377 -0.00247319 0.0212805 0.017093 0.000676699 -0.0213443 0.0184116
internal_weight=42399.4 26819.8 15579.6 24901.3 17791 7110.34 3996.08 11594.7 1918.45 899.439 13824.6 1368.04 3966.32 3114.26 950.719 10226.6 748.49 3984.97 1684.23 9478.15 651.992 2300.74 1032.23 1935.44 432.321 1019.01 652.306 365.304 417.319 467.118
internal_count=170383 107602 62781 99901 71336 28565 16067 46664 7701 3607 55405 5536 15931 12498 3845 41128 3016 16117 6828 38112 2639 9289 4189 7818 1733 4094 2612 1471 1691 1874
is_linear=0
shrinkage=0.02


Tree=13
num_leaves=23
num_cat=0
split_feature=28 17 6 20 28 27 27 17 28 18 10 4 27 28 27 28 13 4 28 5 21 17
split_gain=801.302 726.026 765.19 478.837 340.026 385.339 278.953 225.533 247.411 210.749 147.567 141.547 139.505 138.93 250.097 101.923 98.703 80.8801 69.938 64.4077 42.9939 17.247
threshold=-0.15160330872074981 -0.2808363979745212 -0.0078328981723237417 17.587239166762959 0.0096876363165186666 -0.017965044421632551 0.063359301277126925 -0.51794684604477848 0.10880198043636037 0.28869870535035519 -0.075294088338154472 -0.12849622191748042 -0.055998813135151905 0.068324088465130786 0.063359301277126925 -0.22176376529018244 0.014969516853317861 -0.15752818523457388 0.18048482333189053 -0.14042060193553976 -1.2678678606751557 -0.23762721219857177
decision_type=2 2 2 2 2 2 2 2 2 2 2 2 2 2 2 2 2 2 2 2 2 2
left_child=12 2 7 4 10 -6 11 9 -9 -2 -3 -4 15 16 -15 -1 -5 -17 -8 -14 -19 -21
right_child=1 3 6 13 5 -7 18 8 -10 -11 -12 -13 19 14 -16 17 -18 20 -20 21 -22 -23
leaf_value=0.026443595063847046 0.0087859379695044201 0.0063121608942301637 0.0083089357402470025 0.011119689033460981 -0.0040572874585338157 0.0062474132492158219 0.0098121188280178902 -0.0017887337657844207 -0.016683711237357624 -0.014796547005706335 -0.001010850654843421 -0.014877409514717535 0.030883857414057143 -0.012098377841851471 0.0020606935862640887 0.022685950876396174 -0.0022583407067232608 0.01601610646868486 -0.010888025480477152 0.020138987623828639 -0.00089467029443597188 0.0059484468646733837
leaf_weight=124.82839007675648 1262.4799538105726 1258.8654934316874 104.96664322912693 242.40511366724968 1665.0412422567606 11048.386955410242 262.93566946685314 8919.2934165894985 465.20160283148289 167.03128254413605 8517.9960278123617 3021.3027708679438 303.44256971776485 1619.8945594280958 715.05456146597862 91.713813409209251 2017.531075835228 68.221646144986153 81.006825089454651 85.48243759572506 324.71077783405781 72.611654236912727
leaf_count=505 5075 5057 424 973 6690 44255 1056 35878 1874 674 34225 12256 1226 6524 2874 370 8110 274 326 343 1305 291
internal_value=5.58433e-05 -0.000386819 -0.00403483 0.00153673 0.00273931 0.0048952 -0.0121999 -0.00140839 -0.00253772 0.00597453 -6.3153e-05 -0.0140805 0.0170953 -0.00434169 -0.00775862 0.0106187 -0.000793177 0.00627348 0.00479326 0.0253995 0.0021555 0.0141262
internal_weight=42440.4 41369.4 14284.2 27085.2 22490.3 12713.4 3470.21 10814 9384.5 1429.51 9776.86 3126.27 1071.01 4594.89 2334.95 609.475 2259.94 484.646 343.942 461.537 392.932 158.094
internal_count=170585 166271 57563 108708 90227 50945 14062 43501 37752 5749 39282 12680 4314 18481 9398 2454 9083 1949 1382 1860 1579 634
is_linear=0
shrinkage=0.02


Tree=14
num_leaves=31
num_cat=0
split_feature=26 28 13 20 17 28 17 28 13 18 18 4 18 17 20 17 14 28 28 17 26 28 0 9 20 4 17 14 17 8
split_gain=1792.31 766.713 507.012 449.427 326.757 280.47 302.546 223.81 176.005 216.73 159.27 139.581 169.173 174.349 102.76 118.093 103.349 101.71 99.7305 71.6298 66.9006 55.9609 57.09 53.4268 52.2499 49.0003 47.7834 45.8567 14.2876 11.8113
threshold=0.017182095190399874 -0.10692083204336224 0.025138295285552375 16.882586038753072 -0.25901639344262295 0.065498885874572033 -0.081481481481481419 0.15775509948524138 0.029823274972010264 0.16849908424908425 0.56523102940374248 0.034220532319391712 0.17110570067703026 -0.27128048142333849 17.386516395475798 -0.32487486578382246 0.64889013984616761 0.056771330988718748 0.064563221196948059 -0.50717597334975884 0.011355356021966368 -0.16764947674016115 0.055241642280748467 -0.091714452518557074 15.727132395698133 -0.061624649859943918 -0.2053312434691745 0.43238532965253396 -0.32256978386010637 0.030110579977160493
decision_type=2 2 2 2 2 2 2 2 2 2 2 2 2 2 2 2 2 2 2 2 2 2 2 2 2 2 2 2 2 2
left_child=2 8 14 4 7 17 -7 -3 9 25 -6 12 23 -14 15 24 -17 -5 20 -13 -16 28 -23 -4 -1 -2 -21 -11 -10 -20
right_child=1 3 11 5 10 6 -8 -9 21 27 -12 19 13 -15 18 16 -18 -19 29 26 -22 22 -24 -25 -26 -27 -28 -29 -30 -31
leaf_value=-0.0036524046272062467 0.02334244289283657 0.0011504275326491206 0.005174223447015641 0.0012428612213527081 0.0038655856835545957 -0.011076889464045924 -2.3670145388445005e-05 -0.015178974895447216 0.031467541959849854 0.0023283901143322993 0.0086257804079884169 0.013692129633572955 -0.01820234005023624 -0.0088750048613744064 -0.017198674001465172 -0.0011800616182398554 0.0080055091012652367 0.0135361818549973 -0.027912259865743441 -0.0095899570735178685 -0.0024572088837708801 0.018884083203139123 -0.0025068686184041987 -0.0071463298056942109 -0.009881173518074363 0.010222793792762379 -0.00047612805149279633 -0.012174655160329853 0.020627027157736632 -0.013072426455446345
leaf_weight=2026.4352007955313 276.79694478213787 6014.0654325336218 151.39783291518688 2790.7596912831068 6694.4023748338223 1993.2857939749956 1971.4364824593067 350.5303883254528 218.45422612130642 307.56735879182816 4893.4278077334166 85.665697947144508 1808.7111867666245 1489.3846142292023 156.32446910440922 5533.5021331608295 532.30456259846687 293.92132516205311 101.59433937072754 445.3645952641964 549.94683457911015 598.16796250641346 51.437058508396149 1365.2845400124788 745.20299042761326 225.8130978345871 481.61346259713173 115.46288113296032 144.86646100878716 53.404629096388817
leaf_count=8161 1113 24158 610 11201 26818 8033 7921 1412 891 1233 19591 346 7373 6003 630 22258 2137 1178 411 1804 2214 2395 206 5510 3007 905 1937 463 586 215
internal_value=2.34177e-05 0.00314293 -0.00538743 0.00220089 0.00388128 -0.00207538 -0.00559273 0.000236736 0.0152453 0.00883109 0.00588035 -0.0100488 -0.0114694 -0.0140161 -0.00258085 -0.00193237 -0.000364758 0.0024407 -0.00916223 -0.00325189 -0.00584613 0.0210149 0.0171535 -0.00589037 -0.0053491 0.0176462 -0.00490427 -0.00167936 0.0275381 -0.0234925
internal_weight=42466.5 26940.4 15526.1 25001.8 17952.4 7049.4 3964.72 6364.6 1938.57 925.64 11587.8 5827.42 4814.78 3298.1 9698.72 8837.44 6065.81 3084.68 861.27 1012.64 706.271 1012.93 649.605 1516.68 2771.64 502.61 926.978 423.03 363.321 154.999
internal_count=170720 108104 62616 100312 71979 28333 15954 25570 7792 3714 46409 23583 19496 13376 39033 35563 24395 12379 3470 4087 2844 4078 2601 6120 11168 2018 3741 1696 1477 626
is_linear=0
shrinkage=0.02


Tree=15
num_leaves=23
num_cat=0
split_feature=28 25 17 6 20 28 28 17 6 8 12 28 28 25 17 25 13 25 2 12 15 14
split_gain=766.689 793.455 403.93 439.559 359.109 316.846 249.539 213.557 196.568 164.266 158.414 88.5668 80.5916 79.5188 72.2995 65.5622 60.975 51.4153 51.3012 25.5273 4.60046 1.00196
threshold=-0.16764947674016115 0.18808962264150947 -0.27128048142333849 1.0000000180025095e-35 17.986647739869245 0.0050774337379616502 -0.11219975988929912 -0.2643259955369916 -0.045417808666144636 0.06761886187629508 0.039047448950795628 0.29605695620893041 -0.14036468367213542 0.18537609774723179 -0.30976523702468828 0.094044811320754734 0.022977140768154485 0.15105309346204479 -0.072638322284548737 0.023967410094113486 -0.25962131085013701 0.24999999962321598
decision_type=2 2 2 2 2 2 2 2 2 2 2 2 2 2 2 2 2 2 2 2 2 2
left_child=14 6 3 10 5 -4 12 8 -8 -5 -3 -6 15 -9 19 -2 -16 -14 -18 21 -21 -1
right_child=1 2 4 9 11 -7 7 13 -10 -11 -12 -13 17 -15 16 -17 18 -19 -20 20 -22 -23
leaf_value=0.011492953600645339 -0.0073662855606422498 -0.00065423650812331143 0.00021500735550078091 -0.011383199725477631 -0.0034894571169242147 0.0056194316007285696 -0.0064682280982325917 -0.0039483568595226389 -0.015890883811398877 0.0035524635592639642 0.0089632641181288785 -0.020402150854888376 0.014136733438549449 0.015974461877592192 -0.0024830098681455763 0.010308187598906218 0.00027774216334589127 -0.0057743962275464749 0.023562015734033791 0.017932842075250099 0.030347668621786887 0.019918944213913835
leaf_weight=65.920723855495453 246.97014437615871 7744.9920472055674 6768.2351519614458 2153.0966377854347 2351.9418149739504 12127.023708432913 2407.1138636320829 4605.9225200563669 1419.7038323581219 336.48578196763992 746.39038336277008 126.78261181712151 355.53448984026909 76.346800684928894 79.332397133111954 120.54939205944538 52.522997990250587 56.233698487281799 150.28212539851665 49.91170808672905 268.39789228141308 52.320750415325165
leaf_count=266 994 31120 27166 8727 9461 48561 9742 18566 5796 1354 2992 511 1425 306 318 483 212 226 607 202 1096 211
internal_value=1.90509e-05 -0.00033511 0.0011437 -0.00197237 0.00274561 0.00368521 -0.00548635 -0.00647961 -0.00998531 -0.00935344 0.000193563 -0.0044019 0.00530583 -0.00360254 0.0204285 -0.00145468 0.0120686 0.0113329 0.0177798 0.0255884 0.0287703 0.0160405
internal_weight=42362 41643.3 32354.9 10981 21374 18895.3 9288.37 8509.09 3826.82 2489.58 8491.38 2478.72 779.288 4682.27 718.689 367.52 282.138 411.768 202.805 436.551 318.31 118.241
internal_count=170342 167430 129892 44193 85699 75727 37538 34410 15538 10081 34112 9972 3128 18872 2912 1477 1137 1651 819 1775 1298 477
is_linear=0
shrinkage=0.02


Tree=16
num_leaves=31
num_cat=0
split_feature=26 28 13 28 25 25 13 18 27 28 27 28 28 25 4 18 26 26 14 28 31 15 4 27 28 25 28 26 25 5
split_gain=1679.58 707.947 472.055 317.295 272.911 349.015 199.057 211.119 168.792 320.193 136.071 258.582 241.644 134.089 134.086 153.056 137.172 120.757 90.3141 93.6183 88.8554 78.7172 58.3473 50.8536 48.0314 64.3402 43.9378 41.2517 18.6922 14.7892
threshold=0.017182095190399874 -0.10692083204336224 0.025138295285552375 0.23647696963307685 0.18933143669985777 0.81566172713336749 0.029321006730207651 0.17110570067703026 -0.033582819476726214 0.0028609095878484184 -0.024211800434260675 0.0039225383941106752 -0.0015170299660464386 0.80569039913700113 0.033289479338726176 0.16590660036166374 0.01362683277343015 0.030933540606549442 0.66042780738362328 0.36743914107445325 0.093904702970297044 0.91282249196211318 -0.061624649859943918 -0.001182777585296632 -0.15668259972884729 0.76442841287458385 0.01979842308167366 0.014212686187617106 0.37685128829377162 -0.13333333333333333
decision_type=2 2 2 2 2 2 2 2 2 2 2 2 2 2 2 2 2 2 2 2 2 2 2 2 2 2 2 2 2 2
left_child=2 6 8 4 17 -6 7 22 9 13 12 -12 -10 -1 15 21 -17 -3 28 -20 -9 -4 -2 26 29 -26 -16 -25 -5 -8
right_child=1 3 14 18 5 -7 24 20 10 -11 11 -13 -14 -15 23 16 -18 -19 19 -21 -22 -23 -24 27 25 -27 -28 -29 -30 -31
leaf_value=-0.0048138630615354259 0.023115522787699141 -0.0016843700879350127 -0.0030589414755316808 -0.0080255857712293269 0.0046911888069256918 -0.0025688059488707597 0.027279971107048884 0.018392621495270062 0.0097702243146839188 -0.024755189293679924 -0.0053729892206322953 0.0024497600714289058 -0.013136715583002716 0.026363591936864605 -0.012875921699552585 -0.017975891947520223 -0.0097266837954716398 -0.020023546679365439 -0.0012638060340052916 -0.023179747970104581 -0.0070751924820711418 -0.013901681543024982 0.0086264216642574793 0.008032826268462117 0.019439159680334467 0.0018682699718198623 -0.00034850023219325758 -0.0031247643529360648 -0.017698959722027598 0.014023651766790523
leaf_weight=901.24543483555317 252.14487798511982 3351.4082708060741 1124.3679896891117 138.21858766674995 17068.90658017993 3127.9296611994505 391.93992105126381 59.898369684815407 887.98682370781898 370.80977460741997 4498.0776216089725 2697.976915627718 226.8526890873909 53.669829308986664 281.03744833171368 1507.050537660718 1823.1316448748112 145.46041558682919 744.5878512263298 82.553367152810097 342.31760136783123 351.78137674927711 222.54900696873665 203.75137178599834 497.50141505897045 104.38109505176544 190.02175423502922 356.06409239768982 303.44160288572311 62.889508008956909
leaf_count=3640 1016 13505 4539 556 68420 12553 1602 240 3576 1504 18111 10838 916 216 1138 6148 7390 586 2993 331 1373 1423 892 822 1993 418 768 1435 1220 253
internal_value=3.40174e-05 0.00305467 -0.00521438 0.00214909 0.002672 0.00356547 0.0146993 0.00755552 -0.00249061 -0.00910709 -0.00142792 -0.00243761 0.00505331 -0.00291254 -0.00970164 -0.0111064 -0.0134872 -0.00248044 -0.00757207 -0.00360131 -0.00305412 -0.00569459 0.0165251 -0.00311074 0.0205452 0.0164654 -0.0079212 0.000935922 -0.0148402 0.0256629
internal_weight=42370 26896.1 15473.8 24962.5 23693.7 20196.8 1933.62 876.91 9636.62 1325.73 8310.89 7196.05 1114.84 954.915 5837.21 4806.33 3330.18 3496.87 1268.8 827.141 402.216 1476.15 474.694 1030.87 1056.71 601.883 471.059 559.815 441.66 454.829
internal_count=170415 107951 62464 100164 95064 80973 7787 3521 38801 5360 33441 28949 4492 3856 23663 19500 13538 14091 5100 3324 1613 5962 1908 4163 4266 2411 1906 2257 1776 1855
is_linear=0
shrinkage=0.02


Tree=17
num_leaves=31
num_cat=0
split_feature=26 13 20 9 24 26 25 12 31 12 26 18 15 13 18 10 25 23 24 4 25 4 24 25 10 31 11 15 24 15
split_gain=1562.59 459.444 416.416 302.326 182.501 339.938 228.73 142.06 178.839 122.783 119.158 146.934 101.916 110.225 149.186 103.344 98.2092 91.233 86.7936 79.2536 73.3298 67.6544 65.5105 64.704 64.0452 53.8379 53.8249 52.3641 51.7381 46.0118
threshold=0.017182095190399874 0.024786392992739149 17.278558883710627 -0.083440986739290388 0.019102872952553664 0.02208754238648708 0.31612258494337114 0.0124296829666398 0.28718137771223934 0.02031124048406981 0.01362683277343015 0.22175516691369304 0.43365953581285982 0.028701850134259018 0.75441076702051268 0.14708289473782768 0.059714795008912663 0.058752898420124697 0.023474082566309475 -0.013953488372092924 0.16760299625468167 0.039097088136056064 -0.0088741313818683238 0.048662088562633203 -0.14191554480381655 0.13472342264477097 0.021577798843861826 0.77219523617208952 -0.015171562926924134 0.36841783501743669
decision_type=2 2 2 2 2 2 2 2 2 2 2 2 2 2 2 2 2 2 2 2 2 2 2 2 2 2 2 2 2 2
left_child=1 7 3 26 6 -6 -5 20 27 -10 11 19 13 14 -4 17 23 -14 -18 -3 22 -13 -1 -12 -15 -22 -2 -9 -17 -28
right_child=2 10 12 4 5 -7 -8 8 9 -11 16 21 15 24 -16 28 18 -19 -20 -21 25 -23 -24 -25 -26 -27 29 -29 -30 -31
leaf_value=-0.00036189666870290398 0.0045415316787806546 -0.010307084615134895 -0.0054275481329713387 0.0012660260433805482 -0.013569865231136553 0.0027181490951778526 0.0060995648030639964 -0.0062565380548774124 0.0011934904702062298 -0.0049397633297998947 -0.0099368470053714363 -0.018028715717553472 -0.0043320518617522763 0.010959354683223182 0.01053890016822576 -0.0090062290961944319 -0.0049018191946573701 0.006186433859400535 -0.026116375479637698 0.0016883589891668333 0.00095448278131972906 -0.0060979859253460682 -0.01645250114267436 -0.025964216435755003 -0.01071818509138461 0.0080867314306561685 0.011443067530222104 -0.013256597937929366 0.006460842244469453 0.02001476084228683
leaf_weight=451.87632271647453 238.3883680999279 671.03475821018219 797.38760052621365 6068.543395653367 661.69671186804771 2208.9643058180809 11112.143064156175 1189.0111641585827 2756.8967508673668 2466.0604193508625 338.68085412681103 1358.0573055148125 1696.4785036742687 52.618911564350128 325.28617319464684 88.939203724265099 2961.8039843887091 403.24966131150723 75.061753630638123 321.04890871047974 953.55713324248791 234.89802931249142 126.54188601672649 151.43847857415676 1068.1308421492577 769.26879286766052 625.04296335577965 698.60739846527576 1041.7185608297586 481.57671898603439
leaf_count=1825 958 2721 3207 24370 2660 8853 44519 4795 11097 9940 1379 5554 6823 212 1307 360 11970 1625 305 1298 3828 952 510 620 4302 3089 2515 2820 4186 1954
internal_value=5.52818e-05 -0.00499499 0.00297413 0.00423354 0.00361431 -0.0010464 0.0043943 -0.00221744 -0.00361573 -0.0017005 -0.00926351 -0.0125382 -0.00194446 -0.00521463 -0.000757439 0.000324957 -0.00684334 -0.00229259 -0.00547482 -0.00641617 0.00209288 -0.0163065 -0.00402719 -0.0151416 -0.00963851 0.0041649 0.0134027 -0.008886 0.00519227 0.0152645
internal_weight=42394 15523.8 26870.2 21396.4 20051.3 2870.66 17180.7 9411.82 7110.58 5222.96 6112.02 2585.04 5473.81 2243.42 1122.67 3230.39 3526.99 2099.73 3036.87 992.084 2301.24 1592.96 578.418 490.119 1120.75 1722.83 1345.01 1887.62 1130.66 1106.62
internal_count=170554 62703 107851 85829 80402 11513 68889 37904 28652 21037 24799 10525 22022 9028 4514 12994 14274 8448 12275 4019 9252 6506 2335 1999 4514 6917 5427 7615 4546 4469
is_linear=0
shrinkage=0.02


Tree=18
num_leaves=31
num_cat=0
split_feature=26 28 13 24 24 26 20 13 18 28 28 26 27 28 24 4 27 28 28 20 31 26 33 18 28 28 4 28 24 13
split_gain=1530.47 733.196 441.329 386.011 287.378 370.086 174.098 169.269 196.516 162.733 289.951 178.903 158.692 328.107 143.438 136.137 127.694 290.389 283.216 116.408 86.942 84.1167 59.7544 54.8843 56.7001 53.5541 49.7981 28.7831 27.9138 15.6005
threshold=0.016828331259554272 -0.10692083204336224 0.027796283579100037 -0.0082885771541248796 0.018342118691746841 0.022702059906069046 17.986647739869245 0.029445827607056874 0.17110570067703026 0.0069978530497697587 -0.016096236685533779 0.018147223109720098 -0.033582819476726214 0.0028609095878484184 0.0087092398668298272 0.038109798751210351 -0.024211800434260675 -0.013627998964047632 0.0039225383941106752 13.820831370608653 0.10501253132832082 0.013713426470090597 0.83414239482200658 3.1431498829039817 -0.16764947674016115 0.038588454164961254 -0.063829787234042465 0.022331651366234804 -0.012860830213368209 0.016116459583074925
decision_type=2 2 2 2 2 2 2 2 2 2 2 2 2 2 2 2 2 2 2 2 2 2 2 2 2 2 2 2 2 2
left_child=2 7 12 9 6 -6 -5 8 26 10 -3 -11 13 14 -1 19 17 -14 -18 25 -10 -21 28 24 -9 -4 -2 -24 -17 -15
right_child=1 3 15 4 5 -7 -8 23 20 11 -12 -13 16 29 -16 22 18 -19 -20 21 -22 -23 27 -25 -26 -27 -28 -29 -30 -31
leaf_value=-0.0053132663134692762 0.022491232432733807 -0.0036192615013725259 -0.0080445442029364392 0.0047699128520565697 -0.011674647013398163 0.001792825396952538 -0.0024294115585975972 0.02779729187488603 0.017077339681983147 -0.020266097697789327 0.013736180342157289 -0.0046191467649787142 0.010058629798853722 -0.013605942865228291 0.022905151125350767 0.015747218902559257 -0.00597938061546943 -0.011229118103067637 0.0018419829160513173 -0.018534223897524044 -0.006219609498052424 -0.011046220151681553 -0.012363365742402104 0.00071454120215415655 0.017192088156962795 0.0061861760293006008 0.0094852900664198492 -0.0014952598073917917 0.00075515652394502397 -0.026074102443747527
leaf_weight=1071.6220576763153 262.75487595796585 1449.2099945545197 668.09125091135502 15385.008148893714 1093.1558208763599 3169.3184082508087 1465.2717331498861 345.14742340147495 73.12218701839447 331.22312763333321 518.50763621926308 2352.2619704306126 873.05803021788597 74.453425273299217 72.10923133790493 61.702870354056358 4959.7659453451633 356.63757054507732 2945.4368077218533 1224.4661302864552 347.98365733027458 1286.6380244344473 220.40953741967678 58.899271562695503 653.41258327662945 120.06137213110924 245.67341344058514 182.61582525074482 209.58214873075485 343.5911545753479
leaf_count=4336 1061 5836 2713 61650 4396 12713 5894 1421 293 1338 2085 9476 3517 303 290 250 19997 1441 11839 5021 1396 5229 894 238 2619 485 985 737 846 1398
internal_value=-3.73823e-05 0.00272409 -0.00526163 0.00181897 0.00296847 -0.00166599 0.00414215 0.0144161 0.00808804 -0.00339217 0.000967107 -0.00659199 -0.00314201 -0.00902772 -0.00342481 -0.0109514 -0.00212917 0.00384807 -0.00306333 -0.0126249 -0.0019744 -0.014735 -0.00270116 0.0198956 0.0209979 -0.00582619 0.0163993 -0.00756658 0.00446071 -0.0240879
internal_weight=42421.2 27751 14670.2 25764 21112.8 4262.47 16850.3 1986.99 929.534 4651.2 1967.72 2683.49 10696.7 1561.78 1143.73 3973.57 9134.9 1229.7 7905.2 3299.26 421.106 2511.1 674.31 1057.46 998.56 788.153 508.428 403.025 271.285 418.045
internal_count=170697 111401 59296 103388 84653 17109 67544 8013 3735 18735 7921 10814 43121 6327 4626 16175 36794 4958 31836 13448 1689 10250 2727 4278 4040 3198 2046 1631 1096 1701
is_linear=0
shrinkage=0.02


Tree=19
num_leaves=31
num_cat=0
split_feature=25 9 17 5 12 17 17 6 31 27 10 14 27 12 25 11 25 27 27 31 31 30 27 17 11 6 9 30 5 27
split_gain=497.874 495.216 375.352 304.212 274.925 200.451 143.046 238.261 123.406 108.648 98.7829 119.643 95.5741 91.9705 86.6176 69.5792 61.4877 59.4706 58.0351 52.0502 51.8239 47.7918 46.1169 44.7377 43.0114 37.0286 32.7152 29.0147 17.7632 15.4822
threshold=0.18808962264150947 -0.091714452518557074 -0.079468432671081654 -0.13670786213901651 0.011343851581830816 -0.2808363979745212 -0.25407129699862108 -0.018417648519411408 0.10050505050505053 -0.088800116742762558 0.31879120778307984 0.64889013984616761 0.018727984814165658 0.037481806362731178 0.11200716845878138 0.026327849659577993 0.11330480451274073 -0.02918736727211909 -0.041733039073498297 0.94352909912304017 0.63427747180697625 0.050740184509761858 0.10345686815367729 -0.34101350508639344 0.038502852124193729 0.97263529737341192 -0.112739520091013 0.28966437833714725 -0.24726186193388491 -0.059100431333485977
decision_type=2 2 2 2 2 2 2 2 2 2 2 2 2 2 2 2 2 2 2 2 2 2 2 2 2 2 2 2 2 2
left_child=1 15 3 13 8 -6 7 9 -5 -3 11 17 14 18 -8 27 -14 -4 -2 -15 24 28 -13 -9 -12 -22 -23 29 -17 -1
right_child=2 6 10 4 5 -7 12 23 -10 -11 20 22 16 19 -16 21 -18 -19 -20 -21 25 26 -24 -25 -26 -27 -28 -29 -30 -31
leaf_value=-0.0089347823955940823 -0.0037514157335546004 0.020546552342467713 -0.009166609498716111 0.0018459543978444671 -0.003529610512688088 0.00037101338533690687 -0.0042672263443442604 -0.019122543467632078 0.010828952664250048 -0.0055779948190751126 -0.00048257335785310872 0.0089246074706238569 -0.0025704413419455124 0.019993685647055705 0.0017760147550022591 0.011240835018195724 -0.014446927124519972 0.0043235263061871419 0.0073941107129658649 0.0056964279205551542 0.0054389976835100204 0.02106174997219834 0.020443304616754535 -0.011119800062774764 -0.017263215521929987 -0.0035686655692402807 0.0091625056054579056 0.010741860534728555 -0.0037169862177177638 0.0020806368126544809
leaf_weight=73.316178321838379 226.14556097984314 59.957497090101242 131.90362457931042 1392.29464584589 8714.1400177031755 13299.528518423438 2218.3372799158096 657.83918656408787 1098.941889077425 2966.2527759075165 139.66785907745361 2481.8118240982294 304.97548191249371 336.66967213153839 1645.3522188961506 49.6145408898592 425.90827032923698 2687.6169040054083 955.01723803579807 158.80565112829208 522.9855535030365 301.56048980355263 149.44055069983006 569.28092494606972 107.6967366784811 272.11381921172142 160.39685420691967 106.82711090147495 69.112947329878807 137.80794411897659
leaf_count=297 915 242 530 5584 35116 53353 8968 2713 4408 12024 560 9945 1233 1362 6627 202 1716 10771 3842 639 2097 1231 599 2331 433 1092 650 433 280 559
internal_value=-9.2763e-06 -0.00397571 0.00117369 0.000105037 -0.0004588 -0.0011726 -0.00541501 -0.00805951 0.00583033 -0.00502076 0.00547613 0.00655411 -0.00295647 0.00833455 -0.00168957 0.0101249 -0.00956955 0.00367024 0.00523651 0.0155539 -0.000145623 0.0142237 0.00962392 -0.0154864 -0.008065 0.00232819 0.0171154 0.0024729 0.00257369 -0.00177031
internal_weight=42421.3 9746.54 32674.8 26181.5 24504.9 22013.7 8847.9 4253.33 2491.24 3026.21 6493.24 5450.77 4594.57 1676.64 3863.69 898.636 730.884 2819.52 1181.16 495.475 1042.46 580.685 2631.25 1227.12 247.365 795.099 461.957 317.951 118.727 211.124
internal_count=170752 39506 131246 105219 98461 88469 35854 17310 9992 12266 26027 21845 18544 6758 15595 3652 2949 11301 4757 2001 4182 2363 10544 5044 993 3189 1881 1289 482 856
is_linear=0
shrinkage=0.02


Tree=20
num_leaves=29
num_cat=0
split_feature=26 28 13 28 25 25 25 13 18 12 31 4 18 26 12 28 28 28 26 15 28 18 31 26 33 13 9 12
split_gain=1431.28 631.467 441.23 262.777 252.637 248.448 195.097 171.466 195.513 133.161 164.613 122.639 136.178 130.432 107.678 99.7306 84.1016 71.1855 73.1521 65.1228 64.1908 62.9651 61.1968 51.1557 33.7133 39.1572 35.8906 32.3203
threshold=0.017182095190399874 -0.10692083204336224 0.025138295285552375 0.23647696963307685 0.18933143669985777 0.81566172713336749 1.0000000180025095e-35 0.02957808126464791 0.09303023534995393 0.0124296829666398 0.30048543689320389 0.034220532319391712 0.17110570067703026 0.01362683277343015 0.020204383359873231 0.078953781119515939 -0.040164153543108906 0.36743914107445325 0.036403377720163325 1.2181049660743288 -0.16764947674016115 0.75441076702051268 0.15643825301204822 0.011494182578185345 0.7696153846153847 0.029321006730207651 0.044409416542572695 0.042857000304551744
decision_type=2 2 2 2 2 2 2 2 2 2 2 2 2 2 2 2 2 2 2 2 2 2 2 2 2 2 2 2
left_child=2 6 9 4 15 -6 -2 8 -8 16 21 12 19 -14 -12 -3 23 18 -5 -4 -9 -11 -18 -1 25 -13 -26 -19
right_child=1 3 11 17 5 -7 7 20 -10 10 14 24 13 -15 -16 -17 22 27 -20 -21 -22 -23 -24 -25 26 -27 -28 -29
leaf_value=-0.012471293569040774 -0.022432317768222597 -0.00043423916632712211 -0.0039472319603924338 -0.0088160779672337118 0.0042083718950824134 -0.0019086222196777396 0.018750282063945158 0.027544307853093235 -0.00031734581378571754 -0.0093194269585554716 0.0011109164707603237 -0.0058797540724905952 -0.017316579347276467 -0.0091947673269909928 -0.0045711413119061475 -0.0079452612495564522 0.001677469667269105 -0.0072763217207083876 0.0018635027861860466 -0.016611649401621992 0.016463957044168528 0.0051963082056780963 0.010202371515702451 -0.00048600001264303418 -0.012264169369254771 0.0076122368399313325 -0.0022352147783941214 -0.029584204592237456
leaf_weight=175.22795106470585 53.023260086774826 2498.1313221305609 1323.1445821970701 772.01713135838509 17020.722300216556 3138.937722876668 383.99154874682426 355.03550086915493 476.30183126032352 1902.016959041357 2671.5659828484058 138.71862237155437 1469.3429537713528 1798.8214991390705 2648.0956547409296 985.19471219182014 918.94228035211563 49.828745424747467 376.62153181433678 183.0785981118679 653.80979835987091 122.6186311095953 535.73623397946358 700.84145228564739 209.51240223646164 207.27690137922764 455.90886253118515 71.734231188893318
leaf_count=707 213 10062 5355 3107 68202 12603 1548 1474 1911 7686 10757 560 6043 7316 10685 3987 3692 200 1513 744 2622 494 2151 2822 851 838 1842 288
internal_value=-1.96277e-05 0.00277233 -0.00486625 0.00191778 0.00239495 0.0032547 0.0138042 0.0148999 0.00822953 -0.00224869 -0.00357087 -0.00923417 -0.0105752 -0.0128733 -0.00171546 -0.00257267 0.00190772 -0.00692296 -0.00530417 -0.00554967 0.0204997 -0.00841982 0.00485496 -0.00296312 -0.00286317 0.00213926 -0.00549065 -0.0212469
internal_weight=42296.2 26835.3 15460.8 24913.2 23643 20159.7 1922.16 1869.14 860.293 9675.05 7344.3 5785.8 4774.39 3268.16 5319.66 3483.33 2330.75 1270.2 1148.64 1506.22 1008.85 2024.64 1454.68 876.069 1011.42 345.996 665.421 121.563
internal_count=170273 107730 62543 99962 94854 80805 7768 7555 3459 38994 29622 23549 19458 13359 21442 14049 9372 5108 4620 6099 4096 8180 5843 3529 4091 1398 2693 488
is_linear=0
shrinkage=0.02


Tree=21
num_leaves=20
num_cat=0
split_feature=28 23 12 20 28 28 28 28 31 6 5 20 20 19 10 23 30 12 12
split_gain=663.607 307.843 283.732 203.347 495.301 203.422 165.161 149.243 138.819 78.2909 68.5435 49.7715 48.9895 28.1298 31.8551 25.617 22.2222 21.6328 2.31892
threshold=-0.16764947674016115 0.11943557186737698 0.012555973907806366 16.17535816603861 0.032381643800895234 -0.10030210522204601 -0.051641199778278794 0.36743914107445325 0.12712842712842715 0.016949152542372951 -0.09685451622212142 15.461467865158232 7.9536682353834314 -0.76606191761080733 -0.076541281719521334 0.047031555060630399 0.19857116688038104 0.026078190251939606 0.0288873559015345
decision_type=2 2 2 2 2 2 2 2 2 2 2 2 2 2 2 2 2 2 2
left_child=10 2 6 4 -4 -5 11 9 -8 16 13 -2 -11 18 17 -12 -3 -15 -1
right_child=1 7 3 5 -6 -7 8 -9 -10 12 15 -13 -14 14 -16 -17 -18 -19 -20
leaf_value=0.018174229598049367 0.0012823108577554659 0.0093793987790672523 -0.0021805026540423159 0.0079885871298939082 0.0043217914401147122 -0.0037394339870093509 0.0024686335876942691 -0.021126579363651095 0.0099948431606339191 -0.0070562685309400568 -0.0044863391087412276 -0.0070409838232331576 0.012333688225023303 0.012458998030001172 0.0024723109738899345 0.013949713424413351 -0.00078736727948334312 0.024408109010775409 0.029710809243036679
leaf_weight=51.50099641084671 555.22511780261993 108.88720485568047 14302.378054842353 614.66631929576397 6963.0104606598616 12776.877235904336 2343.0575576275587 63.337282329797745 1697.9966689795256 50.019394665956497 59.04318143427372 580.52392022311687 1222.5430437326431 127.68801335990429 52.141111001372337 51.12813563644886 337.54548810422421 196.102135643363 179.36236613988876
leaf_count=209 2234 437 57687 2477 27944 51485 9402 254 6811 201 237 2339 4902 520 212 206 1356 816 745
internal_value=8.01491e-05 -0.000249145 -0.000613883 -0.0012668 -4.9975e-05 -0.00319685 0.00375032 0.00787019 0.00564443 0.00900837 0.019091 -0.00296672 0.0115313 0.0217187 0.0177012 0.00412995 0.00172448 0.0200179 0.0276619
internal_weight=42333 41616.1 39833.7 34656.9 21265.4 13391.5 5176.8 1782.33 4041.05 1719 716.966 1135.75 1272.56 606.795 375.931 110.171 446.433 323.79 230.863
internal_count=170474 167529 160379 139593 85631 53962 20786 7150 16213 6896 2945 4573 5103 2502 1548 443 1793 1336 954
is_linear=0
shrinkage=0.02


Tree=22
num_leaves=31
num_cat=0
split_feature=26 20 12 5 25 25 27 20 27 15 15 6 27 4 27 25 6 12 5 12 20 27 33 5 16 20 26 26 25 27
split_gain=1431.79 415.683 303.199 291.032 174.959 190.67 157.43 155.692 132.492 108.441 95.6568 122.408 98.0165 95.1904 92.9902 97.4562 76.1414 75.0554 68.2842 61.9227 72.2712 52.289 47.1837 39.3751 29.7445 27.7734 27.0526 23.7628 21.1971 19.9657
threshold=0.017182095190399874 17.587239166762959 0.015646188245905031 -0.13333333333333333 0.81566172713336749 0.31612258494337114 0.021965764948882815 15.872575800614287 -0.02918736727211909 0.70581391114216474 0.33561765420605244 0.14131905999322117 0.052760096532222141 0.074947849203124375 -0.024211800434260675 0.16760299625468167 -0.090663721795797222 0.023967410094113486 0.078303991995773106 0.036938205486011351 12.921159870295606 0.04489488734732662 0.33414239482200653 0.040322580645161372 1.102483655726225 17.177108287965691 0.011494182578185345 0.024771354132887304 0.69951456310679616 -0.041733039073498297
decision_type=2 2 2 2 2 2 2 2 2 2 2 2 2 2 2 2 2 2 2 2 2 2 2 2 2 2 2 2 2 2
left_child=2 3 8 19 5 -5 -6 9 28 16 18 23 -13 21 26 -16 -4 -11 24 22 -21 -9 -2 -12 -3 -15 -10 -20 29 -1
right_child=1 10 7 4 6 -7 -8 13 14 17 11 12 -14 25 15 -17 -18 -19 27 20 -22 -23 -24 -25 -26 -27 -28 -29 -30 -31
leaf_value=-0.013792342888612662 0.0063855418984812154 -0.00457478193639439 0.00015374118898521451 0.0011287557260144263 -0.007945767579501507 0.0054168534895891931 0.0020980693904719084 -0.010320720756735728 -0.00031814961625086804 -0.0043079256667263163 -0.001720888363645973 -0.00098654502646028049 0.0095104870601109889 0.0034137948365518052 -0.0066613059069081442 0.0016279769820109228 -0.0052162205474599712 -0.01117106065863325 -0.014754906400520889 0.00048941869939415612 0.020353762157729278 -0.021070144704908724 0.01544557442968765 -0.0090763211288256221 0.0052502311014883032 -0.0058825931691192388 0.014196511126395027 -0.0077227376431565986 0.0024073660833549039 -0.0063281493585034473
leaf_weight=268.32287165522575 835.15988431870937 447.62204894423485 1888.2581760287285 6399.8365226089954 973.82526582479477 11867.590794399381 1714.399197474122 3309.8797151446342 60.734179839491844 1204.4190232902765 575.87553308904171 913.97157393395901 573.80463215708733 230.62126494944096 700.90437380969524 2884.9951506853104 2370.8687885254622 1404.930023252964 353.50067102909088 89.293624594807625 472.27040600776672 196.53483468294144 329.48091791570187 606.94518557190895 163.24366545677185 274.98693788051605 249.46537280082703 515.24981333315372 60.204817652702332 371.24465104937553
leaf_count=1088 3362 1802 7627 25712 3912 47531 6877 13464 245 4876 2320 3682 2306 930 2835 11593 9620 5721 1426 360 1932 798 1338 2445 657 1111 1004 2079 242 1502
internal_value=8.73364e-06 0.00280331 -0.00483439 0.00386845 0.00321514 0.00391637 -0.00154094 -0.00665321 -0.000521535 -0.00481306 -0.00301078 -0.000738424 0.00306684 -0.00978859 0.000916205 0 -0.0028334 -0.00802513 -0.00708245 0.0117557 0.0172627 -0.0109581 0.00902083 -0.00553436 -0.00189543 -0.00161119 0.0113313 -0.0106751 -0.00850448 -0.00957339
internal_weight=42308.4 26832.1 15476.4 22681.9 20955.7 18267.4 2688.22 10880.5 4595.87 6868.48 4150.21 2670.6 1487.78 4012.02 3896.1 3585.9 4259.13 2609.35 1479.62 1726.2 561.564 3506.41 1164.64 1182.82 610.866 505.608 310.2 868.75 699.772 639.568
internal_count=170397 107741 62656 91024 84032 73243 10789 44147 18509 27844 16717 10753 5988 16303 15677 14428 17247 10597 5964 6992 2292 14262 4700 4765 2459 2041 1249 3505 2832 2590
is_linear=0
shrinkage=0.02


Tree=23
num_leaves=31
num_cat=0
split_feature=25 9 17 20 17 6 20 13 5 25 17 6 27 14 27 10 27 24 27 11 24 11 33 14 24 17 24 27 25 30
split_gain=448.355 432.629 318.105 277.828 212.817 324.864 207.768 176.85 135.409 133.642 122.821 243.065 120.165 97.2835 86.7638 86.1624 80.4688 75.1173 71.8528 64.7662 60.0346 55.667 47.79 40.0394 38.0819 36.9373 31.3707 27.3442 23.0901 14.1682
threshold=0.18808962264150947 -0.091714452518557074 -0.083333333333333301 16.622677557214903 -0.27915641646797773 1.0000000180025095e-35 18.319783065453208 0.014848075673656562 -0.098566602322279526 0.99042864993588575 -0.2643259955369916 -0.017045454545454471 -0.088800116742762558 0.64889013984616761 0.018727984814165658 0.31879120778307984 0.01558452735443535 0.027252036762577123 0.049065764907776609 0.027007418034674029 -0.0077815490399477097 0.04805066715250144 0.069883720930232582 0.77551019807640764 -0.03029324724760216 -0.34101350508639344 -0.049415019033252953 -0.035824554428717501 0.087806967447173062 0.33971423337607626
decision_type=2 2 2 2 2 2 2 2 2 2 2 2 2 2 2 2 2 2 2 2 2 2 2 2 2 2 2 2 2 2
left_child=1 19 3 4 5 -2 13 18 -9 -6 11 12 -3 17 16 -15 -12 -4 -5 24 -16 23 27 -8 29 -13 -24 -21 -26 -1
right_child=2 10 6 7 9 -7 21 8 -10 -11 14 25 -14 15 20 -17 -18 -19 -20 22 -22 -23 26 -25 28 -27 -28 -29 -30 -31
leaf_value=0.0035418253373582058 0.00094143300282069245 0.022366157622698137 0.0047965564775623764 0.0073445795728928013 0.0034584808945969888 -0.0085773492792632494 -0.0047156223240717244 0.0036868822610481218 -0.0060486206479962515 -0.018336403489385669 -0.0020941943368725574 -0.018841158149965044 -0.0051987928930437135 0.011062683334191995 -0.010812820000195593 0.0026244468122334432 0.019210614742051439 -0.008093442043413987 -0.0097748587111182381 0.011973773822323924 0.0092145446722262589 -0.014980655388487901 0.0020293702788259853 0.0037486034760878229 -0.0075058524935727499 -0.011045038500654299 0.01991322548735976 -0.0031872517346025631 0.0049973519829922845 0.019246713047584543
leaf_weight=49.241335645318031 7266.2596512436867 59.581542074680328 2689.330859079957 718.93843549489975 10628.8201456815 1780.9670679420233 549.69695019721985 644.43223236501217 4699.835144251585 108.57510833442211 3951.1710807532072 636.86609509587288 2856.1589215993881 2192.4677658975124 689.26775500178337 634.08025224506855 67.085397854447365 188.29792246222496 108.09289620816708 95.327103391289711 60.670235246419907 132.77937316894531 48.706491738557816 367.7516732364893 131.02262088656425 470.85906161367893 328.61909565329552 84.320843815803528 98.216861352324486 52.094550848007202
leaf_count=200 29226 241 10775 2884 42620 7249 2213 2599 18915 436 15970 2643 11602 8779 2788 2540 271 755 434 389 244 536 200 1478 533 1940 1350 342 398 213
internal_value=5.53382e-05 -0.00372428 0.00117476 0.000167522 0.00132397 -0.000933854 0.00503946 -0.00353478 -0.00486859 0.0032278 -0.00507028 -0.00764547 -0.00459135 0.00654493 -0.00288739 0.00918477 -0.0017101 0.00393358 0.00503774 0.00953995 -0.00911581 -0.00311067 0.0136822 -0.0012992 0.00240137 -0.0156098 0.0177138 0.00485576 -0.00207119 0.0123288
internal_weight=42389.5 9679.21 32710.3 25955.9 19784.6 9047.23 6754.4 6171.3 5344.27 10737.4 8791.66 4023.47 2915.74 5704.18 4768.19 2826.55 4018.26 2877.63 827.031 887.549 749.938 1050.23 556.974 917.449 330.575 1107.73 377.326 179.648 229.239 101.336
internal_count=170763 39324 131439 104363 79531 36475 27076 24832 21514 43056 35699 16426 11843 22849 19273 11319 16241 11530 3318 3625 3032 4227 2281 3691 1344 4583 1550 731 931 413
is_linear=0
shrinkage=0.02


Tree=24
num_leaves=23
num_cat=0
split_feature=28 25 17 6 20 28 28 17 12 6 19 28 28 25 30 25 25 14 12 17 17 22
split_gain=619.331 620.939 349.058 400.359 309.192 240.594 227.413 198.867 175.225 165.15 159.244 100.57 85.732 82.7839 69.9762 63.3395 54.5602 50.699 26.9147 27.378 17.149 8.47871
threshold=-0.16764947674016115 0.18808962264150947 -0.28283162031623976 0.0097649673821548228 17.986647739869245 0.0050774337379616502 -0.11219975988929912 -0.27128048142333849 0.042408136009890095 -0.017045454545454471 0.28718932320813961 0.068324088465130786 -0.14036468367213542 0.18537609774723179 0.83034857691077724 0.094044811320754734 0.010105134224762684 0.42517579305829434 0.029025537081930394 -0.34101350508639344 -0.26252658596107542 0.12917178307484908
decision_type=2 2 2 2 2 2 2 2 2 2 2 2 2 2 2 2 2 2 2 2 2 2
left_child=14 6 3 8 5 -4 12 9 -3 -8 -5 -6 15 -9 16 -2 -1 -14 19 -18 -16 -20
right_child=1 2 4 10 11 -7 7 13 -10 -11 -12 -13 17 -15 20 -17 18 -19 21 -21 -22 -23
leaf_value=0.0018665046025413995 -0.0073079142204404137 -0.00082093618703521498 0.00031825645127654082 -0.014631430719230329 0.00030084059251573973 0.0049172397956045886 -0.0066031845306773898 -0.0034954687939945488 0.011514609240829124 -0.015990677538131118 -0.0032723710205765245 -0.0077546885594661254 0.015004672327234844 0.016113332675742224 0.01272650395016822 0.0098375054597700604 0.022093326999080544 -0.0025052202274915602 0.028533673416399671 0.0050685078347127641 -0.0013865615529997453 0.015465608400576581
leaf_weight=54.583708554506302 250.09126694500446 7722.5794683992863 7173.6517625898123 1201.6678017228842 1098.591834038496 12485.949586704373 2636.2156273573637 4736.5195990502834 484.78796166181564 1059.5884875059128 850.46298004686832 1403.1348942667246 332.93278470635414 82.507285490632057 55.071258068084717 124.78427711129189 107.07581625878811 78.292198315262794 296.18506245315075 67.897296786308289 73.614613816142082 50.695866048336029
leaf_count=221 1009 31058 28809 4916 4418 50004 10727 19159 1945 4402 3438 5661 1340 331 223 502 443 315 1244 275 296 212
internal_value=-5.80806e-06 -0.000321474 0.000984993 -0.00206331 0.00239724 0.00324063 -0.00487573 -0.00582731 -8.33052e-05 -0.00931795 -0.00995302 -0.00421571 0.00537792 -0.00313924 0.0185145 -0.00149373 0.0214849 0.0116329 0.0234617 0.0159224 0.00475363 0.0269275
internal_weight=42426.9 41721.8 32420.8 10259.5 22161.3 19659.6 9300.93 8514.83 8207.37 3695.8 2052.13 2501.73 786.101 4819.03 705.124 374.876 576.438 411.225 521.854 174.973 128.686 346.881
internal_count=170948 168034 130249 41357 88892 78813 37785 34619 33003 15129 8354 10079 3166 19490 2914 1511 2395 1655 2174 718 519 1456
is_linear=0
shrinkage=0.02


Tree=25
num_leaves=28
num_cat=0
split_feature=26 5 13 24 24 26 24 12 25 30 25 4 26 17 12 25 24 24 5 24 27 17 9 25 27 13 18
split_gain=1326.47 409.041 383.147 195.737 289.183 462.532 177.927 142.044 131.838 152.959 118.253 114.691 122.863 102.346 103.457 97.7209 89.5282 80.9292 80.4384 75.938 103.76 70.3981 64.9066 48.2799 40.3111 37.2076 28.8015
threshold=0.017182095190399874 -0.10612870915237259 0.02823423888037439 -0.0082885771541248796 0.019102872952553664 0.02208754238648708 -0.01457758045344011 0.011489773338638246 1.0000000180025095e-35 0.27369721473495062 0.048662088562633203 0.038109798751210351 0.013565426555413864 -0.029338219533805162 0.012170357379929461 0.059714795008912663 -0.025697837616372794 -0.036967374678529293 -0.2128801843317972 -0.018213733737201008 -0.016674723062933997 -0.50717597334975884 -0.10770888824178253 0.038285400256457235 0.0085887247541639161 0.029700910510876536 0.52535522940598156
decision_type=2 2 2 2 2 2 2 2 2 2 2 2 2 2 2 2 2 2 2 2 2 2 2 2 2 2 2
left_child=2 8 6 10 7 -6 19 -5 -2 18 17 12 22 14 -8 -14 -12 -3 -10 23 -21 -13 -4 -1 -23 -11 -15
right_child=1 3 11 4 5 -7 13 -9 9 25 16 21 15 26 -16 -17 -18 -19 -20 20 -22 24 -24 -25 -26 -27 -28
leaf_value=-0.0001906733286955138 -0.020108538781864117 -0.0018780264172013805 0.004426435745808646 0.0097378389207267088 -0.016069217088707604 0.0012935568823025255 0.0018595714154396017 0.0032852353000535723 0.015231743854440455 0.012349070666714984 -0.013687182455932563 0.017526327985031037 -0.018222761118356891 0.0020333722662491901 -0.0032456535007421533 -0.0060720039901034249 -0.0024037037364943096 0.012469547750175582 0.0050002089839452099 -0.0084595778207335846 -0.025834391541853786 -0.0087724682112810867 -0.017019852187574343 -0.010507805190221816 0.001342652386552693 0.020925655367160238 0.014910363434640731
leaf_weight=384.31165537238121 52.634892418980598 280.76651594042778 55.505895897746086 1509.8020036369562 766.72297471761703 2987.201689735055 1981.5182616263628 14348.686426177621 389.66893145442009 418.7360275387764 303.63924260437489 58.341108188033104 320.04648737609386 124.91633768379688 7844.5806729495525 1562.8817083984613 3369.0114048868418 343.25663805007935 1496.5342433154583 397.75715200603008 216.75527839362621 370.33225075900555 1321.6946497410536 345.98827384412289 264.38828524947166 505.18652294576168 169.74364948272705
leaf_count=1567 212 1134 227 6046 3091 11988 7963 57511 1597 1693 1230 236 1322 502 31673 6359 13577 1385 6007 1627 886 1506 5472 1416 1068 2072 681
internal_value=4.04825e-05 0.00273208 -0.00463105 0.00187451 0.00272185 -0.00226405 -0.00277508 0.00390369 0.00987156 0.0104749 -0.00198727 -0.00999864 -0.0115695 -0.00186191 -0.00221368 -0.00819069 -0.00335935 0.00601874 0.00715919 -0.00960016 -0.0147795 -0.002551 -0.0161281 -0.00514395 -0.00455026 0.0171475 0.00964313
internal_weight=42190.6 26771.8 15418.8 23909.1 19612.4 3753.92 11465.6 15858.5 2862.76 2810.13 4296.67 3953.19 3260.13 10120.8 9826.1 1882.93 3672.65 624.023 1886.2 1344.81 614.512 693.062 1377.2 730.3 634.721 923.923 294.66
internal_count=170048 107543 62505 95962 78636 15079 46315 63557 11581 11369 17326 16190 13380 40819 39636 7681 14807 2519 7604 5496 2513 2810 5699 2983 2574 3765 1183
is_linear=0
shrinkage=0.02


Tree=26
num_leaves=29
num_cat=0
split_feature=25 9 27 20 18 24 25 24 25 27 27 27 27 24 25 25 11 25 14 11 27 23 33 27 24 6 24 18
split_gain=402.059 375.372 220.817 219.793 292.21 172.606 168.231 158.195 245.818 216.722 87.9228 148.857 136.652 80.4746 171.633 99.1362 79.2166 73.3503 65.3847 60.4099 52.9887 44.7625 43.6848 42.7181 37.744 35.9208 29.4879 21.4892
threshold=0.18808962264150947 -0.095176401510707706 -0.017021203828046862 18.118739138962766 1.2035011406585177 -0.0067013663929921937 0.81566172713336749 0.0062478244581353074 0.72377109317681598 -0.043669599563705065 0.058069381787025455 0.051253068848527567 0.028350918824124927 -0.0075704142529059663 0.20611577964519143 0.19430960086299895 0.023518716363118527 0.16083384053560562 0.82350264889445601 0.026327849659577993 0.08546135546428027 0.056280057792780995 0.026491228070175444 0.013685731334669051 -0.03029324724760216 0.05157937319094686 -0.049415019033252953 0.14332790445168289
decision_type=2 2 2 2 2 2 2 2 2 2 2 2 2 2 2 2 2 2 2 2 2 2 2 2 2 2 2 2
left_child=1 19 5 4 6 13 -4 9 -9 -7 11 12 -3 15 -15 -2 -6 25 23 24 -20 -13 -21 -5 -1 -12 -24 -26
right_child=2 10 3 18 16 7 -8 8 -10 -11 17 21 -14 14 -16 -17 -18 -19 20 22 -22 -23 26 -25 27 -27 -28 -29
leaf_value=0.012190992446531062 0.019590103029715582 -0.0041118891267049205 0.0023787213421533056 -0.00064518846995210424 0.01336039938946419 -0.016168128567682665 -0.002679520393074732 0.013040631296691059 -0.0031277546421787433 -0.0035841357584742699 -0.017105229846076795 0.0042462495168257806 -0.014435124304576202 -0.015134385301717353 0.022690559960570893 -0.0011741368065325316 0.0061418885525312741 -0.029656415730487235 -0.0015906099752426 0 0.014934696884321384 0.028612982084731679 0.001079208914812498 -0.0079354508390459041 0.0045409826560037971 0.0048058174849247509 0.017359109670422659 -0.008652572279091551
leaf_weight=87.40868191421032 103.29619817435741 7982.1543763130903 17743.537355437875 443.28527393937111 900.78534929454327 651.51624874770641 3079.8130889087915 517.99533444643021 1332.1816264688969 3379.3195388019085 51.349938198924065 64.236425518989563 546.38612926006317 56.641242355108261 218.64470212161541 599.16908094286919 1973.9247290045023 98.689086586236954 257.52361759543419 83.649433672428131 104.62300150096416 60.04538831114769 53.63272899389267 1237.631394341588 77.51771979033947 58.188128083944321 406.96542659401894 115.24738094210625
leaf_count=358 415 32481 71235 1785 3609 2636 12394 2079 5386 13611 209 260 2228 228 878 2411 7925 401 1036 341 421 243 221 4991 314 237 1678 470
internal_value=0 -0.00357668 0.00106321 0.00191324 0.0024566 -0.00212315 0.00162917 -0.00341941 0.00141109 -0.00564059 -0.00478023 -0.00446145 -0.00478367 0.00563101 0.0147054 0.00196781 0.00843001 -0.0175177 -0.0043702 0.00928601 0.0032674 0.0168248 0.0131474 -0.00603237 0.00161591 -0.00558948 0.0155384 -0.00326517
internal_weight=42285.4 9685.47 32599.9 25741.1 23698.1 6858.76 20823.4 5881.01 1850.18 4030.84 8861.05 8652.82 8528.54 977.751 275.286 702.465 2874.71 208.227 2043.06 824.421 362.147 124.282 544.248 1680.92 280.174 109.538 460.598 192.765
internal_count=170481 39441 131040 103396 95163 27644 83629 23712 7465 16247 36059 35212 34709 3932 1106 2826 11534 847 8233 3382 1457 503 2240 6776 1142 446 1899 784
is_linear=0
shrinkage=0.02


Tree=27
num_leaves=28
num_cat=0
split_feature=26 28 20 28 6 27 28 25 26 28 25 25 25 25 28 6 27 27 28 27 26 25 23 28 9 27 15
split_gain=1266.25 488.717 316.223 313.903 291.586 238.475 344.554 235.832 239.948 225.612 187.103 179.445 177.128 224.484 169.703 208.657 167.871 138.366 134.714 126.315 116.599 95.1805 87.3615 76.4328 51.6366 25.8214 12.7123
threshold=0.018147223109720098 -0.10692083204336224 16.602646931702569 0.065498885874572033 0.073919558702167501 -0.033582819476726214 0.0028609095878484184 0.094044811320754734 0.013565426555413864 -0.024455813661459751 1.0000000180025095e-35 0.99042864993588575 0.80569039913700113 0.46004378762999459 0.035873998654993425 -0.048381274018865654 -0.030839616592616217 0.047183906485849615 -0.16764947674016115 -0.021967425315055061 0.021317154163535877 0.76442841287458385 0.072279330420824114 0.0043594382011840375 -0.033650010292250336 -0.047512739251269122 0.34216126232974903
decision_type=2 2 2 2 2 2 2 2 2 2 2 2 2 2 2 2 2 2 2 2 2 2 2 2 2 2 2
left_child=5 10 9 19 -5 6 12 8 23 20 -2 -11 13 -1 15 -9 -10 -16 24 -4 -3 -20 25 -7 -12 -8 -14
right_child=1 2 3 4 -6 7 22 14 16 11 18 -13 26 -15 17 -17 -18 -19 21 -21 -22 -23 -24 -25 -26 -27 -28
leaf_value=-0.0040448361860917431 -0.023043365554944226 -0.0043458578189491288 -0.00453205654486634 -0.012554502261184059 -0.0013079221466142669 -0.024770741898561637 -0.01750837521086715 -0.00049487222232155899 0.015200716838842696 0.0054441690860972634 0.02435365467534913 -0.016287556407469865 0.02736196636423301 -0.024666083002064992 0.0040348154724064843 -0.0060735016553205394 -0.0079778084631493863 -0.0094836318268669752 0.01325719652637323 0.0052941102354844196 0.003311442889770973 -0.00068839540957067876 -0.0014733146043172652 -0.0057269071005876127 0.0039072227811796914 -0.026561167558925684 0.010566646066148704
leaf_weight=1838.7934062331915 50.716525495052338 1735.3423451036215 638.03250826895237 1299.2771417945623 3168.8431280851364 439.13168370723724 281.75536541640759 5270.3217305243015 142.65369191765785 11407.506437346339 504.73944567143917 148.87800340354443 50.614452466368675 234.86656792461872 2332.2536308020353 5475.3998090326786 802.95478163659573 342.46968555450439 874.15765266120434 2781.9553160965443 1458.2798627614975 247.77600181102753 87.189811930060387 112.04814794659615 59.687705084681511 408.75911282002926 49.751999765634537
leaf_count=7505 204 6979 2566 5238 12765 1821 1165 21245 579 45710 2124 598 204 952 9389 22177 3285 1382 3511 11161 5849 993 358 460 241 1676 202
internal_value=-4.98983e-05 0.00291409 0.00212701 -0.00110292 -0.00459315 -0.0040939 -0.00928746 -0.00306213 -0.0105828 0.00385548 0.0131246 0.00515555 -0.00516476 -0.00644377 -0.00221823 -0.00334078 -0.00439852 0.00228199 0.014289 0.00345116 -0.000843398 0.0101702 -0.0206801 -0.0210216 0.0222799 -0.0230485 0.0201228
internal_weight=42244.2 24375.2 22638.1 7888.11 4468.12 17869 2951.73 14917.2 1496.79 14750 1737.08 11556.4 2174.03 2073.66 13420.4 10745.7 945.608 2674.72 1686.36 3419.99 3193.62 1121.93 777.704 551.18 564.427 690.514 100.366
internal_count=170339 97939 90866 31730 18003 72400 12062 60338 6145 59136 7073 46308 8863 8457 54193 43422 3864 10771 6869 13727 12828 4504 3199 2281 2365 2841 406
is_linear=0
shrinkage=0.02


Tree=28
num_leaves=30
num_cat=0
split_feature=26 28 20 13 26 24 26 28 28 24 28 24 27 28 28 27 26 27 24 27 20 9 13 26 6 28 24 24 13
split_gain=1204.07 477.332 295.347 278.181 234.183 203.078 353.313 181.647 162.382 152.689 205.874 153.913 158.094 145.121 131.27 199.412 113.163 112.996 86.4475 81.2519 71.8771 69.4766 49.9967 44.1845 44.089 33.0368 137.041 32.0152 9.55536
threshold=0.018147223109720098 -0.14712336561411227 17.905110082305008 0.02823423888037439 0.016002432663330238 0.019102872952553664 0.02208754238648708 0.15775509948524138 0.070505386109301585 -0.014319387037260651 0.0033671278804563629 -0.013836027605694941 -0.038925820528257583 -0.10030210522204601 0.070505386109301585 0.051253068848527567 0.013446915921758897 -0.010778849254304506 -0.010065904039580856 -0.022698180755522764 13.532147810386389 -0.030380526575318419 0.035469885298682537 0.014284934470175639 -0.21165324360467172 -0.16764947674016115 -0.021216994672578284 -0.044914281626293698 0.026243308867847832
decision_type=2 2 2 2 2 2 2 2 2 2 2 2 2 2 2 2 2 2 2 2 2 2 2 2 2 2 2 2 2
left_child=3 21 5 9 8 7 -7 -3 20 10 16 19 -13 24 22 -16 -1 -10 -15 -11 -5 25 -4 -12 -6 27 -27 -2 -23
right_child=1 2 14 4 13 6 -8 -9 17 11 23 12 -14 18 15 -17 -18 -19 -20 -21 -22 28 -24 -25 -26 26 -28 -29 -30
leaf_value=-0.01506078831011547 0.0093160078028583348 0.0046733983195084748 0.004206719420253374 -0.0061654689414668319 -0.00050937562201195069 -0.013782452066449661 0.0020455355580245192 -0.0024848966735100558 -0.010174068810920056 0.026404149084824795 -0.010847930428569035 -0.010683084021111068 -0.0013475544300632573 -0.013505145088247759 -0.013536739930614779 0 6.5580892146161938e-05 0.012276059614264 -0.0011399443712248024 0 -0.014425723797347498 -0.0045335470789797149 -0.0056416707213859316 -0.024182757197571778 0.018942276102794229 -0.011835906325754826 0.020833612926144336 0.024126965885546272 0.0071291788273628968
leaf_weight=253.29617841541767 82.07241715490818 15843.113186731935 812.85601523518562 542.86393418908119 62.659809127449989 713.05273693799973 2622.4787607192993 1550.4335779845715 166.03661778569221 112.51662336289883 180.13384932279587 774.43974478542805 10742.415139302611 296.16434215009212 913.23971226811409 822.51707999408245 833.86713077127934 183.08532308042049 930.3913401812315 79.317119851708412 2254.6100818216801 50.094571381807327 269.70159097015858 292.07988931238651 154.76686039566994 64.396041393280029 196.62901598215103 458.71021819114685 51.044273853302002
leaf_count=1045 341 63524 3266 2219 253 2877 10511 6234 691 456 744 3146 43293 1212 3704 3317 3394 738 3755 323 9308 201 1085 1200 626 259 791 1941 206
internal_value=6.60407e-06 0.00289036 0.00234017 -0.00394014 -0.00818335 0.00316665 -0.00134767 0.00403364 -0.0112405 -0.00246801 -0.00834048 -0.00168097 -0.00198141 -0.00149186 -0.00372647 -0.00713007 -0.00349319 0.00154977 -0.0041846 0.0158468 -0.0128438 0.0171245 0.00172011 -0.0193048 0.0133612 0.0190856 0.0126277 0.0220217 0.0012227
internal_weight=42309 24450.3 23547.4 17858.6 4590.58 20729.1 3335.53 17393.5 3146.6 13268.1 1559.38 11708.7 11516.9 1443.98 2818.31 1735.76 1087.16 349.122 1226.56 191.834 2797.47 902.947 1082.56 472.214 217.427 801.808 261.025 540.783 101.139
internal_count=170660 98257 94518 72403 18802 83146 13388 69758 12956 53601 6383 47218 46439 5846 11372 7021 4439 1429 4967 779 11527 3739 4351 1944 879 3332 1050 2282 407
is_linear=0
shrinkage=0.02


Tree=29
num_leaves=28
num_cat=0
split_feature=26 28 28 25 25 27 17 26 24 25 28 26 28 28 28 26 14 28 27 25 17 27 20 26 26 21 20
split_gain=1190.87 477.967 294.213 244.357 207.793 245.402 184.399 177.416 243.104 154.916 165.145 144.707 120.053 105.992 255.656 224.553 82.0517 80.2276 71.3167 68.2187 49.7439 43.216 38.3658 28.9212 19.6912 39.4049 3.69707
threshold=0.018147223109720098 -0.16764947674016115 0.23647696963307685 0.99528301886792458 0.094044811320754734 -0.038925820528257583 -0.095833333333333257 0.012686762140032318 -0.0042780134928495283 0.86838849365914028 -0.072463395567385555 0.012845558427307306 -0.10326107046218995 0.0028609095878484184 -0.029051923274173219 0.013301482310821294 0.66042780738362328 0.36743914107445325 0.032643626034292869 0.91219303255282702 -0.32914671814671809 -0.035824554428717501 17.986647739869245 0.01038637629993455 0.029725549854784945 -0.8732055334182699 14.105831894482469
decision_type=2 2 2 2 2 2 2 2 2 2 2 2 2 2 2 2 2 2 2 2 2 2 2 2 2 2 2
left_child=4 20 3 6 11 7 -3 23 -9 10 -7 12 -1 14 -13 -15 22 -18 -5 -11 26 -14 -4 -6 25 -22 -2
right_child=1 2 16 18 5 9 -8 8 -10 19 -12 13 21 15 -16 -17 17 -19 -20 -21 24 -23 -24 -25 -26 -27 -28
leaf_value=0.0090843165140172266 0.016727356133398673 0.0020685102122735524 -0.0093482322009839341 -0.033150642757962527 -0.0096050142046524081 0.0047514045872451621 0.0062293230453698695 0.0037009301890588413 -0.016383191050510299 -0.023082128232953462 -0.0024921097656198641 -0.007483942655727405 -0.010846587023919453 0.01374082140602252 0.013466838922122215 -0.020047830169977326 -0.00099637719644528246 -0.021446035630591095 -0.0087733054540810023 -0.007850669276128 0.01892233879550842 -0.02237303371158391 -0.022287666215436361 -0.026307885457609016 0.022547399874701606 0.0010270844303892127 0.027414375347180168
leaf_weight=63.125947922468185 57.31768573820591 16551.902906805277 295.8153819590807 75.906087517738342 62.326677739620209 1405.5940736085176 5750.0827365964651 457.45012156665325 498.1393463909626 144.29818749427795 11622.119185090065 1177.1614415347576 211.72184936702251 91.892584890127182 284.88850197196007 423.72679796814919 740.8696360886097 81.057353541254997 139.42762352526188 659.99525354802608 91.996875256299973 473.68433132767677 146.18366901576519 283.07881179451942 72.910405397415161 106.28367188572884 267.90645888447762
leaf_count=259 243 66452 1189 306 254 5695 23051 1860 2030 590 46934 4829 881 380 1161 1751 2983 326 561 2676 385 1972 594 1171 304 436 1152
internal_value=-1.88617e-05 0.00285486 0.00240806 0.00293616 -0.00394229 -0.00302269 0.00314334 -0.0113147 -0.00677868 -0.00223752 -0.00170753 -0.00902476 -0.0165108 -0.00614677 -0.00335595 -0.0139135 -0.00695894 -0.00315476 -0.0180145 -0.0107338 0.020469 -0.0189458 -0.0138739 -0.0235311 0.0135645 0.00968959 0.0258732
internal_weight=42236.9 24377.7 23781.2 22517.3 17859.2 15133 22302 1300.99 955.589 13832 13027.7 2726.2 748.532 1977.67 1462.05 515.619 1263.93 821.927 215.334 804.293 596.415 685.406 441.999 345.405 271.191 198.281 325.224
internal_count=170425 97982 95462 90370 72443 61210 89503 5315 3890 55895 52629 11233 3112 8121 5990 2131 5092 3309 867 3266 2520 2853 1783 1425 1125 821 1395
is_linear=0
shrinkage=0.02


Tree=30
num_leaves=31
num_cat=0
split_feature=25 9 20 27 25 27 5 12 25 27 27 25 27 25 27 27 14 27 10 25 33 9 12 33 27 27 33 11 27 6
split_gain=354.636 334.929 201.509 200.731 200.022 165.298 145.192 140.921 96.4943 90.1247 85.9771 162.409 146.409 118.598 137.46 105.234 74.176 63.6222 64.2112 53.2841 52.576 41.1679 34.7117 50.0254 34.6953 27.3087 23.9374 22.2655 19.994 16.3803
threshold=0.18808962264150947 -0.091714452518557074 18.118739138962766 -0.017021203828046862 0.81566172713336749 0.088607527573989459 -0.13333333333333333 0.011343851581830816 0.19430960086299895 -0.044685340821662131 0.028350918824124927 0.06472559698366151 0.049065764907776609 0.091608391608391626 -0.081649027869123356 -0.0015188149999357298 0.7999999998699322 0.052760096532222141 0.43172999452115196 0.057037518976360883 0.21718621821164893 -0.12688686684599002 0.015847476371604673 0.65105309346204487 0.11592590067575416 0.028350918824124927 0.019704911667637357 0.023375024199235376 -0.11311470389248039 0.10512474946437224
