tree
version=v4
num_class=1
num_tree_per_iteration=1
label_index=0
max_feature_idx=33
objective=binary sigmoid:1
feature_names=ret1 ret2 ret3 ret5 ret10 ret20 ret60 mar5 mar10 mar20 mar60 vol10 vol20 vol60 rsi14 skew20 kurt20 from_hi from_lo volz logturn turnz range range10 mkt_ret breadth mkt_vol mkt_mom5 mkt_mom20 xs_ret5 xs_ret20 xs_vol20 xs_volz xs_mar20
feature_infos=[-0.14992774566473988:1.5240174672489082] [-0.22404371584699456:1.5130434782608697] [-0.27402862985685084:1.4771428571428569] [-0.40394088669950734:1.4687651331719125] [-0.4241071428571429:2.1470054446460978] [-0.58995815899581594:3.492] [-0.77806122448979587:16.825396825396822] [-0.19881548378652525:0.92695214105793422] [-0.31522748375116061:1.2584986758129642] [-0.40097799511002441:1.6743438809346327] [-0.57092819614711043:3.0746104840489705] [0:0.48367290912355193] [0.00054622849903336211:0.3407733011817069] [0.00416286017883269:0.19912388508212789] [0:0.99999999999813216] [-4.3127167601038154:4.4630536806597103] [-2.1122231066567534:19.943206952165838] [-0.86506024096385548:0] [0:3887.2340176081379] [-4.1559122042537009:3.9475142390290627] [0:21.416404884723285] [-4.1421904088521169:3.9440861172833745] [-0.034578788625674296:29.300754372531905] [0:10.983089672585336] [-0.073483386254038108:0.5075944227230359] [0:1] [0:1.9789503287721157] [-0.23812213692833747:0.52621249790787583] [-0.2747408060001641:3.1005877562553086] [0.0036231884057971015:1] [0.0036231884057971015:1] [0.0036231884057971015:1] [0.0036231884057971015:1] [0.0036231884057971015:1]
tree_sizes=3490 3599 3482 2905 3588 3552 2903 3131 3474 3363 3246 3470 3029 3366 3259 3245 3469 3616 3383 3369 3588 2996 3473 3603 3471 3599 3481 3385 3359 3468 3354 3481 3609 3567 3359 3383 3252 3472 3583 3256 3365 3253 3580 3490 3214 3611 3029 3483 3610 3353 3583 3589 3449 3368 3595 2924 3605 3603 3554 3576 3452 3488 3602 3387 3493 3367 3581 3476 3372 3317 3592 3591 3609 3481 3625 3243 3617 3601 3580 3600 3134 3571 3491 3602 3489 3506 3577 3579 3601 3486 3381 3604 3592 3575 3594 3254 3375 3550 3588 3483 3384 3612 3016 3631 3478 3600 3033 3618 3598 3600 3589 3376 3605 3131 3241 3380 3036 3503 3585 3556 3607 3613 3470 3542 3593 3241 3376 3032 3482 3589 3619 3138 3386 3486 3378 3030 3385 3448 3605 3492 3597 3374 3247 3602 3479 3611 3043 2249 3578 3596 3487 3351 3396 3485 3625 3598 3604 3483 3479 3620 3375 3606 3598 2476 3120 3574 3144 3148 3132 3493 3592 3611 3318 3477 3606 3577 2985 3126 3368 3578 2914 2361 2496 3603 3014 3617 3469 2480 3576 3621 2479 3377 3596 3267 3367 3633 2489 2578 3603 3282 3399 3485 3475 3117 3036 3352 3596 3124 2592 2374 3601 2792 3482 3119 3615 2471 3596 3626 2328 3617 3380 3590 2606 3575 3025 3064 3242 3145 3612 3396 3205 3275 3592 3158 3490 3601 3387 3614 3626 2471 3360 3458 3578 3450 3594 3207 3474 3600 2812 3614 3138 3117 2473 3020 3485 3592 2927 2247 2476 3578 2353 2387 2369 3133 2475 3271 2347 3480 3354 2389 3577 3478 2370 3584 3626 2470 3469 3598 2676 3615 3360 3629 3238 3627 3601 3164 3599 3138 2691 3495 3583 3477 3029 3603 3364 3377 3227 3621 3448 2556 3589 2929 3602 3384 3487 3622 3148 3585 3487 2709 3021 3624 3493 3263 2936 3588 2360 3619 3603 2020 3622 3452 3590 2467 3479 2909 3350 3388 3258 3613 3095 3277 3125 3598 3136 3613 3496 3381 2576 3474 3119 3235 3588 3615 3047 3613 3350 3600 2480 3274 3585 3597 2705 3052 2780 3588 2943 3358 3584 3635 3373 3606 3613 3606 3249 2242 3599 2925 3598 3582 3540 3241 2484 2387 3621 3236 3584 2371 3161 3156 3374 2806 2805 2819 3637 3629 3619 3612 3596 3591 3609 3594 3247 2470 2911 3600 3499 3256 3357 3470

Tree=0
num_leaves=31
num_cat=0
split_feature=26 25 5 25 25 12 26 26 26 26 20 25 26 4 1 26 20 25 25 30 18 25 3 26 5 5 18 14 26 20
split_gain=1802.51 804.365 481.779 530.908 537.843 385.64 330.41 302.771 221.697 339.374 221.526 209.294 209.6 187.061 179.253 163.813 153.604 153.126 141.8 119.223 126.391 101.772 92.9533 81.6342 80.5765 71.4653 49.3838 36.001 28.9243 21.7252
threshold=0.020404932162132437 0.41633333333333339 -0.14430197088424943 0.2802214022140222 0.87613802256138029 0.016205199429550923 0.015480906489565882 0.0098992345455510191 0.030581854757104548 0.029923000582182457 16.745312622431864 0.86424335863377622 0.019457125586996898 0.027472527472527489 0.0095160928881695712 0.01382043210319525 16.792763205163059 0.34971306720185652 0.098264846812835788 0.13670469874100724 1.7849812616020457 0.52766841644794404 -0.020979020979020876 0.016307315909508808 -0.25128702047306695 -0.19517909596617136 2.4706818491285407 0.39340101519715281 0.019580754879233431 15.453013749808072
decision_type=2 2 2 2 2 2 2 2 2 2 2 2 2 2 2 2 2 2 2 2 2 2 2 2 2 2 2 2 2 2
left_child=1 6 19 8 10 15 7 27 9 -4 -5 12 -7 -6 18 21 -10 -9 -8 24 25 -3 -16 -17 26 -21 -2 -1 -13 -22
right_child=2 5 3 4 13 11 14 17 16 -11 -12 28 -14 -15 22 23 -18 -19 -20 20 29 -23 -24 -25 -26 -27 -28 -29 -30 -31
leaf_value=-0.11062030037527015 -0.11337903011793947 -0.10304546654151574 -0.13233979311435645 -0.12595750173724424 -0.1394145730076885 -0.13333828059328939 -0.13881934373497651 -0.1400730870463687 -0.13639569254713257 -0.10467746320015966 -0.12981715505022257 -0.14276050323173681 -0.1250553533162585 -0.12995475884485144 -0.13107024001886575 -0.13174247635734596 -0.15339763658238789 -0.14950233287128464 -0.13324753247883719 -0.10539365023143603 -0.12522079594099106 -0.12126560279882799 -0.1406902944883365 -0.1251447554878316 -0.12652180451554945 -0.11692025959595591 -0.13188128765585547 -0.12593789410709857 -0.15784374026637665 -0.13865147007912509
leaf_weight=99.075649261474609 346.26690483093262 176.74299240112305 9448.2820796966553 24743.02320098877 1896.377628326416 6704.7827568054199 2139.8348770141602 4824.0879573822021 703.23796272277832 175.74725723266602 7852.3675384521484 468.24446296691895 1488.3751430511475 1484.6411361694336 475.96141052246094 1018.637077331543 305.93963050842285 813.76456642150879 12599.534954071045 325.85433387756348 102.31178855895996 425.92571830749512 2742.0057201385498 2777.1053848266602 1318.8512306213379 768.70755004882812 65.96745491027832 172.51111793518066 60.490911483764648 82.148151397705078
leaf_count=398 1391 710 37955 99396 7618 26934 8596 19379 2825 706 31544 1881 5979 5964 1912 4092 1229 3269 50614 1309 411 1711 11015 11156 5298 3088 265 693 243 330
internal_value=-0.130824 -0.134166 -0.128333 -0.128835 -0.127674 -0.130189 -0.136352 -0.140456 -0.132759 -0.131819 -0.126886 -0.132622 -0.131829 -0.13526 -0.134998 -0.125363 -0.141656 -0.141453 -0.13406 -0.120583 -0.115941 -0.115705 -0.139276 -0.12692 -0.124057 -0.113371 -0.116365 -0.120014 -0.144761 -0.131146
internal_weight=86606.8 36987.1 49619.7 46609.6 35976.4 13120.3 23866.8 5909.44 10633.2 9624.03 32595.4 8721.89 8193.16 3381.02 17957.3 4398.41 1009.18 5637.85 14739.4 3010.11 1279.02 602.669 3217.97 3795.74 1731.09 1094.56 412.234 271.587 528.735 184.46
internal_count=347911 148582 199329 187237 144522 52706 95876 23739 42715 38661 130940 35037 32913 13582 72137 17669 4054 22648 59210 12092 5138 2421 12927 15248 6954 4397 1656 1091 2124 741
is_linear=0
shrinkage=1


Tree=1
num_leaves=31
num_cat=0
split_feature=25 17 17 9 25 17 24 24 10 33 17 6 25 10 33 24 25 25 13 9 24 14 25 24 17 33 13 11 25 11
split_gain=1380.05 582.927 468.431 597.859 346.656 300.069 285.154 208.092 206.856 169.735 155.796 227.22 149.85 139.65 138.8 113.859 141.128 109.16 102.783 101.361 98.0921 97.9957 77.5942 64.4249 64.3254 48.5449 36.746 36.1682 36.1098 15.1843
threshold=0.41633333333333339 -0.08347629907550462 -0.12007594804389631 -0.081547060433643501 0.87613802256138029 -0.29133858267716528 0.022528728631930128 0.0018270376435264859 -0.070816197530012767 0.30658655832529963 -0.28286549131619554 -0.0024422719466365979 0.65057089909134402 -0.14011141119667656 0.79753333671348181 -0.0096664835739582889 0.395476616406849 0.22504612546125466 0.014879293724457546 -0.18063274968808871 -0.046928748757112219 0.61924599402374703 0.73663810689514497 0.0087540352223942734 -0.033790626990072285 0.96473179580202129 0.041711797565785337 0.014705912558845886 0.40633355614973271 0.02040175910873054
decision_type=2 2 2 2 2 2 2 2 2 2 2 2 2 2 2 2 2 2 2 2 2 2 2 2 2 2 2 2 2 2
left_child=2 4 3 9 10 8 12 15 -5 19 11 -2 24 26 -7 17 -17 -4 -12 -1 -11 -15 29 28 -3 -14 -6 -24 -9 -8
right_child=1 6 7 5 13 14 22 23 -10 20 18 -13 25 21 -16 16 -18 -19 -20 -21 -22 -23 27 -25 -26 -27 -28 -29 -30 -31
leaf_value=0.014501571951669045 0.0018996924420929208 0.0043782280319309141 -0.0010163847483680103 -0.0035929236061681647 0.0046606290525875536 -0.0018612257485404024 -0.00043676911911611827 0.012024263679707534 -0.0087004681890095643 -0.0076147602600853369 0.00728669356570968 -0.0046370652658652501 0.013173778915615499 -0.0073908479765003735 -0.0066206312716250307 0.0029248671478887341 -0.0074458882047347252 -0.011631399577367032 0.0026787889483435418 0.0010373793728911745 0.016612871288065763 0.00073444655342415517 0.01074193907211604 -0.0074272537560740072 0.0086320670764325411 0.0031917215651325942 0.022231852573267853 -0.00016812422963301686 0.025338816222300799 -0.012770779266698428
leaf_weight=239.86656567454338 8448.261583968997 2891.4816403687 2850.7407418936491 5224.0068934112787 270.84636564552784 13926.444006502628 52.785799562931061 386.91408947110176 8180.3469366431236 71.954257801175117 2230.5804513096809 2836.8515849262476 2366.0644223242998 2660.2859969288111 2978.6713952124119 6245.1206325143576 567.31349174678326 444.88322456181049 14959.240665256977 2660.1034540086985 544.88435544073582 757.20880900323391 131.43367512524128 51.031138122081757 2890.6537798643112 222.32180634140968 55.541002973914146 1083.6557236760855 114.28385826945305 226.56697151064873
leaf_count=963 33932 11613 11454 20990 1088 55953 212 1554 32870 289 8958 11394 9503 10691 11969 25090 2279 1788 60081 10686 2188 3042 528 205 11610 893 223 4353 459 910
internal_value=3.59042e-05 0.00263224 -0.00241977 -0.00357191 0.0013285 -0.00447796 0.00688537 0.00123418 -0.00671351 0.00422648 0.00208135 0.000253385 0.00832167 -0.00438727 -0.00270272 0.000575898 0.00205347 -0.00247084 0.00327983 0.00218098 0.0137161 -0.00558625 -0.00114709 0.0131343 0.00651392 0.0123319 0.00800138 0.00103479 0.0153201 -0.0105592
internal_weight=86570.3 42083.8 44486.6 33826.3 32218.8 30309.5 9864.96 10660.3 13404.4 3516.81 28474.9 11285.1 8370.52 3743.88 16905.1 10108.1 6812.43 3295.62 17189.8 2899.97 616.839 3417.49 1494.44 552.229 5782.14 2588.39 326.387 1215.09 501.198 279.353
internal_count=347768 169031 178737 135908 129409 121782 39622 42829 53860 14126 114365 45326 33619 15044 67922 40611 27369 13242 69039 11649 2477 13733 6003 2218 23223 10396 1311 4881 2013 1122
is_linear=0
shrinkage=0.02


Tree=2
num_leaves=30
num_cat=0
split_feature=26 28 24 28 27 24 28 24 28 12 27 26 24 26 27 24 28 24 28 6 20 28 31 4 12 28 5 27 4
split_gain=1779.51 912.893 640.609 552.808 531.006 504.797 468.754 433.027 403.214 370.771 333.313 304.111 271.804 268.239 252.749 250.921 232.056 211.251 197.781 113.201 103.804 77.784 83.7176 67.0401 32.3972 31.7316 28.1482 19.6544 8.7421
threshold=0.020404932162132437 -0.15288648817521769 -0.00025576132276462212 -0.10155046639431208 0.034850274146388832 0.019454714333599441 0.16172591878192608 0.0031956990131381817 0.0074520980821016552 0.012500714546017319 -0.031312809779727439 0.015480906489565882 -6.303914281692001e-05 0.018263367157070217 0.066617403047557366 0.0044176767495135473 -0.10155046639431208 0.021612761512565092 0.036591182339679236 -0.15005714897558384 17.239298955086237 -0.034893410766790041 0.24356608950704894 -0.038461538461538373 0.053126610135438256 0.040484238501992086 -0.06709817064655775 -0.014280436070269307 -0.076258151373637936
decision_type=2 2 2 2 2 2 2 2 2 2 2 2 2 2 2 2 2 2 2 2 2 2 2 2 2 2 2 2 2
left_child=2 20 3 10 5 7 17 -3 11 21 19 -5 25 -12 -8 -14 -7 -6 -10 -1 23 26 -23 24 -2 -11 -4 -25 -22
right_child=1 4 9 8 6 16 14 -9 18 12 13 -13 15 -15 -16 -17 -18 -19 -20 -21 28 22 -24 27 -26 -27 -28 -29 -30
leaf_value=0.0058902190829703219 0.025354083596996608 -0.00042780410148330564 -0.0061864603829474675 -0.012420766804581037 0.0086801448188849432 0.009052280407284426 0.0044432167005114629 0.0045453418609806319 0.0017886858692704546 0.010839903729603393 0.010423008409334005 -0.0061343406669349589 -0.0053703704320117295 -0.017849543977918884 -0.0058208086713424281 0.00072241873695563948 -0.0091928370791331902 0.0024221490089739177 -0.0049867065500993572 0.02004880622396487 0.0059089288532390453 0.0076950789608111374 0.019917412549643344 0.0065610117584915919 0.0077697934894668235 0.026080646925144491 0.0037709772638467921 0.018793091763693519 -0.0052408465773746147
leaf_weight=421.04111878573895 787.36409352719784 19127.923218205571 143.94266831874847 4405.3119156211615 8685.0734256356955 306.61384557187557 1823.0287239104509 11037.566652730107 2910.5360027104616 124.41101357340813 227.1622748374939 10365.332408219576 4630.8951309770346 312.7842091023922 2013.7780839204788 6473.4769950807095 2639.2858367115259 2889.7474046349525 4201.2462423890829 510.60491093993187 52.328549772500992 1379.9819153100252 270.73429450392723 145.63469986617565 53.566038995981216 127.45209127664566 464.99684666097164 95.114193439483643 49.777731880545616
leaf_count=1692 3160 76838 578 17713 34877 1232 7321 44317 11698 500 913 41659 18603 1257 8088 26003 10605 11609 16886 2052 210 5541 1087 585 215 512 1867 382 200
internal_value=6.9477e-07 0.00247224 -0.00332169 -0.00533159 0.00204734 0.000619011 0.00511357 0.00139166 -0.00613023 0.000124905 0.00651112 -0.00801418 -0.0013466 -0.00593173 -0.000939296 -0.00181795 -0.00727496 0.00712123 -0.00221172 0.013737 0.0197901 0.00751566 0.00976584 0.021602 0.0243102 0.0189877 0.00135342 0.011759 0.000295675
internal_weight=86676.7 49706.8 36969.9 23354 48523 33111.4 15411.6 30165.5 21882.4 13615.9 1471.59 14770.6 11356.2 539.946 3836.81 11104.4 2945.9 11574.8 7111.78 931.646 1183.79 2259.66 1650.72 1081.68 840.93 251.863 608.94 240.749 102.106
internal_count=348200 199639 148561 93870 194887 132992 61895 121155 87956 54691 5914 59372 45618 2170 15409 44606 11837 46486 28584 3744 4752 9073 6628 4342 3375 1012 2445 967 410
is_linear=0
shrinkage=0.02


Tree=3
num_leaves=25
num_cat=0
split_feature=28 25 27 25 28 28 28 20 28 25 27 25 28 28 25 28 18 4 18 27 1 20 5 20
split_gain=1290.74 1392.78 1092.33 600.582 404.919 390.514 671.785 337.993 297.871 227.983 227.319 191.526 218.356 199.266 158.592 154.714 137.945 110.002 52.9924 49.1892 48.1328 34.7459 30.7269 13.7277
threshold=-0.15288648817521769 0.41633333333333339 -0.028996880770993588 0.87613802256138029 -0.034893410766790041 0.0074520980821016552 -0.086273106484775167 16.768367167102031 0.0053321942212462671 0.18441295546558709 -0.050926561450025332 0.6466063348416291 -0.075805959254347383 0.049540585767215518 0.022154222766217872 0.16516527126188477 1.9393067252388905 -0.077844311377245387 0.31243356648586212 -0.086865141861382306 -0.070252950250191168 15.354786669537964 -0.11779448621553883 11.33729149545581
decision_type=2 2 2 2 2 2 2 2 2 2 2 2 2 2 2 2 2 2 2 2 2 2 2 2
left_child=16 5 11 4 -4 6 10 9 -5 -7 -2 12 -3 -13 -8 -9 17 18 23 -19 -18 -20 -21 -1
right_child=1 2 3 8 -6 7 14 15 -10 -11 -12 13 -14 -15 -16 -17 20 19 21 22 -22 -23 -24 -25
leaf_value=0.018898167157001079 0.009651699309284157 -0.0035987802509727376 -0.00091153785216326131 -0.010437827042201132 0.0049653603626351904 -0.0036058222961075671 0.016247450417135757 -0.0067336076001787582 0.00069762427613705505 0.0021872598066694973 -0.00041450819317101825 -0.00026922101337983461 -0.019106460265881441 -0.024012458339335845 -0.0062149245317811852 0.0028505017362089715 -0.013514543463632137 -0.0015114875878188482 0.025274439545758937 0.022264610587798161 0.0094601996362389685 0.010276864155992479 0.011657595377048809 0.032669585618401872
leaf_weight=66.866258293390274 1318.4115427136421 548.51993902027607 5574.0572484135628 1727.2801787853241 29317.431748300791 3575.365277454257 121.42552217841148 4227.9941048175097 2149.5854095965624 11253.614569470286 2775.3985747992992 1048.6413275450468 1107.1315892785788 158.77416585385799 19498.284705594182 795.14405120909214 57.057774841785431 68.011993855237961 149.94441111385822 209.89531473815441 83.481816783547401 131.70191387832165 302.62241974473 362.99152462184429
leaf_count=268 5295 2203 22385 6945 117702 14370 488 16990 8640 45214 11154 4212 4447 638 78397 3194 229 273 601 842 335 528 1215 1455
internal_value=1.60645e-05 -0.000300794 0.00231469 0.00319582 0.00402593 -0.0028006 -0.00453303 -0.00072957 -0.00426551 0.000788416 0.00283025 -0.00959433 -0.0140071 -0.00349408 -0.00607078 -0.00521118 0.0188095 0.0208488 0.0261845 0.0141075 0 0.0186327 0.0162134 0.0308153
internal_weight=86629.6 85197.1 41631.4 38768.4 34891.5 43565.6 23713.5 19852.1 3876.87 14829 4093.81 2863.07 1655.65 1207.42 19619.7 5023.14 1432.57 1292.03 711.504 580.53 140.54 281.646 512.518 429.858
internal_count=348020 342274 167172 155672 140087 175102 95334 79768 15585 59584 16449 11500 6650 4850 78885 20184 5746 5182 2852 2330 564 1129 2057 1723
is_linear=0
shrinkage=0.02


Tree=4
num_leaves=31
num_cat=0
split_feature=26 25 20 12 27 17 5 27 26 25 25 27 26 6 27 25 26 26 17 25 26 24 24 26 27 24 24 5 24 24
split_gain=1662.12 657.96 474.36 404.596 358.458 350.496 461.247 325.927 319.35 273.515 258.902 227.016 296.34 218.861 215.91 206.114 194.794 172.023 168.857 147.833 145.669 128.837 200.512 123.281 97.9662 97.6938 96.5242 75.2662 51.7262 50.0234
threshold=0.020404932162132437 0.41633333333333339 17.145536888015148 0.016205199429550923 0.029778204766894866 -0.080102057420316383 -0.10655737704918027 -0.058802207296480717 0.015818624273381827 0.27315608919382511 0.10794626962291635 -0.02363051489948589 0.019860297594015697 -0.13333333333333322 0.088846458518016355 0.89371116550555463 0.0098992345455510191 0.031742873441499932 -0.066270065966422195 0.24314939939939942 0.01382043210319525 0.022528728631930128 0.0033248481711336047 0.022874125705661382 -0.030057221390877659 0.0018270376435264859 -0.015294420186991032 -0.11530815109343932 -0.0099471275336379238 0.035912164391402747
decision_type=2 2 2 2 2 2 2 2 2 2 2 2 2 2 2 2 2 2 2 2 2 2 2 2 2 2 2 2 2 2
left_child=1 7 5 20 17 6 23 13 16 -8 -10 12 -5 19 18 -13 -9 27 -6 -1 25 22 -7 -2 -22 -3 -15 -4 -19 -16
right_child=2 3 4 11 14 21 9 8 10 -11 -12 15 -14 26 29 -17 -18 28 -20 -21 24 -23 -24 -25 -26 -27 -28 -29 -30 -31
leaf_value=-0.01138145684455032 0.0030212275139606852 0.025948372598687337 0.003984040274325586 -0.010850438801618255 -0.00053850376670531313 0.0042357119226228224 -0.0022719279345557097 0.0084704000169122749 -0.01088282914712361 0.0024660719322854049 -0.0031447875227974369 0.00023244999309849669 0.02042632555098059 0.02086215297275611 -0.014258689458015018 -0.017802032108516969 -0.0099442008425745139 -0.026134120007218764 0.0078658375766644979 0.02351801741619907 -0.0072834170765326937 -0.00017915476632887229 0.010781277817732507 0.010161278112401837 0.0048202332947407727 0.0086329746669930926 0.0013342163058908637 -0.00552272196697314 -0.011144153573536028 0.0046645239934103204
leaf_weight=278.48649114370346 1370.5442145913839 196.76976671814919 361.90176741778851 1613.7240008115768 1861.310589030385 3473.0147253721952 6290.7224669754505 233.4654481112957 1968.419014185667 21530.528639569879 14265.330487459898 6687.5551114678383 126.00401087105274 358.04465140402317 352.03021831810474 258.41281236708164 6438.6747776120901 185.25196653604507 1951.2876099944115 53.49989041686058 283.95723141729832 901.92128057777882 4116.9713906496763 3404.3484298884869 3498.6798007041216 409.41971200704575 144.51530413329601 3513.174483269453 218.03182099759579 61.983142361044884
leaf_count=1119 5504 789 1453 6487 7474 13947 25282 938 7917 86452 57363 26860 506 1438 1414 1040 25916 746 7832 215 1141 3623 16516 13662 14044 1643 581 14114 876 249
internal_value=4.53605e-05 -0.00317362 0.00243542 0.000427821 -0.00186149 0.00332546 0.00238102 -0.00515754 -0.00560567 0.00139382 -0.00408736 -0.00207136 -0.00852163 0.00707846 0.00226497 -0.000447937 -0.009291 -0.0059406 0.00376227 -0.00543253 0.00537509 0.00694482 0.00779356 0.00812135 0.00389793 0.0144526 0.0153546 -0.00462572 -0.0183146 -0.0113561
internal_weight=86408 36815 49593 13074.5 8504.97 41088.1 32596.1 23740.4 22905.9 27821.3 16233.7 8685.7 1739.73 834.546 4226.61 6945.97 6672.14 4278.36 3812.6 331.986 4388.83 8491.91 7589.99 4774.89 3782.64 606.189 502.56 3875.08 403.284 414.013
internal_count=347141 147997 199144 52510 34158 164986 130900 95487 92134 111734 65280 34893 6993 3353 16969 27900 26854 17189 15306 1334 17617 34086 30463 19166 15185 2432 2019 15567 1622 1663
is_linear=0
shrinkage=0.02


Tree=5
num_leaves=31
num_cat=0
split_feature=25 28 27 17 25 28 17 28 28 28 20 28 28 28 25 25 27 27 28 27 18 28 27 27 28 27 10 27 5 5
split_gain=1210.06 1073.08 805.826 562.683 514.333 391.802 350.884 334.207 408.343 276.167 271.038 287.575 258.028 249.59 203.486 192.197 202.399 186.891 180.532 153.909 103.811 99.3607 102.511 62.4654 99.9103 97.2218 50.8523 19.5205 19.2394 6.18578
threshold=0.41633333333333339 -0.15288648817521769 -0.028996880770993588 -0.28492748171876009 0.87613802256138029 -0.12391520846809696 -0.093614364363876809 -0.087700816419054514 0.0053321942212462671 -0.086273106484775167 17.307862130812051 0.010307876934156893 0.17601478963952241 0.16516527126188477 0.22718947718947721 0.63686313686313689 -0.030057221390877659 -0.065225698712210456 0.010307876934156893 0.088846458518016355 0.05371664698937418 -0.17649661588907251 -0.086865141861382306 -0.050926561450025332 -0.13066005531417349 -0.041069070520676362 -0.12641642850019622 -0.046856869403424657 -0.11779448621553883 -0.10457917446127761
decision_type=2 2 2 2 2 2 2 2 2 2 2 2 2 2 2 2 2 2 2 2 2 2 2 2 2 2 2 2 2 2
left_child=1 20 5 9 6 23 12 26 -9 17 11 -5 -4 -12 -11 16 -7 -3 -17 -8 27 28 -23 24 -2 -25 -6 29 -22 -1
right_child=2 3 4 10 7 15 19 8 -10 14 13 -13 -14 -15 -16 18 -18 -19 -20 -21 21 22 -24 25 -26 -27 -28 -29 -30 -31
leaf_value=0.034053020284550754 -0.0028690295075324934 0.012614519267678422 0.0032020868147302089 -0.002430843090627507 0.030548570897307337 -0.016984265408961766 0.007736857770451089 -0.012859143174649087 0.00057093031433898256 -0.0094525813594703752 -0.0075718077818122224 0.0019734009267084436 -0.0062567928188169064 0.0071365409581967713 -0.004481577121360495 0 0.016517196194834632 -0.0020772244657697148 -0.018893199685292031 -0.004238961466528776 0.025658840865509795 -0.018304338003783501 0.011241928182119052 0.028035426526215119 0.024456222256106695 -0.00072463035004445694 0.011012201197479688 0.015831883277998577 0.011573087877733392 0.020018315649225973
leaf_weight=189.8076243698597 243.99668860435486 412.81286349892616 23943.127566412091 11679.570849731565 90.275467291474342 1385.2729632109404 9451.1866792291403 1565.9498834311962 2130.8343923389912 6425.2984643280506 3652.5757422447205 12034.94258916378 1206.0673824697733 522.72571288049221 6835.9618963003159 894.6693170517683 71.630076333880424 2016.985760897398 257.03794018924236 444.44422905147076 218.50490915775299 51.580528080463409 269.34516750276089 122.24510414898396 63.015909984707832 72.065850049257278 155.10043329000473 61.358084812760353 69.530806422233582 51.353014320135117
leaf_count=760 979 1656 96105 46977 362 5572 37913 6302 8564 25857 14692 48352 4842 2099 27496 3594 288 8107 1034 1785 875 207 1080 490 253 289 623 246 279 206
internal_value=2.05238e-05 -0.00227889 0.00245124 -0.00272939 0.00323334 -0.00733652 0.00400409 -0.0036097 -0.0051223 -0.00575882 -0.00102356 -0.000194933 0.00274652 -0.00571928 -0.00689427 -0.0104504 -0.0152726 0.000431407 -0.00429347 0.0071951 0.0191367 0.0141148 0.00622381 0.0087702 0.00297755 0.017518 0.0187462 0.0287867 0.0225823 0.031613
internal_weight=86589.3 44492.4 42096.9 43580.9 38987 3109.93 35044.8 3942.16 3696.78 15691.1 27889.8 23714.5 25149.2 4175.3 13261.3 2608.61 1456.9 2429.8 1151.71 9895.63 911.48 608.961 320.926 501.324 307.013 194.311 245.376 302.519 288.036 241.161
internal_count=347884 178889 168995 175236 156496 12499 140645 15851 14866 63116 112120 95329 100947 16791 53353 10488 5860 9763 4628 39698 3653 2441 1287 2011 1232 779 985 1212 1154 966
is_linear=0
shrinkage=0.02


Tree=6
num_leaves=25
num_cat=0
split_feature=28 17 25 28 28 20 28 24 17 25 24 25 18 28 28 20 5 25 7 18 20 20 24 24
split_gain=1238.34 1298.51 840.903 477.686 404.619 327.173 303.682 296.715 214.97 214.753 208.295 264.094 121.154 94.6564 172.315 93.7172 76.9533 76.4486 50.6647 37.4647 29.42 22.6258 7.79051 0.0155608
threshold=-0.15288648817521769 -0.093614364363876809 0.41633333333333339 -0.086273106484775167 -0.027468568986620302 16.629443241261949 0.0067329145867263311 -0.0093536196035121904 -0.40298165529739605 0.95317068713450304 0.022528728631930128 0.65057089909134402 1.8846708998548622 0.16900132495177222 0.19418097612548854 17.206680313946336 -0.16150759206862728 0.73663810689514497 -0.053160729540017042 0.036363636363636494 16.94290610717324 16.561276462036769 -0.019366086886876768 -0.012043250043218908
decision_type=2 2 2 2 2 2 2 2 2 2 2 2 2 2 2 2 2 2 2 2 2 2 2 2
left_child=12 2 3 8 9 -6 -5 13 -2 -4 11 -9 16 15 -15 -3 21 -12 -14 23 -21 22 -1 -18
right_child=1 7 4 6 5 -7 -8 10 -10 -11 17 -13 18 14 -16 -17 19 -19 -20 20 -22 -23 -24 -25
leaf_value=0.030938492160616029 -0.0035151178330400557 -0.0010255295769691941 -0.002288608458802098 -0.0063137670615718046 0.0034259331003182337 -0.002610379242222878 -0.0023675329776511904 0.0046960942981990614 0.0062614741619368298 -0.018853948179434227 -0.010529918718176238 0.011449530551926761 -0.011671989469542428 0.024532849571979317 -0.0089473418356464246 -0.010404647725205097 0.02542654235382066 0.00054195007213868351 0.011205347452390655 0.014067189396230298 -0.00055840217438003585 0.014286265423554005 0.023187705603641022 0.016267535304755481
leaf_weight=262.64720070362091 1378.3245653063059 1513.1758415400982 8127.5655943751335 17412.008637830615 17779.801862165332 4492.7873177677393 14182.526730373502 11995.94800709188 2561.5767027139664 321.20211927592754 302.3666445016861 2879.2569001317024 64.026617005467415 130.80984289944172 107.56522983312607 592.17280039191246 131.07009968161583 1307.4738610982895 82.825202569365501 430.67668703198433 59.549736574292183 85.895129829645157 255.09348203241825 56.41942423582077
leaf_count=1051 5539 6083 32646 70093 71371 18041 57014 48150 10292 1293 1215 11544 257 525 432 2385 525 5252 332 1726 239 344 1021 226
internal_value=-1.52527e-06 -0.000312285 -0.00162965 -0.00372455 0.000793005 0.00220709 -0.00454362 0.0043215 0.00283607 -0.00293153 0.00526837 0.00600805 0.0184344 -0.00232708 0.00946951 -0.00369148 0.0204001 -0.00155139 0.00104335 0.0154847 0.0122625 0.0257134 0.0274162 0.0232685
internal_weight=86512.8 85084.6 66255.8 35534.4 30721.4 22272.6 31594.5 18828.8 3939.9 8448.77 16485 14875.2 1428.2 2343.72 238.375 2105.35 1281.35 1609.84 146.852 677.716 490.226 603.636 517.741 187.49
internal_count=347596 341875 266289 142938 123351 89412 127107 75586 15831 33939 66161 59694 5721 9425 957 8468 5132 6467 589 2716 1965 2416 2072 751
is_linear=0
shrinkage=0.02


Tree=7
num_leaves=27
num_cat=0
split_feature=28 25 17 20 27 28 17 27 27 24 28 1 20 28 27 18 20 20 27 4 28 27 9 27 25 5
split_gain=1124.98 1227.91 741.783 388.9 478.633 335.242 348.216 287.42 494.084 416.642 237.871 227.44 193.136 174.328 169.05 113.619 103.451 87.3717 42.1434 41.7472 41.4231 76.4725 27.0187 12.54 10.6744 5.88968
threshold=-0.15288648817521769 0.27596784429870963 -0.08347629907550462 16.816967464488311 0.022929780542764969 -0.087700816419054514 -0.12831493373414507 -0.028996880770993588 -0.00045309085970097156 -0.014944083521732715 0.053568542633537879 -0.036449071255768177 17.341158458120006 0.039261545617810693 0.024687751996756765 0.051662634881228138 17.239298955086237 16.792763205163059 -0.086865141861382306 -0.042743972372369148 -0.19521605148577378 -0.086865141861382306 -0.059519294816472328 -0.031767308204077409 0.094507776080228797 -0.11779448621553883
decision_type=2 2 2 2 2 2 2 2 2 2 2 2 2 2 2 2 2 2 2 2 2 2 2 2 2 2
left_child=15 5 3 4 -3 7 11 9 -9 -2 -5 -7 13 -4 -14 19 -8 20 -19 23 22 -22 -17 25 -20 -1
right_child=1 2 12 10 -6 6 16 8 -10 -11 -12 -13 14 -15 -16 17 -18 18 24 -21 21 -23 -24 -25 -26 -27
leaf_value=0.033632977878713104 0.0011295856359233266 -0.00057720111012591105 0.0026465279159017907 -0.00095086399744011068 0.0042238668011864823 -0.0014589393810008162 0.0009869618259717649 -0.018445840114621741 0.0091980875128989288 0.021646282652357487 -0.0084671847863254275 -0.0074349828870983519 -0.0048135403367906109 0.0084622903778814353 0.004509757868089082 0.027889557001855705 -0.0054594479363997504 -0.013247752603132653 0.00097697341033866681 0.011110413116439722 -0.0041025167496869363 0.016211953982640543 0.009234967349780368 0.016837971987799426 0.013586763456405778 0.020578447987911152
leaf_weight=229.70037344098091 1486.2085631489754 27830.550074830651 2907.3991266041994 3778.0632231235504 11830.68774741888 3163.703057333827 4287.0928177535534 582.57772213220596 456.71551807224751 536.16386331617832 3045.9077284485102 13321.310427740216 1179.276910930872 7229.9580717384815 2257.90587246418 171.68274109065533 1290.7998371720314 54.026915863156319 58.36905200779438 71.651570081710815 81.815160542726517 547.18358297646046 49.932651683688164 53.719114929437637 53.158428743481636 57.957922056317329
leaf_count=919 5968 111826 11667 15188 47491 12734 17234 2343 1836 2153 12237 53636 4737 28994 9058 687 5196 217 234 287 328 2191 200 215 213 232
internal_value=3.98076e-05 -0.000255693 0.00129714 9.54154e-05 0.000854774 -0.00396803 -0.00482882 0.00222625 -0.00629274 0.00661873 -0.00431248 -0.0062901 0.00540936 0.00679843 0.00130283 0.017606 -0.000504796 0.0138477 0.000411134 0.0265283 0.0164218 0.0135265 0.0240712 0.0294995 0.00748403 0.0314676
internal_weight=86613.5 85184.3 60059.7 46485.2 39661.2 25124.6 22062.9 3061.67 1039.29 2022.37 6823.97 16485 13574.5 10137.4 3437.18 1429.2 5577.89 1016.17 165.554 413.029 850.614 628.999 221.615 341.377 111.527 287.658
internal_count=348021 342298 241198 186742 159317 101100 88800 12300 4179 8121 27425 66370 54456 40661 13795 5723 22430 4070 664 1653 3406 2519 887 1366 447 1151
is_linear=0
shrinkage=0.02


Tree=8
num_leaves=30
num_cat=0
split_feature=26 28 25 27 25 28 28 28 12 20 26 28 27 26 25 28 28 26 26 27 26 28 6 17 18 5 12 14 28
split_gain=1462.93 764.568 610.854 458.285 473.183 460.442 442.111 470.265 387.171 364.878 351.439 312.468 233.086 237.793 232.285 214.75 279.158 184.154 150.834 136.403 117.492 171.463 85.1124 82.8138 81.1197 79.3364 34.7273 34.531 12.9384
threshold=0.020404932162132437 -0.15288648817521769 0.41633333333333339 0.034850274146388832 0.94890442890442894 0.11286243012714281 -0.10155046639431208 0.0074520980821016552 0.016205199429550923 17.341158458120006 0.015387926013899961 0.040965469802326945 -0.031312809779727439 0.018296831579947184 0.19597736001617144 -0.019225942414401644 -0.0066214856024143639 0.020231616447404222 0.027710887294524613 0.041759762728688983 0.01382043210319525 -0.042484322545929744 -0.15005714897558384 -0.25750568392235174 1.8846708998548622 -0.16677077170505375 0.039952727525464832 0.36242805378449799 -0.17649661588907251
decision_type=2 2 2 2 2 2 2 2 2 2 2 2 2 2 2 2 2 2 2 2 2 2 2 2 2 2 2 2 2
left_child=2 24 6 4 9 11 12 10 20 -3 -8 -5 22 -14 -7 19 -17 -9 -6 -10 21 -4 -1 -22 25 28 -26 -27 -2
right_child=1 3 8 5 18 14 7 17 15 -11 -12 -13 13 -15 -16 16 -18 -19 -20 -21 23 -23 -24 -25 26 27 -28 -29 -30
leaf_value=0.0052768638737603251 0.029209208793892289 0.0016113143875957161 -0.0081980117156014252 0.0033962700841668253 -0.0075330221530555764 -0.017525779746922595 -0.012723694593236226 -0.00099802558566104357 -0.0069520315518063923 -0.0050698126917716954 -0.0058134504617214072 0.01138069532611868 0.010088916053014879 -0.01734273382588418 0.0017272630090996951 0.010436071817819571 -0.0016406371597640337 -0.018407815819868535 -0.026059481216232451 0.01289601070629638 0.0004175369538298874 0.018628865182356562 0.017860363679724895 0.0064194457431580769 0.014139043105160086 0.018801991569817062 -0.0066764000153307201 0.0083800444668804628 0.020490412557126199
leaf_weight=410.01868157088757 283.38681310415268 28626.720890939236 114.10474461317062 3439.6868003308773 433.31144075095654 254.69113869965076 4075.403408870101 7299.7541825026274 3130.2280910462141 3685.3687260895967 10730.106061279774 4599.5757902562618 226.40723831951618 273.07137298583984 7120.7676523029804 916.59800419211388 4515.0190402269363 246.65786226093769 303.16121834516525 139.73834027349949 1583.4334140568972 484.73772512376308 475.38530090451241 2215.7685189545155 50.923671543598175 317.5123235732317 69.320353165268898 248.20140469074249 214.42114688456059
leaf_count=1646 1134 114956 458 13808 1744 1024 16444 29370 12583 14818 43222 18449 909 1100 28569 3680 18133 992 1221 561 6356 1943 1906 8889 204 1271 278 994 858
internal_value=-3.67231e-05 0.00220357 -0.00305656 0.00181422 0.000485058 0.00466151 -0.00496957 -0.00564964 0.000408914 0.00084801 -0.00772059 0.00797119 0.00597315 -0.00489192 0.00104828 -0.00203381 0.00040138 -0.00158153 -0.0153105 -0.00607935 0.00524323 0.0134585 0.0121179 0.00392706 0.0180522 0.019808 0.00219184 0.014378 0.0257346
internal_weight=86483.5 49647 36836.4 48463.3 33048.6 15414.7 23736.8 22351.9 13099.6 32312.1 14805.5 8039.26 1384.88 499.479 7375.46 8701.58 5431.62 7546.41 736.473 3269.97 4398.04 598.842 885.404 3799.2 1183.77 1063.52 120.244 565.714 497.808
internal_count=347520 199328 148192 194589 132739 61850 95589 90028 52603 129774 59666 32257 5561 2009 29593 34957 21813 30362 2965 13144 17646 2401 3552 15245 4739 4257 482 2265 1992
is_linear=0
shrinkage=0.02


Tree=9
num_leaves=29
num_cat=0
split_feature=26 28 12 17 20 24 28 28 24 24 26 29 24 12 28 28 31 24 20 31 28 14 24 26 24 28 18 26
split_gain=1387.11 733.738 498.819 428.762 525.189 413.404 420.731 317.179 283.541 256.764 341.895 243.142 213.417 152.937 104.944 138.186 94.9386 94.0033 88.2432 74.1764 60.534 56.7027 54.9617 48.729 46.2771 44.5113 42.9566 23.022
threshold=0.020404932162132437 -0.15288648817521769 0.012500714546017319 -0.046938775510204027 16.840181708575169 0.0044176767495135473 -0.15288648817521769 0.069332042916745426 0.00226613850380651 0.020881889680014556 0.019580754879233431 0.55972496010513473 -0.00025576132276462212 0.03958736729740512 0.019066605604739651 -0.011210243132903511 0.7779797979797981 0.022528728631930128 17.239298955086237 0.24356608950704894 0.044831420572031218 0.36242805378449799 -0.015294420186991032 0.018831796517656645 0.019152854283160266 -0.031727788464839431 1.8846708998548622 0.029209543877447234
decision_type=2 2 2 2 2 2 2 2 2 2 2 2 2 2 2 2 2 2 2 2 2 2 2 2 2 2 2 2
left_child=2 18 12 4 11 6 22 -6 -8 10 -7 -3 14 17 15 -1 -15 -5 21 24 -16 26 -4 -11 -14 -21 -2 -23
right_child=1 3 5 13 7 9 8 -9 -10 23 -12 -13 19 16 20 -17 -18 -19 -20 25 -22 27 -24 -25 -26 -27 -28 -29
leaf_value=0.00036818443504586795 0.023662843882044343 0.0033674922675380275 0.030470334055171737 0.0080127120615195776 0.00011678700262834809 -0.00083248873554701136 -0.0047642200097869391 -0.008155117435016344 -0.012913046748115014 -0.0078532487595040553 0.011514803464097809 -0.00016003675410466368 0.0062124520997846365 -0.015602636848248169 0.013024581782856535 -0.0094665327150593101 0.0015187794423412635 0.00073699716546881094 -0.0003415953725837677 0.0014934665819876919 0.00013806116208609667 0.0060812495888774966 0.0051502945046051577 -0.027144513190172036 -0.012196350023981324 0.01986638922504053 0.0062969001277660332 0.017256179353365854
leaf_weight=2198.9973487108946 708.5487967133522 20323.385493889451 139.13343013823032 6017.8510052412748 3832.0818016827106 5161.7433624863625 22577.428858458996 3578.6369796991348 1849.0910805165768 95.949099376797676 1080.0758776068687 12680.291312307119 1879.488968744874 141.92777691781521 310.81306937336922 765.34040823578835 1085.4240185767412 813.45581710338593 98.513593956828117 70.27901554107666 276.96943533420563 166.85800690948963 50.706363588571548 140.29496072232723 51.047396302223206 254.77048210799694 70.159372985363007 154.8789785951376
leaf_count=8864 2836 81589 557 24128 15407 20730 90935 14382 7433 386 4333 50916 7539 570 1250 3083 4354 3266 395 282 1114 668 203 566 205 1021 281 620
internal_value=-2.61599e-05 0.00215555 -0.00296329 0.00177183 0.000930957 -0.00396839 -0.00515126 -0.00387782 -0.00538442 0.000523894 0.00130837 0.00201176 0.00241336 0.00598317 -0.000637795 -0.0021759 -0.000500139 0.00715044 0.0175808 0.00721797 0.00703844 0.0191976 0.0241157 -0.0197175 0.0056851 0.0160374 0.0221739 0.0117036
internal_weight=86574.1 49672 36902.1 48473.1 40414.4 31094.4 24616.4 7410.72 24426.5 6478.06 6241.82 33003.7 5807.71 8058.66 3552.12 2964.34 1227.35 6831.31 1198.96 2255.59 587.783 1100.45 189.84 236.244 1930.54 325.049 778.708 321.737
internal_count=347913 199412 148501 194612 162294 125143 99128 29789 98368 26015 25063 132505 23358 32318 14311 11947 4924 27394 4800 9047 2364 4405 760 952 7744 1303 3117 1288
is_linear=0
shrinkage=0.02


Tree=10
num_leaves=28
num_cat=0
split_feature=28 27 17 24 24 25 25 6 28 28 28 6 28 24 25 28 14 2 17 27 15 27 4 8 28 12 12
split_gain=1042.16 1163.68 708.492 371.928 394.024 344.872 369.508 332.196 257.501 255.116 236.034 253.495 233.92 219.37 200.523 196.61 85.6234 71.0699 39.4779 54.4809 36.7966 22.9439 26.4485 19.6629 9.96382 4.13511 0.516719
threshold=-0.15288648817521769 0.024687751996756765 -0.29999171332851904 -0.0049695639677123588 0.021612761512565092 0.16196343402225757 0.94890442890442894 -0.05091630508783173 -0.10609154431705324 0.090597197889104211 0.033408961847814091 0.09175025325666665 0.15040862591702511 0.037738732178217972 0.10292979096206349 -0.037161220916767899 0.31814517387599767 -0.078912461660025343 -0.36172640542772155 -0.086865141861382306 -0.0078613310981455603 -0.086865141861382306 -0.024691358024691298 -0.041266336145203523 -0.17649661588907251 0.041952210680576738 0.025856910550005222
decision_type=2 2 2 2 2 2 2 2 2 2 2 2 2 2 2 2 2 2 2 2 2 2 2 2 2 2 2
left_child=16 2 7 10 9 12 -7 15 -9 -5 14 -12 -4 -6 -3 -2 18 -18 23 20 -20 -19 -23 25 -21 -1 -25
right_child=1 3 5 4 13 6 -8 8 -10 -11 11 -13 -14 -15 -16 -17 17 21 19 24 -22 22 -24 26 -26 -27 -28
leaf_value=0.029501152854593451 -0.0055694632425792225 0.035886103299557361 -0.004944591924540471 0.0083398468382437762 -0.0028629748057312286 0.00088717048421786096 -0.016834302783317184 0.0091301340000403304 -0.0092637257352096124 0.0032730225975358004 -0.013092867188778858 1.3152753976985561e-05 0.020152091471588737 0.0074519603854652731 0.0023353731954734425 -0.00080146652663374825 -0.0080530666473196382 0.0012145056071176754 0.014159626311616673 0.026378565751088941 -0.0085657161181629717 0.018683159037737877 0.0090321939791677529 0.019222171446996641 0.015431442717311478 0.017757027174169909 0.01074743852430955
leaf_weight=292.31780636310577 6387.3046569675207 70.699565351009369 6454.3537070304155 8481.2690426707268 3725.3667868673801 32895.490546703339 472.38844020664692 314.60647219419479 6429.7870952039957 7529.6179076135159 1122.0011041611433 1233.2292873114347 146.92287857830524 1053.4644342064857 1278.8491282612085 7568.8729363083839 63.330456465482712 58.880803734064102 53.69336824119091 103.60318852961063 49.844964802265167 312.56157851219177 219.83868227899075 52.471939444541931 120.42396841943264 52.42540517449379 50.468539908528328
leaf_count=1171 25705 285 25990 34019 14958 132194 1905 1263 25888 30192 4512 4955 590 4231 5147 30459 254 236 215 415 200 1251 880 210 482 210 202
internal_value=2.14018e-05 -0.000263137 -0.00174882 0.00341551 0.00445608 -0.000192761 0.000633204 -0.00475157 -0.00839661 0.00596003 -0.00241647 -0.00623642 -0.00436816 -0.000579517 0.00423376 -0.00298627 0.0169247 0.0113872 0.0214718 0.0155806 0.00314442 0.013553 0.0148564 0.0255185 0.0210467 0.0280518 0.0159429
internal_weight=86594.1 85164.2 60669.7 24494.5 20789.7 39969.2 33367.9 20700.6 6744.39 16010.9 3704.78 2355.23 6601.28 4778.83 1349.55 13956.2 1429.86 654.612 775.249 327.565 103.538 591.281 532.4 447.684 224.027 344.743 102.94
internal_count=348019 342293 243994 98299 83400 160679 134099 83315 27151 64211 14899 9467 26580 19189 5432 56164 5726 2621 3105 1312 415 2367 2131 1793 897 1381 412
is_linear=0
shrinkage=0.02


Tree=11
num_leaves=30
num_cat=0
split_feature=25 28 17 17 28 28 20 24 28 24 24 25 7 6 25 28 20 18 28 24 24 25 4 28 25 2 4 28 14
split_gain=1009.89 877.688 501.398 446.373 342.284 459.495 323.493 298.368 278.214 241.212 229.453 211.243 202.339 161.381 153.719 197.192 146.783 90.6082 85.6891 82.0992 136.227 69.7432 67.0173 53.8983 50.2159 44.9738 26.3881 19.9645 14.7849
threshold=0.41633333333333339 -0.15288648817521769 -0.29348909698788894 -0.093614364363876809 -0.12391520846809696 -0.027468568986620302 16.816967464488311 0.0018270376435264859 -0.086273106484775167 0.022528728631930128 0.023111785346305914 0.40633355614973271 -0.04584636347239595 -0.046397781885397442 0.65057089909134402 0.025498695313891751 17.521603530716444 0.059542592685681413 -0.17649661588907251 0.0077035492344287382 0.0050155643644547382 0.7511975204282898 -0.040647783897193861 -0.14632384954877339 0.77455596426694695 -0.075334742123442142 -0.042743972372369148 0.18088436603778363 0.32901344454740822
decision_type=2 2 2 2 2 2 2 2 2 2 2 2 2 2 2 2 2 2 2 2 2 2 2 2 2 2 2 2 2
left_child=1 17 12 4 19 10 -7 8 -4 14 -6 -9 22 -14 16 -16 -5 26 28 20 -2 27 -3 -21 -23 -20 -1 -11 -19
right_child=3 2 7 9 5 6 -8 11 -10 21 -12 -13 13 -15 15 -17 -18 18 25 23 -22 24 -24 -25 -26 -27 -28 -29 -30
leaf_value=0.028246027270232586 0.012034105925420566 0.00039566068353804609 0.0063865212577054117 0.0067578022233462437 -0.0022332204458160019 0.0031885911000671427 -0.0032400430253273316 0.0050965840814749235 -0.0018763177278541185 -0.0043578688614745731 -0.012718045070220093 0.028146478596418837 -0.0045951197036101805 -0.009185102480388601 0.001846404724575336 0.013870013901933206 -0.00069603488800881286 0.023246551054403954 -0.010097535482664502 0.0216827227184592 -0.015805495318356063 0.01311633574230805 0.012867194355324503 0.0085076454044380641 -0.00050853723481200316 0.0085130887956006845 0.010583038163732414 -0.014293220023994727 0.011627561414574676
leaf_weight=273.81231254339218 275.48778407275677 787.6507069170475 1734.1530639380217 5052.2142417132854 7093.2392984628677 18528.196879044175 3760.3572150021791 804.32251404225826 25793.02207288146 180.50335066020489 943.50939486920834 195.44652424752712 9385.5440286546946 4588.1146046519279 739.88832449913025 2135.7660897672176 1328.8223615437746 200.62138025462627 60.083302527666092 390.62046071887016 88.654246419668198 114.17112144827843 217.07616007328033 203.8933137357235 1153.3778869211674 246.78476214408875 52.230630502104759 165.84034802019596 88.395024821162224
leaf_count=1098 1105 3167 6966 20244 28502 74341 15110 3227 103787 725 3801 784 37822 18503 2965 8553 5328 804 241 1564 356 458 874 818 4633 988 209 667 354
internal_value=-5.27759e-06 -0.00210941 -0.00251985 0.00221181 0.000997484 0.00062379 0.00210262 -0.000962833 -0.00135398 0.00570258 -0.00347376 0.00974019 -0.00548259 -0.00610637 0.00694637 0.0107919 0.00520311 0.0171462 0.012269 0.0127333 0.0050798 -0.00141841 0.00316038 0.0173062 0.000749684 0.00470162 0.0256795 -0.00930786 0.0200191
internal_weight=86581.8 44427.3 43505.3 42154.5 31284 30325.3 22288.6 28526.9 27527.2 10870.6 8036.75 999.769 14978.4 13973.7 9256.69 2875.65 6381.04 921.927 595.884 958.656 364.142 1613.89 1004.73 594.514 1267.55 306.868 326.043 346.344 289.016
internal_count=347994 178824 175130 169170 125597 121754 89451 114764 110753 43573 32303 4011 60366 56325 37090 11518 25572 3694 2387 3843 1461 6483 4041 2382 5091 1229 1307 1392 1158
is_linear=0
shrinkage=0.02


Tree=12
num_leaves=26
num_cat=0
split_feature=26 28 24 27 24 28 28 20 27 24 24 28 26 27 28 6 28 27 24 24 14 27 28 18 20
split_gain=1362.62 624.187 459.476 402.59 500.274 425.092 353.499 351.431 308.353 305.384 296.352 295.666 258.563 228.297 211.364 204.978 181.94 177.766 83.7119 61.7001 61.2319 47.0396 46.5604 37.4309 30.4699
threshold=0.020404932162132437 -0.15288648817521769 0.0044176767495135473 0.034850274146388832 0.019454714333599441 0.16172591878192608 -0.15288648817521769 17.341158458120006 -0.061682307568156736 -0.014677224137160699 0.019454714333599441 -0.013260284001484471 0.019786864017389435 0.066617403047557366 -0.10155046639431208 -0.13333333333333322 0.026847985492424804 0.041759762728688983 -0.046928748757112219 -0.015294420186991032 0.31814517387599767 -0.0090470074442545109 0.064415358447651963 1.8846708998548622 16.768367167102031
decision_type=2 2 2 2 2 2 2 2 2 2 2 2 2 2 2 2 2 2 2 2 2 2 2 2 2
left_child=2 18 6 4 7 16 19 -3 15 -10 11 17 -13 -7 -6 -8 -5 -4 -2 -1 23 -12 -23 -20 -22
right_child=1 3 10 5 14 13 8 -9 9 -11 21 12 -14 -15 -16 -17 -18 -19 20 -21 24 22 -24 -25 -26
leaf_value=0.028872600483082333 -0.0046658060534751555 0.0021190922237902042 -0.0031483283538607182 0.0019844277839053187 0.0082862015855242263 0.0038342678103546464 -0.0049818608897892278 -0.0046616477211191883 -0.010602492683238421 -0.0038509195401521647 -0.027080872448763778 0.0037342615807388181 0.017419608856483842 -0.0059000391414005902 -0.0091347656121695282 0.016144314082999739 0.0078250566415563223 0.016707463199646475 0.023715327471641047 0.0027923135007235328 0.013985563291206721 -0.0058102326895425284 -0.025748317200453757 0.0066401028435850266 -0.0011821259655827099
leaf_weight=144.77101200819016 67.477506831288338 26644.711467027664 3162.6633346378803 2839.6151322722435 306.3968306183815 1832.1329898536205 290.10211274027824 3447.3230836242437 3000.6361540257931 25257.452815130353 106.87442581355572 3275.1820051968098 662.29664224386215 2020.084655970335 2630.6054336279631 481.787726521492 8747.6798661649227 186.07409118115902 555.84200645983219 51.730929240584373 447.6279428601265 200.83103117346764 59.961750611662865 65.45551985502243 56.438644826412201
leaf_count=580 271 106974 12706 11396 1231 7347 1168 13867 12111 101770 432 13140 2654 8112 10588 1936 35070 746 2230 207 1792 809 241 262 226
internal_value=8.52925e-06 0.00217135 -0.00290319 0.00181822 0.000571058 0.00448387 -0.00404562 0.00134099 -0.00422877 -0.0045703 0.0014564 0.00234702 0.00606043 -0.0012662 -0.00729957 0.00819768 0.00639693 -0.00201581 0.0164361 0.0223456 0.0177341 -0.0159344 -0.0108678 0.0220157 0.0122531
internal_weight=86541.8 49661.4 36880.4 48468.5 33029 15439.5 29226.5 30092 29030 28258.1 7653.88 7286.22 3937.48 3852.22 2937 771.89 11587.3 3348.74 1192.84 196.502 1125.36 367.667 260.793 621.298 504.067
internal_count=347866 199366 148500 194585 132660 61925 117772 120841 116985 113881 30728 29246 15794 15459 11819 3104 46466 13452 4781 787 4510 1482 1050 2492 2018
is_linear=0
shrinkage=0.02


Tree=13
num_leaves=29
num_cat=0
split_feature=17 28 24 28 27 20 24 1 20 28 27 14 24 24 18 12 28 28 27 4 28 13 17 18 6 1 30 12
split_gain=997.33 1031.01 681.203 388.661 351.422 343.215 291.301 234.507 225.035 230.598 212.639 202.998 142.861 161.329 108.98 96.0232 99.6791 82.065 101.805 79.4133 60.7061 53.3563 46.5939 46.1229 75.4827 40.3324 30.2295 27.6344
threshold=-0.080102057420316383 -0.15288648817521769 -0.005186751988348056 -0.086273106484775167 0.024687751996756765 15.899981593011278 0.026559864389358128 -0.044565762491372833 17.521603530716444 0.039261545617810693 -0.031312809779727439 0.73999999970282448 0.021612761512565092 0.0047093268339188045 1.8846708998548622 0.050492481930320167 0.15975482940138105 0.06729823831913273 0.028210928914553898 -0.076258151373637936 0.15975482940138105 0.03384772150130274 -0.36172640542772155 1.1538461538461542 0.47702828468904129 -0.070252950250191168 0.95085626463700235 0.031276987207742024
decision_type=2 2 2 2 2 2 2 2 2 2 2 2 2 2 2 2 2 2 2 2 2 2 2 2 2 2 2 2
left_child=1 14 3 10 6 -6 -4 -5 9 23 -3 17 13 -11 19 16 -13 18 -10 22 -19 -21 -1 24 -2 -16 -25 -14
right_child=8 2 4 7 5 -7 -8 -9 11 12 -12 15 27 -15 25 -17 -18 20 -20 21 -22 -23 -24 26 -26 -27 -28 -29
leaf_value=0.026565854806223945 0.0012971025348325932 0.0057965267414270142 -0.00074166653994662635 0.00027694625051268181 0.0052988157625422239 -0.001067662447492903 -0.010893992663279331 -0.0061830426146030661 -0.0030512956054088115 0.0057261067780558766 -0.0046269044783681284 0.0022747473423413546 0.0029799682945915759 0.011549943013496718 -0.012467028962422187 -0.018716578645605126 0.012796055518269386 -0.011088625827657562 0.01381076544548449 0.0082747017888843075 -0.0018269939831543735 0.023856610902825776 0.015436317959438641 0.007529849997536176 -0.012430222998162004 0.0081902042509947176 -0.00028803201845082715 -0.0039980247395014429
leaf_weight=425.99938926100731 2837.4844519793987 2165.9719152003527 31238.890809595585 2593.1596949398518 8237.3528128862381 5739.9200381785631 1168.4697570800781 16568.697562262416 623.38105158507824 4074.4296731054783 1217.990348815918 928.2127374112606 566.25570124387741 3633.6107978075743 60.241437092423439 58.209223091602325 592.70261220633984 724.35710188746452 180.33583691716194 430.56902976334095 475.78630238771439 112.63903985917568 296.11925175786018 740.32812675833702 164.68226082623005 84.681680619716644 262.23661267757416 371.27737739682198
leaf_count=1712 11394 8696 125594 10445 33037 23041 4713 66817 2509 16345 4906 3726 2273 14546 242 234 2377 2912 723 1724 1910 451 1188 2971 661 339 1053 1491
internal_value=2.52256e-05 -0.00100584 -0.00135295 -0.00420432 3.28684e-05 0.00268347 -0.00110996 -0.00530793 0.0044931 0.00574589 0.00203763 6.25115e-05 0.00758365 0.00847979 0.0158911 0.00542129 0.00641652 -0.00415345 0.000769433 0.0177661 -0.00745634 0.0117304 0.022167 0.00176896 0.000518031 -0.000392572 0.00547383 0.000188808
internal_weight=86574 70340.7 68930.5 22545.8 46384.6 13977.3 32407.4 19161.9 16233.3 12650.3 3383.96 3582.98 8645.57 7708.04 1410.25 1579.12 1520.92 2003.86 803.717 1265.33 1200.14 543.208 722.119 4004.73 3002.17 144.923 1002.56 937.533
internal_count=348030 282905 277249 90864 186385 56078 130307 77262 65125 50734 13602 14391 34655 30891 5656 6337 6103 8054 3232 5075 4822 2175 2900 16079 12055 581 4024 3764
is_linear=0
shrinkage=0.02


Tree=14
num_leaves=28
num_cat=0
split_feature=26 28 17 17 20 28 29 17 28 28 26 28 28 28 26 26 28 1 20 28 14 20 20 18 18 26 20
split_gain=1275.67 610.823 438.395 366.947 442.477 350.159 227.889 211.808 212.915 195.746 195.154 201.512 181.866 227.668 149.142 128.595 122.713 121.679 103.114 159.594 90.8482 81.5928 79.7685 71.8904 52.0051 51.267 12.73
threshold=0.020404932162132437 -0.15288648817521769 -0.29133858267716528 -0.069882415286780727 16.816967464488311 0.069332042916745426 0.79554729450640249 -0.080102057420316383 0.091679262865517683 -0.097544299485241528 0.017207718899497574 -0.15288648817521769 -0.0093741397881281132 -0.12391520846809696 0.020146684491504765 0.032510307752002456 0.039261545617810693 0.0076254611222498223 17.307862130812051 0.030174733010436296 0.39130434771378386 17.307862130812051 17.145536888015148 0.5466041957026595 0.032878265461435692 0.038006914870538644 13.05685371811605
decision_type=2 2 2 2 2 2 2 2 2 2 2 2 2 2 2 2 2 2 2 2 2 2 2 2 2 2 2
left_child=2 21 10 4 6 -6 -3 8 9 -4 12 -12 13 -1 -10 16 -5 -13 19 -9 -14 24 -17 -20 26 -26 -2
right_child=1 3 7 15 5 -7 -8 18 14 -11 11 17 20 -15 -16 22 -18 -19 23 -21 -22 -23 -24 -25 25 -27 -28
leaf_value=0.010727459110756661 0.017215802604381731 0.0025505041373820622 0.009924476324049256 0.001544088002636422 0.00033714960887090809 -0.0088537682496684453 -0.0022387144204940091 0.00091598968796973281 -0.014318206333003828 -0.0017997302625959678 0.0248156081679771 -0.0020240489321918811 -0.0096456261175606826 -0.010726145243567358 0.019216226034115692 0.0038445579057030067 0.007295199684173065 -0.0076945332641577026 -0.012385252457303868 0.010150508321634779 -0.00096816742375566004 -0.0014555606603267157 -0.0037715855996226654 0.00089748755353928611 0.01276746259036156 0.027674484500966368 0.02906990117995973
leaf_weight=201.49365225434303 97.074800848960876 26168.911085799336 584.95663288235664 1907.0607119202614 3627.8052174448967 3042.114204749465 4677.3102385103703 1716.0519980341196 740.01912431418896 16243.739775374532 96.549793630838394 5748.6707738190889 650.94779141247272 4844.2206145077944 52.358937367796898 1324.4768533110619 6888.8758077472448 2060.7308193296194 233.51942762732506 1331.7174929976463 1856.2871769815683 94.271805331110954 932.02811014652252 505.32693637907505 722.94745196402073 110.83556872606277 180.39733111858368
leaf_count=809 390 105055 2349 7649 14593 12239 18787 6899 2978 65417 387 23173 2625 19563 210 5309 27605 8300 940 5345 7484 378 3743 2034 2899 445 727
internal_value=1.90641e-05 0.0021078 -0.00280033 0.00175738 0.000812893 -0.00385527 0.00182341 -0.000945455 -0.00186845 -0.00138819 -0.00536656 -0.00316277 -0.00766707 -0.00985569 -0.0119706 0.00495972 0.00605215 -0.00352689 0.00334124 0.00496756 -0.00324375 0.0161434 0.000688554 -0.00332879 0.0176541 0.0149261 0.0253716
internal_weight=86640.7 49774.1 36866.6 48568.6 37516.1 6669.92 30846.2 21407.7 17621.1 16828.7 15458.9 7905.95 7552.95 5045.71 792.378 11052.4 8795.94 7809.4 3786.62 3047.77 2507.23 1205.53 2256.5 738.846 1111.26 833.783 277.472
internal_count=348332 199819 148513 194980 150674 26832 123842 86172 70954 67766 62341 31860 30481 20372 3188 44306 35254 31473 15218 12244 10109 4839 9052 2974 4461 3344 1117
is_linear=0
shrinkage=0.02


Tree=15
num_leaves=28
num_cat=0
split_feature=17 28 25 28 28 20 28 24 25 20 28 17 28 14 20 25 28 10 4 28 17 28 13 24 23 20 14
split_gain=906.131 1007.61 651.036 385.253 375.281 323.642 267.637 214.87 210.414 172.753 181.286 158.599 147.942 137.942 99.9066 93.5303 141.991 66.7506 65.1255 48.6505 47.8153 47.0487 41.6623 35.9966 34.6395 25.5162 22.3374
threshold=-0.080102057420316383 -0.15288648817521769 0.41633333333333339 -0.027468568986620302 -0.086273106484775167 16.174438365440228 0.0067329145867263311 -0.012566875544938955 0.95317068713450304 17.990284425224559 0.039261545617810693 -0.39040671784214759 0.12896194136250835 0.77443609012549308 17.307862130812051 0.16572563484182154 0.15040862591702511 0.54893956695143609 -0.038461538461538373 0.093378936657562986 -0.43909802426091371 0.053568542633537879 0.03384772150130274 -0.0090805005379129486 0.01647663938747982 16.867116975681075 0.31814517387599767
decision_type=2 2 2 2 2 2 2 2 2 2 2 2 2 2 2 2 2 2 2 2 2 2 2 2 2 2 2
left_child=1 14 4 8 11 -5 -6 15 -4 10 23 -3 -12 21 18 16 24 -15 20 -17 -1 -11 -20 -9 -2 -21 -16
right_child=7 2 3 5 6 -7 -8 9 -10 13 12 -13 -14 17 26 19 -18 -19 22 25 -22 -23 -24 -25 -26 -27 -28
leaf_value=0.026004573859289021 0.011146374475070189 -0.0025442209244978913 -0.0022509519847244532 0.0035696162101668694 -0.0055383825350525297 -0.0015686699355910258 -0.0019088795346263135 -0.0040767101858620895 -0.018197833485763246 0.0010085287954513221 0.0093268250186916441 0.0057209360947368037 0.0040940395075356037 0.0081200188974455169 0.0060372896480926728 -0.00055248778359115968 0.022044639010371965 -0.0088099138330389581 0.0040654330547393019 -0.0091653434521257703 0.016206807588444658 -0.006945003922985693 0.020652691079092896 0.0026774451382793646 -0.0047489466369712756 -0.023759692662099045 -0.011057974446448404
leaf_weight=342.09307862818241 54.190493494272232 1475.552691295743 8315.5970027446747 16509.784208461642 17848.325259283185 6964.2087733745575 14970.610364809632 340.26541028916836 340.34657749533653 435.05845195055008 5506.8181165605783 2478.8993788212538 3605.15924680233 731.4376877695322 56.842275097966194 91.8505829423666 93.550546333193779 101.36924636363983 225.38905234634876 97.403131559491158 655.39737835526466 901.48918119072914 82.124668583273888 3497.6169611960649 687.20939460396767 132.27160194516182 54.590942054986954
leaf_count=1379 218 5939 33432 66224 72062 27973 60255 1369 1377 1749 22061 9957 14447 2933 228 369 375 407 902 391 2633 3620 329 14035 2767 535 219
internal_value=-3.66787e-05 -0.00102122 -0.00136524 0.000714028 -0.00318235 0.00204434 -0.00388391 0.00421486 -0.00289043 0.00485112 0.00572591 0.00263253 0.00726204 -0.000362855 0.0156457 -0.0040712 -0.000494071 0.00599516 0.0171945 -0.0131494 0.0196999 -0.00434704 0.00881878 0.00206889 -0.00349344 -0.0179827 -0.0022811
internal_weight=86595.5 70319.8 68903.3 32129.9 36773.4 23474 32818.9 16275.7 8655.94 15119.2 12949.9 3954.45 9111.98 2169.35 1416.44 1156.48 834.95 832.807 1305 321.525 997.49 1336.55 307.514 3837.88 741.4 229.675 111.433
internal_count=348185 282909 277219 129006 148213 94197 132317 65276 34809 60621 51912 15896 36508 8709 5690 4655 3360 3340 5243 1295 4012 5369 1231 15404 2985 926 447
is_linear=0
shrinkage=0.02


Tree=16
num_leaves=30
num_cat=0
split_feature=26 28 25 28 27 25 28 28 28 28 12 25 25 13 28 28 27 27 26 28 26 27 26 26 18 4 12 13 26
split_gain=1141.7 538.866 498.63 411.19 393.162 455.998 433.616 440.775 377.748 376.207 367.066 333.887 210.045 201.364 197.395 247.136 183.578 325.966 135.82 165.332 132.273 107.685 81.3845 73.1094 66.2791 77.2774 35.1407 34.6079 19.3417
threshold=0.020404932162132437 -0.15288648817521769 0.41633333333333339 -0.10921934875326354 0.035288471118764229 0.94890442890442894 0.10335070147218144 0.026847985492424804 0.019066605604739651 0.040965469802326945 0.01669203429009631 0.94290230168922273 0.19597736001617144 0.022472604774207934 -0.019225942414401644 -0.0066214856024143639 -0.011366288873896015 0.02715572129837605 0.01382043210319525 -0.042484322545929744 0.027710887294524613 0.034121348826995475 0.016307315909508808 0.018129581285919395 1.8351081907782942 -0.076258151373637936 0.039260607976555388 0.03384772150130274 0.036852481154881246
decision_type=2 2 2 2 2 2 2 2 2 2 2 2 2 2 2 2 2 2 2 2 2 2 2 2 2 2 2 2 2
left_child=2 24 3 16 5 11 7 -6 13 -10 18 -3 -8 -5 21 -16 23 -18 19 -4 -7 -12 -20 -1 25 28 -26 -27 -2
right_child=1 4 10 8 6 20 12 -9 9 -11 14 -13 -14 -15 15 -17 17 -19 22 -21 -22 -23 -24 -25 26 27 -28 -29 -30
leaf_value=0.015129093684275704 0.019331577995335188 0.00061956063791377368 -0.007427839888834116 -0.0044331374320323086 0.0015684775929727844 -0.0078113312944874122 -0.016254258851772931 0.011717664632591612 0.0061585158086140904 -0.004325246641066826 -0.0070597383071438523 0.028263431418936832 0.0016677008044965308 -0.0088844878823713443 0.0099448791059237578 -0.00163484819775561 -0.020768502395377916 0.032321420295065989 -0.0011546225626641346 0.018229164526940272 -0.025176812290036321 0.0070079471355404986 0.0052300312100697563 0.00385941161020258 0.013531839380334892 0.0069127750345373039 -0.0067488782055910006 0.0202704976595568 0.029944005886557989
leaf_weight=590.13594387471676 494.18654905259609 32427.474998220801 119.80890811979771 8311.0058472901583 2782.4887644648552 436.23923006653786 265.75580734014511 4470.4495078772306 2057.4504582136869 4065.7156656831503 2924.5531739890575 170.75954368710518 7613.7717043161392 8041.1616496741772 879.93339544534683 4408.6382825523615 192.28675137460232 55.439113289117813 1080.1124029159546 524.67619796097279 302.39394640922546 229.77280762791634 2991.9140531867743 391.83897033333778 53.198547378182411 337.57877536118031 77.05383637547493 104.19455517828465 115.14503248035908
leaf_count=2368 1993 130228 482 33584 11165 1761 1071 17910 8286 16389 11781 686 30530 32509 3531 17707 776 223 4338 2102 1226 922 12003 1575 213 1353 309 418 465
internal_value=-2.27732e-05 0.00195662 -0.00268916 -0.004422 0.00163003 0.000415561 0.00430315 0.00783059 -0.00503895 -0.000797174 0.000431305 0.000769293 0.00105078 -0.00662535 -0.00206343 0.000295628 0.00681263 -0.00840386 0.00489876 0.0134083 -0.0150691 -0.0060192 0.00353225 0.0106947 0.0152762 0.0169389 0.00158047 0.0102996 0.0215969
internal_weight=86515.1 49650.7 36864.4 23705 48469.3 33336.9 15132.5 7252.94 22475.3 6123.17 13159.4 32598.2 7879.53 16352.2 8442.9 5288.57 1229.7 247.726 4716.51 644.485 738.633 3154.33 4072.03 981.975 1181.36 1051.1 130.252 441.773 609.332
internal_count=347904 199328 148576 95710 194577 133901 60676 29075 90768 24675 52866 130914 31601 66093 33941 21238 4942 999 18925 2584 2987 12703 16341 3943 4751 4229 522 1771 2458
is_linear=0
shrinkage=0.02


Tree=17
num_leaves=31
num_cat=0
split_feature=26 25 20 12 14 26 26 18 9 7 24 24 24 26 24 26 29 25 26 26 25 26 26 24 8 10 26 26 26 15
split_gain=1119.04 485.183 349.321 345.91 316.547 270.922 258.087 238.109 271.166 179.074 169.824 228.013 165.304 165.266 181.047 169.152 162.402 146.42 143.114 134.566 118.666 116.516 106.83 103.953 94.4655 87.5175 73.5809 70.9196 61.9582 30.5266
threshold=0.020404932162132437 0.41633333333333339 17.084417254871664 0.016976740635022337 0.73999999970282448 0.015818624273381827 0.0098992345455510191 0.5076822543330346 -0.083891796138709437 0.0077744357780322746 -0.0042232560288385885 0.022099220897667127 -0.016239540624181082 0.017207718899497574 0.020881889680014556 0.01382043210319525 0.32975848188614149 0.098264846812835788 0.033039756923846954 0.01382043210319525 0.33393939393939398 0.023278564406562077 0.022077092381206503 0.0018270376435264859 0.0099246179948095942 0.4398392616645605 0.016307315909508808 0.030581854757104548 0.018129581285919395 0.56842500900415061
decision_type=2 2 2 2 2 2 2 2 2 2 2 2 2 2 2 2 2 2 2 2 2 2 2 2 2 2 2 2 2 2
left_child=1 5 7 19 18 6 -1 8 22 17 27 -12 -8 15 -15 -5 -10 -7 24 23 -20 29 -2 -3 -4 -23 -21 -9 -11 -6
right_child=2 3 4 13 21 9 12 10 16 28 11 -13 -14 14 -16 -17 -18 -19 20 26 -22 25 -24 -25 -26 -27 -28 -29 -30 -31
leaf_value=0.011375227955835579 -0.00079384046770705145 0.024698197666616895 -0.0054013268835799546 0.0050477655337246279 -0.011384790903563233 -0.0069939455527065547 0.002906966928315284 0.0021058217605177997 0.0033572308846007556 -0.0038608680411336355 0.0068467902907561806 -0.00067552076629506352 -0.0094227103022365942 0.0010620600900269786 -0.01962045403394562 -0.0073097368842693659 -0.00029474542619462528 -0.0013013465315197547 -0.025264849242228906 -0.0010482833275217084 -0.0073681752591996975 0.0082253914532839228 0.012555270835556106 0.0074107110704171707 -0.00021273682239096668 -0.0027984161646626101 0.0048692210464505673 -0.0054958425595388015 -0.010301198925683701 -0.00045657019435147133
leaf_weight=265.95980368554592 298.49364006519318 205.57561552524567 2850.1181132942438 516.46242275834084 173.83781106770039 2120.3606212735176 463.66419081389904 3832.5203357040882 7157.1241619586945 985.54204113781452 10644.312497675419 1892.6856367886066 6070.952762067318 4609.1525739729404 170.71357756853104 2922.3677652925253 15196.712055936456 12225.338096097112 195.3118109703064 1138.4908232241869 622.14582468569279 1712.144842043519 1148.8313483595848 447.29956813156605 2777.9932897984982 340.51905803382397 3136.0441442131996 557.04618851840496 1599.9953137487173 249.20896805822849
leaf_count=1072 1199 823 11472 2080 699 8568 1876 15399 28724 3977 42653 7604 24582 18517 692 11757 61016 49332 791 4573 2502 6868 4624 1794 11162 1367 12579 2237 6458 1001
internal_value=-3.45129e-05 -0.0026736 0.0019254 0.000407212 -0.00165691 -0.00438077 -0.00775354 0.00271069 0.00141938 -0.003023 0.00452432 0.00570975 -0.00854325 -0.00210284 0.000299471 -0.00544338 0.000874118 -0.00214628 -0.00399271 0.00459581 -0.0117961 0.00441212 0.00979515 0.0130309 -0.00284629 0.00638456 0.00328908 0.00113145 -0.00786622 -0.00507443
internal_weight=86526.9 36877.9 49649 13146.1 8921.28 23731.8 6800.58 40727.7 23801.2 16931.2 16926.6 12537 6534.62 8218.7 4779.87 3438.83 22353.8 14345.7 6445.57 4927.41 817.458 2475.71 1447.32 652.875 5628.11 2052.66 4274.53 4389.57 2585.54 423.047
internal_count=347998 148680 199318 52815 35862 95865 27530 163456 95563 68335 67893 50257 26458 33046 19209 13837 89740 57900 25927 19769 3293 9935 5823 2617 22634 8235 17152 17636 10435 1700
is_linear=0
shrinkage=0.02


Tree=18
num_leaves=29
num_cat=0
split_feature=26 28 24 24 24 28 27 24 28 28 20 28 26 24 26 24 28 24 24 27 28 28 24 24 18 27 26 8
split_gain=1089.58 502.997 401.456 421.464 371.08 381.404 351.739 407.141 402.362 364.036 337.793 304.008 305.451 252.742 250.599 212.364 198.348 174.534 168.658 167.874 161.996 115.025 89.6548 69.0541 60.0761 53.0494 44.0925 12.7991
threshold=0.020366371701339207 -0.15288648817521769 0.0037796401413650927 0.002559725847550264 -0.00025576132276462212 -0.10155046639431208 0.034850274146388832 0.019454714333599441 0.10335070147218144 0.040965469802326945 17.145536888015148 -0.027468568986620302 0.019786864017389435 -6.303914281692001e-05 0.01216777363428276 0.0062260153495893615 -0.10155046639431208 -0.012043250043218908 0.0078843597892304714 0.023267483321455489 -0.031727788464839431 -0.04505589727541056 -0.046928748757112219 0.0058982523736954987 0.032878265461435692 -0.006617268071675694 0.038006914870538644 -0.036618072300906239
decision_type=2 2 2 2 2 2 2 2 2 2 2 2 2 2 2 2 2 2 2 2 2 2 2 2 2 2 2 2
left_child=2 22 3 4 5 -1 7 10 9 -8 -3 19 15 -6 25 -13 -9 -10 -14 20 -4 -16 -2 -21 27 -5 -26 -24
right_child=1 6 11 14 13 -7 8 16 17 -11 -12 12 18 -15 21 -17 -18 -19 -20 23 -22 -23 24 -25 26 -27 -28 -29
leaf_value=0.0057522215557937071 -0.0067185922613447824 0.0019799636074553833 -0.003957518649040234 0.024357273371208011 0.019274911283075579 -0.0048421408998347865 0.0027468924841363603 0.0084628045348641434 -0.010516129671893089 0.011637929292303542 -0.0040845372569460131 0.0082420877679456137 -0.0014737930644888684 0.00092560332034698504 -0.0055834857300360932 -0.00093933705979334806 -0.0084633887526248137 0.0017526742227724438 0.020882667081498548 0.027606021366706309 -0.021251251462944137 -0.019935488063496837 0.027622420388572332 0.0046651396324852859 0.011322120733294088 -0.00055682896437231062 0.025038663316327599 0.015239292803766636
leaf_weight=1445.6908162385225 69.359027728438377 26203.475217461586 2342.5412008166313 63.258027210831642 322.42061899602413 21378.999350309372 3492.2530975341797 304.44981451332569 488.64363838732243 3919.6590756773949 4266.3633720427752 1512.0889388024807 171.79056940972805 3670.1103608310223 296.00616337358952 2989.3508126139641 2616.2443989366293 7604.6281577348709 588.35455751419067 65.908206328749657 235.22948867082596 1034.8985235989094 192.75459110736847 225.76627807319164 736.36649240553379 64.997494474053383 112.22547163069248 78.647388204932213
leaf_count=5812 279 105172 9432 254 1295 86430 14007 1224 1970 15697 17174 6065 688 14764 1192 11998 10544 30486 2356 264 948 4165 784 906 2959 261 453 316
internal_value=1.60295e-06 0.00191562 -0.00263083 -0.00375706 -0.00318493 -0.00416912 0.00160175 0.000444954 0.0040907 0.00745613 0.00112963 0.00128318 0.0041396 0.00243468 -0.0142115 0.0021461 -0.00668074 0.00100342 0.0158274 -0.00394565 -0.00558145 -0.0167913 0.0147415 0.0102943 0.0161123 0.012034 0.0132956 0.024447
internal_weight=86492.5 50085.1 36407.4 28276.4 26817.2 22824.7 48895.7 33390.5 15505.2 7411.91 30469.8 8131.03 5261.58 3992.53 1459.16 4501.44 2920.69 8093.27 760.145 2869.45 2577.77 1330.9 1189.35 291.674 1119.99 128.256 848.592 271.402
internal_count=347895 201065 146830 114173 108301 92242 196274 134114 62160 29704 122346 32657 21107 16059 5872 18063 11768 32456 3044 11550 10380 5357 4791 1170 4512 515 3412 1100
is_linear=0
shrinkage=0.02


Tree=19
num_leaves=29
num_cat=0
split_feature=17 25 27 27 25 25 27 27 25 25 5 27 27 27 27 27 27 27 27 12 27 27 13 25 19 16 27 10
split_gain=829.442 515.1 635.253 450.44 331.737 278.018 352.048 235.23 226.961 202.654 192.199 163.935 158.503 157.311 231.459 146.758 138.537 130.295 117.397 101.104 88.2699 77.2052 64.9717 61.9792 60.4616 41.049 27.2436 24.6621
threshold=-0.080102057420316383 0.41633333333333339 -0.028996880770993588 -0.065225698712210456 0.85928643528224258 0.16196343402225757 -0.029444365110200956 0.033489777284939452 0.6466063348416291 0.8513645224171541 -0.097042943593160111 -0.030057221390877659 -0.0014504260911066796 0.024687751996756765 0.088846458518016355 -0.040420069965834554 0.024149896058630601 -0.070426195151056789 0.098926167216864189 0.018557364349817165 -0.016657947312443019 -0.086865141861382306 0.043256998231751574 0.65057089909134402 0.15079194511680261 2.0696947488440252 0.07678954801274411 0.03535529082344447
decision_type=2 2 2 2 2 2 2 2 2 2 2 2 2 2 2 2 2 2 2 2 2 2 2 2 2 2 2 2
left_child=1 3 8 10 9 12 -7 -6 11 -4 21 -3 -5 16 19 -10 20 -12 23 26 27 -1 -22 -16 -21 -20 -15 -2
right_child=13 2 4 5 7 6 -8 -9 15 -11 17 -13 -14 14 18 -17 -18 -19 25 24 22 -23 -24 -25 -26 -27 -28 -29
leaf_value=0.0049329601111142846 0.0023828044219882014 -0.014358255917430398 0.0024532179549837554 -0.007104387089676545 -0.0084709329402929603 0.0040363689399630174 -0.0027891552973710299 0.0012405675165194775 0.0042322511612338269 0.01988580146840177 -0.0042432240336589483 0.016420460981455279 -0.0011901378478826779 0.010737519480923724 -0.021883825748774285 -0.0092006598953638802 -0.018442477023223342 0.015047193085140877 -0.00030066424242992696 0.0028148515408931746 0.0040088397962835028 0.01757529903584126 -0.0069377170960421078 -0.0051433443722542381 0.007338958265453578 0.016607313920443966 0.021403211025752048 -0.0027522742027089818
leaf_weight=291.23959422111511 511.26012575626373 1538.0911358445883 25502.91705390811 7937.3916387557983 1967.9363140910864 3492.5680365413427 22189.852814733982 2009.7658093869686 723.69223655760288 265.03167828917503 602.79006396234035 67.845239862799644 2362.574713870883 1578.6748178601265 158.78156389296055 581.72546420991421 122.65590472519398 176.96251003444195 188.79696840047836 1786.4545841068029 6292.5142984986305 634.25577817857265 218.91059203445911 210.33949355781078 3642.7283564805984 76.079887956380844 108.16019512712955 1331.8897659480572
leaf_count=1174 2056 6201 102316 32078 7946 14081 89487 8069 2915 1063 2425 273 9543 6322 638 2342 494 712 757 7155 25250 2554 879 845 14591 305 433 5358
internal_value=3.5212e-05 -0.00090486 0.000933161 -0.00249798 0.00180679 -0.00297468 -0.00185956 -0.0035637 -0.00797372 0.00263712 0.00752843 -0.0129986 -0.00575097 0.00411065 0.00617103 -0.00175078 0.00222214 0.000177171 -0.00535758 0.00720402 0.00253876 0.0136663 0.00363271 -0.0125941 0.00585796 0.00469937 0.0114945 -0.00131447
internal_weight=86571.9 70344.6 32657 37687.6 29745.7 35982.4 25682.4 3977.7 2911.35 25767.9 1705.25 1605.94 10300 16227.2 7750.02 1305.42 8477.23 779.753 633.998 7116.02 8354.57 925.495 6511.42 369.121 5429.18 264.877 1686.84 1843.15
internal_count=348262 283179 131125 152054 119394 145189 103568 16015 11731 103379 6865 6474 41621 65083 31046 5257 34037 3137 2545 28501 33543 3728 26129 1483 21746 1062 6755 7414
is_linear=0
shrinkage=0.02


Tree=20
num_leaves=31
num_cat=0
split_feature=26 28 25 28 28 12 25 25 26 26 26 28 28 28 28 28 28 28 26 28 22 13 26 18 28 1 25 9 23 5
split_gain=1027.9 492.819 453.6 346.877 373.037 338.502 322.195 333.101 303.009 276.563 290.559 218.239 200.848 190.701 177.056 225.508 118.975 130.322 113.352 164.896 90.9989 81.665 77.5197 65.9141 106.722 91.8909 59.3294 55.163 16.9246 13.605
threshold=0.020404932162132437 -0.15288648817521769 0.41633333333333339 -0.10921934875326354 0.0074520980821016552 0.016599710562541212 0.2802214022140222 0.87613802256138029 0.015387926013899961 0.030581854757104548 0.030023036537924385 -0.087700816419054514 -0.034893410766790041 0.040965469802326945 -0.019225942414401644 -0.0066214856024143639 -0.15288648817521769 -0.1116364383216983 0.01382043210319525 -0.042484322545929744 0.11215416095322256 0.042676174179794656 0.016307315909508808 0.32061474843901044 -0.17649661588907251 -0.054547927925699673 0.12076149425287358 -0.053895213013002256 0.045647516927119623 -0.15215418836248776
decision_type=2 2 2 2 2 2 2 2 2 2 2 2 2 2 2 2 2 2 2 2 2 2 2 2 2 2 2 2 2 2
left_child=2 23 3 16 8 18 9 12 -5 10 -3 -9 -8 -6 21 -16 26 -18 19 -4 -11 -7 -20 27 29 -26 -1 -2 -29 -25
right_child=1 6 5 4 13 14 7 11 -10 20 -12 -13 -14 -15 15 -17 17 -19 22 -21 -22 -23 -24 24 25 -27 -28 28 -30 -31
leaf_value=0.027016139281633159 0.022557610946526589 -0.00085030006421347993 -0.0082414444951722284 -0.01123970593980541 0.0022729747181234913 -0.0064215989927310802 -0.0010108787391981534 0.011808746526016605 -0.0048420262873218626 -0.014319966603716492 0.025038047906905447 -0.0049363868740453102 0.0036511758432980768 -0.0040998914337676507 0.0095189402017242328 -0.0015606514681050182 -0.00035469738523686195 0.01703888234412573 -0.0010606840292440261 0.017540129528167931 -0.00030992737479431173 0.0083377305659985378 0.0051775607779346866 0.022419877454810756 -0.01724320580801077 0.0076553838933813914 0.0023466776083498927 0.014881003668984887 0.0023794924496732361 0.010734466484067222
leaf_weight=140.3682245016098 468.71271555125713 10039.26994626224 118.53506934642792 4096.5487190634012 3496.3393829315901 3014.8305895626545 4219.249569773674 338.86970637738705 10799.905512928963 813.81162448227406 171.43741188943386 3253.8165342658758 29351.518698692322 4042.0961954444647 876.54630389809608 4406.3171938210726 802.02521832287312 213.66546007990837 1081.2869347929955 510.85099615156651 243.83434309065342 152.45716156065464 2956.6070360690355 159.29519149661064 76.64147587120533 210.9494706839323 57.201551795005798 92.067960947751999 90.314417794346809 84.295161470770836
leaf_count=565 1903 40387 477 16642 14096 12155 16938 1362 43705 3282 687 13108 117663 16316 3515 17704 3225 857 4344 2045 981 614 11856 643 308 847 229 369 362 338
internal_value=-1.86541e-05 0.00185913 -0.00255313 -0.00420744 -0.0047715 0.000428216 0.00154643 0.0024448 -0.00660592 -0.00141444 -0.000401636 -0.00333718 0.00306458 -0.00114195 -0.00195768 0.000281183 0.00618326 0.00335025 0.00474965 0.0126264 -0.0111255 -0.00569283 0.00350286 0.0145918 0.00915256 0.000770411 0.0202066 0.0188953 0.00902576 0.0187538
internal_weight=86379.7 49614.1 36765.6 23648.2 22434.9 13117.4 48431.8 37163.5 14896.5 11268.4 10210.7 3592.69 33570.8 7538.44 8450.15 5282.86 1213.26 1015.69 4667.28 629.386 1057.65 3167.29 4037.89 1182.28 531.181 287.591 197.57 651.095 182.382 243.59
internal_count=347523 199178 148345 95635 90759 52710 194408 149071 60347 45337 41074 14470 134601 30412 33988 21219 4876 4082 18722 2522 4263 12769 16200 4770 2136 1155 794 2634 731 981
is_linear=0
shrinkage=0.02


Tree=21
num_leaves=26
num_cat=0
split_feature=28 28 20 14 28 28 21 12 33 6 14 9 20 28 23 28 10 14 6 6 21 9 8 23 7
split_gain=771.574 701.094 546.588 341.764 410.16 293.811 187.758 182.979 214.66 164.874 236.625 119.524 105.407 90.7949 86.2766 84.5247 74.3996 64.6848 35.6194 17.9951 16.5327 20.6527 16.0793 13.8823 2.18684
threshold=-0.15288648817521769 0.0053321942212462671 16.745312622431864 0.74429610948986979 0.053568542633537879 -0.086273106484775167 0.21833233424710916 0.013006376057852509 0.47480502992563939 -0.15267175572519079 0.32083017700567767 -0.0093137682331981258 16.917917864217923 -0.0066214856024143639 0.12087371637499357 -0.10155046639431208 0.66109839464264586 0.36242805378449799 -0.18543046357615892 -0.354416092807955 -0.54359089132009908 -0.00091131532481508726 -0.053791315618924189 0.084070007925952872 -0.0031543002319265319
decision_type=2 2 2 2 2 2 2 2 2 2 2 2 2 2 2 2 2 2 2 2 2 2 2 2 2
left_child=12 5 6 4 -4 9 11 13 -9 15 -11 -3 17 -7 -8 -2 -5 19 -14 -1 24 -22 -20 -21 -19
right_child=1 2 3 16 -6 7 14 8 -10 10 -12 -13 18 -15 -16 -17 -18 20 22 23 21 -23 -24 -25 -26
leaf_value=0.027436680903220077 -0.0053807040301582119 -0.0005905123884562979 0.0018260932322357332 0.0041623090005410987 -0.0072098124056991734 0.0014539598190165866 0.0039767509296970852 -0.0018001948662493036 -0.0053816534038683781 0.01138307947716128 0.00088500735290909598 0.002667904944254877 0.01315990763982092 -0.0049345035215994605 0.0092439597192888606 0.0028787287249208517 -0.011754330114311325 0 -0.013682374241585025 0.019830438718878338 0.015458433946230071 0.0023406684845410177 0.000433270145687774 0.012445490597187246 0.0051624421539479886
leaf_weight=128.06552873551846 1431.2803612947464 7084.5578192323446 3027.7953892797232 2983.8668713569641 5941.3239166289568 4805.6702200174332 13357.254993453622 13216.297912359238 13621.697368890047 1273.4745672941208 2633.9070136994123 12303.392168477178 50.150349080562592 1086.4565667212009 1378.8378866165876 749.37518537044525 116.93853469192982 54.797927483916283 54.38293893635273 560.86777611076832 193.96726801991463 70.943156287074089 64.351214185357094 189.55720171332359 58.799277424812317
leaf_count=523 5754 28476 12181 11973 23908 19381 53596 53342 54961 5117 10594 49379 202 4377 5528 3021 470 220 219 2271 779 284 258 766 236
internal_value=5.81203e-05 -0.000186777 0.00147785 -0.0021786 -0.00415792 -0.00216815 0.00277188 -0.00291877 -0.00361938 0.00186309 0.00432177 0.00147637 0.0146227 0.000269407 0.00447392 -0.00253313 0.00353766 0.0166086 -9.59159e-05 0.0196195 0.00940369 0.012128 -0.00616202 0.0180862 0.00263839
internal_weight=86438 85012.1 46194 12069.9 8969.12 38818.2 34124 32730.1 26838 6088.04 3907.38 19387.9 1425.88 5892.13 14736.1 2180.66 3100.81 1257 168.885 878.491 378.508 264.91 118.734 750.425 113.597
internal_count=347816 342058 185511 48532 36089 156547 136979 132061 108303 24486 15711 77855 5758 23758 59124 8775 12443 5079 679 3560 1519 1063 477 3037 456
is_linear=0
shrinkage=0.02


Tree=22
num_leaves=30
num_cat=0
split_feature=26 12 5 27 25 20 27 25 25 27 27 26 26 25 25 25 20 6 26 26 27 26 27 25 25 25 27 14 27
split_gain=976.69 443.927 363.544 351.323 403.33 350.738 276.473 286.469 206.326 196.941 196.327 191.541 157.701 156.895 154.087 128.253 124.836 105.23 104.352 91.2815 79.8947 54.7379 49.2061 47.3788 109.232 59.5673 21.4156 15.4345 1.08993
threshold=0.020404932162132437 0.012624661630860264 -0.12819994767666246 0.035288471118764229 0.89817215021601882 17.145536888015148 -0.058802207296480717 0.54343724364232993 0.86424335863377622 1.0000000180025095e-35 0.088846458518016355 0.019320684604909304 0.0365403940810059 0.16196343402225757 0.94290230168922273 0.22504612546125466 16.970183463966922 -0.12037595185569953 0.018735663800924469 0.014843339283739031 0.0035773110267233498 0.01216777363428276 0.025341899204352841 0.95317068713450304 0.93180889115993881 0.88329103214890026 -0.061682307568156736 0.31533823105066389 0.022929780542764969
decision_type=2 2 2 2 2 2 2 2 2 2 2 2 2 2 2 2 2 2 2 2 2 2 2 2 2 2 2 2 2
left_child=1 9 23 4 5 -4 11 13 -9 15 12 17 -5 -8 -6 19 -12 -3 20 -1 -11 -17 -20 24 25 -2 -13 -25 -26
right_child=2 6 3 10 14 -7 7 8 -10 18 16 26 -14 -15 -16 21 -18 -19 22 -21 -22 -23 -24 27 28 -27 -28 -29 -30
leaf_value=-0.014432170048373659 0.0080626665816344173 -0.0057404381752794364 0.0014779196205803569 0.0055212246088640173 -0.024281723074406653 -0.0047075075699849027 -0.0077009593184375223 0.0010265186609792732 -0.010748372291589012 0.01893877295260981 0.00085170284202270197 0.01830327984188963 -0.0022587435140967518 -0.0038688584426635935 -0.0071687332628188813 0.013967980498538493 -0.010858349050959186 0.0090829683553910502 -0.0025828888205098339 -0.0021479645891426288 0.0077605464229102564 0.0017369375768065032 0.010840232323354482 0.0024504012753716799 0.031642747010214828 -0.0045285237329866744 0.034712004733207874 -0.012204086052743701 0.018870570491715272
leaf_weight=316.39915311336517 3444.6412137150764 349.34348422288895 25657.384531497955 11594.115517735481 284.58174026012421 4272.4801955223083 5703.2147534638643 6068.5867581963539 654.88404056429863 341.48490118980408 1559.8698703944683 155.51722729206085 1138.5262348949909 17337.255647808313 820.3667329698801 151.38125714659691 468.88387237489223 410.58704815804958 462.57517698407173 1011.4248566925526 1095.007527500391 2507.8893591910601 137.34937633574009 49.640623837709427 63.103830307722092 152.01236008107662 58.106923431158066 54.175757348537445 50.915300562977791
leaf_count=1286 13858 1410 102984 46461 1149 17208 23132 24381 2649 1374 6255 625 4563 70038 3324 609 1887 1654 1860 4091 4404 10102 551 201 253 612 233 219 205
internal_value=2.72198e-05 -0.00244304 0.00185812 0.00136302 0.00015407 0.000593645 -0.00341619 -0.00376001 -0.00012455 0.00251827 0.00390248 0.00704022 0.00482337 -0.00481975 -0.0116838 -6.32925e-05 -0.00186492 0.00224946 0.00757026 -0.00513326 0.0104882 0.00246561 0.000521397 0.00778746 0.00816337 0.0075194 0.0235498 -0.00522251 0.0271397
internal_weight=86371.7 36761 49610.7 45796.2 31034.8 29929.9 30737.5 29763.9 6723.47 6023.51 14761.4 973.555 12732.6 23040.5 1104.95 3987.09 2028.75 759.931 2036.42 1327.82 1436.49 2659.27 599.925 3814.49 3710.67 3596.65 213.624 103.816 114.019
internal_count=347578 148399 199179 183831 124665 120192 124122 120200 27030 24277 59166 3922 51024 93170 4473 16088 8142 3064 8189 5377 5778 10711 2411 15348 14928 14470 858 420 458
is_linear=0
shrinkage=0.02


Tree=23
num_leaves=31
num_cat=0
split_feature=17 25 27 27 25 24 24 17 10 20 20 24 27 24 27 24 5 27 27 14 24 24 25 13 27 11 22 0 25 18
split_gain=762.816 460.132 544.441 428.822 279.742 268.854 248.368 244.287 239.465 231.745 228.541 221.03 199.371 191.181 168.963 162.031 159.358 142.335 134.258 111.647 101.516 171.344 56.9735 51.3909 52.8751 37.8951 33.7702 28.9944 36.9121 34.0517
threshold=-0.093614364363876809 0.41633333333333339 -0.028996880770993588 -0.065225698712210456 0.85928643528224258 0.0077035492344287382 0.037738732178217972 -0.29133858267716528 -0.075889581521863744 17.373521644129561 16.816967464488311 -0.046928748757112219 0.024687751996756765 0.002559725847550264 -0.030057221390877659 0.034787121720633564 -0.091666666666666605 0.088846458518016355 -0.01607019245753722 0.69620253142357102 0.021612761512565092 0.010007323929944545 0.64311974789915982 0.04386171350813018 0.024149896058630601 0.014705912558845886 0.11215416095322256 0.0057323181195088066 0.16196343402225757 0.87052390740468866
decision_type=2 2 2 2 2 2 2 2 2 2 2 2 2 2 2 2 2 2 2 2 2 2 2 2 2 2 2 2 2 2
left_child=1 3 5 11 13 14 -6 8 -5 18 -9 26 23 -4 -3 -7 -13 19 27 -14 21 -20 -19 24 -11 -22 -1 28 -2 -29
right_child=9 2 4 7 6 15 -8 10 -10 12 -12 16 17 -15 -16 -17 -18 22 20 -21 25 -23 -24 -25 -26 -27 -28 29 -30 -31
leaf_value=-0.016545158150839623 -0.0031122249044320243 -0.014648017147537627 0.0059104598035035674 -0.0019852100572751896 -0.0066909485831733433 0.0025547705208099837 0.0045013957376770003 -0.00058768535317879633 -0.0071521591472820528 -0.0038598697870135834 -0.0061371432944055436 0.015758000750612174 -0.0011964274754585784 0.0014801182928466904 0.017530444806402746 -0.015350347346138526 0.0023724611845536599 -0.024927633939111252 0.0047029853597413017 0.0078699386236593238 0.0090462643876976917 0.010515619739108448 -0.0020947708086999427 -0.01885254808567122 -0.023964483363157606 -0.0015010000929494035 6.6561800063985144e-05 -0.0076291954313084387 0.0038261091833948703 0.0019670485744454984
leaf_weight=148.51421898603439 454.88121065497398 1474.9003744572401 4862.8475010246038 6177.3101229667664 2725.7607648819685 1048.2949675023556 1111.4275455623865 16282.069750964642 8613.7419983893633 1789.4640161544085 3628.7263292074203 838.15664069354534 848.87088820338249 19669.407683745027 63.649233296513557 245.03439112007618 625.7636451125145 86.745975479483604 8605.8621811568737 1481.5324028283358 152.11247543990612 2670.4207762479782 89.395587414503098 102.03465151786804 49.628738269209862 1019.7250429242849 68.30894547700882 360.17234867811203 906.75557821989059 241.16813340783119
leaf_count=598 1833 5956 19520 24971 10990 4218 4476 65659 34873 7214 14664 3385 3406 78891 256 994 2518 350 34500 5935 610 10686 360 412 202 4092 275 1448 3645 969
internal_value=-5.02916e-05 -0.00104301 0.000738454 -0.00257121 0.00157415 -0.00761447 -0.00344228 -0.00304978 -0.004997 0.00350557 -0.00160136 0.00727743 -0.0004808 0.00236015 -0.0132514 -0.000868183 0.0100774 0.00323808 0.004737 0.00456338 0.00550333 0.00608534 -0.0138276 -0.00528918 -0.00447675 -8.2281e-05 -0.011338 -0.000114089 0.00149068 -0.00376314
internal_weight=86442.7 67583.9 31201.3 36382.6 28369.4 2831.88 3837.19 34701.8 14791.1 18858.8 19910.8 1680.74 4447.67 24532.3 1538.55 1293.33 1463.92 2506.54 14411.1 2330.4 12448.1 11276.3 176.142 1941.13 1839.09 1171.84 216.823 1962.98 1361.64 601.34
internal_count=347906 272244 125301 146943 113877 11424 15466 140167 59844 75662 80323 6776 17879 98411 6212 5212 5903 10051 57783 9341 49888 45186 710 7828 7416 4702 873 7895 5478 2417
is_linear=0
shrinkage=0.02


Tree=24
num_leaves=30
num_cat=0
split_feature=17 28 25 20 28 28 28 1 20 17 28 14 24 25 28 28 20 28 14 25 28 24 17 24 0 23 15 23 21
split_gain=778.976 789.664 538.21 340.828 326.674 293.576 247.763 183.34 176.269 176.172 174.479 148.066 127.786 169.958 89.6266 124.055 82.8275 63.4017 58.5725 55.1463 53.401 49.4447 40.6571 38.4101 34.7553 34.7152 29.8328 18.4418 15.7792
threshold=-0.080102057420316383 -0.15288648817521769 0.27596784429870963 16.816967464488311 -0.087700816419054514 0.0053321942212462671 0.053568542633537879 -0.045792539976261197 17.933825138433551 -0.36731773901965215 0.039261545617810693 0.72305711839126718 0.022528728631930128 0.65057089909134402 0.15975482940138105 0.22394085782189746 16.998042430028768 0.06729823831913273 0.36242805378449799 0.84200851393188858 0.15975482940138105 -0.0090805005379129486 -0.32478618041118029 0.0037796401413650927 0.0020120724346076595 0.014361977145879229 0.2785892042116172 0.089401031744279144 -0.54359089132009908
decision_type=2 2 2 2 2 2 2 2 2 2 2 2 2 2 2 2 2 2 2 2 2 2 2 2 2 2 2 2 2
left_child=1 16 4 5 9 -4 -5 -6 10 -3 21 17 13 -12 26 -16 18 23 27 -14 -19 25 -18 -10 -23 -2 -13 -1 -20
right_child=8 2 3 6 7 -7 -8 -9 11 -11 12 14 19 -15 15 -17 22 20 28 -21 -22 24 -24 -25 -26 -27 -28 -29 -30
leaf_value=0.020219439929095563 0.0090497164064703636 -0.0032167801829473919 -0.0010068597260196007 -0.00065458249250726719 0.00047716853275005851 0.0024206849266181839 -0.0082629279880387391 -0.0054921198052693991 -0.0048045192616913337 0.0065456729013344183 0.0058058562824132758 -0.0069942084396802627 -0.0056915942923936227 0.013198529998811673 0.013637448746898611 -0.016926452663524889 0.013754206542079914 -0.014295722673194273 0.0020142449625703399 0.0038687137435170567 -0.0030079686199123434 0.0045982235808004635 -0.0074867543498397613 0.0063814362376373602 0.00058078343118777079 -0.0047631682893796963 0.0017900269419728798 0.012136266195170322 0.011416920700903324
leaf_weight=681.86680257320404 76.290163725614548 1292.949003174901 19876.788805812597 3802.9403866529465 2340.4964791238308 20088.303336828947 3119.6734799146652 16650.343606427312 312.65504112839699 1709.4657735079527 7007.8739993870258 201.64175319671631 444.13228675723076 1521.7774223834276 461.12177629768848 55.102883517742157 50.379736453294754 418.44716775417328 109.57369238138199 515.60691322386265 291.4649708122015 1616.1594239771366 98.229834347963333 194.78592467308044 1869.2963573336601 654.96738108992577 606.40166945755482 187.66761521995068 254.67132897675037
leaf_count=2774 307 5210 80057 15320 9449 80590 12562 67405 1262 6867 28074 811 1782 6090 1847 222 203 1689 440 2070 1172 6488 395 782 7498 2639 2434 761 1023
internal_value=8.38566e-06 -0.000904054 -0.00120514 5.3275e-06 -0.00378607 0.00071557 -0.00408966 -0.00475546 0.00395453 0.0023366 0.00485153 -0.000874879 0.00635583 0.00713409 0.00373778 0.0102055 0.014034 -0.00590378 0.0157266 -0.000541286 -0.00974279 0.00145797 0 -0.000451288 0.00245327 -0.00324327 -0.000406952 0.0185771 0.00870811
internal_weight=86511.1 70263.3 68881 46887.7 21993.3 39965.1 6922.61 18990.8 16247.7 3002.41 13706.1 2541.62 9489.39 8529.65 1324.27 516.225 1382.39 1217.35 1233.78 959.739 709.912 4216.71 148.61 507.441 3485.46 731.258 808.043 869.534 364.245
internal_count=348223 283056 277460 188529 88931 160647 27882 76854 65167 12077 54948 10219 38016 34164 5314 2069 5596 4905 4998 3852 2861 16932 598 2044 13986 2946 3245 3535 1463
is_linear=0
shrinkage=0.02


Tree=25
num_leaves=31
num_cat=0
split_feature=26 12 5 24 24 25 26 24 24 27 26 25 24 26 25 26 27 27 25 24 26 26 18 26 27 13 11 24 27 27
split_gain=921.521 435.259 339.134 318.023 319.901 353.739 318.263 313.129 429.294 265.913 220.789 293.886 229.15 203.283 193.885 190.617 312.854 259.066 85.3543 71.6619 66.5194 65.7224 59.9051 61.7038 80.9613 57.5485 54.219 50.4977 39.2596 18.5671
threshold=0.020404932162132437 0.012500714546017319 -0.15215418836248776 0.0044176767495135473 0.00226613850380651 0.41633333333333339 0.013968359116103413 0.026559864389358128 -0.0049695639677123588 -0.032998105972187594 0.019580754879233431 0.61171186969059321 0.020881889680014556 0.02110761850029139 0.41633333333333339 0.024131738571938753 0.02048706993259982 -0.014280436070269307 0.16196343402225757 -0.0040784180498538878 0.01382043210319525 0.014843339283739031 2.5737072298519705 0.022874125705661382 -0.028400057360663821 0.036639264846976986 0.049810088596615197 0.0018270376435264859 0.023739468142406111 -0.0060649552115004165
decision_type=2 2 2 2 2 2 2 2 2 2 2 2 2 2 2 2 2 2 2 2 2 2 2 2 2 2 2 2 2 2
left_child=1 14 22 4 5 -3 -6 8 13 -10 11 -5 -12 -4 18 17 -17 -9 21 -20 27 -1 23 24 -2 -25 29 -16 -22 -24
right_child=2 3 7 10 6 -7 -8 15 9 -11 12 -13 -14 -15 20 16 -18 -19 19 -21 28 -23 26 25 -26 -27 -28 -29 -30 -31
leaf_value=-0.014047487471080571 -0.0053037304826958646 -0.0046471569021655076 0.0053133945394783066 0.0072895431196171477 0.012248528122479075 0.0030222189957242896 -0.015143090209444375 0.0082161056077895804 -0.0066149795294730617 0.0034710413888447995 0.010841836245373271 -0.0037425020790144946 -0.025164224944710722 -0.0024639669079024431 0.025594843592468667 -0.012308865555562015 0.0015756395799660023 -0.019725291225476324 0.0048328033657569873 -0.0016611852062266043 0.004539781004385947 -0.0021160451294784817 -0.00029201626827206914 0.0087979709485790855 0.0098158648569814724 0.016402482690306704 -0.015015111351661017 0.0093384956274146069 0.013233520016914255 0.013554344630914357
leaf_weight=251.33316206932068 226.88797427713871 19928.705539375544 1549.6473504900932 1262.0285298079252 184.3237692117691 2728.9953870922327 1663.6065927892923 169.86101290583611 1077.3708702176809 30125.179014191031 1082.5160938203335 4053.3510321527719 70.63654488325119 9888.7362223416567 121.66089656949043 857.03973650932312 2618.6258843690157 553.3434592038393 1357.8308991491795 1346.2190306782722 1588.1158585101366 688.84222500026226 85.174519464373589 1198.3431172817945 356.78976719081402 633.92134585976601 70.985180139541626 235.88737024366856 240.82044115662575 61.848835796117783
leaf_count=1024 912 80750 6241 5066 741 10976 6713 687 4335 120760 4337 16302 289 39812 487 3471 10510 2237 5491 5437 6366 2790 342 4839 1433 2552 285 945 964 248
internal_value=3.27485e-06 -0.00239275 0.00178621 -0.00333664 -0.00437774 -0.00372208 -0.0123744 0.00139252 0.00190606 0.00312114 0.000604772 -0.00111502 0.00851989 -0.0014067 0.00261656 -0.00381402 -0.00185506 -0.0131238 -0.000204802 0.00159527 0.00731781 -0.00538423 0.00876375 0.00966908 0.00390945 0.0114773 -0.0011711 0.0152018 0.00572837 0.00565545
internal_weight=86278.6 36804.9 49473.8 30974.2 24505.6 22657.7 1847.93 46839.8 42640.9 31202.5 6468.53 5315.38 1153.15 11438.4 5830.71 4198.87 3475.67 723.204 3644.23 2704.05 2186.48 940.175 2633.95 2415.94 583.678 1832.26 218.009 357.548 1828.94 147.023
internal_count=347342 148678 198664 125174 99180 91726 7454 188053 171148 125095 25994 21368 4626 46053 23504 16905 13981 2924 14742 10928 8762 3814 10611 9736 2345 7391 875 1432 7330 590
is_linear=0
shrinkage=0.02


Tree=26
num_leaves=30
num_cat=0
split_feature=27 20 29 20 24 25 27 24 18 4 21 5 27 24 24 24 6 25 25 25 27 5 20 21 1 31 25 18 24
split_gain=682.314 447.368 293.991 284.812 255.351 238.762 442.36 246.784 213.12 191.867 182.013 177.359 168.93 148.928 148.11 89.8412 87.1556 72.5118 72.3741 103.805 95.636 61.922 61.8567 54.6381 50.507 42.0251 39.9504 20.2312 1.45594
threshold=0.024687751996756765 17.559825404311919 0.84185853828710988 15.231421122472087 -0.0040784180498538878 0.16196343402225757 -0.065225698712210456 -0.0087436685417488554 0.5466041957026595 -0.016350742998757436 0.80524844092514591 0.09139340559490873 0.084719149281201458 0.028760831309173656 0.037738732178217972 0.0078843597892304714 0.17118700097385489 0.85928643528224258 0.94890442890442894 0.7511975204282898 0.020937943315262841 -0.14430197088424943 13.05685371811605 -0.64496696111480778 0.024905407404226535 0.9024906986358 0.7696153846153847 0.6886673537339465 0.042721055118827629
decision_type=2 2 2 2 2 2 2 2 2 2 2 2 2 2 2 2 2 2 2 2 2 2 2 2 2 2 2 2 2
left_child=1 2 5 4 23 6 -1 -7 10 21 15 22 -11 17 -15 -5 -12 -6 19 20 -3 -10 -4 27 -25 -13 -21 -2 -20
right_child=3 18 11 8 13 7 -8 -9 9 12 16 25 -14 14 -16 -17 -18 -19 28 26 -22 -23 -24 24 -26 -27 -28 -29 -30
leaf_value=0.0093318124670733055 -0.010445134755764111 -0.006852203239447692 -0.0085097914892751942 -0.0077296884273933275 0.0085968132317870635 0.0053517774388124016 -0.0045700274972594853 7.901009057264791e-05 0.010256919986410554 0.0056086547865790764 7.868462792123841e-05 0.0024409018459422278 -0.0053336193068689855 -0.007300832332558225 0.007540117704599422 -0.0011169032627615224 0.0077027846779555214 -0.00044655455797133932 -0.015890624646533517 0.019090996522106357 -0.018873804754347853 -0.0065663047685295692 -0.0043216961095816787 0.0027170291355672039 -0.0064319869549766652 -0.0036728382780401364 0.00059131145942676298 -0.00092899859599316573 -0.02552138524181348
leaf_weight=1027.3222066164017 292.30733722448349 3517.1763863414526 2247.2839864343405 1862.1613482236862 6481.7119205743074 3933.6219061911106 8060.2447353452444 36128.680794164538 91.836923137307167 6077.5688056647778 3061.6292363405228 1603.2836722135544 616.27724239230156 536.65960137546062 529.2679947167635 1485.4230917990208 742.5867026001215 370.22637346386909 78.289475619792938 51.571670562028885 286.18149906396866 876.05094611644745 3939.8551412075758 1056.5360933542252 306.91834768652916 617.94579990208149 284.32571119070053 136.15964731574059 66.229256704449654
leaf_count=4146 1179 14216 9072 7484 25959 15869 32650 145469 369 24362 12295 6444 2477 2156 2122 5960 2980 1488 320 207 1157 3518 15897 4253 1236 2486 1146 548 271
internal_value=-2.60042e-06 -0.00112227 -0.000657514 0.00281979 0.00548162 -6.57392e-05 -0.002992 0.000597833 0.00107244 0.00338989 -0.00140809 -0.00411218 0.00459503 0.00702415 5.03093e-05 -0.00480741 0.00158032 0.00810529 -0.00735424 -0.00684303 -0.00778561 -0.00490499 -0.00585176 -0.0013237 0.000626963 0.000726647 0.00372866 -0.0075128 -0.0211438
internal_weight=86365.3 61842 57558.2 24523.3 9709.79 49149.9 9087.57 40062.3 14813.5 7661.73 7151.8 8408.37 6693.85 7917.87 1065.93 3347.58 3804.22 6851.94 4283.77 4139.26 3803.36 967.888 6187.14 1791.92 1363.45 2221.23 335.897 428.467 144.519
internal_count=347736 249350 232033 98386 38941 198134 36796 161338 59445 30726 28719 33899 26839 31725 4278 13444 15275 27447 17317 16726 15373 3887 24969 7216 5489 8930 1353 1727 591
is_linear=0
shrinkage=0.02


Tree=27
num_leaves=29
num_cat=0
split_feature=26 28 12 24 24 28 27 27 28 27 25 28 27 27 28 27 27 28 25 27 27 25 28 24 27 3 12 27
split_gain=869.022 418.309 386.571 323.647 420.445 318.937 330.384 302.789 284.056 254.796 245.81 237.59 248.036 336.447 248.047 237.129 326.258 134.867 130.737 120.261 168.457 100.936 87.9402 83.3794 79.8975 46.758 50.3032 43.3761
threshold=0.020366371701339207 -0.15288648817521769 0.016205199429550923 -0.0049695639677123588 0.022528728631930128 0.015750197470355758 0.015301122802953192 -0.038007366224469222 0.020393566210715433 0.014857094253590565 0.16196343402225757 0.0074520980821016552 0.02715572129837605 -0.010226348165664525 -0.072196872691865782 0.039227056035060381 -0.016362142194429739 0.13512775566362398 0.12344987300164352 1.0000000180025095e-35 0.0038909307034057203 0.10794626962291635 -0.015367896438189513 -0.046928748757112219 -0.01607019245753722 -0.045486937083954397 0.043303133933236794 -0.014280436070269307
decision_type=2 2 2 2 2 2 2 2 2 2 2 2 2 2 2 2 2 2 2 2 2 2 2 2 2 2 2 2
left_child=2 23 10 5 7 6 -3 -5 -7 -6 18 12 13 -4 -14 16 -13 -17 21 22 -21 -1 -12 -2 -20 26 -25 -27
right_child=1 3 11 4 9 8 -8 -9 -10 -11 19 15 14 -15 -16 17 -18 -19 24 20 -22 -23 -24 25 -26 27 -28 -29
leaf_value=-0.0045005912716663387 -0.0075473838224143861 0.00016934456821906418 -0.0035382200221706966 -0.0090539956712057251 -0.010443663453581444 -0.022029967207581883 0.014765744933563875 0.0036147424406764799 -0.0035204336939916219 -0.00035272990658638239 0.0020053363844755347 -0.00658141435951897 0.027225944595557935 -0.009807905356018309 -4.1303523626946565e-05 -0.015097007528147608 0.0021945794324001043 0.010025660321212253 -0.017877898033403072 0.013046043041523717 0.0025410674572182439 0.0092025443206574173 -0.0029770345809807647 0.021637419836645713 -0.0057888978959528851 0.0054094172373587201 0.0046609570136663756 0.016844544798516239
leaf_weight=893.27353574335575 67.166542395949364 5279.8722265511751 8921.7616339325905 768.69490258395672 1266.1044884175062 347.30380474030972 698.32441301643848 29840.190942242742 5904.496888011694 4731.9872236251831 3922.2842047065496 2352.2382925748825 157.62031434476376 5576.3581001758575 735.71934834122658 663.97569625079632 6019.6794190555811 93.478491649031639 408.73814187943935 774.6598826944828 2870.9951790124178 277.29612179100513 2211.1139283329248 460.58154098689556 493.81570822000504 320.71816995739937 89.587798997759819 240.50568509101868
leaf_count=3628 271 21253 36159 3093 5132 1399 2811 119601 23776 19007 15836 9509 633 22597 2969 2674 24252 376 1664 3118 11547 1126 8913 1887 2006 1293 363 972
internal_value=-2.0735e-05 0.00168959 -0.00237301 0.00140426 0.00234546 -0.00141113 0.00188863 0.00329451 -0.00456867 -0.00249303 0.000591066 -0.00380635 -0.00532261 -0.00595363 0.00487221 -0.00124634 -0.00027126 -0.0119249 -0.00565379 0.00191921 0.00479354 -0.00121211 0.000204952 0.0134404 -0.011354 0.0147549 0.0189759 0.0104506
internal_weight=86388.5 50015.5 36373 48837 36607 12230 5978.2 30608.9 6251.8 5998.09 11852.2 24520.8 15391.5 14498.1 893.34 9129.37 8371.92 757.454 2073.12 9779.05 3645.66 1170.57 6133.4 1178.56 902.554 1111.39 550.169 561.224
internal_count=347865 200858 147007 196072 146833 49239 24064 122694 25175 24139 47838 99169 62358 58756 3602 36811 33761 3050 8424 39414 14665 4754 24749 4786 3670 4515 2250 2265
is_linear=0
shrinkage=0.02


Tree=28
num_leaves=29
num_cat=0
split_feature=26 28 24 28 24 28 27 28 24 28 24 27 26 11 27 28 26 28 24 27 24 24 18 26 28 23 20 20
split_gain=865.12 415.631 314.671 331.301 319.861 311.063 284.043 428.226 377.8 322.951 298.494 265.515 253.811 236.847 214.22 188.525 175.071 175.071 146.235 134.626 107.998 69.3511 55.0339 45.4752 22.8157 34.1308 11.4598 6.49857
threshold=0.020404932162132437 -0.15288648817521769 -0.00025576132276462212 -0.10155046639431208 -6.303914281692001e-05 0.0074520980821016552 0.034850274146388832 0.10335070147218144 0.019454714333599441 0.040965469802326945 0.018438272036888192 -0.031312809779727439 0.015480906489565882 0.014302013271917978 0.02715572129837605 -0.10155046639431208 0.021026462897588121 0.036591182339679236 0.0044176767495135473 -0.031312809779727439 -0.01646601967922862 -0.046928748757112219 0.032878265461435692 0.038006914870538644 0.040484238501992086 0.030863804048871461 13.05685371811605 15.149859701697132
decision_type=2 2 2 2 2 2 2 2 2 2 2 2 2 2 2 2 2 2 2 2 2 2 2 2 2 2 2 2
left_child=2 21 3 11 24 12 8 9 10 -8 -3 20 -5 19 -13 -10 -9 -7 -15 -6 -1 -2 26 -24 25 -4 -23 -26
right_child=1 6 4 5 13 17 7 16 15 -11 -12 14 -14 18 -16 -17 -18 -19 -20 -21 -22 22 23 -25 27 -27 -28 -29
leaf_value=0.005297077394034626 -0.0062012260059222512 0.00083169222553682129 0.022155458791844808 -0.010086143250010528 -0.01131823448893847 0.0028618693932575281 0.0026766115970295579 -0.019319245938480393 0.0081541738388209196 0.011089097477984897 0.017855508607026217 -0.010287664347363074 -0.0043015258467579082 -0.0053646136654802931 0.030535172308216889 -0.0082300982847309297 0.0009453173120561988 -0.003528830592503454 -0.00013421958247125432 0.0042492707623109898 0.01907584995700631 0.014729042455537912 0.0099723944900963184 0.024205699654342938 0.018524494164809006 0.0040601508311999832 0.025901948678505673 0.031684098526853145
