tree
version=v4
num_class=1
num_tree_per_iteration=1
label_index=0
max_feature_idx=52
objective=binary sigmoid:1
feature_names=ret1 ret2 ret3 ret5 ret10 ret20 ret60 mar5 mar10 mar20 mar60 vol10 vol20 vol60 rsi14 skew20 kurt20 from_hi from_lo volz logturn turnz range range10 mkt_ret breadth mkt_vol mkt_mom5 mkt_mom20 xs_ret5 xs_ret20 xs_vol20 xs_volz xs_mar20 ret120 accel ma_cross volratio voltrend macd macd_hist drawdown dist_atr streak gap dow month xs_ret120 xs_accel xs_ma_cross xs_macd xs_drawdown xs_dist_atr
feature_infos=[-0.14933058702368696:1.5240174672489082] [-0.22404371584699456:1.5130434782608697] [-0.27402862985685084:1.4771428571428569] [-0.40394088669950734:1.4618357487922706] [-0.48115577889447236:2.1470054446460978] [-0.59414225941422605:3.3411214953271031] [-0.66071428571428581:16.896551724137932] [-0.19616076784643088:0.92695214105793422] [-0.31522748375116061:1.2584986758129642] [-0.43158511573395841:1.6743438809346327] [-0.57905395631419077:2.8392263690244555] [7.0034642139570589e-05:0.48515981693928595] [0.0017572037053313111:0.34082152685759332] [0.0045394120174885345:0.19912388508212789] [0:0.9999999999984458] [-4.3127167601038154:4.4622243165216036] [-2.1349678335016362:19.938032250328153] [-0.85521467290860365:0] [0:3928.4452729093828] [-4.1613645628234028:3.9666615548430935] [0:21.416404884723285] [-4.1577366539489136:3.9791315462211485] [-0.034578788625674296:16.378040808989322] [0:10.843843493176921] [-0.073483386254038108:0.5075944227230359] [0:1] [0:1.9789503287721157] [-0.23812213692833747:0.52621249790787583] [-0.2747408060001641:3.0973676829346983] [0.0036231884057971015:1] [0.0036231884057971015:1] [0.0036231884057971015:1] [0.0036231884057971015:1] [0.0036231884057971015:1] [-0.78810408921933084:1841.4306323514629] [-1.4493965570381964:1.3483338660596187] [-0.92296236167184698:0.33848359350111512] [0.0011835207984667168:2.4377952943346761] [-4.4185378585726198:3.7037846545948643] [-0.35367959615742861:0.20159538207883373] [-0.11107411849856397:0.071365243877273637] [-0.70716889428918583:0] [-557899999999.99963:30749999999.999996] [-15:42] [-0.31518862662246827:224.02979358104506] [0:6] [1:12] [0.0036231884057971015:1] [0.0036231884057971015:1] [0.0036231884057971015:1] [0.0036231884057971015:1] [0.0036231884057971015:1] [0.0036231884057971015:1]
tree_sizes=3273 3584 3573 3354 3569 3587 3578 3559 3581 3580 3568 3569 3553 3585 3556 3570 3560 3466 3573 3585 3571 3597 3604 3580 3571 3444 3564 3575 3586 3561 3373 3564 3589 3577 3479 3592 3563 3576 3605 3582 3582 3574 3611 3568 3622 3574 3555 3487 3571 3580 3592 3601 3592 3543 3583 3589 3564 3587 3472 3585 3227 3603 3226 3587 3605 3314 3576 3547 3245 3587 3598 3609 3585 3573 3619 3603 3600 3606 3525 3589 3574 3606 3588 3597 3451 3591 3607 3584 3491 3608 3462 3573 3602 3589 3328 3619 3622 3584 3603 3429 3601 3583 3605 3611 3378 3352 3606 3465 3598 3595 3346 3480 3584 3591 3236 3438 3627 3616 3591 3456 3596 3618 3496 2371 3612 3591 3569 2777 3593 2481 3278 3578 3248 3318 3251 3379 3577 3590 3390 2462 3481 2489 3607 2467 3230 2479 3603 3603 3110 3602 2474 3488 3589 2461 3617 3369 3359 3571 3611 3614 3589 3584 3596 3605 3616 3595 3471 3615 3365 2371 3584 3263 3469 2563 3591 2698 2369 3584 3588 3614 2378 3353 3583 2489 3599 3597 3354 3575 3587 3567 3576 3367 3610 3599 3574 3568 2369 3596 3348 3587 2260 2480 3346 3256 3577 3035 2449 3592 3601 2943 3220 3501 2919 3491 2598 3584 3376 3135 2600 2881 2671 3253 2789 3617 3136 3571 2479 3140 3590 3589 3551 3582 3463 2693 3020 2912 3247 3618 3469 2979 3345 3247 3592 3600 3046 3123 3161 3139 3579 3590 2588 3621 3602 3629 3586 3147 3300 3365 2490 3604 3602 2127 2252 3616 2940 3367 3603 3590 3604 3194 3369 3561 3576 2380 3609 3584 2791 3597 3595 3132 3498 2356 3460 2548 3113 3358 3589 3352 3217 3109 3618 2908 3393 3259 3147 3597 2580 2667 3339 3608 3600 3476 3477 3590 2349 3108 3587 3056 3598 2881 3521 3557 3490 3576 3438 2792 2943 2908 1919 3235 3599 3611 3253 2021 2688 3622 3394 2901 3348 3580 3591 3316 3628 3572 3242 3473 3593 2037 3025 3594 2812 3603 3373 2895 3272 2869 2918 3110 2784 3535 1918 3608 3615 3604 3130 3020 3364 3256 2798 3582 3152 3580 2339 3603 3512 3609 3392 2798 3598 3497 2680 3249 3599 3358 3244 2670 3243 3487 3596 2680 3609 3565 3025 2770 3129 3357 2570 3503 2670 3063 3623 3583 3613 2901 3144 2044 3584 3119 3613 3390

Tree=0
num_leaves=29
num_cat=0
split_feature=25 28 34 25 17 28 40 24 28 28 28 28 28 18 24 25 24 45 25 18 4 17 28 25 25 17 37 5
split_gain=1405 1178.47 773.885 633.84 469.035 360.673 499.386 295.463 296.535 287.557 248.924 415.248 247.727 270.537 207.937 177.169 151.493 145.985 140.166 115.314 113.141 88.7468 79.6582 74.2126 55.2421 31.0338 28.9045 24.5585
threshold=0.41633333333333339 -0.1533509468446326 -0.051451049627767025 0.87265632917806835 -0.094240837696334998 -0.08781310227884298 -0.001866261603793836 0.0018135392174812184 -0.083024473443623639 0.038816696267756294 -0.1261266742044421 -0.03653398681807115 -0.086592607995912507 0.13198095537351054 0.026618773953534881 0.65057089909134402 0.029941853018878792 3.5000000000000004 0.40633355614973271 2.440108695652174 -0.070612447689751598 -0.39109845903446927 -0.072196872691865782 0.92752100840336149 0.83232633674431611 -0.36042469476171279 1.204986215252466 -0.11538461538461535
decision_type=2 2 2 2 2 2 2 2 2 2 2 2 2 2 2 2 2 2 2 2 2 2 2 2 2 2 2 2
left_child=1 19 12 4 10 16 22 8 -4 -8 17 -12 21 -14 15 -6 27 -2 -9 20 25 -3 -7 -18 -16 -1 -22 -5
right_child=3 2 7 5 14 6 9 18 -10 -11 11 -13 13 -15 24 -17 23 -19 -20 -21 26 -23 -24 -25 -26 -27 -28 -29
leaf_value=-0.099036740568170079 -0.12290529814385148 -0.13549304508767021 -0.12496080319484583 -0.097399625648441152 -0.12585141864137769 -0.12812856976999787 -0.13996389417160313 -0.12520745016166265 -0.13363610314590987 -0.12680043301902802 -0.13478130936943472 -0.128670911274819 -0.13656746031588263 -0.14195188889937854 -0.14150403398739481 -0.11990283476438686 -0.14188076603751335 -0.10040102881543625 -0.10479462936987012 -0.13695845580121802 -0.11441840164178645 -0.1276048117493587 -0.14940815377473848 -0.1211817940445782 -0.12595998699646282 -0.11100186609537487 -0.12767073034504536 -0.1170910622093045
leaf_weight=306.16614863276482 514.75739461183548 1278.9281883537769 1691.6302000880241 97.823818221688271 6071.2996189445257 71.189852446317673 1293.863122433424 715.88117355108261 22068.854258358479 1351.6115342080593 5693.9436178654432 20240.071580305696 8196.7896540462971 6907.6559274047613 347.48613291978836 3023.0795732885599 98.321649357676506 148.35367852449417 164.03535930812359 61.731060862541199 173.24523532390594 1021.5494910478592 1260.2595207542181 203.61293461918831 117.98597922921181 197.39004541933537 118.23489479720592 55.508171662688255
leaf_count=1230 2068 5138 6796 393 24391 286 5198 2876 88660 5430 22875 81313 32930 27751 1396 12145 395 596 659 248 696 4104 5063 818 474 793 475 223
internal_value=-0.131877 -0.1344 -0.134875 -0.12921 -0.128334 -0.136342 -0.138279 -0.132593 -0.133016 -0.133234 -0.129702 -0.130014 -0.138103 -0.139034 -0.124535 -0.123866 -0.119584 -0.117642 -0.121248 -0.11125 -0.10921 -0.13198 -0.148246 -0.12804 -0.1375 -0.103436 -0.119564 -0.103709
internal_weight=83491.3 42902.1 42045.3 40589.2 36157 4432.19 3976.92 24640.4 23760.5 2645.47 26597.1 25934 17404.9 15104.4 9559.85 9094.38 455.267 663.111 879.917 856.767 795.036 2300.48 1331.45 301.935 465.472 503.556 291.48 153.332
internal_count=335420 172356 168914 163064 145258 17806 15977 98991 95456 10628 106852 104188 69923 60681 38406 36536 1829 2664 3535 3442 3194 9242 5349 1213 1870 2023 1171 616
is_linear=0
shrinkage=1


Tree=1
num_leaves=31
num_cat=0
split_feature=26 25 46 46 34 46 46 46 20 46 46 46 27 46 27 27 34 26 45 39 46 27 27 44 25 46 11 27 24 44
split_gain=1774.43 698.529 621.292 1060.99 563.104 602.707 553.427 898.81 519.441 517.734 493.103 985.213 571.472 533.542 420.262 418.322 408.697 399.677 363.863 351.693 336.045 279.766 260.847 228.961 178.451 177.441 175.071 136.127 132.238 89.6127
threshold=0.020404932162132437 0.41633333333333339 7.5000000000000009 8.5000000000000018 0.22954368510297987 6.5000000000000009 4.5000000000000009 7.5000000000000009 16.945882470211298 11.500000000000002 9.5000000000000018 7.5000000000000009 -0.031541412332252827 5.5000000000000009 -0.021239451975145218 0.089099062590194275 -0.042326811861695561 0.012046943642167355 1.5000000000000002 0.03829674282147618 11.500000000000002 -0.057292439023622285 0.035177851891164257 0.9247832511287235 0.16336324619586426 9.5000000000000018 0.013841460850345157 0.081754936771613065 0.021420728772934421 1.7012208740336794
decision_type=2 2 2 2 2 2 2 2 2 2 2 2 2 2 2 2 2 2 2 2 2 2 2 2 2 2 2 2 2 2
left_child=1 10 4 16 5 22 17 14 20 -9 11 13 24 -1 -8 -7 29 -3 -14 28 -5 -13 -2 -18 -12 -10 -19 -21 -6 -4
right_child=2 6 3 8 19 15 7 9 25 -11 12 21 18 -15 -16 -17 23 26 -20 27 -22 -23 -24 -25 -26 -27 -28 -29 -30 -31
leaf_value=-0.0068270328573524254 -0.00097927043608821498 0.025903052676894408 -0.023776041981719336 0.0017517007618055359 0.011844165387298695 0.011435649230225607 -0.0074621076137773718 -0.0054661681382961189 -0.013832451173528788 0.0106605121999048 0.0017792082565235583 0.010704205900043536 -0.01094842678130009 0.0020985399018868963 0.01331290323314465 -0.021107347084750785 -0.0091653985960774894 -0.00030288318425000912 0.0012839263393672918 0.0040436236215215257 0.0088969521189318362 -0.0166951075701375 0.0049403111716963214 0.002869644509891633 0.018410972859370597 -0.0024710254644989067 -0.0096039488064271084 -0.010435775987583001 0.0029559030838329048 -0.0041740943750944873
leaf_weight=10078.46781437099 10990.116858139634 149.33842153847218 766.17985753715038 8857.6460987925529 5978.9415839463472 3291.3413621485233 438.62345883250237 3991.7844632863998 782.8178406059742 989.03553035855293 404.67453965544701 150.81313072144985 1596.9334127306938 3641.2589454054832 3210.5996754765511 161.05050925910473 2351.7268365472555 1147.1380017846823 2467.9103366583586 2875.0995659381151 3749.6475027799606 3919.5160727351904 4077.1854569166899 858.36457131803036 727.00154662132263 1850.3955858796835 2785.0495871603489 280.0446979701519 765.32293297350407 111.73887924849987
leaf_count=40500 44152 600 3079 35583 24015 13221 1762 16035 3145 3973 1626 606 6417 14632 12896 647 9447 4608 9917 11548 15063 15750 16379 3448 2921 7433 11188 1125 3075 449
internal_value=9.81624e-06 -0.00336264 0.00253171 -0.0002337 0.00441295 0.00235205 0.000398049 0.00326906 0.00219261 -0.00225242 -0.0054428 -0.00702559 -1.88135e-05 -0.0044568 0.0108036 0.00988344 -0.00927573 -0.00566413 -0.00352437 0.00826331 0.0038811 -0.0156631 0.000622338 -0.0059416 0.0125152 -0.00587601 -0.00689946 0.00273765 0.0108414 -0.0213416
internal_weight=83445.8 35698.1 47747.6 19328.5 28419.1 18519.7 12711.6 8630.04 15240.5 4980.82 22986.6 17790.1 5196.52 13719.7 3649.22 3452.39 4088.01 4081.53 4064.84 9899.41 12607.3 4070.33 15067.3 3210.09 1131.68 2633.21 3932.19 3155.14 6744.26 877.919
internal_count=335240 143431 191809 77647 114162 74399 51062 34666 61224 20008 92369 71488 20881 55132 14658 13868 16423 16396 16334 39763 50646 16356 60531 12895 4547 10578 15796 12673 27090 3528
is_linear=0
shrinkage=0.02


Tree=2
num_leaves=31
num_cat=0
split_feature=26 28 46 46 46 28 34 28 46 46 28 26 27 27 34 28 28 28 23 46 44 40 23 26 26 28 17 28 44 46
split_gain=1686.27 918.2 619.811 1313.92 1714.22 970.564 955.504 691.683 493.6 981.236 675.168 517.897 433.969 421.614 405.916 370.099 350.968 319.851 287.035 205.43 179.899 135.016 116.246 134.702 114 76.9849 89.0198 63.3731 46.8143 42.2236
threshold=0.020404932162132437 -0.14119859802615292 4.5000000000000009 7.5000000000000009 9.5000000000000018 -0.086592607995912507 -0.051451049627767025 0.019022887047338757 7.5000000000000009 8.5000000000000018 -0.034152856815125823 0.021834530229022604 -0.062174740559020829 0.014197996295346675 -0.042326811861695561 -0.063284719426822053 0.072166963673153672 0.10696953572432841 0.026400906315911427 7.5000000000000009 0.74895021191983679 -0.0016122711965580068 0.084551160215169424 0.027961035075851615 0.018707936508253014 -0.070932166839295138 -0.31483109597959297 -0.17649661588907251 1.0737839601989674 4.5000000000000009
decision_type=2 2 2 2 2 2 2 2 2 2 2 2 2 2 2 2 2 2 2 2 2 2 2 2 2 2 2 2 2 2
left_child=2 19 12 6 13 -6 7 -4 10 14 11 -3 25 -5 -10 -11 -12 -8 24 21 -20 29 23 -21 -14 -1 -27 -24 -23 -2
right_child=1 8 3 4 5 -7 17 -9 9 15 16 -13 18 -15 -16 -17 -18 -19 20 22 -22 28 27 -25 -26 26 -28 -29 -30 -31
leaf_value=0.033366183329870729 0.02110395559554272 -0.018000739301370958 -0.0064150687992220595 -0.01553062220241265 0.023403533331219761 -0.0014672947156797065 0.01211718061085707 0.011858452739896021 -0.021293288796764353 0.0090705680685145146 0.0071413204947279978 -0.0001489991706851067 -0.00033832264670816836 0.0013018193038048926 -0.0059333016325882892 0.00042044683214934118 0.0023258994872239502 -0.012035439309030359 -0.010709628289508865 0.020796172597351892 -0.0033430945426873044 0.015986056547681416 0.014760219829696584 -0.0010048024557632749 -0.0094099941722028159 -0.0087741031579514836 0.020651408475134178 -0.0087488447474011882 -0.0063509162163568715 0.034036500847276913
leaf_weight=88.386066362261772 202.56227789819241 865.59246996045113 3432.3679498881102 5116.2511814832687 676.9407576918602 7870.7876348793507 4392.1351077705622 1086.3935991078615 879.26740325987339 2361.6968031525612 12431.029343247414 2575.4466782361269 2504.8204466402531 670.21310310065746 3169.212151452899 12101.782636404037 11843.042378082871 226.13644462823868 7209.9165346026421 427.32803978025913 1642.1352700740099 100.4040455520153 59.052774876356125 150.72435869276524 708.53126709163189 60.431485459208488 106.46705251932144 155.19803793728352 53.302519634366035 375.35320794582367
leaf_count=355 813 3478 13791 20576 2718 31626 17639 4364 3539 9486 49925 10347 10068 2695 12736 48611 47556 908 28984 1715 6601 403 237 605 2848 243 428 623 214 1506
internal_value=-2.55301e-05 0.00243415 -0.0033075 -0.001399 -0.00517696 0.000512552 0.00452529 -0.00200911 0.0019291 -0.000598639 0.003618 -0.00466501 -0.00693959 -0.0135781 -0.00929634 0.00183693 0.00479372 0.0109185 -0.00748932 0.0176851 -0.00934799 0.0253332 0.0104831 0.0151175 -0.00235632 0.0186096 0.00993522 -0.00198911 0.00815795 0.0297578
internal_weight=83542.9 47751 35791.9 23471.2 14334.2 8547.73 9137.03 4518.76 46227.1 18512 27715.1 3441.04 12320.7 5786.46 4048.48 14463.5 24274.1 4618.27 12065.4 1523.93 8852.05 731.622 792.303 578.052 3213.35 255.285 166.899 214.251 153.707 577.915
internal_count=335638 191794 143844 94317 57615 34344 36702 18155 185678 74372 111306 13825 49527 23271 16275 58097 97481 18547 48501 6116 35585 2936 3180 2320 12916 1026 671 860 617 2319
is_linear=0
shrinkage=0.02


Tree=3
num_leaves=29
num_cat=0
split_feature=25 28 27 34 25 28 17 28 28 27 20 34 44 27 28 18 25 28 28 45 34 28 38 41 25 4 20 18
split_gain=1300.11 1124.99 786.783 697.24 550.773 427.959 325.935 314.691 458.121 273.069 268.07 268.578 266.755 255.027 199.634 193.242 158.938 177.011 170.743 132.517 107.628 97.9958 94.3795 82.9594 82.7469 67.2668 45.8096 14.419
threshold=0.41633333333333339 -0.1533509468446326 -0.028400057360663821 -0.11475409836065568 0.87265632917806835 -0.12045449990782184 -0.28195794818676606 -0.08781310227884298 -0.020206632242532972 0.01866348414314032 17.05544488726208 0.2849724077251628 4.1544318167109564 -0.062174740559020829 0.16494262245126387 0.13198095537351054 0.63686313686313689 -0.075805959254347383 0.030490143833171026 3.5000000000000004 -0.055944055944055875 -0.03653398681807115 -0.57962730307091259 -0.21727633023299517 0.94588963963963979 -0.028206337687469826 16.702686018589251 0.042768009625834609
decision_type=2 2 2 2 2 2 2 2 2 2 2 2 2 2 2 2 2 2 2 2 2 2 2 2 2 2 2 2
left_child=1 20 5 13 6 19 9 23 -9 -4 11 -5 -8 21 -12 -15 17 -7 -18 24 25 -3 -22 -6 -2 27 -24 -1
right_child=2 3 4 10 7 16 12 8 -10 -11 14 -13 -14 15 -16 -17 18 -19 -20 -21 22 -23 26 -25 -26 -27 -28 -29
leaf_value=0.032409828849262905 0.00097475151154535885 0.00083637035122617782 -0.0014228614434047371 -0.001555142151548308 0.029000656838504044 -0.0025793735938983522 0.0050134296110790977 -0.016261605849645568 -0.00068615300847484431 0.0055731357408650394 -0.0067252905805718615 0.0032248000881092524 0.015215802184347838 -0.005287290902505226 0.0053812655377584338 -0.010430882874206369 -0.0004270932139497522 -0.018526257979092797 -0.019834641098248437 0.032495068019339615 0.027401618051859204 0.018699130323790308 0.0091710819831120633 0.0050018258170351016 0.02430955170314705 0.0070359243286518382 -0.0097873402138112173 0.023031768383240551
leaf_weight=244.00016948580742 364.85062310099602 518.45997273921967 6141.9951901435852 17712.28774023056 128.71306732296944 375.39580571651459 22779.498469650745 1049.1917813867331 2676.955781057477 3496.785626783967 4588.0748538821936 6394.8474112600088 1072.2880675196648 7017.4999164938927 612.51304771006107 5062.2405739575624 868.64507533609867 1129.5141028612852 225.00594291090965 79.632899910211563 86.558895200490952 157.31145834922791 153.31350180506706 109.68318951129913 68.573209941387177 76.745696350932121 69.73924832046032 236.93970294296741
leaf_count=978 1465 2083 24677 71186 516 1509 91466 4219 10756 14042 18439 25689 4305 28216 2461 20362 3491 4540 904 319 347 632 615 440 275 308 280 950
internal_value=1.62287e-05 -0.00240937 0.00258364 -0.00287567 0.00338702 -0.00707033 0.00422175 -0.00365576 -0.00509309 0.00111467 -0.00117565 -0.000285942 0.00547602 -0.00677817 -0.00529177 -0.00744789 -0.0103684 -0.0145833 -0.00451027 0.00953408 0.0200697 0.00513078 0.0102643 0.0183708 0.00494737 0.0253383 0.00307125 0.0281153
internal_weight=83497.3 42930.5 40566.7 42063.2 37455.1 3111.62 33490.6 3964.54 3726.15 9638.78 29307.7 24107.1 23851.8 12755.5 5200.59 12079.7 2598.56 1504.91 1093.65 513.057 867.297 675.771 309.612 238.396 433.424 557.686 223.053 480.94
internal_count=335470 172546 162924 169068 150421 12503 134490 15931 14975 38719 117775 96875 95771 51293 20900 48578 10444 6049 4395 2059 3478 2715 1242 956 1740 2236 895 1928
is_linear=0
shrinkage=0.02


Tree=4
num_leaves=31
num_cat=0
split_feature=26 28 25 46 46 28 20 28 46 46 24 26 28 46 27 34 26 28 34 46 27 12 46 42 14 25 46 26 46 46
split_gain=1555.45 825.003 685.169 497.329 902.917 664.139 490.523 490.288 459.352 849.428 488.868 443.08 438.096 547.905 416.577 403.094 398.099 394.296 377.796 292.582 295.334 228.72 195.757 115.767 104.713 104.196 93.8844 81.4528 80.8964 38.8631
threshold=0.020404932162132437 -0.14119859802615292 0.41633333333333339 7.5000000000000009 8.5000000000000018 -0.053730353647488328 16.702686018589251 -0.10174612587820571 4.5000000000000009 7.5000000000000009 0.0015063235994675023 0.021984568510204784 0.018448632402938252 9.5000000000000018 -0.021239451975145218 -0.042326811861695561 0.012046943642167355 0.040790263345465948 0.25905748828028624 9.5000000000000018 -0.04382734701285812 0.015794029518890723 7.5000000000000009 -0.29821872913703024 0.30952380942819352 0.92752100840336149 2.5000000000000004 0.025102503137684723 4.5000000000000009 10.500000000000002
decision_type=2 2 2 2 2 2 2 2 2 2 2 2 2 2 2 2 2 2 2 2 2 2 2 2 2 2 2 2 2 2
left_child=2 22 7 5 15 11 -6 19 16 14 -11 -3 13 -9 -10 -5 26 -14 -7 20 -1 -18 23 28 27 -26 -4 -24 -2 -21
right_child=1 3 8 4 6 18 -8 12 9 10 -12 -13 17 -15 -16 -17 21 -19 -20 29 -22 -23 24 -25 25 -27 -28 -29 -30 -31
leaf_value=0.012098865367735251 0.017479417765560973 -0.023004070335277231 0.036442158437187143 -0.021037655477263072 0.0035792130645099273 0.0026625183785274659 -0.0053885368998477625 -0.0098535912583947623 -0.0080461512580526362 0.010962816365405753 -0.0051888898413437858 -0.0019666209972312386 0.0054581568162046833 -0.0010724048334631591 0.012928697300694581 -0.0057050883982505511 0.00091840502600034376 -0.0052006551688739558 0.007783166686715459 0.033094676163078186 -0.0090120734805767752 -0.0095481610339459011 0.026623534451919683 0.0056269157345694076 -0.0039256739266059935 0.024136764776924498 0.0031082308339180471 0.008823110167459073 0.033409391060963661 0.016862875401568934
leaf_weight=520.42036691308022 230.05226795375347 519.58344730734825 103.45125421881676 874.74065889418125 11282.529967233539 16525.157117724419 3106.5116636306047 11901.607125133276 424.57193180918694 912.74961327016354 4078.2046872675419 1708.3922159075737 2147.5446245074272 3742.1109213531017 3217.79200707376 3175.7011761516333 1205.3452682048082 3901.5142922401428 8868.10001501441 118.19584040343761 529.50649803876877 2683.8749233335257 174.12387605011463 118.69247657060623 279.9231870919466 59.916701436042786 52.545866385102272 272.34922410547733 386.12535218894482 175.57095550000668
leaf_count=2091 922 2091 415 3528 45308 66356 12483 47891 1707 3667 16391 6865 8635 15041 12908 12766 4844 15694 35588 474 2129 10794 698 476 1123 240 211 1092 1546 704
internal_value=-5.1885e-05 0.00231559 -0.00320644 0.00183554 -0.00070698 0.00353344 0.00164054 -0.00526124 0.000526096 0.00313301 -0.00222303 -0.00692222 -0.00598811 -0.00775535 0.0104706 -0.00904312 -0.00502965 -0.00141186 0.00445277 0.00643738 0.00144084 -0.00630222 0.0167845 0.0242094 0.00971089 0.00124221 0.0257835 0.0160275 0.0276826 0.0239052
internal_weight=83296.9 47581.9 35715 46060.7 18439.5 27621.2 14389 23036.5 12678.5 8633.32 4990.95 2227.98 21692.8 15643.7 3642.36 4050.44 4045.22 6049.06 25393.3 1343.69 1049.93 3889.22 1521.18 734.87 786.313 339.84 155.997 446.473 616.178 293.767
internal_count=334678 191082 143596 184985 74085 110900 57791 92659 50937 34673 20058 8956 87261 62932 14615 16294 16264 24329 101944 5398 4220 15638 6097 2944 3153 1363 626 1790 2468 1178
is_linear=0
shrinkage=0.02


Tree=5
num_leaves=31
num_cat=0
split_feature=25 27 46 46 46 34 27 46 27 25 27 34 46 46 46 24 13 46 24 42 24 27 18 6 46 27 27 40 25 5
split_gain=1142.1 778.469 586.379 1313.93 974.968 484.433 744.903 506.788 483.66 473.354 416.387 365.979 341.708 525.959 465.752 336.833 270.441 229.369 226.53 216.498 197.608 264.492 196.868 188.15 168.713 338.708 167.883 144.525 127.449 111.023
threshold=0.41633333333333339 -0.028400057360663821 7.5000000000000009 6.5000000000000009 11.500000000000002 -0.026541133410389491 -0.067854403113745548 11.500000000000002 0.089099062590194275 0.87939393939393951 -0.018003071452126877 0.015714555213337426 7.5000000000000009 9.5000000000000018 4.5000000000000009 0.0074390969411075409 0.023395104965276432 5.5000000000000009 0.0018135392174812184 0.40093032279217372 0.034916478496193747 -0.041462227907946625 0.32691392197685926 -0.055883694718763414 8.5000000000000018 -0.03753114657151501 -0.070646855485887491 -0.0054001084411443249 0.27315608919382511 -0.15723379268072554
decision_type=2 2 2 2 2 2 2 2 2 2 2 2 2 2 2 2 2 2 2 2 2 2 2 2 2 2 2 2 2 2
left_child=5 15 3 9 11 6 17 22 -5 -3 -6 -4 14 16 18 24 -14 27 -7 -16 21 -17 -8 -15 26 -26 -2 -1 -9 -22
right_child=1 2 4 8 10 12 7 28 -10 -11 -12 -13 13 23 19 20 -18 -19 -20 -21 29 -23 -24 -25 25 -27 -28 -29 -30 -31
leaf_value=0.011857764304911931 0.0019795162117438913 0.0036621961279616638 -0.0075907441705192627 0.01497589151784259 0.032210957199402132 -0.0020781010633780751 -0.0053363884032756525 -1.9436969364225562e-05 -0.021140262895095852 -0.0069923921042189295 0.007329936317187714 2.4428632047646592e-05 -0.013422655570920662 -0.0041600673539618788 0.0095349135357934468 0.014347879220449141 -0.003910303181932963 0.022290704165643757 0.020520869044979882 0.0015024844719968623 0.0060009420116936109 -0.0050346530741687415 -0.010596915383186949 0.0038801258918832781 -0.020705689268301308 0.010672539004826018 -0.020018727393918714 -0.01040323777956885 0.011263451377574651 -0.022597437623457416
leaf_weight=275.8868675082922 156.96016919612885 16722.789219588041 4188.7362689375877 5098.6569437980652 294.24003455042839 6902.1547011584044 13624.302654638886 840.23552034795284 148.09433768689632 1846.8710691332817 2804.6127927005291 6328.5992126613855 1962.2187711596489 1690.5009824037552 3269.3201883584261 516.96007487177849 3085.6993362158537 480.94458304345608 176.99949300289154 2289.4256571531296 70.317601218819618 605.57224440574646 3618.4257531613111 3703.2094768881798 247.96417166292667 296.35069978237152 1048.5792922079563 194.10826931893826 753.99073484539986 197.99312786757946
leaf_count=1107 630 67125 16843 20446 1181 27745 54825 3376 595 7423 11256 25422 7898 6790 13127 2076 12410 1928 710 9192 282 2435 14566 14876 997 1191 4223 780 3030 796
internal_value=-2.78974e-07 0.00240445 0.0032075 0.0050999 -0.000101736 -0.0022768 -0.00457258 -0.00544614 0.0139335 0.00259986 0.00974695 -0.00300873 -0.000307012 -0.00298431 0.00190373 -0.00715024 -0.00762151 0.0126487 -0.00149615 0.00623459 0.000186162 0.00389789 -0.00644423 0.00135494 -0.0129768 -0.00364385 -0.0171417 0.00260912 0.00532284 -0.0150567
internal_weight=83440.7 40573.3 37432.6 23816.4 13616.2 42867.4 19787.9 18837 5246.75 18569.7 3098.85 10517.3 23079.5 10441.6 12637.9 3140.7 5047.92 950.94 7079.15 5558.75 1390.84 1122.53 17242.7 5393.71 1749.85 544.315 1205.54 469.995 1594.23 268.311
internal_count=335281 162921 150291 95589 54702 172360 79612 75797 21041 74548 12437 42265 92748 41974 50774 12630 20308 3815 28455 22319 5589 4511 69391 21666 7041 2188 4853 1887 6406 1078
is_linear=0
shrinkage=0.02


Tree=6
num_leaves=31
num_cat=0
split_feature=24 28 34 46 46 46 28 28 28 46 28 28 24 20 20 28 27 27 27 17 41 38 28 28 46 28 27 27 6 46
split_gain=1106.22 1111.81 628.176 625.916 548.838 1089.15 588.705 562.515 524.578 505.949 490.992 464.118 366.877 357.693 282.427 279.898 277.723 258.237 233.66 230.139 203.02 189.594 188.596 146.041 118.849 110.941 99.9485 88.8196 65.5063 37.4167
threshold=0.0032849481929088857 -0.1533509468446326 -0.11724137931034477 11.500000000000002 7.5000000000000009 6.5000000000000009 -0.027778674158457219 -0.1261266742044421 0.072166963673153672 11.500000000000002 0.03530966259259978 0.011056484433711081 0.027608957021282875 17.205040866834153 15.724902977475471 0.066897433005902715 0.023167996247063481 0.089099062590194275 -0.028400057360663821 -0.11908943562434053 -0.042285457232825611 -0.14981518512137357 0.16494262245126387 -0.0016337712655555506 8.5000000000000018 -0.17649661588907251 -0.038180380570185961 -0.047097950110706756 -0.055883694718763414 9.5000000000000018
decision_type=2 2 2 2 2 2 2 2 2 2 2 2 2 2 2 2 2 2 2 2 2 2 2 2 2 2 2 2 2 2
left_child=1 24 3 21 5 6 7 -2 10 14 -7 18 -8 19 15 -6 -13 -10 -11 -4 -16 -3 -15 -5 27 29 -27 -1 -29 -26
right_child=4 2 13 23 9 8 12 -9 17 11 -12 16 -14 22 20 -17 -18 -19 -20 -21 -22 -23 -24 -25 25 26 -28 28 -30 -31
leaf_value=0.031661530746834469 0.019571925650796192 -0.0097109885942423275 -0.0010879926053438509 0.013045175932964892 -0.0024537770273311658 0.012190939780898974 0.0056668342651452217 -0.0077135168970406667 0.0077094187956565172 -0.0062465437325068193 0.030273156768495482 -0.011851501850699435 -0.0048235505262414491 -0.006912494346400057 -0.0097820654937694519 0.007509823108420223 0.0061770191194070049 -0.022805695543779533 0.021315267816979344 0.0027561189059078289 0.00030227210012070081 -0.0049203532785327608 0.005494371095529197 -0.00063530777512272891 0.0074259673997956552 -0.014981785886051686 0.011733580204295055 -4.6039304036074234e-05 0.025021391080596408 0.027635281275695922
leaf_weight=356.25461633503437 330.28217202425003 5763.8008512556553 20747.951878473163 775.97534066438675 4242.9725762158632 1496.030369669199 10928.249404504895 3050.1467801481485 2004.3095768690109 138.76120792329311 1019.4870200753212 497.39460642635822 1512.8198990821838 4668.1572713106871 2701.173716366291 1530.2863687127829 1063.647728100419 112.3406435251236 904.81380923092365 8896.2870880812407 1127.035256549716 7855.5681744366884 541.9568288475275 514.69086553156376 58.84796454012394 83.514953523874283 146.97239556908607 78.775322750210762 79.929430246353149 143.3582601249218
leaf_count=1426 1323 23210 83403 3115 17059 5996 43850 12266 8033 557 4085 1996 6076 18772 10860 6147 4267 452 3629 35740 4529 31622 2177 2068 236 335 589 316 320 574
internal_value=3.89134e-06 -0.00184462 -0.00225447 -0.00568954 0.0028746 0.00487714 0.00237651 -0.00501674 0.0134021 -0.000480039 0.0195727 0.00732745 0.00438818 -0.000783837 -0.00260279 0.000187972 0.000400326 0.00603048 0.0176191 6.52276e-05 -0.00681147 -0.00695207 -0.00561406 0.00759285 0.0195561 0.0115403 0.00185602 0.0260772 0.0128353 0.0221714
internal_weight=83371.8 50712 49764.4 14910 32659.8 20453.7 15821.5 3380.43 4632.17 12206.1 2515.52 2604.62 12441.1 34854.4 9601.47 5773.26 1561.04 2116.65 1043.58 29644.2 3828.21 13619.4 5210.11 1290.67 947.653 432.694 230.487 514.959 158.705 202.206
internal_count=335028 203903 200107 60015 131125 82081 63515 13589 18566 49044 10081 10449 49926 140092 38595 23206 6263 8485 4186 119143 15389 54832 20949 5183 3796 1734 924 2062 636 810
is_linear=0
shrinkage=0.02


Tree=7
num_leaves=31
num_cat=0
split_feature=26 28 46 46 46 28 34 28 24 24 46 28 12 28 28 28 24 20 17 46 26 28 18 28 9 23 26 28 17 46
split_gain=1449.02 733.326 593.911 1160.92 1593.33 864.812 808.95 603.712 457.349 520.671 453.125 392.856 387.61 375.82 330.172 311.017 298.633 290.659 194.658 181.749 171.678 164.414 145.235 142.57 117.611 115.802 125.497 58.8583 56.3725 55.7371
threshold=0.020404932162132437 -0.14119859802615292 4.5000000000000009 7.5000000000000009 9.5000000000000018 -0.086592607995912507 -0.051451049627767025 0.019022887047338757 -0.0060115730882203842 0.02298112476255906 1.5000000000000002 0.015750197470355758 0.014569436228882392 -0.020206632242532972 -0.1261266742044421 0.10696953572432841 -0.031461334815493416 15.648610991012108 -0.17157178750897342 7.5000000000000009 0.018707936508253014 0.022887558778074347 0.26849315068493168 -0.1472430219204274 -0.056202567648640338 0.084551160215169424 0.027961035075851615 -0.17649661588907251 -0.10921753842465808 4.5000000000000009
decision_type=2 2 2 2 2 2 2 2 2 2 2 2 2 2 2 2 2 2 2 2 2 2 2 2 2 2 2 2 2 2
left_child=2 19 12 6 17 -6 7 -4 11 10 -10 16 20 -11 23 -8 -3 -5 -16 24 22 -13 -1 -14 29 26 -21 -27 -22 -2
right_child=1 8 3 4 5 -7 15 -9 9 13 -12 21 14 -15 18 -17 -18 -19 -20 25 28 -23 -24 -25 -26 27 -28 -29 -30 -31
leaf_value=0.005157481084157557 0.018699952366770939 -0.012713199608764974 -0.0057703508135850132 -0.0096960088845293585 0.022378987499864004 -0.0010991924398132467 0.011456349280458376 0.0113755896164819 0.01010662624427862 -0.012736173319356382 0.002974193242218101 -0.017772672254238852 -0.00098714167379139006 0 -0.011093318685119893 -0.012235210745033948 0.0037932379960375325 -0.019347962869844616 -0.0046593823563941313 0.019267862759375042 -0.01174917458801642 -0.0045657180068619813 -0.0061616104880824508 0.031452977350938077 0.011459924367548745 0.012497404382777549 -0.0018271266882063215 -0.0098983656867013114 0.0022579757369957493 0.033983478523402832
leaf_weight=1739.6207558065653 182.09612564742565 480.10463985800743 3403.0361435264349 3873.5335054248571 677.23559081554413 7817.1010576486588 4409.0916415899992 1076.9725560843945 4124.3051408082247 1177.2368039041758 26217.550766140223 405.27548187971115 101.7075769007206 4302.6739212572575 6371.5811504721642 228.59204939007759 4525.6659391373396 1866.494776070118 2701.4362841546535 420.74260005354881 570.23892121016979 5003.6542568802834 606.74712373316288 107.55281752347946 255.96954491734505 61.165243402123451 150.09080117940903 154.71722285449505 138.96698692440987 312.15775622427464
leaf_count=6999 729 1929 13695 15619 2715 31425 17687 4323 16550 4738 105251 1629 409 17279 25669 918 18192 7528 10873 1685 2296 20109 2442 432 1025 245 602 621 559 1249
internal_value=2.3593e-05 0.00230145 -0.00302481 -0.00114793 -0.00471694 0.000782384 0.00442126 -0.001636 0.00184826 0.00292093 0.00394585 -0.00183893 -0.00657368 -0.00274878 -0.00860672 0.0102724 0.002195 -0.0128521 -0.00918348 0.0158717 -0.000387185 -0.00557447 0.00221509 0.0159375 0.0229171 0.00902563 0.0137189 -0.00332324 -0.00897992 0.0286364
internal_weight=83463.3 47773.4 35689.9 23352.1 14234.4 8494.34 9117.69 4480.01 46236.5 35821.8 30341.9 10414.7 12337.9 5479.91 9282.28 4637.68 5005.77 5740.03 9073.02 1536.94 3055.57 5408.93 2346.37 209.26 750.223 786.716 570.833 215.882 709.206 494.254
internal_count=335422 191833 143589 93910 57287 34140 36623 18018 185677 143818 121801 41859 49679 22017 37383 18605 20121 23147 36542 6156 12296 21738 9441 841 3003 3153 2287 866 2855 1978
is_linear=0
shrinkage=0.02


Tree=8
num_leaves=31
num_cat=0
split_feature=26 28 46 46 46 28 34 28 46 46 28 26 27 20 12 27 34 28 28 17 46 26 5 23 26 28 17 28 46 40
split_gain=1369.84 672.417 533.338 1168.63 1468.06 850.776 766.742 598.877 454.921 873.343 617.987 449.799 443.241 413.183 397.276 371.458 357.051 320.275 319.26 170.428 168.194 144.451 132.075 111.607 110.148 70.8155 75.3238 64.9469 55.4761 31.7657
threshold=0.020404932162132437 -0.14119859802615292 4.5000000000000009 7.5000000000000009 9.5000000000000018 -0.086592607995912507 -0.051451049627767025 0.019022887047338757 7.5000000000000009 8.5000000000000018 -0.034152856815125823 0.021834530229022604 -0.062174740559020829 17.05544488726208 0.014675237347636526 0.014197996295346675 -0.031061365154551542 0.22284183366354707 0.10696953572432841 -0.12075150815042994 7.5000000000000009 0.018707936508253014 -0.088707932608422566 0.083255388797955118 0.025102503137684723 -0.062216010626556684 -0.26065993160052275 -0.17649661588907251 4.5000000000000009 0.0016215228973244903
decision_type=2 2 2 2 2 2 2 2 2 2 2 2 2 2 2 2 2 2 2 2 2 2 2 2 2 2 2 2 2 2
left_child=2 20 12 6 15 -6 7 -4 10 16 11 -3 25 -11 21 -5 -10 -12 -8 -16 22 -14 28 24 -22 -1 -27 -25 -2 -24
right_child=1 8 3 4 5 -7 18 -9 9 13 17 -13 14 -15 19 -17 -18 -19 -20 -21 23 -23 29 27 -26 26 -28 -29 -30 -31
leaf_value=0.032283305426760237 0.017283489030699498 -0.017107440772393075 -0.0056875822057825612 -0.014440292286328574 0.02211808061740303 -0.0013710878236302812 0.011291321125032974 0.011305909870050408 -0.019909022538933903 0.0030707959436254372 0.0049730657165657065 -0.00038058546671707614 0.0015736364561482485 -0.0062656998659324304 -0.010390900699822458 0.0013948512583532196 -0.0056665749307982004 -0.0063414122841852242 -0.012577948832228092 -0.0031967597669989717 0.022617088809512888 -0.008654167877064264 0.012684056307381968 0.013711532761828181 0.0048684533193540953 -0.0037052996139120527 0.022422077322723305 -0.0096280460090699457 0.031822076452080392 -0.0046826843660621861
leaf_weight=97.376428931951523 190.38734671473503 854.97902174293995 3384.1581002622843 5086.6329439431429 664.35983401536942 7843.8424649834633 4389.3094923645258 1093.0672102868557 907.37848755717278 12193.754928305745 23236.221546143293 2560.683632850647 2394.0229893028736 2239.0638750195503 7304.1689576357603 667.07262668013573 3150.9612878262997 1040.0788985937834 231.39485722780228 1624.0748665630817 270.31221893429756 712.11175264418125 114.68175804615021 61.192170709371567 298.70741179585457 78.200666204094887 89.795297086238861 163.86041834950447 359.22468300163746 59.656639218330383
leaf_count=390 762 3446 13625 20543 2661 31535 17598 4385 3670 48960 93219 10295 9632 9006 29449 2687 12676 4175 930 6538 1082 2869 459 245 1197 315 361 658 1438 239
internal_value=-4.12737e-05 0.00217509 -0.00300652 -0.0012301 -0.00480298 0.000472619 0.00436812 -0.00152635 0.00174321 -0.000684942 0.00336515 -0.00459224 -0.00637682 0.00161931 -0.0069445 -0.0126013 -0.00887646 0.00448629 0.0100794 -0.00908702 0.0152524 -0.000774899 0.0222274 0.0087691 0.0134583 0.0189453 0.0103888 -0.00303496 0.0270231 0.00666496
internal_weight=83360.7 47701.1 35659.6 23359.8 14261.9 8508.2 9097.93 4477.23 46183.1 18491.2 27692 3415.66 12299.8 14432.8 12034.4 5753.71 4058.34 24276.3 4620.7 8928.24 1518.02 3106.13 723.95 794.072 569.02 265.372 167.996 225.053 549.612 174.338
internal_count=335045 191527 143518 93964 57426 34196 36538 18010 185447 74312 111135 13741 49554 57966 48488 23230 16346 97394 18528 35987 6080 12501 2898 3182 2279 1066 676 903 2200 698
is_linear=0
shrinkage=0.02


Tree=9
num_leaves=31
num_cat=0
split_feature=26 28 34 46 46 46 27 24 28 46 20 46 28 28 44 27 6 6 26 27 46 24 27 5 23 26 24 20 28 46
split_gain=1321.57 680.875 506.184 530.238 1273.73 800.332 444.325 551.237 454.252 468.456 375.492 370.002 451.296 305.597 262.77 253.17 255.219 223.918 212.648 205.212 177.83 157.443 155.703 119.198 106.474 122.54 93.2121 70.131 63.9565 61.4623
threshold=0.020404932162132437 -0.14119859802615292 -0.10515071380992928 4.5000000000000009 7.5000000000000009 9.5000000000000018 0.035177851891164257 0.019409308158467847 0.10360994273430189 1.5000000000000002 17.303197498265032 11.500000000000002 1.0000000180025095e-35 0.10696953572432841 0.61126963179854099 -0.059206388324634283 -0.039081727083992317 -0.13183088802499024 0.018209688716550345 0.015057250663838782 7.5000000000000009 0.042794878053994574 -0.062174740559020829 -0.088707932608422566 0.083255388797955118 0.027961035075851615 -0.0017438313501256996 13.345378280349012 -0.17649661588907251 4.5000000000000009
decision_type=2 2 2 2 2 2 2 2 2 2 2 2 2 2 2 2 2 2 2 2 2 2 2 2 2 2 2 2 2 2
left_child=2 20 11 19 13 -6 7 10 9 -8 -3 15 26 -5 -10 17 -17 -1 -14 22 23 -9 -4 29 25 -22 -13 -21 -26 -2
right_child=1 6 3 4 5 -7 8 21 14 -11 -12 12 18 -15 -16 16 -18 -19 -20 27 24 -23 -24 -25 28 -27 -28 -29 -30 -31
leaf_value=-0.0059477663959920969 0.016981600663229932 0.0020873047968139801 0.01809908268496194 0.0096608738755947741 -0.011251416837493587 0.0013165869732729703 0.02241665299879821 -0.0061624430357439296 -0.0010354385099455772 0.0063956331375404673 -0.0048665188056190873 0.0088253188925642174 -0.019252497047349271 -0.012637548883830799 0.0073230777821002499 -0.0055981791609824886 -0.01201467747755618 0.018480845460961088 0.012621093107612589 -0.0014731735815091556 0.018753799587321176 -0.020075768429069166 -0.0042337636229673545 0.0078430497225144852 0.013289563860707444 -0.0020535188258657927 0.024928720927303718 -0.014671646619168761 -0.0097101104625201811 0.031924513202643848
leaf_weight=303.55425502359867 198.40995012223721 25313.507644861937 122.26101040840149 5394.2889669537544 3323.4387766569853 5174.0820489227772 826.07216696441174 2405.9339904934168 5525.1680222898722 6183.3904825896025 3534.3027016967535 308.44592742621899 294.04392221570015 252.63439460098743 2060.5408182740211 8863.4791501760483 3463.6566134393215 286.85778966546059 111.51365131139755 195.23288685083389 412.03701251745224 375.55784702301025 6224.0374104231596 182.83102963864803 62.956151008605957 151.86451779305935 289.12008298933506 1058.1480873376131 161.02663633227348 362.15799516439438
leaf_count=1222 794 101647 491 21630 13428 20791 3311 9676 22172 24816 14205 1238 1182 1016 8266 35728 13978 1153 448 786 1649 1512 25081 732 252 609 1159 4263 647 1451
internal_value=6.40247e-06 0.00218198 -0.00290608 -0.000998065 0.00129016 -0.00360022 0.00174596 0.000413037 0.00463203 0.00830121 0.00123397 -0.00588353 0.00578449 0.00864944 0.00123572 -0.00679305 -0.00740684 0.00594306 -0.0103927 -0.00525756 0.0152827 -0.00808085 -0.00378646 0.0222992 0.00853829 0.0131462 0.016792 -0.0126457 -0.00300909 0.0268678
internal_weight=83420.6 47755.8 35664.8 21744.1 14144.4 8497.52 46224.5 31629.3 14595.2 7009.46 28847.8 13920.7 1003.12 5646.92 7585.71 12917.5 12327.1 590.412 405.558 7599.68 1531.28 2781.49 6346.3 743.399 787.884 563.902 597.566 1253.38 223.983 560.568
internal_count=335333 191739 143594 87486 56865 34219 185605 127040 58565 28127 115852 56108 4027 22646 30438 52081 49706 2375 1630 30621 6134 11188 25572 2977 3157 2258 2397 5049 899 2245
is_linear=0
shrinkage=0.02


Tree=10
num_leaves=31
num_cat=0
split_feature=26 25 5 17 20 27 11 26 26 36 26 27 26 25 27 27 27 27 6 26 25 27 26 25 41 18 45 26 8 38
split_gain=1253.66 598.929 437.64 465.149 482.049 327.919 327.492 281.754 265.564 225.037 213.664 188.285 249.217 230.087 171.616 157.901 155.704 150.939 140.72 140.369 130.045 109.814 78.5608 82.9998 79.5281 90.3025 74.1214 66.6549 52.1066 36.5943
threshold=0.020404932162132437 0.41633333333333339 -0.13461538461538461 -0.066666666666666582 16.820704409286435 -0.062174740559020829 0.014347958475501929 0.01589933548419525 0.016542058522178361 0.0052644401458190613 0.0096108856397492982 -0.023897543991925136 0.019806170863790416 0.89571658436442336 0.089099062590194275 -0.031541412332252827 0.035177851891164257 0.025177210235536939 -0.13183088802499024 0.01385827527926615 0.24314939939939942 0.11425422500852404 0.022883867531471588 0.082498784637822078 -0.22791663569924439 2.3531087648734714 2.5000000000000004 0.022678213663878798 -0.023028611304954646 -0.17391447152504555
decision_type=2 2 2 2 2 2 2 2 2 2 2 2 2 2 2 2 2 2 2 2 2 2 2 2 2 2 2 2 2 2
left_child=1 5 22 4 9 18 15 10 -9 -4 -7 12 -8 -13 17 26 -6 -5 20 -17 -1 -16 23 -2 25 -24 -3 -25 -20 -26
right_child=2 6 3 14 16 7 11 8 -10 -11 -12 13 -14 -15 21 19 -18 -19 28 -21 -22 -23 24 27 29 -27 -28 -29 -30 -31
leaf_value=-0.0099892495204421585 -0.01358719430900733 -0.017022615509544141 0.0032311931590004233 0.0030751162691610347 -0.0069440723384094384 0.0098743498251826229 -0.0098928276411241484 0.0027960824133763588 -0.0047421539610538067 -0.00036391719678360602 -0.0092568182335882286 0.00059303955419078317 0.019956471834105847 -0.01783975298018136 -0.010546730351214147 0.014930764256091633 -0.00040514235632142185 0.0081709723646802949 0.020346347734958262 0.0045078587719737445 0.023706478503202701 0.010264141279353132 0.014542315130181963 0.0076912210794524739 0.0088160288874345443 0 0.0072207677250274863 -0.014279729779296164 0.0037665657058712399 -0.00062547975350131719
leaf_weight=203.28408817946911 92.261030286550522 176.23242327570915 15415.993447616696 4088.3901405930519 3940.8792089670897 237.21484214067459 1520.2186244428158 2168.1483663320541 13295.477823421359 12682.018949449062 6546.7755336463451 6547.8405431061983 115.72703072428703 277.53492476046085 413.12184984982014 609.10880456864834 2320.6619980335236 5464.2630459368229 304.4610256254673 3422.3701229989529 53.632987856864929 128.62830883264542 1643.6596402674913 706.48412747681141 382.58266262710094 188.01410253345966 65.291327863931656 54.734791353344917 108.09694956243038 277.34483496844769
leaf_count=818 371 711 61871 16409 15844 955 6132 8738 53587 50941 26411 26325 465 1119 1659 2446 9314 21914 1222 13751 215 516 6596 2840 1536 755 263 220 434 1114
internal_value=7.79173e-06 -0.00283017 0.00212501 0.00159894 0.000489123 -0.00476229 0.000645876 -0.00517842 -0.00368337 0.00160805 -0.00857814 -0.00163161 -0.00771472 -0.000166061 0.00537246 0.00515701 -0.00452605 0.00599487 0.00897256 0.00610414 -0.00256043 -0.00552032 0.00909735 0.00379471 0.0108945 0.0130447 -0.0103742 0.00600244 0.0161472 0.00484314
internal_weight=83450.5 35651.4 47799 44454 34359.6 22917.1 12734.3 22247.6 15463.6 28098 6783.99 8461.32 1635.95 6825.38 10094.4 4273 6261.54 9552.65 669.475 4031.48 256.917 541.75 3345.08 853.48 2491.6 1831.67 241.524 761.219 412.558 659.927
internal_count=335492 143592 191900 178468 137970 92380 51212 89691 62325 112812 27366 34041 6597 27444 40498 17171 25158 38323 2689 16197 1033 2175 13432 3431 10001 7351 974 3060 1656 2650
is_linear=0
shrinkage=0.02


Tree=11
num_leaves=31
num_cat=0
split_feature=26 28 34 46 46 46 46 46 34 46 28 34 28 46 28 28 12 28 40 26 46 17 46 42 28 14 18 26 46 26
split_gain=1221.55 625.78 508.446 506.96 1216.07 771.691 425.103 839.481 577.955 612.529 555.106 366.198 352.768 341.996 410.746 319.987 317.92 267.422 275.312 181.537 175.877 137.853 128.897 117.745 112.197 106.373 89.2701 80.4364 74.4204 62.2403
threshold=0.020404932162132437 -0.14119859802615292 -0.1122470755267536 4.5000000000000009 7.5000000000000009 9.5000000000000018 7.5000000000000009 8.5000000000000018 0.20303030303030303 6.5000000000000009 0.081963230655168348 -0.042326811861695561 -0.063284719426822053 11.500000000000002 1.0000000180025095e-35 0.078367651826878534 0.015794029518890723 -0.1261266742044421 -0.001866261603793836 0.018209688716550345 7.5000000000000009 -0.12880958996546657 3.5000000000000004 -0.29821872913703024 -0.034152856815125823 0.30952380942819352 0.056603773584905766 0.025102503137684723 4.5000000000000009 0.027961035075851615
decision_type=2 2 2 2 2 2 2 2 2 2 2 2 2 2 2 2 2 2 2 2 2 2 2 2 2 2 2 2 2 2
left_child=2 20 13 16 15 -6 8 11 9 -3 -10 -8 -9 17 26 -5 24 22 -19 -16 23 -18 -1 28 -4 27 -15 -22 -2 -27
right_child=1 6 3 4 5 -7 7 12 10 -11 -12 -13 -14 14 19 -17 21 18 -20 -21 25 -23 -24 -25 -26 29 -28 -29 -30 -31
leaf_value=0.024588278239745246 0.015485850255606805 -0.00075067500670529519 0.0070595762483661199 0.010057370778105789 -0.010837807316391166 0.0013776318844358579 -0.020186344345607767 0.008726052720214263 0.011745773932878545 0.0088169924946104004 0.0024814833682103052 -0.0055048208128524213 0.00025793631088680909 0.023540808062752747 -0.018217998638281364 -0.0053390877884930722 -0.0097722654148097009 -0.010767546647789871 -0.0046190364548582647 0.011546287186475301 0.025139168367026236 -0.0028599194637795823 0.0015037950284792756 0.0030023902518331118 -0.002043955108721446 0.004621151256342727 0.0073316595901289873 0.0073783280067977021 0.030562061671871286 -0.0144741647216735
leaf_weight=123.94340607523918 234.12367340922356 14108.148738905787 822.02295473217964 5157.4379115402699 3392.580234348774 5280.2932881712914 863.53039373457432 2344.6595440357924 5082.6554217636585 3297.3314716815948 5284.2283917367458 3190.3719494193792 12144.034024402499 313.88209067285061 287.36866503953934 598.11634604632854 3774.8875669538975 5255.1557258814573 6598.8187461644411 109.10283899307251 169.86792741715908 1682.3077432513237 399.3506645411253 117.891591578722 1559.8711489886045 260.61176791787148 255.82652716338634 271.28467108309269 391.18217566609383 86.851674035191536
leaf_count=497 937 56648 3310 20677 13729 21220 3501 9411 20373 13217 21183 12839 48765 1258 1157 2401 15240 21233 26616 438 680 6780 1608 472 6282 1044 1026 1087 1570 349
internal_value=5.55343e-05 0.00214314 -0.00274871 -0.000897267 0.00132604 -0.00340189 0.00172583 -0.000618165 0.00329138 0.00106271 0.00702896 -0.00865811 0.00163222 -0.0058354 0.00559127 0.00845066 -0.00499022 -0.00673089 -0.0073499 -0.00993572 0.014701 -0.0076496 0.00719023 0.021679 0.00109762 0.00800451 0.016424 0.0144671 0.0251167 -0.000232773
internal_weight=83457.7 47846.8 35611 22267.5 14428.4 8672.87 46315 18542.6 27772.4 17405.5 10366.9 4053.9 14488.7 13343.4 966.18 5755.55 7839.09 12377.3 11854 396.472 1531.81 5457.2 523.294 743.197 2381.89 788.616 569.709 441.153 625.306 347.463
internal_count=335548 192076 143472 89639 58027 34949 185937 74516 111421 69865 41556 16340 58176 53833 3879 23078 31612 49954 47849 1595 6139 22020 2105 2979 9592 3160 2284 1767 2507 1393
is_linear=0
shrinkage=0.02


Tree=12
num_leaves=31
num_cat=0
split_feature=26 28 25 46 46 28 24 28 46 25 24 46 26 28 26 26 46 40 46 26 12 46 44 5 23 26 28 40 2 46
split_gain=1169.1 656.526 592.559 456.888 666.805 451.746 447.897 431.566 505.784 425.254 542.926 394.716 386.74 361.678 286.527 329.297 284.489 283.883 267.09 222.798 208.3 168.544 143.925 113.643 105.424 112.893 66.3626 55.4551 47.9393 32.9066
threshold=0.020404932162132437 -0.14119859802615292 0.41633333333333339 4.5000000000000009 7.5000000000000009 -0.10174612587820571 0.0015063235994675023 0.018448632402938252 9.5000000000000018 0.2802214022140222 0.027608957021282875 1.5000000000000002 0.012046943642167355 0.040790263345465948 0.030605343548116049 0.030037059059471672 6.5000000000000009 -0.0028245287188633683 9.5000000000000018 0.01846944481377839 0.016760664186438737 7.5000000000000009 0.22448979591836751 -0.13461538461538461 0.084551160215169424 0.027961035075851615 -0.17649661588907251 -0.00037718499566727625 0.018443972871984186 10.500000000000002
decision_type=2 2 2 2 2 2 2 2 2 2 2 2 2 2 2 2 2 2 2 2 2 2 2 2 2 2 2 2 2 2
left_child=2 21 5 12 16 18 -6 8 -7 14 11 -11 28 -9 15 -3 -5 -12 19 -1 -14 23 -16 -2 25 -23 -26 -25 -4 -20
right_child=1 9 3 4 6 7 -8 13 -10 10 17 -13 20 -15 22 -17 -18 -19 29 -21 -22 24 -24 27 26 -27 -28 -29 -30 -31
leaf_value=0.0084810574382349971 0.028776061905387333 -0.0013587788528403239 0.033686751936271991 0.0048187227310136985 0.011254379209062328 -0.0092095781634582603 -0.0043358472337869563 0.0056750134512006415 -0.00073918897021516081 0.0090905604799674852 -0.01343936876794068 0.0025835535512791856 8.5249802724807425e-05 -0.0045177262499682428 -0.019829091607655957 0.02698430277385417 0.016060546008156443 -0.0011502964659385949 0.031696642550587843 -0.010634945005774389 -0.0095365109552406624 0.018111391667712355 -0.0046601784988812393 0.017874121978019672 0.013543714234155513 -0.0018186136161433969 -0.010587659890736891 0 0.0084087056464258528 0.016544808133542525
leaf_weight=690.72925938665867 413.72241577506065 9459.5875140279531 101.27450753748417 2086.4129860401154 894.82376244664192 11789.287321329117 4065.1941958069801 2157.7244191020727 3713.9176775664091 4312.9996385574341 1038.90302310884 27582.045902863145 1395.8619893491268 3902.7470028102398 486.66425777971745 161.81680727005005 1597.2867711335421 2707.5217205137014 120.19725307822227 370.15436440706253 2507.2662572562695 418.24266628921032 526.51661822199821 221.62024050951004 58.964299455285072 151.87208914756775 152.00821568071842 97.394005119800568 50.964182436466217 169.92676028609276
leaf_count=2780 1662 38015 406 8368 3596 47643 16378 8687 14941 17290 4185 110684 5616 15746 1960 650 6396 10875 481 1492 10123 1674 2116 888 236 609 611 390 205 680
internal_value=-4.69502e-05 0.00199683 -0.00278994 0.000674 0.00327341 -0.00471022 -0.00151073 -0.00541387 -0.00718261 0.00157151 0.00261894 0.00346538 -0.00485872 -0.000883796 -0.00193664 -0.000866247 0.00971387 -0.00457682 0.00648465 0.0017739 -0.00609469 0.0149374 -0.0120275 0.0218276 0.00835046 0.0127978 -0.00359321 0.0124496 0.0258882 0.0233206
internal_weight=83403.6 47789.9 35613.8 12699.1 8643.72 22914.7 4960.02 21563.7 15503.2 46276.1 35641.5 31895 4055.37 6060.47 10634.6 9621.4 3683.7 3746.42 1351.01 1060.88 3903.13 1513.82 1013.18 732.737 781.087 570.115 210.973 319.014 152.239 290.124
internal_count=335383 191845 143538 51088 34738 92450 19974 87017 62584 185775 143034 127974 16350 24433 42741 38665 14764 15060 5433 4272 15739 6070 4076 2940 3130 2283 847 1278 611 1161
is_linear=0
shrinkage=0.02


Tree=13
num_leaves=31
num_cat=0
split_feature=26 25 46 46 18 39 46 20 12 46 46 46 27 46 45 34 34 27 27 39 34 36 44 46 26 25 26 44 46 12
split_gain=1053.53 571.46 446.142 882.011 500.154 418.703 400.2 399.859 365.629 391.264 364.256 828.678 510.87 440.588 358.807 342.113 307.379 273.365 234.726 232.478 259.573 228.018 212.967 198.449 265.656 156.564 133.371 123.244 110.12 104.068
threshold=0.020404932162132437 0.41633333333333339 7.5000000000000009 8.5000000000000018 0.54088370153164378 -0.032528936627976186 6.5000000000000009 17.05544488726208 0.016177226778707626 4.5000000000000009 9.5000000000000018 7.5000000000000009 -0.031541412332252827 5.5000000000000009 1.5000000000000002 -0.042326811861695561 0.1926632205145731 0.089099062590194275 -0.057292439023622285 0.03829674282147618 -0.02877389710259259 0.080733542698135333 0.9247832511287235 7.5000000000000009 0.01385827527926615 0.16336324619586426 0.012046943642167355 0.61126963179854099 11.500000000000002 0.047514884675844443
decision_type=2 2 2 2 2 2 2 2 2 2 2 2 2 2 2 2 2 2 2 2 2 2 2 2 2 2 2 2 2 2
left_child=1 10 4 15 6 27 21 -7 23 26 11 13 25 -1 -14 -4 -11 -8 -13 20 -6 -2 -17 24 -3 -12 -10 -5 -25 -21
right_child=2 8 3 5 19 7 17 -9 9 16 12 18 14 -15 -16 22 -18 -19 -20 29 -22 -23 -24 28 -26 -27 -28 -29 -30 -31
leaf_value=-0.0056426990956194084 -0.0006833632986583746 0.023957650220945776 -0.019785077711795787 0.013177837509360819 -0.00092879726804795306 0.0020277241075381987 0.0090913256811609739 -0.0073722585959158909 0.017101200155378918 -0.0011770733378230406 0.0021123907639054233 0.010261956531179416 -0.010443472988493194 0.0024626580093951209 0.0016819348999348486 -0.0087379086299868552 0.0098436549317402061 -0.018428703624112044 -0.014739647663774794 0.003961014377798033 0.0097875485876118499 0.013272987008080744 0.0028676844434015526 -0.0032328792822700885 0.0062266181812984846 0.017602976032863184 -0.0086961750375011988 0.002847179689759768 0.0087017921158080731 -0.0049464127112851591
leaf_weight=10037.521186202765 13032.017684310675 393.91533575952053 866.1214238256216 1485.751900434494 1025.3251416087151 10908.622012600303 2970.8271001726389 2164.7843723893166 77.703457847237587 4403.8387461453676 414.2817148566246 151.91661927103996 1612.8793366402388 3653.0594217479229 2452.8690875917673 2340.6378883719444 1308.3971869647503 146.72805219888687 3891.731424972415 2815.75416842103 7387.8577487170696 480.66441896557808 860.02630941569805 1161.2761242091656 2313.9451408088207 722.37944537401199 2597.8475725948811 681.98961454629898 415.80010376870632 638.28740860521793
leaf_count=40552 52314 1579 3520 5962 4119 43775 11903 8713 312 17711 1664 611 6495 14693 9867 9428 5253 590 15805 11287 29605 1933 3458 4681 9289 2899 10498 2736 1667 2560
internal_value=1.91835e-05 -0.00258466 0.00195922 -0.000387102 0.00354942 0.00182043 0.00130898 0.000467458 0.0008224 -0.00160392 -0.00446773 -0.00583253 0.000181938 -0.00347838 -0.00313021 -0.00865727 0.00135015 0.00776225 -0.0137839 0.00668553 0.00847938 -0.000180712 -0.00561361 0.00557294 0.00885274 0.0120086 -0.007909 0.00995096 -5.6075e-05 0.00230442
internal_weight=83414.8 35609.4 47805.4 19307.9 28497.5 15241.1 16630.2 13073.4 12672.7 8387.79 22936.6 17734.2 5202.41 13690.6 4065.75 4066.79 5712.24 3117.56 4043.65 11867.2 8413.18 13512.7 3200.66 4284.94 2707.86 1136.66 2675.55 2167.74 1577.08 3454.04
internal_count=335479 143576 191903 77592 114311 61186 66740 52488 50990 33774 92586 71661 20925 55245 16362 16406 22964 12493 16416 47571 33724 54247 12886 17216 10868 4563 10810 8698 6348 13847
is_linear=0
shrinkage=0.02


Tree=14
num_leaves=31
num_cat=0
split_feature=26 28 12 46 46 46 34 27 24 27 28 28 20 46 46 40 41 46 27 46 26 28 42 40 26 27 28 46 46 40
split_gain=1102.26 581.262 457.413 452.357 550.205 1158.35 714.109 421.464 541.056 420.294 408.324 413.225 381.882 361.157 269.919 246.501 230.244 172.081 168.713 162.528 126.93 124.65 115.624 107.825 101.922 133.11 96.1272 87.7436 63.2001 49.4499
threshold=0.020404932162132437 -0.14119859802615292 0.012599646523010792 4.5000000000000009 7.5000000000000009 9.5000000000000018 -0.0081366449836589565 0.035177851891164257 0.02622371696986504 -0.062174740559020829 0.10360994273430189 0.028167846903926968 17.303197498265032 7.5000000000000009 4.5000000000000009 0.00075009413138801579 -0.051282051282051259 9.5000000000000018 0.0075154564648432223 7.5000000000000009 0.018707936508253014 0.068960669739106403 -0.27576699737545451 1.0000000180025095e-35 0.025102503137684723 -0.041462227907946625 0.019022887047338757 11.500000000000002 4.5000000000000009 -0.0098046199949494341
decision_type=2 2 2 2 2 2 2 2 2 2 2 2 2 2 2 2 2 2 2 2 2 2 2 2 2 2 2 2 2 2
left_child=2 19 13 9 6 -6 -5 8 12 29 11 -9 -3 14 20 -10 -12 23 -11 22 -1 -19 28 -15 25 -21 -16 -26 -2 -4
right_child=1 7 3 4 5 -7 -8 10 15 18 16 -13 -14 17 26 -17 -18 21 -20 24 -22 -23 -24 -25 27 -27 -28 -29 -30 -31
leaf_value=0.0042674166971413338 0.015386766236697194 0.0017467138987071252 0.029518212574300953 -0.002922430429717484 -0.012101042479142954 0.00059961378904114539 0.0095184000791778221 0.0016539573987405987 -0.016790704583452377 -0.006198960162725517 -0.0034967534483897047 0.011672639125460436 -0.0051371208404903555 -0.014550397033026349 0.009789136019630466 0 0.003781307904767967 -0.00088133521247200171 -0.012307222571933356 0.02997639818551889 -0.0077223600945915865 0.022847156595625237 0.001905831289499092 0.00095936247806130762 -0.0035251280911042576 0.0044496732197696742 0.021639397312693629 0.016703747970237576 0.029340696152702683 0.010468196448532752
leaf_weight=1500.7952549904585 237.17753839492798 26469.765613883734 98.259349346160889 4315.0523252934217 4800.7354004383087 7132.038919582963 3215.6873419731855 2652.7075016647577 1035.1708721667528 7723.6622916907072 2689.1893403530121 4367.5118570923805 3664.5212462693453 669.46415363252163 1242.4612446427345 525.05713512003422 4891.238526403904 1269.5514264702797 2383.737280279398 146.57220815122128 455.84205885231495 90.11015747487545 112.13918150961399 240.19761684536934 343.06828121840954 186.56072172522545 360.93538157641888 108.61203260719776 387.2694176286459 145.40492896735668
leaf_count=6044 950 106259 394 17371 19490 28680 12884 10648 4177 31244 10789 17502 14737 2721 4990 2111 19617 5104 9640 587 1841 362 449 975 1376 748 1446 435 1561 584
internal_value=2.48007e-05 0.00200938 -0.00263687 -0.00363889 -0.00184011 -0.00451131 0.00239004 0.00160833 0.000312248 -0.00701675 0.00441937 0.00789363 0.000908219 0.0024833 0.00645639 -0.0111517 0.00119614 -0.00374124 -0.00764689 0.0141547 0.00145137 0.000754538 0.0208998 -0.0104503 0.00770655 0.0160173 0.0125281 0.00142498 0.0242368 0.0186697
internal_weight=83460.5 47816.6 35643.9 29814.6 19463.5 11932.8 7530.74 46295.2 31694.5 10351.1 14600.6 7020.22 30134.3 5829.36 3560.03 1560.23 7580.43 2269.32 10107.4 1521.4 1956.64 1359.66 736.586 909.662 784.813 333.133 1603.4 451.68 624.447 243.664
internal_count=335716 191946 143770 120287 78425 48170 30255 185840 127284 41862 58556 28150 120996 23483 14321 6288 30406 9162 40884 6106 7885 5466 2960 3696 3146 1335 6436 1811 2511 978
is_linear=0
shrinkage=0.02


Tree=15
num_leaves=31
num_cat=0
split_feature=26 28 25 17 20 28 46 27 28 46 46 26 26 27 26 46 28 12 45 27 46 46 46 9 46 14 26 26 2 46
split_gain=1063.06 546.251 519.487 408.448 414.682 397.997 610.811 509.271 458.603 389.202 593.687 456.883 381.819 379.5 367.442 364.828 346.655 197.366 193.852 160.128 216.324 152.242 152.183 117.03 113.288 98.3235 100.848 57.6616 49.4928 45.2693
threshold=0.020404932162132437 -0.14119859802615292 0.41633333333333339 -0.063063063063063016 16.820704409286435 -0.086592607995912507 9.5000000000000018 -0.051558524001647482 0.00954928943444339 4.5000000000000009 7.5000000000000009 0.019615869107134361 0.012046943642167355 -0.021239451975145218 0.01549596540610468 11.500000000000002 0.073745142652660925 0.016760664186438737 1.5000000000000002 0.089099062590194275 7.5000000000000009 10.500000000000002 7.5000000000000009 -0.056202567648640338 10.500000000000002 0.2697419549678694 0.027961035075851615 0.025102503137684723 0.017969946928465211 4.5000000000000009
decision_type=2 2 2 2 2 2 2 2 2 2 2 2 2 2 2 2 2 2 2 2 2 2 2 2 2 2 2 2 2 2
left_child=2 22 5 4 15 6 7 -1 14 12 13 -12 28 -11 -7 -3 -6 -14 -10 20 -5 -21 23 29 -8 27 -27 -24 -4 -2
right_child=1 3 9 19 16 8 24 -9 18 10 11 -13 17 -15 -16 -17 -18 -19 -20 21 -22 -23 25 -25 -26 26 -28 -29 -30 -31
leaf_value=0.013941936307350234 0.017002280109347769 0.00085404227556964279 0.033304699967908954 0.0081110280210016823 0.00014462141820746705 -0.012374597134868007 0.031605533530387329 -0.0094967067015241709 -0.0057907596607236116 -0.0082259878078397713 -0.0040062380665693833 0.013191993039721701 0.00025930881955217279 0.0114505684708411 -0.0052363334832564133 0.0081995523060316572 -0.0089982707611114595 -0.0091026492501549948 0.0011736431921123005 -0.01201936371078012 0.0016723312926424155 0.011778088553460228 0.026735915876180495 0.0087597604151536685 0.012659229798905998 0.0070849883262000413 -0.013544561041100814 0.0089070018902088332 0.0077508916482227977 0.030812953292413969
leaf_weight=531.6938189715147 184.84635454416275 26919.07515129447 105.67653162777424 5890.8848347812891 3736.5214262455702 4196.2743811458349 260.21557669341564 1193.4046120196581 2411.2702408581972 440.94140061736107 4238.7899407744408 717.93110769987106 1401.5855681747198 3249.8364499211311 9313.8420691490173 3003.3822305947542 2971.8389081805944 2493.9083818942308 4712.4581225663424 383.54847487807274 3249.3800656497478 143.44349177181721 120.19272971153259 253.44815699756145 271.90911948680878 351.61469741165638 123.87824846804142 204.91702648997307 50.023706495761871 304.42033240199089
leaf_count=2139 741 108074 423 23595 15024 16999 1042 4830 9740 1775 17084 2887 5638 13013 37645 12039 11942 10096 19012 1541 13054 575 482 1016 1088 1409 498 821 201 1232
internal_value=-4.33686e-06 0.00194252 -0.00262186 0.00155106 0.000585121 -0.00442136 0.0035405 -0.00224169 -0.00529395 0.000620865 0.0030184 -0.00150043 -0.00448929 0.00908643 -0.00745873 0.00159324 -0.00390643 -0.00573311 -0.0011833 0.00520689 0.00582641 -0.00545445 0.0136302 0.0201493 0.0221694 0.00747004 0.00158381 0.015864 0.0257158 0.0258605
internal_weight=83431.2 47841.4 35589.8 46298.1 36630.8 22891.1 2257.22 1725.1 20633.8 12698.7 8647.5 4956.72 4051.19 3690.78 13510.1 29922.5 6708.36 3895.49 7123.73 9667.26 9140.26 526.992 1543.32 742.715 532.125 800.603 475.493 325.11 155.7 489.267
internal_count=335655 192043 143612 185844 147079 92495 9099 6969 83396 51117 34759 19971 16358 14788 54644 120113 26966 15734 28752 38765 36649 2116 6199 2989 2130 3210 1907 1303 624 1973
is_linear=0
shrinkage=0.02


Tree=16
num_leaves=31
num_cat=0
split_feature=26 28 24 27 24 28 20 28 28 12 46 46 26 46 26 46 28 44 24 28 46 24 5 23 26 28 27 46 46 41
split_gain=1018 542.022 462.974 414.05 508.546 399.777 387.165 386.115 352.182 354.797 535.118 305.987 471.519 506.007 374.273 286.291 252.388 237.256 222.478 154.07 145.875 135.362 114.896 93.9452 104.034 52.6768 48.9828 26.3471 23.1215 9.35164
threshold=0.020404932162132437 -0.14119859802615292 0.0036987701522276997 0.035177851891164257 0.02622371696986504 0.10360994273430189 17.270759458572858 0.026744540238517515 -0.1533509468446326 0.014569436228882392 9.5000000000000018 4.5000000000000009 0.019615869107134361 7.5000000000000009 0.020296921160957233 7.5000000000000009 0.0032775378075623608 0.65553578565545678 0.0051066104120063493 -0.026629799950283629 7.5000000000000009 0.021420728772934421 -0.1179019650655022 0.083255388797955118 0.025102503137684723 -0.17649661588907251 0.010898003808244803 4.5000000000000009 4.5000000000000009 -0.24249615418400003
decision_type=2 2 2 2 2 2 2 2 2 2 2 2 2 2 2 2 2 2 2 2 2 2 2 2 2 2 2 2 2 2
left_child=2 20 8 4 6 7 -3 -5 28 15 -11 18 13 -13 -14 -10 -6 -7 19 -4 22 -20 27 24 -22 -25 -24 -2 -1 -30
right_child=1 3 11 5 16 17 -8 -9 9 10 -12 12 14 -15 -16 -17 -18 -19 21 -21 23 -23 26 25 -26 -27 -28 -29 29 -31
leaf_value=0.010963347437111184 0.018127695125525756 0.0016625548417682316 -0.012027955638874061 0.0017040736636376626 -0.01955677989375668 -0.00099410864180579628 -0.0051460148373421999 0.011396785289965823 0.0032077691639624921 -0.00711199133263453 0.00046466994290557043 0.0091778881643778155 0.024698393876848454 -0.0042986946461581526 -0.0070494344539207008 -0.0050607398052238918 -0.0033587954726613414 0.0070546356900399003 -0.0052061251996540448 0.019938653893524148 0.02071183505526538 -0.02984533267584424 0.014023458746386972 0.012249572577655608 0.0035000227316185108 -0.008863811091236384 -0.0057115562369566058 0.03009912356405409 0.034322620594842583 0.017802070104858393
leaf_weight=55.044307023286819 154.76951283216476 26337.740322425961 76.63958951830864 2650.2747254222631 719.89061093330383 5601.2865174561739 3820.1427045315504 4356.1136274337769 4202.7679044902325 15612.88631080091 4890.8962088525295 2025.8295424580574 681.05575075745583 2463.2407616823912 185.99314312636852 2777.576978802681 833.10164111852646 1977.0627692192793 2117.5823627710342 229.00155971944332 274.57204507291317 88.901128485798836 205.35417850315571 59.687269121408463 293.91056305170059 168.19685287773609 61.397096633911133 298.38263382017612 73.450339466333389 49.959318310022354
leaf_count=221 621 105710 310 10636 2908 22473 15369 17449 16932 63201 19673 8116 2731 9935 749 11232 3357 7924 8556 923 1101 362 824 239 1178 676 246 1211 294 200
internal_value=-1.23249e-05 0.00189284 -0.00257647 0.00150619 0.000222616 0.00429459 0.00079873 0.00773705 -0.00379413 -0.00397843 -0.00530403 0.00170163 0.0044033 0.00178202 0.0178638 -8.07906e-05 -0.0109189 0.0011063 -0.00404796 0.0117941 0.0136414 -0.00627314 0.0201661 0.00762928 0.0119561 -0.00310366 0.00938602 0.0262965 0.0238169 0.028744
internal_weight=83342.7 47811.9 35530.8 46295.6 31710.9 14584.7 30157.9 7006.39 27662.6 27484.1 20503.8 7868.24 5356.12 4489.07 867.049 6980.34 1552.99 7578.35 2512.12 305.641 1516.27 2206.48 719.903 796.367 568.483 227.884 266.751 453.152 178.454 123.41
internal_count=335357 191922 143435 185826 127344 58482 121079 28085 111753 111038 82874 31682 21531 18051 3480 28164 6265 30397 10151 1233 6096 8918 2902 3194 2279 915 1070 1832 715 494
is_linear=0
shrinkage=0.02


Tree=17
num_leaves=30
num_cat=0
split_feature=26 28 24 25 34 28 24 25 24 24 26 28 28 25 25 26 28 26 25 45 4 39 26 26 20 21 18 42 20
split_gain=982.724 742.472 637.768 463.598 430.678 287.121 285.755 276.225 311.88 263.901 277.467 255.834 244.58 216.061 190.971 154.822 147.099 127.372 124.706 110.003 99.5955 91.3399 69.8142 69.489 52.5598 28.8957 25.7082 19.3709 16.707
threshold=0.017274119625371277 -0.1533509468446326 -0.0052256029399076137 0.87939393939393951 -0.1346153846153845 0.0043305421497256249 0.0032849481929088857 0.21263297872340428 -0.0072923504008695446 -0.0054463563338914599 0.030605343548116049 0.0069050804417714641 -0.115662136837221 0.22745750184774577 0.36027128242601397 0.012046943642167355 -0.097914973098451943 0.016088787399745362 0.09441390580894371 1.0000000180025095e-35 -0.013051197189493101 -0.039192642863332378 0.01385827527926615 0.015398129735620244 16.921091181600278 -0.49645507006805484 1.8252087718107137 -1.0517428608462811 14.561964117772414
decision_type=2 2 2 2 2 2 2 2 2 2 2 2 2 2 2 2 2 2 2 2 2 2 2 2 2 2 2 2 2
left_child=4 21 9 6 11 -5 -4 16 28 10 -3 12 17 -14 -11 -10 23 -1 20 -18 -13 26 -20 -6 25 -23 27 -2 -9
right_child=1 2 3 5 7 -7 -8 8 15 14 -12 18 13 -15 -16 -17 19 -19 22 -21 -22 24 -24 -25 -26 -27 -28 -29 -30
leaf_value=0.018242489676046809 0.024575836828957295 -0.0012921104070207565 0.00072243768877826558 -0.011099356343042648 0.025812520968018934 0.00012166095796670025 0.0039949715811773432 0.016108859920758615 0.0089674747792432962 -0.022684270565598647 -0.011255066849057849 -0.0045085684097042802 -0.017843428745097065 -0.0085182747830958253 0.0136483126801487 -0.0013678654178367886 -0.00049674131688836449 -0.010889110391432026 0.0079030911952925314 -0.0098197227955345925 0.027645371249490753 0.0053617598196277335 -0.005460486834509135 -0.0020130688697497633 -0.0047912673847647341 0.016248468088977758 0.0093963487122677349 0.013414238907336609 0.033149065673981126
leaf_weight=164.80441632866859 502.56363672018051 16412.448913305998 18392.568570747972 1603.0726693868637 72.394088611006737 2099.3672094941139 25488.717549845576 58.784639120101929 628.61240166425705 386.57005921006203 1195.9954109042883 57.960934638977051 1614.581033796072 2662.6365697532892 63.747052639722824 6791.8257306665182 648.89714395999908 87.867141291499138 184.99019578099251 2383.6558843106031 98.247679382562637 160.93511821329594 865.35532000660896 63.397333085536957 76.415355205535889 307.78124763071537 79.758680582046509 104.6458038687706 98.049715727567673
leaf_count=663 2027 66108 73971 6472 290 8437 102269 236 2531 1563 4813 235 6563 10780 256 27408 2623 354 746 9650 396 647 3498 256 307 1237 320 421 393
internal_value=4.68355e-05 0.00112521 0.000835532 0.00205018 -0.00432637 -0.00473981 0.002624 -0.00196012 0.000111874 -0.00236355 -0.00197295 -0.00874984 -0.0109277 -0.0120598 -0.0174037 -0.000484179 -0.00691406 0.00801957 -0.000545248 -0.0078355 0.0158208 0.0164763 -0.00306161 0.0130693 0.0101464 0.0126488 0.0213609 0.0228102 0.0275807
internal_weight=83356.6 66874.6 65642.5 47583.7 16482.1 3702.44 43881.3 10745.6 7577.27 18058.8 17608.4 5736.44 4529.89 4277.22 450.317 7420.44 3168.34 252.672 1206.55 3032.55 156.209 1232.1 1050.35 135.791 545.132 468.716 686.968 607.209 156.834
internal_count=335470 268848 263889 191149 66622 14909 176240 43387 30568 72740 70921 23235 18360 17343 1819 29939 12819 1017 4875 12273 631 4959 4244 546 2191 1884 2768 2448 629
is_linear=0
shrinkage=0.02


Tree=18
num_leaves=31
num_cat=0
split_feature=17 46 46 46 28 28 28 28 46 46 46 46 28 47 46 27 28 46 44 38 11 11 27 28 18 27 44 28 46 46
split_gain=848.722 861.388 867.848 1186.5 1054.34 880.432 725.566 495.976 461.17 331.375 323.53 346.378 369.107 354.516 314.125 278.886 277.499 224.031 211.49 244.712 197.371 174.358 173.873 172.791 127.547 115.34 107.073 148.373 80.5627 76.2436
threshold=-0.085817204611950457 11.500000000000002 7.5000000000000009 6.5000000000000009 -0.08781310227884298 0.09904575391262517 -0.1533509468446326 -0.0016337712655555506 9.5000000000000018 8.5000000000000018 7.5000000000000009 3.5000000000000004 0.22736052401499635 0.75885840502208801 1.5000000000000002 0.026923311140554816 -0.03038657024173758 9.5000000000000018 3.4319948824733668 0.47725920222689583 0.025570216078425651 0.014952053475226752 -0.0067249648826054574 0.024476838431058624 0.74360773287884341 0.0024173032148172213 0.047776135301406571 0.015750197470355758 4.5000000000000009 11.500000000000002
decision_type=2 2 2 2 2 2 2 2 2 2 2 2 2 2 2 2 2 2 2 2 2 2 2 2 2 2 2 2 2 2
left_child=1 2 3 6 9 -5 -1 16 -6 -4 11 14 13 -13 24 20 22 18 19 -12 -9 -16 -3 -17 -2 -18 29 -28 -14 -19
right_child=10 7 4 5 8 -7 -8 15 -10 -11 17 12 28 -15 21 23 25 26 -20 -21 -22 -23 -24 -25 -26 -27 27 -29 -30 -31
leaf_value=0.02062073378950811 0.0025353676992282631 0.0035236421263468627 -0.020047595520491308 0.012051986997018429 -0.009661300889265324 -0.0065489900028348281 -0.0018138166798518285 -0.008412676271453607 -0.0034197807881215471 0.0087752612722123546 -0.0092067257119706931 0.013709578915565401 0.0030710581384535006 0.0041252357762194989 0.0067710474436146082 0.026188234922787913 0.024945932584826656 0.0035715216462175381 0.009714828934482193 0.0052048262347722564 0.005625841099096837 -0.0055641370633105437 0.016289317358488844 0.0048679236593188284 0.015042603492665728 0.010085416251694575 -0.0019689837633833853 0.010938584195880355 -0.020754701260935992 -0.0070326723381014733
leaf_weight=581.95719340443611 611.83136956393719 1365.2928444445133 165.48209699988365 4852.4077923893929 9524.9727365970612 1282.7086317837238 32492.695383712649 1325.2955390661955 9455.1330693811178 2473.0290555208921 1929.2197305262089 3870.1094853132963 76.456134498119354 2587.5534524023533 592.01109524071217 177.80781531333923 705.67475382983685 696.66931721568108 408.24079927802086 617.57605870068073 567.36723087728024 1960.022852614522 622.44759875535965 954.12003068625927 710.54394692182541 317.8364410251379 488.72871598601341 1272.2484162002802 190.25650301575661 436.63197794556618
leaf_count=2350 2453 5476 674 19464 38598 5141 130879 5327 38028 9947 7784 15506 307 10371 2379 713 2831 2796 1641 2488 2279 7875 2496 3824 2846 1274 1962 5103 764 1753
internal_value=2.58154e-05 -0.000975195 -0.00169067 8.27966e-05 -0.00490741 0.00815754 -0.00141541 0.00622737 -0.0065548 0.00692548 0.00409536 0.00617845 0.00892188 0.00987844 0.00140647 0.000496779 0.0119663 0.0003154 -0.0035516 -0.00570086 -0.00419005 -0.0026872 0.00756201 0.00833504 0.00930222 0.0204221 0.00426979 0.00734955 -0.0139203 -0.000509378
internal_weight=83312.3 66864.2 60828.4 39209.8 21618.6 6135.12 33074.7 6035.84 18980.1 2638.51 16448.1 10598.8 6724.38 6457.66 3874.41 3024.59 3011.25 5849.32 2955.04 2546.8 1892.66 2552.03 1987.74 1131.93 1322.38 1023.51 2894.28 1760.98 266.713 1133.3
internal_count=335329 269301 245081 157834 87247 24605 133229 24220 76626 10621 66028 42501 26948 25877 15553 12143 12077 23527 11913 10272 7606 10254 7972 4537 5299 4105 11614 7065 1071 4549
is_linear=0
shrinkage=0.02


Tree=19
num_leaves=31
num_cat=0
split_feature=26 28 34 27 24 28 28 24 24 27 6 24 44 24 24 37 28 24 6 28 26 42 38 34 28 24 28 26 44 41
split_gain=886.169 495.229 442.515 362.046 498.884 376.955 358.635 336.41 276.525 235.111 272.64 234.616 227.025 173.949 255.487 159.775 156.357 141.62 140.016 178.726 120.689 118.563 98.4133 90.4774 52.1088 52.0097 52.4552 47.2359 32.8987 26.6823
threshold=0.020404932162132437 -0.14119859802615292 -0.10515071380992928 0.035177851891164257 0.019830591118742014 0.10360994273430189 0.026744540238517515 -0.004945714257108518 0.0044608916772104568 -0.059206388324634283 -0.040570026660953544 0.019409308158467847 0.61126963179854099 0.0019015086554422108 -0.00025576132276462212 0.8712318646269076 -0.1533509468446326 0.042794878053994574 -0.13620667071529788 -0.035463640090914163 0.013640054477359493 -0.91031998134677872 -0.17391447152504555 0.59810427859660131 -0.081405222224458867 0.0076434677772977237 -0.17649661588907251 0.025102503137684723 0.2003058103975536 -0.14054054054054047
decision_type=2 2 2 2 2 2 2 2 2 2 2 2 2 2 2 2 2 2 2 2 2 2 2 2 2 2 2 2 2 2
left_child=2 21 9 4 7 6 -5 -3 13 18 16 15 -7 14 -4 -10 -11 -6 19 -1 -15 23 -12 27 -20 26 -23 -2 -13 -27
right_child=1 3 8 5 17 12 -8 -9 11 10 22 28 -14 20 -16 -17 -18 -19 24 -21 -22 25 -24 -25 -26 29 -28 -29 -30 -31
leaf_value=-0.0094279099510296248 0.02413508012383575 -0.0020604913417343928 -0.0022163681903686243 0.0015045895747705449 -0.0060557398035131979 -0.0011722938870253397 0.010862380379160524 0.0025035276283403339 0.0081657086113343796 0.020293944169517415 -0.013693348641204611 -0.020294530394598644 0.0066072291848649455 0.0060853797095269538 0.0051792153733540474 0.00059266321018313186 -0.0042456760272506951 -0.019055712712161468 0.023383813317008811 0.028082232946141886 -0.010652753741652882 0.011417174123890879 -0.0070489693571185843 -0.0032143243978578601 0.0061376925334541664 0.017533640726528261 -0.0064177779891293552 0.014554516808326794 -0.0020176943102265038 0.00064015452817326737
leaf_weight=266.0031823515892 380.74111974239349 9711.1451476812363 13298.949362203479 2629.852309435606 2347.3227743059397 5564.5254975408316 4371.2135450989008 19256.845695286989 2418.304645627737 99.866874605417252 1832.258940294385 169.69132462143898 2047.7625076323748 194.45198358595371 2167.7520325630903 2075.8407793343067 9526.8283584415913 391.00129048526287 175.31900106370449 57.462660014629364 1264.4030357599258 92.218143463134766 1811.2400699257851 80.396278575062752 128.40665864944458 130.5289611518383 199.4645122140646 579.39149169623852 55.651575818657875 55.65133011341095
leaf_count=1073 1540 39046 53742 10554 9460 22326 17503 77257 9728 400 7451 687 8205 782 8716 8359 38548 1583 703 231 5100 371 7341 323 517 525 801 2338 225 223
internal_value=-5.71162e-06 0.0017712 -0.00239781 0.00140154 0.000200288 0.00400554 0.00735369 0.000972717 -0.000608249 -0.00518237 -0.0057492 0.00366888 0.000920794 -0.00180279 -0.0011772 0.00467672 -0.00397862 -0.00795063 0.00672969 -0.00237742 -0.00839489 0.0129933 -0.01041 0.0167771 0.0163749 0.00462427 -0.000614297 0.0184798 -0.0160094 0.0127374
internal_weight=83380.5 47838.1 35542.4 46319.7 31706.3 14613.4 7001.07 28968 21645 13897.4 13270.2 4719.49 7612.29 16925.6 15466.7 4494.15 9626.7 2738.32 627.192 323.466 1458.86 1518.39 3643.5 1040.53 303.726 477.863 291.683 960.133 225.343 186.18
internal_count=335658 192055 143603 185934 127346 58588 28057 116303 87339 56264 53740 18999 30531 68340 62458 18087 38948 11043 2524 1304 5882 6121 14792 4201 1220 1920 1172 3878 912 748
is_linear=0
shrinkage=0.02


Tree=20
num_leaves=31
num_cat=0
split_feature=17 46 46 46 28 28 28 46 40 28 25 46 46 28 46 47 28 44 23 46 38 27 27 18 27 37 46 28 17 46
split_gain=828.969 829.55 809.085 1138.28 1035.88 884.223 681.92 561.195 540.975 488.618 406.665 299.864 336.442 389.86 331.465 326.52 270.842 242.438 183.531 177.372 263.51 173.081 145.205 143.296 141.534 119.88 87.2969 87.2831 80.4255 68.92
threshold=-0.085817204611950457 11.500000000000002 7.5000000000000009 6.5000000000000009 -0.070932166839295138 0.09904575391262517 -0.1533509468446326 8.5000000000000018 -0.0019372974768607444 -0.0016337712655555506 0.84888254542922803 7.5000000000000009 3.5000000000000004 0.22736052401499635 1.5000000000000002 0.74177113965846375 -0.03038657024173758 0.77795763995481293 0.064610416348575617 9.5000000000000018 0.43230034759761532 -0.0067249648826054574 -0.0075511579351545451 0.67919899749373447 0.0024173032148172213 0.80019787097589334 4.5000000000000009 0.068960669739106403 -0.21874999999999992 11.500000000000002
decision_type=2 2 2 2 2 2 2 2 2 2 2 2 2 2 2 2 2 2 2 2 2 2 2 2 2 2 2 2 2 2
left_child=1 2 3 6 7 -5 -1 -4 -6 16 18 12 14 15 23 -14 21 19 -11 20 -13 -3 -19 -2 -18 -16 -15 -24 -12 -21
right_child=11 9 4 5 8 -7 -8 -9 -10 10 28 17 13 26 25 -17 24 22 -20 29 -22 -23 27 -25 -26 -27 -28 -29 -30 -31
leaf_value=0.019787499486999802 0.0017465719852663391 0.0033580239559680152 -0.017047853327898984 0.011770513363090878 -0.011131860610435796 -0.0069215823788858202 -0.0018528745788410695 0.0067704880277242117 -0.0039775745671568694 -0.0042575861563968233 0.032605851030023357 -0.011114174946864553 0.013621586702469995 0.0030972324365750466 0.0027166706970261629 0.0044769000210853919 0.025128680271608334 -0.0037872896694349117 0.0087169177231538955 0.0047258121357726555 0.0054122632729569258 0.016148113370092851 0.0025012607036525949 0.015017460880047811 0.0088274575723754009 -0.0062198887943603967 -0.021711070499091722 0.012875225220495777 0.0074260638829196247 -0.0028715483242320984
leaf_weight=588.00607545673847 572.18923060595989 1354.4879523664713 438.19869014620781 4882.2674696296453 7224.513195514679 1271.7241653054953 32417.379549637437 3673.7797676026821 10235.895021498203 2267.5312755554914 166.08597588539124 1438.7260421961546 3683.1954132467508 76.22419373691082 951.47654068470001 2735.1714845448732 705.14581507444382 436.33333514630795 534.16319295763969 1215.6870681792498 521.41971446573734 616.87067258358002 504.62807624042034 765.94107711315155 321.43331032991409 1601.362978219986 192.02072010934353 946.41764566302299 80.515173599123955 777.05017675459385
leaf_count=2381 2294 5433 1791 19580 29258 5098 130615 14792 41288 9108 665 5814 14752 306 3822 10961 2826 1757 2143 4878 2101 2473 2026 3067 1288 6437 772 3797 323 3120
internal_value=-1.06714e-05 -0.00100086 -0.0017046 8.38007e-06 -0.00481431 0.00790206 -0.0014638 0.00420977 -0.00694126 0.00606019 0.000411945 0.00401469 0.00602247 0.00874238 0.00133798 0.00973423 0.0117864 0.000372834 -0.00176566 -0.0024391 -0.0067052 0.0074011 0.00626353 0.0093853 0.0201115 -0.0028825 -0.0146607 0.0093022 0.0247751 0.00175351
internal_weight=83195.8 66778 60731.8 39159.4 21572.4 6153.99 33005.4 4111.98 17460.4 6046.23 3048.3 16417.8 10577.6 6686.61 3890.97 6418.37 2997.94 5840.26 2801.69 3952.88 1960.15 1971.36 1887.38 1338.13 1026.58 2552.84 268.245 1451.05 246.601 1992.74
internal_count=334966 269062 244803 157674 87129 24678 132996 16583 70546 24259 12239 65904 42411 26791 15620 25713 12020 23493 11251 15913 7915 7906 7580 5361 4114 10259 1078 5823 988 7998
is_linear=0
shrinkage=0.02


Tree=21
num_leaves=31
num_cat=0
split_feature=26 25 46 46 34 46 27 46 46 24 26 27 46 46 27 46 45 34 5 5 46 27 13 27 12 47 25 26 27 47
split_gain=868.979 478.469 367.254 756.028 454.128 513.513 382.396 351.271 544.142 438.39 347.378 344.938 337.086 657.05 473.749 386.279 343.936 323.051 293.059 289.804 271.644 238.093 220.913 215.85 192.527 166.863 150.214 136.385 104.933 70.5433
threshold=0.020404932162132437 0.41633333333333339 7.5000000000000009 8.5000000000000018 0.24074074074074084 6.5000000000000009 0.089099062590194275 4.5000000000000009 7.5000000000000009 0.0015063235994675023 0.012046943642167355 -0.021239451975145218 9.5000000000000018 7.5000000000000009 -0.031541412332252827 5.5000000000000009 1.5000000000000002 -0.051451049627767025 0.16458031660641384 -0.097068522874974514 11.500000000000002 0.029619390523738104 0.026452075841509753 -0.054779097223285916 0.016760664186438737 0.90656773133408664 0.16336324619586426 0.027718735324216533 0.085069560270021397 0.14532399125422385
decision_type=2 2 2 2 2 2 2 2 2 2 2 2 2 2 2 2 2 2 2 2 2 2 2 2 2 2 2 2 2 2
left_child=1 12 4 17 5 21 -7 10 11 -10 -3 -9 13 15 26 -1 -16 29 25 27 -21 -2 -19 -15 -12 -6 -14 -5 -20 -4
right_child=2 7 3 19 18 6 -8 8 9 -11 24 -13 14 23 16 -17 -18 22 28 20 -22 -23 -24 -25 -26 -27 -28 -29 -30 -31
leaf_value=-0.0053451172574792071 -0.001905859283264696 0.024879249929965812 -0.011382944000985011 0.01011859742436896 0.01062084275175398 0.0097426734691595483 -0.020984629383910752 -0.0078314924061874021 0.011224277419220342 -0.0041061085835347325 0.00065050132157376539 0.011097333104329372 0.0020609743804757305 0.010131294339959226 -0.0099943799977793655 0.0022410283611836927 0.0018986323782396884 -0.010996967281381576 0.0027669549717596323 -0.0015767411289508374 0.0048756875811669358 0.0034236625399908776 -0.00044472783049617006 -0.013441148914447698 -0.0086243118061566856 0.0024111224342250057 0.017212398193067569 7.5426690389219486e-05 -0.010101855616506863 -0.023870965223537988
leaf_weight=9973.598234385252 10361.905889347196 153.72494392096996 316.51157991588116 2063.1563979685307 5382.564465790987 3367.2061697244644 165.19220621883869 432.00069305300713 908.95300786197186 4052.9396429955959 1389.8747520148754 3243.7632395923138 415.22901836037636 157.42759111523628 1605.8189983218908 3665.6130968630314 2446.7728214859962 1431.9086243212223 2760.2418731451035 8662.1613296121359 3728.6145731210709 4950.28658375144 1782.7730657011271 3867.1331534683704 2487.8649368882179 1225.6829273998737 725.48048794269562 737.94596508145332 273.65503984689713 507.5199533700943
leaf_count=40426 41644 616 1292 8281 21559 13486 664 1740 3654 16362 5594 12990 1669 633 6482 14749 9850 5777 11056 34800 14948 19855 7190 15843 10096 4911 2911 2965 1100 2074
internal_value=7.83364e-06 -0.00235997 0.00177117 -0.000363381 0.00321267 0.00140429 0.00827243 0.000756143 0.00303221 -0.00128529 -0.00411323 0.00885964 -0.00408781 -0.00540452 0.000387681 -0.00330476 -0.00281549 -0.00804973 0.00674232 0.00168067 0.000364485 -0.000181015 -0.00516098 -0.0125027 -0.00529829 0.00910412 0.0117477 0.00748472 0.00158491 -0.019196
internal_weight=83243.5 35526.2 47717.3 19230.6 28486.7 18844.6 3532.4 12669.1 8637.66 4961.89 4031.46 3675.76 22857.1 17663.8 5193.3 13639.2 4052.59 4038.71 9642.14 15191.9 12390.8 15312.2 3214.68 4024.56 3877.74 6608.25 1140.71 2801.1 3033.9 824.032
internal_count=335217 143615 191602 77327 114275 75649 14150 51052 34746 20016 16306 14730 92563 71651 20912 55175 16332 16333 38626 60994 49748 61499 12967 16476 15690 26470 4580 11246 12156 3366
is_linear=0
shrinkage=0.02


Tree=22
num_leaves=31
num_cat=0
split_feature=26 34 46 46 34 46 46 46 46 20 34 46 39 26 12 26 46 36 12 26 13 12 6 44 17 47 46 26 31 44
split_gain=859.576 460.706 382.844 756.593 412.967 471.436 377.344 1004.56 585.968 354.269 345.396 309.133 307.144 260.511 247.453 246.783 232.802 229.814 212.924 210.593 201.328 199.953 201.428 138.769 136.537 120.115 116.468 109.534 82.9015 74.8926
threshold=0.020404932162132437 -0.10515071380992928 7.5000000000000009 8.5000000000000018 0.22388998404205399 6.5000000000000009 4.5000000000000009 7.5000000000000009 9.5000000000000018 16.896239279842245 -0.031061365154551542 11.500000000000002 0.035788920849698744 0.018822159573781111 0.016177226778707626 0.018209688716550345 11.500000000000002 0.0049449492290701844 0.019210113594379349 0.024074516865276525 0.023831250523503277 0.01286458205544014 -0.046672643495531234 0.020001257031520118 -0.12880958996546657 0.90656773133408664 7.5000000000000009 0.032529384670305493 0.2185029567382509 0.82976217622909443
decision_type=2 2 2 2 2 2 2 2 2 2 2 2 2 2 2 2 2 2 2 2 2 2 2 2 2 2 2 2 2 2
left_child=1 11 4 10 5 19 14 13 -9 16 29 21 25 -8 28 17 -5 -13 -7 -2 -12 26 -23 -11 -16 -6 -1 -14 -3 -4
right_child=2 6 3 9 12 18 7 8 -10 23 20 15 27 -15 24 -17 -18 -19 -20 -21 -22 22 -24 -25 -26 -27 -28 -29 -30 -31
leaf_value=0.003181265958549861 -0.0024450075543803883 -0.0021425716141548726 -0.021773456001085375 0.0012518712365613119 0.010262240990245926 0.01476808202462482 0.010669257929194246 -0.0095782147989347949 0.0012314088977897226 -0.0081815254429093119 -0.012141690853344361 -0.018050542425098359 0.0034349447252125056 0.0012187962253312268 -0.0088642133973767436 0.016626692990690327 0.0072206211631394759 0.0074506572993434887 0.0043546298669942104 0.0022852688525488198 -0.0013928241943210946 -0.0053613623810789754 -0.011351358392501993 0.0012241645208711318 -0.0018247248633940214 0.0029921613604935353 -0.007127827151501993 -0.0054344907510868855 0.0052780117903328131 -0.0073539043600255672
leaf_weight=1324.2671039104462 7562.8292766958475 1376.777550637722 728.21281981468201 8739.3779980242252 5417.6623953133821 1232.6062698513269 3988.5609302967787 3290.5350670218468 5116.7881622314453 1783.9011246263981 1033.8273457884789 238.28422117233276 2742.4977704882622 1657.3972416967154 3510.6462339162827 437.13141070306301 3732.8977045714855 331.71927553415298 2190.3565391153097 7485.7126176804304 2138.8248490989208 7624.3755283355713 3207.5137907713652 959.35439483821392 1621.2969235628843 1108.169124558568 648.86631771922112 692.51866646111012 1060.2679846435785 193.40874417126179
leaf_count=5346 30389 5552 2983 35083 21695 4934 15993 13447 20575 7189 4175 962 10984 6645 14262 1752 14954 1333 8777 30057 8627 30902 13063 3861 6563 4440 2641 2779 4282 789
internal_value=-2.22364e-05 -0.00238228 0.00172904 -0.000443255 0.00320488 0.00143273 -0.000558227 0.00137969 -0.00300016 0.00160976 -0.00807039 -0.00523506 0.00648678 0.0079021 -0.00415752 0.00540299 0.00304207 -0.00323934 0.00812641 -9.06835e-05 -0.00491529 -0.0060751 -0.00714137 -0.00488871 -0.00664811 0.00903399 -0.000208224 0.0016357 0.00108186 -0.018825
internal_weight=83176.6 35434.4 47742.2 19309.8 28432.4 18471.5 21622.3 14053.3 8407.32 15215.5 4094.27 13812.2 9960.85 5645.96 7568.99 1007.13 12472.3 570.003 3422.96 15048.5 3172.65 12805 10831.9 2743.26 5131.94 6525.83 1973.13 3435.02 2437.05 921.622
internal_count=335034 143318 191716 77661 114055 74157 87319 56660 34022 61087 16574 55999 39898 22638 30659 4047 50037 2295 13711 60446 12802 51952 43965 11050 20825 26135 7987 13763 9834 3772
is_linear=0
shrinkage=0.02


Tree=23
num_leaves=31
num_cat=0
split_feature=26 25 39 24 24 27 26 27 11 26 24 26 1 34 26 27 27 27 26 27 27 26 22 26 26 24 13 27 18 27
split_gain=813.242 441.573 383.853 349.777 423.721 306.19 293.968 280.176 263.677 257.801 282.288 218.074 208.95 193.124 187.392 169.699 167.998 165.78 158.135 132.003 121.57 115.673 113.042 97.7562 60.4403 59.9643 58.88 51.8685 41.1642 18.9797
threshold=0.020404932162132437 0.41633333333333339 -0.042980371243502 -0.0060115730882203842 0.02298112476255906 -0.03753114657151501 0.030605343548116049 0.01866348414314032 0.014450124054048831 0.01549596540610468 -0.016288549902532364 0.030037059059471672 0.010714969110491636 0.1926632205145731 0.0096108856397492982 -0.062174740559020829 -0.059206388324634283 -0.010805422971104437 0.0143675864349185 -0.031541412332252827 -0.010805422971104437 0.01385827527926615 0.1110476707569711 0.022883867531471588 0.02069424656443293 -0.018428846368126243 0.037671262091701588 -0.045426651824979188 0.033343267185556365 -0.067854403113745548
decision_type=2 2 2 2 2 2 2 2 2 2 2 2 2 2 2 2 2 2 2 2 2 2 2 2 2 2 2 2 2 2
left_child=1 9 23 6 5 -5 11 -6 19 10 18 -4 15 16 -12 -11 -10 -15 -1 27 -14 -21 -8 24 -2 29 -27 -3 -26 -25
right_child=2 8 3 4 7 -7 22 -9 13 12 14 -13 20 17 -16 -17 -18 -19 -20 21 -22 -23 -24 25 28 26 -28 -29 -30 -31
leaf_value=-0.002661607873479578 0.017102422942003748 0.006735479019864034 -0.0010985884297113374 -0.0090947905644161928 -0.011391284166326269 0.0035112568554799728 -0.015016867434077895 -0.00044618789851511319 0.020020415704846181 0.0092212689961867923 0.0088684992248579397 0.024944448730971461 -0.0021902296402446946 -0.0055693745108495356 -0.0096422060032771133 -0.0021598837909740896 -0.0033235623261822851 0.0085396837458904667 0.022006854264922878 0.013529015899598144 -0.01081814302898558 0.0041358352192793456 -0.0010926545359327417 0.021409612148260791 0.0078580229740094036 0.0068389535371462815 0.015523310062769849 -0.014289614511910265 -0.0035341253909903147 0.011527632846445113
leaf_weight=231.49394924938679 91.650180965662003 57.040283188223839 9065.6216462105513 786.50923313200474 1215.2250321358442 28646.926301285625 867.75500474870205 4029.8152144253254 120.52977766096592 539.38535377383232 223.66900870203972 125.421660348773 1040.1595891714096 452.03059749305248 5102.0203048288822 13726.094433188438 6572.5650619417429 1218.3564578145742 180.50326429307461 619.2108399271965 1795.5669773668051 3450.1649750620127 323.73860459029675 272.20818446576595 179.42658025026321 1095.7447190582752 452.43771749734879 190.01433382928371 401.5331172645092 155.17548559606075
leaf_count=944 368 230 36452 3164 4920 114902 3504 16181 485 2168 904 504 4210 1826 20755 55618 26552 4900 726 2486 7270 13881 1304 1105 723 4407 1819 771 1616 625
internal_value=4.28548e-06 -0.00228657 0.00171027 0.00127432 0.00223869 0.00317224 -0.00194433 -0.0029943 0.000704779 -0.003948 -0.00761701 -0.000727659 -0.00271396 -0.00136537 -0.00885345 -0.00172507 -0.00288557 0.00470441 0.0082324 0.00471745 -0.00766984 0.00558489 -0.0112706 0.00910445 0.00245782 0.0113454 0.00943153 -0.00931865 0 0.0180427
internal_weight=83228 35518.8 47709.2 45061 34678.5 29433.4 10382.5 5245.04 12679.9 22838.9 5737.69 9191.04 17101.2 8363.48 5325.69 14265.5 6693.09 1670.39 411.997 4316.43 2835.73 4069.38 1191.49 2648.18 672.61 1975.57 1548.18 247.055 580.96 427.384
internal_count=335320 143726 191594 180931 139167 118066 41764 21101 51131 92595 23329 36956 69266 33763 21659 57786 27037 6726 1670 17368 11480 16367 4808 10663 2707 7956 6226 1001 2339 1730
is_linear=0
shrinkage=0.02


Tree=24
num_leaves=31
num_cat=0
split_feature=17 46 46 46 10 17 39 34 18 46 47 46 46 27 23 46 14 46 14 34 25 25 20 12 24 6 12 34 18 5
split_gain=741.23 763.723 699.267 1002.13 740.614 524.101 406.801 394.217 379.933 335.857 294.786 264.755 351.565 230.316 226.482 210.293 201.186 199.561 196.722 171.96 167.879 107.467 104.918 98.982 88.7759 87.7767 53.2564 49.439 47.2206 40.9025
threshold=-0.085817204611950457 11.500000000000002 7.5000000000000009 6.5000000000000009 -0.078406268201306015 -0.26993956324861229 0.01291082549442416 -0.010231187725376343 0.21842571672056646 8.5000000000000018 0.85612647222362648 7.5000000000000009 3.5000000000000004 0.089099062590194275 0.046708286853688032 1.5000000000000002 0.72949110471350764 9.5000000000000018 0.49324324011312004 0.51658113168023889 0.84888254542922803 0.86226005301989861 15.763816306327842 0.052909345570233683 -0.0017438313501256996 0.67022491587641486 0.038879412210104193 0.14782034684065018 4.2239974525493507 0.092414309505673989
decision_type=2 2 2 2 2 2 2 2 2 2 2 2 2 2 2 2 2 2 2 2 2 2 2 2 2 2 2 2 2 2
left_child=1 2 3 5 9 -1 -5 -6 18 -4 11 12 15 -14 21 -2 17 -13 24 27 -20 -10 28 -24 -3 -16 -18 -12 -21 -29
right_child=10 8 4 6 7 -7 -8 -9 14 -11 19 16 13 -15 25 -17 26 -19 20 22 -22 -23 23 -25 -26 -27 -28 29 -30 -31
leaf_value=-0.0040820875851742431 0.0095159880108762144 0.010204788843768528 -0.010201807587604096 0.0105257425441914 -0.010176881622480051 0.00096796281897126271 -0.0011232735978402863 -0.0038744658223186053 -0.0063925225551521902 0.0040258171275251694 0.00026653921389481147 -0.0058302164818709043 0.011556712856485477 -0.012980676139898886 0.0067437737652780404 -0.0019938102969820999 0.01130794043635748 0.0041351541842567672 0.00286395128887306 0.0095278522502789606 0.026895340370051916 0.021718207193193756 0.00064109493919018606 -0.018591028029110661 0.019634923548730112 -0.015718753190249218 -0.000905185487750232 -0.011240450204017845 -0.00045523551988179518 -0.0038458612349217759
leaf_weight=15249.568638622761 960.26136863231659 762.79158274829388 770.13916321098804 4510.4853595793247 6993.8482994288206 17812.88361106813 1627.4106117486954 9233.0888225883245 1302.896035656333 4595.6512636989355 410.14191308617592 1665.7116665691137 4876.9639248549938 153.23022374510765 1591.4562469869852 1846.8353926986456 827.64840091764927 1542.7448439598083 1241.7419873028994 841.34572440385818 123.94912208616734 51.659977838397026 1587.5354291051626 109.68358607590199 920.01039785146713 67.617926865816116 167.93392394483089 633.81457284092903 238.78512132167816 598.05945257842541
leaf_count=61629 3846 3062 3154 18090 28408 71698 6522 37277 5231 18524 1651 6731 19532 617 6383 7421 3324 6188 4984 3374 496 207 6376 441 3686 271 675 2556 958 2403
internal_value=3.63285e-05 -0.000899532 -0.00157495 1.66242e-05 -0.00446462 -0.00136096 0.00743545 -0.00659435 0.00586619 0.00197244 0.00383767 0.0054587 0.00763026 0.0107931 0.000819734 0.00194631 0.0014014 -0.00103329 0.0108389 -0.000575774 0.00514977 -0.0052298 0.0024518 -0.000640998 0.0154151 0.00577178 0.00923362 -0.00570073 0.00731053 -0.0076967
internal_weight=83315.9 66855.2 60793.1 39200.3 21592.7 33062.5 6137.9 16226.9 6062.12 5365.79 16460.7 12041.3 7837.29 5030.19 3013.63 2807.1 4204.04 3208.46 3048.49 4419.37 1365.69 1354.56 2777.35 1697.22 1682.8 1659.07 995.582 1642.02 1080.13 1231.87
internal_count=335715 269622 245302 157939 87363 133327 24612 65685 24320 21678 66093 48334 31416 20149 12092 11267 16918 12919 12228 17759 5480 5438 11149 6817 6748 6654 3999 6610 4332 4959
is_linear=0
shrinkage=0.02


Tree=25
num_leaves=30
num_cat=0
split_feature=26 28 24 25 46 25 24 27 28 34 24 26 27 46 46 28 25 26 28 24 46 42 46 25 27 20 13 20 3
split_gain=760.637 627.665 534.648 445.056 473.987 412.042 582.556 409.268 285.179 307.315 249.027 247.572 237.646 367.665 230.696 191.711 177.9 175.731 123.377 111.761 103.548 94.944 90.6103 101.3 78.4565 65.2867 23.0172 22.5549 13.3212
threshold=0.017274119625371277 -0.1533509468446326 -0.0052256029399076137 0.87939393939393951 11.500000000000002 0.21263297872340428 -0.0072923504008695446 -0.03753114657151501 -0.12045449990782184 -0.1346153846153845 -0.0054463563338914599 0.030605343548116049 0.013752127267170672 4.5000000000000009 7.5000000000000009 -0.10174612587820571 0.36027128242601397 0.015398129735620244 0.00954928943444339 0.0049595523384002244 8.5000000000000018 -0.42915244520797496 9.5000000000000018 0.061553030303030311 0.026415021728326275 15.008000182223684 0.029900928633871577 13.428361678874531 -1.0000000180025095e-35
decision_type=2 2 2 2 2 2 2 2 2 2 2 2 2 2 2 2 2 2 2 2 2 2 2 2 2 2 2 2 2
left_child=5 20 10 7 -5 12 28 -4 19 -10 11 -3 15 24 -15 17 -12 -1 -17 -8 21 27 25 -24 -14 -22 -23 -2 -7
right_child=1 2 3 4 -6 6 8 -9 9 -11 16 -13 13 14 -16 18 -18 -19 -20 -21 22 26 23 -25 -26 -27 -28 -29 -30
leaf_value=0.02495307102675778 0.018130583254308576 -0.0012077477536254551 -0.0085510075328480602 -0.0070232195592439192 0.018770687908510716 0.032047010549850145 0.028976127675788339 0.0027180227935870334 -0.0077236646613281527 -0.00050404171567161626 -0.022061348013896611 -0.010582383866285695 -0.0027681600215752134 0.033657014256876866 -0.0011103644417949287 -0.012963421067149426 0.012594554788229739 -0.0066737847024774489 -0.0051799515959355903 -0.0011496643683731704 0.011742310492615132 -0.0027685569094400442 0.029465375671532793 0.0073645025235893101 -0.027106552143935786 -0.013854462803092077 0.01357737693412118 0.02808397032922973 0.01629239531735692
leaf_weight=111.01772123575211 216.46468260884285 16399.823328763247 1324.0372879207134 3381.6130633205175 306.01004505157471 184.17134368419647 154.18326215445995 42346.258917510509 3478.1589822620153 7326.6707749217749 383.46676070988178 1206.1214419305325 105.74458269774914 168.12740436196327 134.06332944333553 3247.7056657075882 65.769380301237106 172.82893778383732 1112.6131056696177 68.981069728732109 59.54803840816021 70.630544632673264 112.36899800598621 315.23177160322666 108.22056645154953 98.370940878987312 57.318866148591042 310.59734410047531 50.380821719765663
leaf_count=446 882 66149 5342 13651 1226 739 619 170134 14144 29622 1558 4868 431 674 544 13248 264 698 4512 279 239 283 452 1268 442 395 231 1268 202
internal_value=1.2436e-05 0.000962659 0.000694484 0.00181112 -0.00485483 -0.00384203 -0.0016939 0.00237496 -0.00236479 -0.00283244 -0.00223299 -0.00185393 -0.00852032 0.00429231 0.0184008 -0.00995171 -0.0168608 0.00584465 -0.0109901 0.0197553 0.0150279 0.0205076 0.00874224 0.013492 -0.0155074 -0.00401553 0.0046389 0.0242425 0.0291572
internal_weight=83076.5 66653.6 65413.1 47357.9 3687.62 16422.9 11262.5 43670.3 11028 10804.8 18055.2 17605.9 5160.32 516.156 302.191 4644.17 449.236 283.847 4360.32 223.164 1240.53 655.011 585.52 427.601 213.965 157.919 127.949 527.062 234.552
internal_count=334810 268210 263192 190353 14877 66600 45605 175476 44664 43766 72839 71017 20995 2091 1218 18904 1822 1144 17760 898 5018 2664 2354 1720 873 634 514 2150 941
is_linear=0
shrinkage=0.02


Tree=26
num_leaves=31
num_cat=0
split_feature=26 28 34 24 25 27 46 46 46 46 28 11 12 27 24 26 27 28 40 46 46 40 26 26 42 25 23 26 46 28
split_gain=774.945 414.932 376.535 342.471 409.996 372.574 342.243 926.998 568.363 307.574 331.95 304.985 251.535 235.777 328.128 226.016 208.359 192.355 223.337 135.936 135.459 134.543 131.134 113.406 100.141 91.3972 88.8034 86.5924 60.4364 57.3873
threshold=0.020404932162132437 -0.14119859802615292 -0.1346153846153845 0.027608957021282875 0.2802214022140222 -0.03753114657151501 4.5000000000000009 7.5000000000000009 9.5000000000000018 11.500000000000002 1.0000000180025095e-35 0.015750646915286527 0.015693383644399889 0.015567382251627968 0.038220468429914355 0.030605343548116049 -0.062174740559020829 -0.1261266742044421 -0.001866261603793836 3.5000000000000004 7.5000000000000009 6.1312003716905268e-05 0.018209688716550345 0.018707936508253014 -0.29821872913703024 0.22745750184774577 0.083255388797955118 0.025102503137684723 4.5000000000000009 -0.17649661588907251
decision_type=2 2 2 2 2 2 2 2 2 2 2 2 2 2 2 2 2 2 2 2 2 2 2 2 2 2 2 2 2 2
left_child=2 20 9 4 15 -6 12 11 -9 17 25 -8 23 21 -15 -3 -14 19 -19 -1 24 -5 -12 -4 28 -11 27 -22 -2 -28
right_child=1 3 6 13 5 -7 7 8 -10 10 22 -13 16 14 -16 -17 -18 18 -20 -21 26 -23 -24 -25 -26 -27 29 -29 -30 -31
leaf_value=0.024152384135307597 0.012688811092274146 -0.00065033787951001437 0.0034039358869937175 -0.017302048541759655 -0.0093046396050693574 0.0033163265858532011 0.011989314010594544 -0.009284893631793802 0.00087276686969931319 0.0016701951876390893 -0.016912228741583737 0.0030045209057492049 0.01884718676341713 -0.0070127188816123441 0.0069483922439672573 -0.010577957857142758 -0.006972745811620054 -0.010009865203882067 -0.0040633809626138377 0 0.018492110852200143 0.00086091847324482886 0.010645367646376469 -0.0063636502745480954 0.0013235053591215842 0.022037342405446466 0.011115499530985487 0.0027308925268579262 0.026440024958009435 -0.010704015035174676
leaf_weight=119.4811007976532 227.11395752429962 9598.4426625370979 1986.3516380637884 718.42305210232735 959.25671461224556 30948.935236901045 2693.5532525032759 3590.6957274973392 5680.7196897566319 119.91102322936058 230.91765417158604 3462.935892984271 122.75203709304333 1735.7663002461195 1092.5024562031031 1010.1192032545805 5667.2195810973644 4567.5796839892864 5710.8304049372673 366.89547024667263 266.22361923754215 207.37377665936947 92.766275972127914 618.93415144085884 121.40652427077293 362.81367871165276 62.476613029837608 298.31671522557735 377.17866195738316 161.88846582174301
leaf_count=479 917 38600 8015 2924 3860 124131 10805 14720 22855 481 935 13894 493 6976 4391 4085 23044 18642 23175 1480 1074 836 372 2503 487 1453 251 1198 1553 650
internal_value=-3.21647e-05 0.00162893 -0.00227526 0.00129058 0.00180232 0.00293488 -0.000836208 0.000931124 -0.00306189 -0.00523467 0.00663676 0.00694528 -0.00408502 -0.0044946 -0.00161002 -0.00160204 -0.0064061 -0.00612851 -0.00671144 0.00609264 0.0119142 -0.0132294 -0.00891171 0.00106806 0.0181434 0.017088 0.00608068 0.0102957 0.0214512 -0.0044311
internal_weight=83179.8 47785.4 35394.4 46270.8 42516.8 31908.2 23823.2 15427.9 9271.42 11571.2 806.409 6156.49 8395.26 3754.07 2828.27 10608.6 5789.97 10764.8 10278.4 486.377 1514.6 925.797 323.684 2605.29 725.699 482.725 788.905 564.54 604.293 224.365
